{"learner":{"attributes":{"best_iteration":"16","best_score":"1.2184545758801082","scikit_learn":"{\"_estimator_type\": \"regressor\"}"},"feature_names":[],"feature_types":[],"gradient_booster":{"model":{"gbtree_model_param":{"num_parallel_tree":"1","num_trees":"47"},"iteration_indptr":[0,1,2,3,4,5,6,7,8,9,10,11,12,13,14,15,16,17,18,19,20,21,22,23,24,25,26,27,28,29,30,31,32,33,34,35,36,37,38,39,40,41,42,43,44,45,46,47],"tree_info":[0,0,0,0,0,0,0,0,0,0,0,0,0,0,0,0,0,0,0,0,0,0,0,0,0,0,0,0,0,0,0,0,0,0,0,0,0,0,0,0,0,0,0,0,0,0,0],"trees":[{"base_weights":[-9.949366E-4,1.5415082E0,-8.98941E-1,2.1593416E0,9.4479644E-1,-7.0588714E-1,-3.1050127E0,7.150114E-2,1.4955233E-1,6.688433E-2,2.1738173E-2,1.0349784E-2,-4.7787875E-2,-1.04527116E-1,-1.8967186E-1],"categories":[],"categories_nodes":[],"categories_segments":[],"categories_sizes":[],"default_left":[0,0,0,0,0,0,0,0,0,0,0,0,0,0,0],"id":0,"left_children":[1,3,5,7,9,11,13,-1,-1,-1,-1,-1,-1,-1,-1],"loss_changes":[1.2582517E5,1.2320398E4,2.445121E4,9.955906E3,3.4068193E3,1.2043848E4,3.2180234E3,0E0,0E0,0E0,0E0,0E0,0E0,0E0,0E0],"parents":[2147483647,0,0,1,1,2,2,3,3,4,4,5,5,6,6],"right_children":[2,4,6,8,10,12,14,-1,-1,-1,-1,-1,-1,-1,-1],"split_conditions":[-3.4913835E-1,-7.828989E-1,1.9644896E0,-6.2711567E-1,2.016494E-1,1.19000815E-1,-5.908737E-1,7.150114E-2,1.4955233E-1,6.688433E-2,2.1738173E-2,1.0349784E-2,-4.7787875E-2,-1.04527116E-1,-1.8967186E-1],"split_indices":[2,2,2,0,0,0,0,0,0,0,0,0,0,0,0],"split_type":[0,0,0,0,0,0,0,0,0,0,0,0,0,0,0],"sum_hessian":[9.0841E4,3.3424E4,5.7417E4,1.642E4,1.7004E4,5.2798E4,4.619E3,8.75E3,7.67E3,9.604E3,7.4E3,1.1346E4,4.1452E4,1.869E3,2.75E3],"tree_param":{"num_deleted":"0","num_feature":"3","num_nodes":"15","size_leaf_vector":"1"}},{"base_weights":[-2.5573154E-3,1.4280348E0,-8.787796E-1,2.0483665E0,8.4500575E-1,-6.7879283E-1,-2.8177357E0,6.8347275E-2,1.4109421E-1,8.873664E-2,3.1979144E-2,1.2283297E-2,-4.5970403E-2,-1.00275755E-1,-1.6707338E-1],"categories":[],"categories_nodes":[],"categories_segments":[],"categories_sizes":[],"default_left":[0,0,0,0,0,0,0,0,0,0,0,0,0,0,0],"id":1,"left_children":[1,3,5,7,9,11,13,-1,-1,-1,-1,-1,-1,-1,-1],"loss_changes":[1.1385059E5,1.2475281E4,2.1839016E4,8.805531E3,3.3955215E3,1.135824E4,2.2328438E3,0E0,0E0,0E0,0E0,0E0,0E0,0E0,0E0],"parents":[2147483647,0,0,1,1,2,2,3,3,4,4,5,5,6,6],"right_children":[2,4,6,8,10,12,14,-1,-1,-1,-1,-1,-1,-1,-1],"split_conditions":[-3.2737845E-1,-7.701615E-1,1.9072782E0,-6.2711567E-1,-1.8073639E0,1.19000815E-1,-5.161981E-1,6.8347275E-2,1.4109421E-1,8.873664E-2,3.1979144E-2,1.2283297E-2,-4.5970403E-2,-1.00275755E-1,-1.6707338E-1],"split_indices":[2,2,2,0,0,0,0,0,0,0,0,0,0,0,0],"split_type":[0,0,0,0,0,0,0,0,0,0,0,0,0,0,0],"sum_hessian":[9.0823E4,3.4498E4,5.6325E4,1.6713E4,1.7785E4,5.106E4,5.265E3,8.887E3,7.826E3,3.217E3,1.4568E4,1.0545E4,4.0515E4,2.066E3,3.199E3],"tree_param":{"num_deleted":"0","num_feature":"3","num_nodes":"15","size_leaf_vector":"1"}},{"base_weights":[5.1531897E-5,-1.600056E0,7.413883E-1,-4.7842368E-1,-1.8136984E0,1.8325026E0,-1.1184097E-1,-1.369519E-1,-3.2834678E-3,-1.1158194E-1,-6.346025E-2,6.2751316E-2,1.1137699E-1,2.1315264E-3,-9.069785E-2],"categories":[],"categories_nodes":[],"categories_segments":[],"categories_sizes":[],"default_left":[0,0,0,0,0,0,0,0,0,0,0,0,0,0,0],"id":2,"left_children":[1,3,5,7,9,11,13,-1,-1,-1,-1,-1,-1,-1,-1],"loss_changes":[1.07657555E5,6.884625E3,5.774104E4,4.290766E3,5.4895703E3,6.2057188E3,9.151741E3,0E0,0E0,0E0,0E0,0E0,0E0,0E0,0E0],"parents":[2147483647,0,0,1,1,2,2,3,3,4,4,5,5,6,6],"right_children":[2,4,6,8,10,12,14,-1,-1,-1,-1,-1,-1,-1,-1],"split_conditions":[-4.3012407E-1,-1.3166987E0,1.8656446E-1,-1.2013218E0,-6.4962894E-1,3.1435865E-1,9.5166993E-1,-1.369519E-1,-3.2834678E-3,-1.1158194E-1,-6.346025E-2,6.2751316E-2,1.1137699E-1,2.1315264E-3,-9.069785E-2],"split_indices":[1,0,0,1,1,1,1,0,0,0,0,0,0,0,0],"split_type":[0,0,0,0,0,0,0,0,0,0,0,0,0,0,0],"sum_hessian":[9.0755E4,2.8734E4,6.2021E4,4.598E3,2.4136E4,2.7216E4,3.4805E4,7.09E2,3.889E3,1.3653E4,1.0483E4,1.1057E4,1.6159E4,3.191E4,2.895E3],"tree_param":{"num_deleted":"0","num_feature":"3","num_nodes":"15","size_leaf_vector":"1"}},{"base_weights":[-2.0253933E-3,1.3565396E0,-7.924276E-1,1.888251E0,8.433468E-1,-6.129703E-1,-2.6818366E0,5.6760825E-2,1.2776326E-1,5.9167113E-2,2.0026803E-2,8.867679E-3,-4.1287497E-2,-9.5093176E-2,-1.5966928E-1],"categories":[],"categories_nodes":[],"categories_segments":[],"categories_sizes":[],"default_left":[0,0,0,0,0,0,0,0,0,0,0,0,0,0,0],"id":3,"left_children":[1,3,5,7,9,11,13,-1,-1,-1,-1,-1,-1,-1,-1],"loss_changes":[9.7719055E4,9.131375E3,1.9504957E4,8.253285E3,2.5638975E3,8.835926E3,1.9844023E3,0E0,0E0,0E0,0E0,0E0,0E0,0E0,0E0],"parents":[2147483647,0,0,1,1,2,2,3,3,4,4,5,5,6,6],"right_children":[2,4,6,8,10,12,14,-1,-1,-1,-1,-1,-1,-1,-1],"split_conditions":[-3.4913835E-1,-7.828989E-1,1.9360104E0,-8.8513297E-1,2.016494E-1,1.19000815E-1,-5.449519E-1,5.6760825E-2,1.2776326E-1,5.9167113E-2,2.0026803E-2,8.867679E-3,-4.1287497E-2,-9.5093176E-2,-1.5966928E-1],"split_indices":[2,2,2,0,0,0,0,0,0,0,0,0,0,0,0],"split_type":[0,0,0,0,0,0,0,0,0,0,0,0,0,0,0],"sum_hessian":[9.1E4,3.347E4,5.753E4,1.6437E4,1.7033E4,5.2541E4,4.989E3,7.722E3,8.715E3,9.634E3,7.399E3,1.1145E4,4.1396E4,1.978E3,3.011E3],"tree_param":{"num_deleted":"0","num_feature":"3","num_nodes":"15","size_leaf_vector":"1"}},{"base_weights":[2.348852E-3,1.2607322E0,-7.69556E-1,1.8114123E0,7.641441E-1,-5.858227E-1,-2.400688E0,5.9270628E-2,1.2575454E-1,5.5129517E-2,1.8524034E-2,1.23303905E-2,-3.9515037E-2,-9.096904E-2,-1.4582147E-1],"categories":[],"categories_nodes":[],"categories_segments":[],"categories_sizes":[],"default_left":[0,0,0,0,0,0,0,0,0,0,0,0,0,0,0],"id":4,"left_children":[1,3,5,7,9,11,13,-1,-1,-1,-1,-1,-1,-1,-1],"loss_changes":[8.8460125E4,9.46668E3,1.6914477E4,7.2283867E3,2.4253662E3,8.635535E3,1.7073047E3,0E0,0E0,0E0,0E0,0E0,0E0,0E0,0E0],"parents":[2147483647,0,0,1,1,2,2,3,3,4,4,5,5,6,6],"right_children":[2,4,6,8,10,12,14,-1,-1,-1,-1,-1,-1,-1,-1],"split_conditions":[-3.2737845E-1,-7.828989E-1,1.8654782E0,-6.2711567E-1,1.8058339E-1,9.2094876E-2,-4.9938694E-2,5.9270628E-2,1.2575454E-1,5.5129517E-2,1.8524034E-2,1.23303905E-2,-3.9515037E-2,-9.096904E-2,-1.4582147E-1],"split_indices":[2,2,2,0,0,0,0,0,0,0,0,0,0,0,0],"split_type":[0,0,0,0,0,0,0,0,0,0,0,0,0,0,0],"sum_hessian":[9.1067E4,3.4623E4,5.6444E4,1.6416E4,1.8207E4,5.0731E4,5.713E3,8.689E3,7.727E3,9.789E3,8.418E3,1.0004E4,4.0727E4,2.688E3,3.025E3],"tree_param":{"num_deleted":"0","num_feature":"3","num_nodes":"15","size_leaf_vector":"1"}},{"base_weights":[-6.507054E-3,-1.3552341E0,7.5577587E-1,-1.6506982E0,-6.463615E-1,1.6955392E0,1.0902578E-2,-3.2960616E-2,-9.421175E-2,1.2041834E-3,-8.973941E-2,6.1008405E-2,9.9336736E-2,8.662744E-3,-8.774013E-2],"categories":[],"categories_nodes":[],"categories_segments":[],"categories_sizes":[],"default_left":[0,0,0,0,0,0,0,0,0,0,0,0,0,0,0],"id":5,"left_children":[1,3,5,7,9,11,13,-1,-1,-1,-1,-1,-1,-1,-1],"loss_changes":[9.334745E4,6.8656133E3,4.0606375E4,5.3565312E3,7.4279956E3,3.5477422E3,9.276954E3,0E0,0E0,0E0,0E0,0E0,0E0,0E0,0E0],"parents":[2147483647,0,0,1,1,2,2,3,3,4,4,5,5,6,6],"right_children":[2,4,6,8,10,12,14,-1,-1,-1,-1,-1,-1,-1,-1],"split_conditions":[-3.3912542E-1,-5.513162E-1,1.7307377E-1,-1.3166987E0,6.1433333E-1,3.246527E-1,9.782327E-1,-3.2960616E-2,-9.421175E-2,1.2041834E-3,-8.973941E-2,6.1008405E-2,9.9336736E-2,8.662744E-3,-8.774013E-2],"split_indices":[1,1,0,0,0,1,1,0,0,0,0,0,0,0,0],"split_type":[0,0,0,0,0,0,0,0,0,0,0,0,0,0,0],"sum_hessian":[9.0793E4,3.2785E4,5.8008E4,2.3139E4,9.646E3,2.5648E4,3.236E4,4.412E3,1.8727E4,6.091E3,3.555E3,9.745E3,1.5903E4,2.9636E4,2.724E3],"tree_param":{"num_deleted":"0","num_feature":"3","num_nodes":"15","size_leaf_vector":"1"}},{"base_weights":[1.7786633E-3,-1.2909764E0,7.162923E-1,-5.6241274E-1,-2.3289652E0,1.9752795E0,1.782832E-2,-1.4732505E-1,-2.0272871E-2,-1.4714035E-1,-9.692802E-2,1.3871363E-1,6.7547016E-2,-2.869436E-2,7.844354E-3],"categories":[],"categories_nodes":[],"categories_segments":[],"categories_sizes":[],"default_left":[0,0,0,0,0,0,0,0,0,0,0,0,0,0,0],"id":6,"left_children":[1,3,5,7,9,11,13,-1,-1,-1,-1,-1,-1,-1,-1],"loss_changes":[8.401796E4,2.4483969E4,5.1513387E4,7.11791E3,3.1938047E3,1.0423148E4,3.1003975E3,0E0,0E0,0E0,0E0,0E0,0E0,0E0,0E0],"parents":[2147483647,0,0,1,1,2,2,3,3,4,4,5,5,6,6],"right_children":[2,4,6,8,10,12,14,-1,-1,-1,-1,-1,-1,-1,-1],"split_conditions":[-3.48103E-1,1.6608784E-1,-4.6874547E-1,-1.2013218E0,-7.097572E-1,-9.9038714E-1,-1.4598809E-1,-1.4732505E-1,-2.0272871E-2,-1.4714035E-1,-9.692802E-2,1.3871363E-1,6.7547016E-2,-2.869436E-2,7.844354E-3],"split_indices":[1,2,2,1,1,2,1,0,0,0,0,0,0,0,0],"split_type":[0,0,0,0,0,0,0,0,0,0,0,0,0,0,0],"sum_hessian":[9.0957E4,3.2377E4,5.858E4,1.9025E4,1.3352E4,2.0902E4,3.7678E4,1.174E3,1.7851E4,5.188E3,8.164E3,9.167E3,1.1735E4,7.169E3,3.0509E4],"tree_param":{"num_deleted":"0","num_feature":"3","num_nodes":"15","size_leaf_vector":"1"}},{"base_weights":[4.2696646E-3,-1.3317122E0,6.2363315E-1,-8.129664E-1,-2.6689937E0,1.7684789E0,-8.004109E-2,-1.3452187E-1,-3.4307342E-2,-2.2102563E-1,-1.2062372E-1,1.2908916E-1,6.0759764E-2,-3.5635665E-2,5.2491515E-3],"categories":[],"categories_nodes":[],"categories_segments":[],"categories_sizes":[],"default_left":[0,0,0,0,0,0,0,0,0,0,0,0,0,0,0],"id":7,"left_children":[1,3,5,7,9,11,13,-1,-1,-1,-1,-1,-1,-1,-1],"loss_changes":[7.531024E4,1.9996426E4,5.009645E4,4.943871E3,3.6086484E3,1.0648602E4,4.50857E3,0E0,0E0,0E0,0E0,0E0,0E0,0E0,0E0],"parents":[2147483647,0,0,1,1,2,2,3,3,4,4,5,5,6,6],"right_children":[2,4,6,8,10,12,14,-1,-1,-1,-1,-1,-1,-1,-1],"split_conditions":[-4.3012407E-1,4.4407335E-1,-4.1691464E-1,-1.2013218E0,-9.1993517E-1,-9.754821E-1,-1.6703911E-1,-1.3452187E-1,-3.4307342E-2,-2.2102563E-1,-1.2062372E-1,1.2908916E-1,6.0759764E-2,-3.5635665E-2,5.2491515E-3],"split_indices":[1,2,2,1,1,2,1,0,0,0,0,0,0,0,0],"split_type":[0,0,0,0,0,0,0,0,0,0,0,0,0,0,0],"sum_hessian":[9.1012E4,2.8828E4,6.2184E4,2.0772E4,8.056E3,2.3671E4,3.8513E4,1.313E3,1.9459E4,1.027E3,7.029E3,9.582E3,1.4089E4,8.714E3,2.9799E4],"tree_param":{"num_deleted":"0","num_feature":"3","num_nodes":"15","size_leaf_vector":"1"}},{"base_weights":[1.2834317E-3,-1.2824315E0,5.852862E-1,-4.375831E-1,-1.4485008E0,1.4249982E0,-6.613372E-2,-1.2339367E-1,-2.8222462E-3,-9.239659E-2,-5.2350994E-2,4.8825484E-2,8.670922E-2,3.97842E-3,-8.3905E-2],"categories":[],"categories_nodes":[],"categories_segments":[],"categories_sizes":[],"default_left":[0,0,0,0,0,0,0,0,0,0,0,0,0,0,0],"id":8,"left_children":[1,3,5,7,9,11,13,-1,-1,-1,-1,-1,-1,-1,-1],"loss_changes":[6.822424E4,3.9915117E3,3.421431E4,3.6179956E3,3.8112305E3,3.7870977E3,8.273244E3,0E0,0E0,0E0,0E0,0E0,0E0,0E0,0E0],"parents":[2147483647,0,0,1,1,2,2,3,3,4,4,5,5,6,6],"right_children":[2,4,6,8,10,12,14,-1,-1,-1,-1,-1,-1,-1,-1],"split_conditions":[-4.3834376E-1,-1.3166987E0,1.8656446E-1,-1.2013218E0,-6.854489E-1,3.1435865E-1,9.5166993E-1,-1.2339367E-1,-2.8222462E-3,-9.239659E-2,-5.2350994E-2,4.8825484E-2,8.670922E-2,3.97842E-3,-8.3905E-2],"split_indices":[1,0,0,1,1,1,1,0,0,0,0,0,0,0,0],"split_type":[0,0,0,0,0,0,0,0,0,0,0,0,0,0,0],"sum_hessian":[9.1001E4,2.8454E4,6.2547E4,4.675E3,2.3779E4,2.7324E4,3.5223E4,7.38E2,3.937E3,1.1918E4,1.1861E4,1.1152E4,1.6172E4,3.2304E4,2.919E3],"tree_param":{"num_deleted":"0","num_feature":"3","num_nodes":"15","size_leaf_vector":"1"}},{"base_weights":[4.3802196E-3,-1.0918908E0,6.3055736E-1,-4.2490134E-1,-2.037949E0,2.1525908E0,1.8818101E-1,-1.1667736E-1,-1.37402E-2,-6.7636855E-2,-1.169688E-1,1.539389E-1,8.794891E-2,4.2986177E-2,-3.1459995E-3],"categories":[],"categories_nodes":[],"categories_segments":[],"categories_sizes":[],"default_left":[0,0,0,0,0,0,0,0,0,0,0,0,0,0,0],"id":9,"left_children":[1,3,5,7,9,11,13,-1,-1,-1,-1,-1,-1,-1,-1],"loss_changes":[6.2445145E4,2.0866422E4,3.8982082E4,5.556002E3,2.8207148E3,4.7472188E3,7.5646504E3,0E0,0E0,0E0,0E0,0E0,0E0,0E0,0E0],"parents":[2147483647,0,0,1,1,2,2,3,3,4,4,5,5,6,6],"right_children":[2,4,6,8,10,12,14,-1,-1,-1,-1,-1,-1,-1,-1],"split_conditions":[-3.3007333E-1,1.6608784E-1,-7.458235E-1,-1.1693802E0,4.4407335E-1,-1.4239718E0,-3.3482188E-1,-1.1667736E-1,-1.37402E-2,-6.7636855E-2,-1.169688E-1,1.539389E-1,8.794891E-2,4.2986177E-2,-3.1459995E-3],"split_indices":[1,2,2,1,2,2,2,0,0,0,0,0,0,0,0],"split_type":[0,0,0,0,0,0,0,0,0,0,0,0,0,0,0],"sum_hessian":[9.0965E4,3.3069E4,5.7896E4,1.9396E4,1.3673E4,1.3037E4,4.4859E4,1.413E3,1.7983E4,4.179E3,9.494E3,3.886E3,9.151E3,1.2208E4,3.2651E4],"tree_param":{"num_deleted":"0","num_feature":"3","num_nodes":"15","size_leaf_vector":"1"}},{"base_weights":[6.702406E-3,9.7966236E-1,-6.202441E-1,1.963407E0,8.039928E-1,-4.748145E-1,-1.8982003E0,-5.0359648E-2,1.1220523E-1,5.263373E-2,1.5912028E-2,1.0153683E-2,-3.2123037E-2,-7.22299E-2,-1.149643E-1],"categories":[],"categories_nodes":[],"categories_segments":[],"categories_sizes":[],"default_left":[0,0,0,0,0,0,0,0,0,0,0,0,0,0,0],"id":10,"left_children":[1,3,5,7,9,11,13,-1,-1,-1,-1,-1,-1,-1,-1],"loss_changes":[5.5383812E4,6.1466914E3,1.0260713E4,4.496787E3,3.646412E3,5.6341436E3,1.02258984E3,0E0,0E0,0E0,0E0,0E0,0E0,0E0,0E0],"parents":[2147483647,0,0,1,1,2,2,3,3,4,4,5,5,6,6],"right_children":[2,4,6,8,10,12,14,-1,-1,-1,-1,-1,-1,-1,-1],"split_conditions":[-3.0664122E-1,-1.3722456E0,1.8654782E0,-2.6633024E0,2.016494E-1,1.1067928E-1,-4.9938694E-2,-5.0359648E-2,1.1220523E-1,5.263373E-2,1.5912028E-2,1.0153683E-2,-3.2123037E-2,-7.22299E-2,-1.149643E-1],"split_indices":[2,2,2,2,0,0,0,0,0,0,0,0,0,0,0],"split_type":[0,0,0,0,0,0,0,0,0,0,0,0,0,0,0],"sum_hessian":[9.0792E4,3.5578E4,5.5214E4,5.389E3,3.0189E4,4.9574E4,5.64E3,4.65E2,4.924E3,1.9966E4,1.0223E4,9.829E3,3.9745E4,2.649E3,2.991E3],"tree_param":{"num_deleted":"0","num_feature":"3","num_nodes":"15","size_leaf_vector":"1"}},{"base_weights":[-2.4442778E-3,-1.1943693E0,5.14008E-1,-7.613906E-1,-2.3287535E0,1.5242671E0,-6.763922E-2,-1.1586233E-1,-3.1444162E-2,-2.0171244E-1,-1.04681686E-1,1.3629189E-1,6.284028E-2,-3.171501E-2,5.739518E-3],"categories":[],"categories_nodes":[],"categories_segments":[],"categories_sizes":[],"default_left":[0,0,0,0,0,0,0,0,0,0,0,0,0,0,0],"id":11,"left_children":[1,3,5,7,9,11,13,-1,-1,-1,-1,-1,-1,-1,-1],"loss_changes":[5.5862637E4,1.3472516E4,3.7205055E4,4.0920156E3,3.0296875E3,7.430832E3,4.153968E3,0E0,0E0,0E0,0E0,0E0,0E0,0E0,0E0],"parents":[2147483647,0,0,1,1,2,2,3,3,4,4,5,5,6,6],"right_children":[2,4,6,8,10,12,14,-1,-1,-1,-1,-1,-1,-1,-1],"split_conditions":[-4.5885482E-1,4.4407335E-1,-4.4005013E-1,-1.142831E0,-9.318369E-1,-1.3976284E0,-1.6703911E-1,-1.1586233E-1,-3.1444162E-2,-2.0171244E-1,-1.04681686E-1,1.3629189E-1,6.284028E-2,-3.171501E-2,5.739518E-3],"split_indices":[1,2,2,2,1,2,1,0,0,0,0,0,0,0,0],"split_type":[0,0,0,0,0,0,0,0,0,0,0,0,0,0,0],"sum_hessian":[9.0747E4,2.7433E4,6.3314E4,1.9856E4,7.577E3,2.3133E4,4.0181E4,1.557E3,1.8299E4,9.16E2,6.661E3,4.21E3,1.8923E4,9.785E3,3.0396E4],"tree_param":{"num_deleted":"0","num_feature":"3","num_nodes":"15","size_leaf_vector":"1"}},{"base_weights":[8.857169E-5,-1.1028572E0,4.9172327E-1,-2.4171236E0,-1.0120431E0,1.2143219E0,-6.894256E-2,-1.4735158E-1,-1.017547E-1,-8.3600276E-4,-5.901691E-2,4.359364E-2,7.443979E-2,3.852574E-3,-8.5087545E-2],"categories":[],"categories_nodes":[],"categories_segments":[],"categories_sizes":[],"default_left":[0,0,0,0,0,0,0,0,0,0,0,0,0,0,0],"id":12,"left_children":[1,3,5,7,9,11,13,-1,-1,-1,-1,-1,-1,-1,-1],"loss_changes":[4.9409977E4,3.3503398E3,2.5534727E4,3.6093457E2,4.4019707E3,2.5867617E3,8.460647E3,0E0,0E0,0E0,0E0,0E0,0E0,0E0,0E0],"parents":[2147483647,0,0,1,1,2,2,3,3,4,4,5,5,6,6],"right_children":[2,4,6,8,10,12,14,-1,-1,-1,-1,-1,-1,-1,-1],"split_conditions":[-4.4560835E-1,-1.1693802E0,1.8058339E-1,-1.3484336E0,-1.3166987E0,4.2155072E-1,9.5166993E-1,-1.4735158E-1,-1.017547E-1,-8.3600276E-4,-5.901691E-2,4.359364E-2,7.443979E-2,3.852574E-3,-8.5087545E-2],"split_indices":[1,1,0,1,0,1,1,0,0,0,0,0,0,0,0],"split_type":[0,0,0,0,0,0,0,0,0,0,0,0,0,0,0],"sum_hessian":[9.1119E4,2.8093E4,6.3026E4,1.814E3,2.6279E4,2.7536E4,3.549E4,7.57E2,1.057E3,3.801E3,2.2478E4,1.2253E4,1.5283E4,3.2578E4,2.912E3],"tree_param":{"num_deleted":"0","num_feature":"3","num_nodes":"15","size_leaf_vector":"1"}},{"base_weights":[1.4101326E-3,-8.8734347E-1,5.5433977E-1,-3.035411E-1,-1.7016319E0,1.8385392E0,1.6066462E-1,-1.0527022E-1,-8.265213E-3,-1.4713196E-1,-7.8395806E-2,1.3151091E-1,7.5076334E-2,3.880548E-2,-4.891098E-4],"categories":[],"categories_nodes":[],"categories_segments":[],"categories_sizes":[],"default_left":[0,0,0,0,0,0,0,0,0,0,0,0,0,0,0],"id":13,"left_children":[1,3,5,7,9,11,13,-1,-1,-1,-1,-1,-1,-1,-1],"loss_changes":[4.467775E4,1.6575428E4,2.8334484E4,5.0583193E3,2.4110547E3,3.5041367E3,4.5001123E3,0E0,0E0,0E0,0E0,0E0,0E0,0E0,0E0],"parents":[2147483647,0,0,1,1,2,2,3,3,4,4,5,5,6,6],"right_children":[2,4,6,8,10,12,14,-1,-1,-1,-1,-1,-1,-1,-1],"split_conditions":[-2.8825638E-1,1.5375453E-1,-7.339726E-1,-1.2176034E0,-9.542706E-1,-1.4239718E0,-4.009675E-1,-1.0527022E-1,-8.265213E-3,-1.4713196E-1,-7.8395806E-2,1.3151091E-1,7.5076334E-2,3.880548E-2,-4.891098E-4],"split_indices":[1,2,2,2,1,2,2,0,0,0,0,0,0,0,0],"split_type":[0,0,0,0,0,0,0,0,0,0,0,0,0,0,0],"sum_hessian":[9.0914E4,3.4868E4,5.6046E4,2.0309E4,1.4559E4,1.3149E4,4.2897E4,1.446E3,1.8863E4,1.414E3,1.3145E4,3.924E3,9.225E3,9.303E3,3.3594E4],"tree_param":{"num_deleted":"0","num_feature":"3","num_nodes":"15","size_leaf_vector":"1"}},{"base_weights":[-1.2187662E-4,7.7232313E-1,-5.7059675E-1,1.1823479E0,4.3567076E-1,-4.6089223E-1,-1.8182924E0,3.662805E-2,9.0081625E-2,1.1555503E-2,5.348292E-2,5.5961455E-3,-2.9884214E-2,-6.582292E-2,-1.0713724E-1],"categories":[],"categories_nodes":[],"categories_segments":[],"categories_sizes":[],"default_left":[0,0,0,0,0,0,0,0,0,0,0,0,0,0,0],"id":14,"left_children":[1,3,5,7,9,11,13,-1,-1,-1,-1,-1,-1,-1,-1],"loss_changes":[4.020496E4,5.3493164E3,7.182283E3,4.86574E3,2.7600522E3,3.780037E3,6.873594E2,0E0,0E0,0E0,0E0,0E0,0E0,0E0,0E0],"parents":[2147483647,0,0,1,1,2,2,3,3,4,4,5,5,6,6],"right_children":[2,4,6,8,10,12,14,-1,-1,-1,-1,-1,-1,-1,-1],"split_conditions":[-2.4189498E-1,-7.458235E-1,2.008303E0,-4.893074E-1,7.3017037E-1,4.440211E-2,-5.908737E-1,3.662805E-2,9.0081625E-2,1.1555503E-2,5.348292E-2,5.5961455E-3,-2.9884214E-2,-6.582292E-2,-1.0713724E-1],"split_indices":[2,2,2,0,0,0,0,0,0,0,0,0,0,0,0],"split_type":[0,0,0,0,0,0,0,0,0,0,0,0,0,0,0],"sum_hessian":[9.1236E4,3.8757E4,5.2479E4,1.7473E4,2.1284E4,4.8239E4,4.24E3,1.0123E4,7.35E3,1.6093E4,5.191E3,9.299E3,3.894E4,1.667E3,2.573E3],"tree_param":{"num_deleted":"0","num_feature":"3","num_nodes":"15","size_leaf_vector":"1"}},{"base_weights":[-3.3607814E-3,7.7708447E-1,-5.156079E-1,1.5949825E0,6.322116E-1,-3.9551586E-1,-1.551007E0,-5.141036E-2,9.1893144E-2,4.214753E-2,1.1200326E-2,9.377998E-3,-2.697648E-2,-6.152169E-2,-9.2879616E-2],"categories":[],"categories_nodes":[],"categories_segments":[],"categories_sizes":[],"default_left":[0,0,0,0,0,0,0,0,0,0,0,0,0,0,0],"id":15,"left_children":[1,3,5,7,9,11,13,-1,-1,-1,-1,-1,-1,-1,-1],"loss_changes":[3.6350844E4,4.268125E3,6.8251377E3,3.4558057E3,2.6330068E3,4.1308325E3,5.581094E2,0E0,0E0,0E0,0E0,0E0,0E0,0E0,0E0],"parents":[2147483647,0,0,1,1,2,2,3,3,4,4,5,5,6,6],"right_children":[2,4,6,8,10,12,14,-1,-1,-1,-1,-1,-1,-1,-1],"split_conditions":[-3.002414E-1,-1.3722456E0,1.8654782E0,-2.6633024E0,2.016494E-1,1.19000815E-1,-2.910966E-2,-5.141036E-2,9.1893144E-2,4.214753E-2,1.1200326E-2,9.377998E-3,-2.697648E-2,-6.152169E-2,-9.2879616E-2],"split_indices":[2,2,2,2,0,0,0,0,0,0,0,0,0,0,0],"split_type":[0,0,0,0,0,0,0,0,0,0,0,0,0,0,0],"sum_hessian":[9.0925E4,3.603E4,5.4895E4,5.42E3,3.061E4,4.9191E4,5.704E3,4.59E2,4.961E3,2.0187E4,1.0423E4,9.743E3,3.9448E4,2.791E3,2.913E3],"tree_param":{"num_deleted":"0","num_feature":"3","num_nodes":"15","size_leaf_vector":"1"}},{"base_weights":[-4.3293317E-3,-1.0377302E0,4.095962E-1,-6.6896445E-1,-2.0061023E0,1.2169412E0,-5.7210103E-2,-1.049927E-1,-2.708447E-2,-1.7391562E-1,-8.961807E-2,8.9596555E-2,4.0916845E-2,-2.7565E-2,5.99369E-3],"categories":[],"categories_nodes":[],"categories_segments":[],"categories_sizes":[],"default_left":[0,0,0,0,0,0,0,0,0,0,0,0,0,0,0],"id":16,"left_children":[1,3,5,7,9,11,13,-1,-1,-1,-1,-1,-1,-1,-1],"loss_changes":[3.8893324E4,9.284482E3,2.4467207E4,3.428581E3,2.249748E3,5.4496367E3,3.5994062E3,0E0,0E0,0E0,0E0,0E0,0E0,0E0,0E0],"parents":[2147483647,0,0,1,1,2,2,3,3,4,4,5,5,6,6],"right_children":[2,4,6,8,10,12,14,-1,-1,-1,-1,-1,-1,-1,-1],"split_conditions":[-4.9220914E-1,4.4407335E-1,-4.3300733E-1,-1.1191128E0,-9.318369E-1,-9.754821E-1,-1.6703911E-1,-1.049927E-1,-2.708447E-2,-1.7391562E-1,-8.961807E-2,8.9596555E-2,4.0916845E-2,-2.7565E-2,5.99369E-3],"split_indices":[1,2,2,2,1,2,1,0,0,0,0,0,0,0,0],"split_type":[0,0,0,0,0,0,0,0,0,0,0,0,0,0,0],"sum_hessian":[9.0923E4,2.6003E4,6.492E4,1.8833E4,7.17E3,2.3784E4,4.1136E4,1.537E3,1.7296E4,9.07E2,6.263E3,9.736E3,1.4048E4,1.0853E4,3.0283E4],"tree_param":{"num_deleted":"0","num_feature":"3","num_nodes":"15","size_leaf_vector":"1"}},{"base_weights":[1.6046311E-3,-9.903791E-1,3.9256418E-1,-6.381833E-1,-1.920878E0,1.1703861E0,-7.4327014E-2,-9.975039E-2,-2.5946168E-2,-1.7393683E-1,-8.669605E-2,1.0050424E-1,4.571325E-2,-2.734211E-2,5.0439253E-3],"categories":[],"categories_nodes":[],"categories_segments":[],"categories_sizes":[],"default_left":[0,0,0,0,0,0,0,0,0,0,0,0,0,0,0],"id":17,"left_children":[1,3,5,7,9,11,13,-1,-1,-1,-1,-1,-1,-1,-1],"loss_changes":[3.525677E4,8.420865E3,2.3681379E4,3.0157515E3,2.0485293E3,5.2583477E3,3.3736814E3,0E0,0E0,0E0,0E0,0E0,0E0,0E0,0E0],"parents":[2147483647,0,0,1,1,2,2,3,3,4,4,5,5,6,6],"right_children":[2,4,6,8,10,12,14,-1,-1,-1,-1,-1,-1,-1,-1],"split_conditions":[-5.001736E-1,4.4407335E-1,-4.1691464E-1,-1.1191128E0,-9.542706E-1,-1.2664093E0,-1.6703911E-1,-9.975039E-2,-2.5946168E-2,-1.7393683E-1,-8.669605E-2,1.0050424E-1,4.571325E-2,-2.734211E-2,5.0439253E-3],"split_indices":[1,2,2,2,1,2,1,0,0,0,0,0,0,0,0],"split_type":[0,0,0,0,0,0,0,0,0,0,0,0,0,0,0],"sum_hessian":[9.0907E4,2.5699E4,6.5208E4,1.8644E4,7.055E3,2.4459E4,4.0749E4,1.505E3,1.7139E4,7.54E2,6.301E3,5.715E3,1.8744E4,1.1022E4,2.9727E4],"tree_param":{"num_deleted":"0","num_feature":"3","num_nodes":"15","size_leaf_vector":"1"}},{"base_weights":[2.1996447E-3,-9.355849E-1,3.688419E-1,-6.036257E-1,-1.8123285E0,1.0904629E0,-6.9941044E-2,-9.432715E-2,-2.4221484E-2,-1.5682025E-1,-8.083975E-2,8.1735864E-2,3.6669936E-2,-2.5198532E-2,5.523618E-3],"categories":[],"categories_nodes":[],"categories_segments":[],"categories_sizes":[],"default_left":[0,0,0,0,0,0,0,0,0,0,0,0,0,0,0],"id":18,"left_children":[1,3,5,7,9,11,13,-1,-1,-1,-1,-1,-1,-1,-1],"loss_changes":[3.1230152E4,7.428998E3,2.0676443E4,2.8309028E3,1.8096113E3,4.7970527E3,3.1799724E3,0E0,0E0,0E0,0E0,0E0,0E0,0E0,0E0],"parents":[2147483647,0,0,1,1,2,2,3,3,4,4,5,5,6,6],"right_children":[2,4,6,8,10,12,14,-1,-1,-1,-1,-1,-1,-1,-1],"split_conditions":[-5.001736E-1,4.4407335E-1,-4.0861985E-1,-1.0975939E0,-9.318369E-1,-9.754821E-1,-1.4598809E-1,-9.432715E-2,-2.4221484E-2,-1.5682025E-1,-8.083975E-2,8.1735864E-2,3.6669936E-2,-2.5198532E-2,5.523618E-3],"split_indices":[1,2,2,2,1,2,1,0,0,0,0,0,0,0,0],"split_type":[0,0,0,0,0,0,0,0,0,0,0,0,0,0,0],"sum_hessian":[9.0828E4,2.5529E4,6.5299E4,1.8519E4,7.01E3,2.4691E4,4.0608E4,1.573E3,1.6946E4,9E2,6.11E3,9.78E3,1.4911E4,1.1923E4,2.8685E4],"tree_param":{"num_deleted":"0","num_feature":"3","num_nodes":"15","size_leaf_vector":"1"}},{"base_weights":[-4.2909333E-3,-8.9743656E-1,3.4744775E-1,-2.3472998E0,-8.314823E-1,9.252322E-1,-7.5979546E-2,-6.1374124E-2,-1.3612793E-1,3.6324698E-3,-4.9277794E-2,8.101829E-2,4.1737303E-2,3.253538E-3,-8.562888E-2],"categories":[],"categories_nodes":[],"categories_segments":[],"categories_sizes":[],"default_left":[0,0,0,0,0,0,0,0,0,0,0,0,0,0,0],"id":19,"left_children":[1,3,5,7,9,11,13,-1,-1,-1,-1,-1,-1,-1,-1],"loss_changes":[2.8533707E4,2.451746E3,1.5942507E4,4.6522998E2,3.4197695E3,1.7318613E3,8.681345E3,0E0,0E0,0E0,0E0,0E0,0E0,0E0,0E0],"parents":[2147483647,0,0,1,1,2,2,3,3,4,4,5,5,6,6],"right_children":[2,4,6,8,10,12,14,-1,-1,-1,-1,-1,-1,-1,-1],"split_conditions":[-5.001736E-1,-1.2505376E0,1.5445769E-1,-2.4260871E0,-1.3458921E0,-2.186164E0,9.5166993E-1,-6.1374124E-2,-1.3612793E-1,3.6324698E-3,-4.9277794E-2,8.101829E-2,4.1737303E-2,3.253538E-3,-8.562888E-2],"split_indices":[1,1,0,0,0,0,1,0,0,0,0,0,0,0,0],"split_type":[0,0,0,0,0,0,0,0,0,0,0,0,0,0,0],"sum_hessian":[9.0825E4,2.5662E4,6.5163E4,1.115E3,2.4547E4,2.7558E4,3.7605E4,2.81E2,8.34E2,3.574E3,2.0973E4,3.172E3,2.4386E4,3.4622E4,2.983E3],"tree_param":{"num_deleted":"0","num_feature":"3","num_nodes":"15","size_leaf_vector":"1"}},{"base_weights":[-2.9178949E-3,5.8322924E-1,-4.58728E-1,7.866356E-1,1.7437951E-1,-3.6021414E-1,-1.2497841E0,2.1905838E-2,7.2967574E-2,-1.667061E-2,3.943547E-2,8.479607E-3,-2.429911E-2,-4.9579084E-2,-7.455971E-2],"categories":[],"categories_nodes":[],"categories_segments":[],"categories_sizes":[],"default_left":[0,0,0,0,0,0,0,0,0,0,0,0,0,0,0],"id":20,"left_children":[1,3,5,7,9,11,13,-1,-1,-1,-1,-1,-1,-1,-1],"loss_changes":[2.4292852E4,3.3076436E3,3.9855068E3,6.226508E3,4.1230605E3,3.0310366E3,3.5132617E2,0E0,0E0,0E0,0E0,0E0,0E0,0E0,0E0],"parents":[2147483647,0,0,1,1,2,2,3,3,4,4,5,5,6,6],"right_children":[2,4,6,8,10,12,14,-1,-1,-1,-1,-1,-1,-1,-1],"split_conditions":[-2.1854328E-1,1.9408767E-1,1.8654782E0,-4.893074E-1,7.163299E-1,1.19000815E-1,-2.910966E-2,2.1905838E-2,7.2967574E-2,-1.667061E-2,3.943547E-2,8.479607E-3,-2.429911E-2,-4.9579084E-2,-7.455971E-2],"split_indices":[2,0,2,0,0,0,0,0,0,0,0,0,0,0,0],"split_type":[0,0,0,0,0,0,0,0,0,0,0,0,0,0,0],"sum_hessian":[9.0924E4,3.9775E4,5.1149E4,2.656E4,1.3215E4,4.5486E4,5.663E3,1.7497E4,9.063E3,7.235E3,5.98E3,8.726E3,3.676E4,2.739E3,2.924E3],"tree_param":{"num_deleted":"0","num_feature":"3","num_nodes":"15","size_leaf_vector":"1"}},{"base_weights":[-3.494818E-3,5.516063E-1,-4.3792653E-1,1.2579627E0,4.3949792E-1,-3.3896577E-1,-1.1756177E0,-5.5306286E-2,7.3681735E-2,3.1007094E-2,7.0183943E-3,1.1433701E-2,-2.3109956E-2,-4.6485912E-2,-7.0865005E-2],"categories":[],"categories_nodes":[],"categories_segments":[],"categories_sizes":[],"default_left":[0,0,0,0,0,0,0,0,0,0,0,0,0,0,0],"id":21,"left_children":[1,3,5,7,9,11,13,-1,-1,-1,-1,-1,-1,-1,-1],"loss_changes":[2.1946408E4,3.1631738E3,3.726372E3,2.7916611E3,1.8631616E3,3.149026E3,3.572832E2,0E0,0E0,0E0,0E0,0E0,0E0,0E0,0E0],"parents":[2147483647,0,0,1,1,2,2,3,3,4,4,5,5,6,6],"right_children":[2,4,6,8,10,12,14,-1,-1,-1,-1,-1,-1,-1,-1],"split_conditions":[-2.1854328E-1,-1.3722456E0,1.8064188E0,-2.6633024E0,2.016494E-1,8.260365E-2,-2.910966E-2,-5.5306286E-2,7.3681735E-2,3.1007094E-2,7.0183943E-3,1.1433701E-2,-2.3109956E-2,-4.6485912E-2,-7.0865005E-2],"split_indices":[2,2,2,2,0,0,0,0,0,0,0,0,0,0,0],"split_type":[0,0,0,0,0,0,0,0,0,0,0,0,0,0,0],"sum_hessian":[9.1004E4,3.9953E4,5.1051E4,5.471E3,3.4482E4,4.5014E4,6.037E3,4.57E2,5.014E3,2.1498E4,1.2984E4,8.029E3,3.6985E4,2.995E3,3.042E3],"tree_param":{"num_deleted":"0","num_feature":"3","num_nodes":"15","size_leaf_vector":"1"}},{"base_weights":[1.0451188E-3,-7.489456E-1,3.6383134E-1,-1.9693114E0,-6.697076E-1,8.5361075E-1,-4.6775816E-3,-1.21756926E-1,-8.124518E-2,-2.3427775E-2,-6.170655E-2,7.245271E-2,3.8181376E-2,7.02873E-3,-8.3895214E-2],"categories":[],"categories_nodes":[],"categories_segments":[],"categories_sizes":[],"default_left":[0,0,0,0,0,0,0,0,0,0,0,0,0,0,0],"id":22,"left_children":[1,3,5,7,9,11,13,-1,-1,-1,-1,-1,-1,-1,-1],"loss_changes":[2.4646627E4,2.8541426E3,1.1019247E4,2.8441943E2,3.147917E3,1.4031621E3,8.467896E3,0E0,0E0,0E0,0E0,0E0,0E0,0E0,0E0],"parents":[2147483647,0,0,1,1,2,2,3,3,4,4,5,5,6,6],"right_children":[2,4,6,8,10,12,14,-1,-1,-1,-1,-1,-1,-1,-1],"split_conditions":[-4.1471845E-1,-1.1693802E0,1.5445769E-1,-1.3484336E0,5.449951E-1,-2.1626458E0,9.782327E-1,-1.21756926E-1,-8.124518E-2,-2.3427775E-2,-6.170655E-2,7.245271E-2,3.8181376E-2,7.02873E-3,-8.3895214E-2],"split_indices":[1,1,0,1,0,0,1,0,0,0,0,0,0,0,0],"split_type":[0,0,0,0,0,0,0,0,0,0,0,0,0,0,0],"sum_hessian":[9.0582E4,2.9531E4,6.1051E4,1.799E3,2.7732E4,2.6212E4,3.4839E4,7.62E2,1.037E3,2.0447E4,7.285E3,3.439E3,2.2773E4,3.2057E4,2.782E3],"tree_param":{"num_deleted":"0","num_feature":"3","num_nodes":"15","size_leaf_vector":"1"}},{"base_weights":[-3.1684279E-3,-6.595437E-1,3.6604807E-1,-2.4461347E-1,-1.2523726E0,1.3477612E0,1.3790725E-1,-8.419862E-2,-5.7205665E-3,-1.10454075E-1,-5.712176E-2,2.8848609E-2,9.012847E-2,1.4352823E-2,-1.7813068E-2],"categories":[],"categories_nodes":[],"categories_segments":[],"categories_sizes":[],"default_left":[0,0,0,0,0,0,0,0,0,0,0,0,0,0,0],"id":23,"left_children":[1,3,5,7,9,11,13,-1,-1,-1,-1,-1,-1,-1,-1],"loss_changes":[2.1989166E4,8.0345664E3,1.3005533E4,3.6010393E3,1.4116797E3,3.8373691E3,3.4731416E3,0E0,0E0,0E0,0E0,0E0,0E0,0E0,0E0],"parents":[2147483647,0,0,1,1,2,2,3,3,4,4,5,5,6,6],"right_children":[2,4,6,8,10,12,14,-1,-1,-1,-1,-1,-1,-1,-1],"split_conditions":[-3.3912542E-1,1.6608784E-1,-8.6363745E-1,-1.142831E0,-9.542706E-1,4.9192008E-1,8.055702E-1,-8.419862E-2,-5.7205665E-3,-1.10454075E-1,-5.712176E-2,2.8848609E-2,9.012847E-2,1.4352823E-2,-1.7813068E-2],"split_indices":[1,2,2,2,1,1,1,0,0,0,0,0,0,0,0],"split_type":[0,0,0,0,0,0,0,0,0,0,0,0,0,0,0],"sum_hessian":[9.0733E4,3.2664E4,5.8069E4,1.9216E4,1.3448E4,1.0949E4,4.712E4,1.593E3,1.7623E4,1.384E3,1.2064E4,4.064E3,6.885E3,3.6196E4,1.0924E4],"tree_param":{"num_deleted":"0","num_feature":"3","num_nodes":"15","size_leaf_vector":"1"}},{"base_weights":[9.849552E-4,-7.5490284E-1,2.976074E-1,-1.8028369E0,-6.745409E-1,7.6692134E-1,-5.2505873E-2,-4.8503038E-2,-9.845634E-2,5.0368337E-3,-4.0238865E-2,6.0318142E-2,3.2874696E-2,3.5421548E-3,-8.074942E-2],"categories":[],"categories_nodes":[],"categories_segments":[],"categories_sizes":[],"default_left":[0,0,0,0,0,0,0,0,0,0,0,0,0,0,0],"id":24,"left_children":[1,3,5,7,9,11,13,-1,-1,-1,-1,-1,-1,-1,-1],"loss_changes":[2.040426E4,2.158373E3,1.0739119E4,2.5066455E2,2.4054434E3,1.3418496E3,7.214754E3,0E0,0E0,0E0,0E0,0E0,0E0,0E0,0E0],"parents":[2147483647,0,0,1,1,2,2,3,3,4,4,5,5,6,6],"right_children":[2,4,6,8,10,12,14,-1,-1,-1,-1,-1,-1,-1,-1],"split_conditions":[-5.001736E-1,-1.1693802E0,1.6474903E-1,-2.4260871E0,-1.3458921E0,-2.026508E0,9.782327E-1,-4.8503038E-2,-9.845634E-2,5.0368337E-3,-4.0238865E-2,6.0318142E-2,3.2874696E-2,3.5421548E-3,-8.074942E-2],"split_indices":[1,1,0,0,0,0,1,0,0,0,0,0,0,0,0],"split_type":[0,0,0,0,0,0,0,0,0,0,0,0,0,0,0],"sum_hessian":[9.1002E4,2.5646E4,6.5356E4,1.825E3,2.3821E4,2.7924E4,3.7432E4,3.05E2,1.52E3,3.426E3,2.0395E4,5.565E3,2.2359E4,3.4694E4,2.738E3],"tree_param":{"num_deleted":"0","num_feature":"3","num_nodes":"15","size_leaf_vector":"1"}},{"base_weights":[-2.961665E-3,-5.55513E-1,3.6906824E-1,-1.2080041E-1,-1.1091312E0,1.2934595E0,1.4690371E-1,-3.8919635E-2,8.871173E-3,-8.243592E-2,-4.7861915E-2,2.4902891E-2,8.5872374E-2,1.5990764E-2,-1.7459953E-2],"categories":[],"categories_nodes":[],"categories_segments":[],"categories_sizes":[],"default_left":[0,0,0,0,0,0,0,0,0,0,0,0,0,0,0],"id":25,"left_children":[1,3,5,7,9,11,13,-1,-1,-1,-1,-1,-1,-1,-1],"loss_changes":[1.8673598E4,8.796522E3,1.1148629E4,4.01574E3,1.3158223E3,3.5463574E3,3.7547827E3,0E0,0E0,0E0,0E0,0E0,0E0,0E0,0E0],"parents":[2147483647,0,0,1,1,2,2,3,3,4,4,5,5,6,6],"right_children":[2,4,6,8,10,12,14,-1,-1,-1,-1,-1,-1,-1,-1],"split_conditions":[-2.4754184E-1,1.2680197E-1,-8.7918144E-1,-8.880557E-1,-8.256257E-1,4.9192008E-1,7.8640914E-1,-3.8919635E-2,8.871173E-3,-8.243592E-2,-4.7861915E-2,2.4902891E-2,8.5872374E-2,1.5990764E-2,-1.7459953E-2],"split_indices":[1,2,2,1,1,1,1,0,0,0,0,0,0,0,0],"split_type":[0,0,0,0,0,0,0,0,0,0,0,0,0,0,0],"sum_hessian":[9.0838E4,3.6551E4,5.4287E4,2.0475E4,1.6076E4,1.0518E4,4.3769E4,6.388E3,1.4087E4,3.529E3,1.2547E4,3.658E3,6.86E3,3.2457E4,1.1312E4],"tree_param":{"num_deleted":"0","num_feature":"3","num_nodes":"15","size_leaf_vector":"1"}},{"base_weights":[-5.8300057E-3,-7.040544E-1,2.6403385E-1,-1.9822136E0,-6.4352185E-1,7.078061E-1,-6.3372485E-2,-5.6796145E-2,-1.1944689E-1,7.79797E-4,-3.8450442E-2,2.6371026E-2,4.8097175E-2,2.782376E-3,-7.25409E-2],"categories":[],"categories_nodes":[],"categories_segments":[],"categories_sizes":[],"default_left":[0,0,0,0,0,0,0,0,0,0,0,0,0,0,0],"id":26,"left_children":[1,3,5,7,9,11,13,-1,-1,-1,-1,-1,-1,-1,-1],"loss_changes":[1.709457E4,1.9551543E3,9.50712E3,3.903623E2,1.9973848E3,1.2728545E3,6.218167E3,0E0,0E0,0E0,0E0,0E0,0E0,0E0,0E0],"parents":[2147483647,0,0,1,1,2,2,3,3,4,4,5,5,6,6],"right_children":[2,4,6,8,10,12,14,-1,-1,-1,-1,-1,-1,-1,-1],"split_conditions":[-5.0851935E-1,-1.2505376E0,1.5445769E-1,-2.3431826E0,-1.3166987E0,-4.893074E-1,9.5166993E-1,-5.6796145E-2,-1.1944689E-1,7.79797E-4,-3.8450442E-2,2.6371026E-2,4.8097175E-2,2.782376E-3,-7.25409E-2],"split_indices":[1,1,0,0,0,0,1,0,0,0,0,0,0,0,0],"split_type":[0,0,0,0,0,0,0,0,0,0,0,0,0,0,0],"sum_hessian":[9.0721E4,2.5289E4,6.5432E4,1.142E3,2.4147E4,2.7779E4,3.7653E4,3.72E2,7.7E2,3.862E3,2.0285E4,1.6249E4,1.153E4,3.4679E4,2.974E3],"tree_param":{"num_deleted":"0","num_feature":"3","num_nodes":"15","size_leaf_vector":"1"}},{"base_weights":[-3.427139E-4,4.722079E-1,-3.696515E-1,1.0705247E0,3.9199784E-1,-2.8769314E-1,-9.8216677E-1,-4.5614507E-2,6.4147875E-2,5.149772E-3,2.6200065E-2,8.161559E-3,-1.9462544E-2,-4.7671866E-2,-1.2660334E-1],"categories":[],"categories_nodes":[],"categories_segments":[],"categories_sizes":[],"default_left":[0,0,0,0,0,0,0,0,0,0,0,0,0,0,0],"id":27,"left_children":[1,3,5,7,9,11,13,-1,-1,-1,-1,-1,-1,-1,-1],"loss_changes":[1.5876683E4,1.914709E3,2.563142E3,1.9880776E3,1.3424712E3,2.0627322E3,2.65562E2,0E0,0E0,0E0,0E0,0E0,0E0,0E0,0E0],"parents":[2147483647,0,0,1,1,2,2,3,3,4,4,5,5,6,6],"right_children":[2,4,6,8,10,12,14,-1,-1,-1,-1,-1,-1,-1,-1],"split_conditions":[-2.1854328E-1,-1.4239718E0,1.8064188E0,-2.6633024E0,-9.5432264E-1,1.1067928E-1,6.242818E-1,-4.5614507E-2,6.4147875E-2,5.149772E-3,2.6200065E-2,8.161559E-3,-1.9462544E-2,-4.7671866E-2,-1.2660334E-1],"split_indices":[2,2,2,2,0,0,0,0,0,0,0,0,0,0,0],"split_type":[0,0,0,0,0,0,0,0,0,0,0,0,0,0,0],"sum_hessian":[9.0973E4,3.9908E4,5.1065E4,4.716E3,3.5192E4,4.504E4,6.025E3,4.56E2,4.26E3,1.1035E4,2.4157E4,8.279E3,3.6761E4,5.917E3,1.08E2],"tree_param":{"num_deleted":"0","num_feature":"3","num_nodes":"15","size_leaf_vector":"1"}},{"base_weights":[6.4828694E-3,4.5574066E-1,-3.4633157E-1,1.0339118E0,3.7821692E-1,-2.7019244E-1,-9.179427E-1,-4.6088997E-2,6.2117465E-2,2.0196775E-2,-5.619653E-2,9.6329935E-3,-1.8370146E-2,-4.4532623E-2,-1.2260766E-1],"categories":[],"categories_nodes":[],"categories_segments":[],"categories_sizes":[],"default_left":[0,0,0,0,0,0,0,0,0,0,0,0,0,0,0],"id":28,"left_children":[1,3,5,7,9,11,13,-1,-1,-1,-1,-1,-1,-1,-1],"loss_changes":[1.4414896E4,1.7925264E3,2.216599E3,1.9289033E3,1.3632031E3,2.0227078E3,2.4815186E2,0E0,0E0,0E0,0E0,0E0,0E0,0E0,0E0],"parents":[2147483647,0,0,1,1,2,2,3,3,4,4,5,5,6,6],"right_children":[2,4,6,8,10,12,14,-1,-1,-1,-1,-1,-1,-1,-1],"split_conditions":[-2.1854328E-1,-1.4239718E0,1.8064188E0,-2.6633024E0,1.0423875E0,5.2946772E-2,6.242818E-1,-4.6088997E-2,6.2117465E-2,2.0196775E-2,-5.619653E-2,9.6329935E-3,-1.8370146E-2,-4.4532623E-2,-1.2260766E-1],"split_indices":[2,2,2,2,0,0,0,0,0,0,0,0,0,0,0],"split_type":[0,0,0,0,0,0,0,0,0,0,0,0,0,0,0],"sum_hessian":[9.0941E4,4.0003E4,5.0938E4,4.728E3,3.5275E4,4.4952E4,5.986E3,4.55E2,4.273E3,3.4682E4,5.93E2,7.802E3,3.715E4,5.883E3,1.03E2],"tree_param":{"num_deleted":"0","num_feature":"3","num_nodes":"15","size_leaf_vector":"1"}},{"base_weights":[-7.258545E-4,-4.5294908E-1,3.5780242E-1,-1.5873607E-1,-1.1187786E0,1.1538973E0,1.5658292E-1,-8.280374E-2,-3.526684E-3,-1.1877868E-1,-5.085919E-2,2.3349777E-2,7.572386E-2,1.7432168E-2,-1.7603356E-2],"categories":[],"categories_nodes":[],"categories_segments":[],"categories_sizes":[],"default_left":[0,0,0,0,0,0,0,0,0,0,0,0,0,0,0],"id":29,"left_children":[1,3,5,7,9,11,13,-1,-1,-1,-1,-1,-1,-1,-1],"loss_changes":[1.473012E4,7.87E3,8.117308E3,3.6798086E3,1.5692891E3,2.5314053E3,3.951941E3,0E0,0E0,0E0,0E0,0E0,0E0,0E0,0E0],"parents":[2147483647,0,0,1,1,2,2,3,3,4,4,5,5,6,6],"right_children":[2,4,6,8,10,12,14,-1,-1,-1,-1,-1,-1,-1,-1],"split_conditions":[-1.7535324E-1,4.24845E-1,-8.7918144E-1,-1.2176034E0,-9.318369E-1,5.076634E-1,8.055702E-1,-8.280374E-2,-3.526684E-3,-1.1877868E-1,-5.085919E-2,2.3349777E-2,7.572386E-2,1.7432168E-2,-1.7603356E-2],"split_indices":[1,2,2,2,1,1,1,0,0,0,0,0,0,0,0],"split_type":[0,0,0,0,0,0,0,0,0,0,0,0,0,0,0],"sum_hessian":[9.0849E4,4.0175E4,5.0674E4,2.7864E4,1.2311E4,1.0223E4,4.0451E4,1.549E3,2.6315E4,9.19E2,1.1392E4,3.52E3,6.703E3,2.9364E4,1.1087E4],"tree_param":{"num_deleted":"0","num_feature":"3","num_nodes":"15","size_leaf_vector":"1"}},{"base_weights":[2.4320772E-3,-6.170315E-1,2.4061118E-1,-3.8371488E-1,-1.2299709E0,7.561629E-1,-5.655373E-2,-7.749002E-2,-1.3674355E-2,-1.2147967E-1,-5.399986E-2,7.1420655E-2,3.125804E-2,-1.9170161E-2,3.9489698E-3],"categories":[],"categories_nodes":[],"categories_segments":[],"categories_sizes":[],"default_left":[0,0,0,0,0,0,0,0,0,0,0,0,0,0,0],"id":30,"left_children":[1,3,5,7,9,11,13,-1,-1,-1,-1,-1,-1,-1,-1],"loss_changes":[1.3420648E4,3.611915E3,1.0065607E4,2.3513276E3,1.2499326E3,2.1145166E3,1.8463516E3,0E0,0E0,0E0,0E0,0E0,0E0,0E0,0E0],"parents":[2147483647,0,0,1,1,2,2,3,3,4,4,5,5,6,6],"right_children":[2,4,6,8,10,12,14,-1,-1,-1,-1,-1,-1,-1,-1],"split_conditions":[-5.0851935E-1,4.4407335E-1,-4.3300733E-1,-1.0975939E0,-9.542706E-1,-1.4239718E0,-1.4598809E-1,-7.749002E-2,-1.3674355E-2,-1.2147967E-1,-5.399986E-2,7.1420655E-2,3.125804E-2,-1.9170161E-2,3.9489698E-3],"split_indices":[1,2,2,2,1,2,1,0,0,0,0,0,0,0,0],"split_type":[0,0,0,0,0,0,0,0,0,0,0,0,0,0,0],"sum_hessian":[9.0959E4,2.526E4,6.5699E4,1.8297E4,6.963E3,2.4022E4,4.1677E4,1.579E3,1.6718E4,7.72E2,6.191E3,3.916E3,2.0106E4,1.2216E4,2.9461E4],"tree_param":{"num_deleted":"0","num_feature":"3","num_nodes":"15","size_leaf_vector":"1"}},{"base_weights":[1.9330381E-3,-4.8387226E-1,2.757661E-1,-2.3512205E-1,-1.1045308E0,7.712183E-1,2.0197027E-3,-4.752479E-2,-3.7719128E-3,-7.921371E-2,-4.236823E-2,7.001885E-2,3.1281944E-2,5.583461E-3,-2.7155796E-2],"categories":[],"categories_nodes":[],"categories_segments":[],"categories_sizes":[],"default_left":[0,0,0,0,0,0,0,0,0,0,0,0,0,0,0],"id":31,"left_children":[1,3,5,7,9,11,13,-1,-1,-1,-1,-1,-1,-1,-1],"loss_changes":[1.2087443E4,5.056463E3,7.881143E3,2.6710645E3,1.1545498E3,1.8930566E3,2.237353E3,0E0,0E0,0E0,0E0,0E0,0E0,0E0,0E0],"parents":[2147483647,0,0,1,1,2,2,3,3,4,4,5,5,6,6],"right_children":[2,4,6,8,10,12,14,-1,-1,-1,-1,-1,-1,-1,-1],"split_conditions":[-3.3912542E-1,4.4407335E-1,-4.6874547E-1,-1.021835E0,-7.195508E-1,-1.4239718E0,7.8640914E-1,-4.752479E-2,-3.7719128E-3,-7.921371E-2,-4.236823E-2,7.001885E-2,3.1281944E-2,5.583461E-3,-2.7155796E-2],"split_indices":[1,2,2,1,1,2,1,0,0,0,0,0,0,0,0],"split_type":[0,0,0,0,0,0,0,0,0,0,0,0,0,0,0],"sum_hessian":[9.0861E4,3.2753E4,5.8108E4,2.3383E4,9.37E3,2.0679E4,3.7429E4,4.266E3,1.9117E4,3.268E3,6.102E3,3.884E3,1.6795E4,3.1162E4,6.267E3],"tree_param":{"num_deleted":"0","num_feature":"3","num_nodes":"15","size_leaf_vector":"1"}},{"base_weights":[-3.3977784E-3,3.758518E-1,-2.98898E-1,3.963312E-1,-1.2140055E0,-2.3937677E-1,-7.441851E-1,1.6159913E-2,4.276493E-2,-1.1282577E-1,-4.423287E-2,9.226798E-3,-1.6548604E-2,-3.5889905E-2,-1.1199372E-1],"categories":[],"categories_nodes":[],"categories_segments":[],"categories_sizes":[],"default_left":[0,0,0,0,0,0,0,0,0,0,0,0,0,0,0],"id":32,"left_children":[1,3,5,7,9,11,13,-1,-1,-1,-1,-1,-1,-1,-1],"loss_changes":[1.01981E4,1.2979521E3,1.3553257E3,1.3202793E3,1.7176746E2,1.7519363E3,2.360813E2,0E0,0E0,0E0,0E0,0E0,0E0,0E0,0E0],"parents":[2147483647,0,0,1,1,2,2,3,3,4,4,5,5,6,6],"right_children":[2,4,6,8,10,12,14,-1,-1,-1,-1,-1,-1,-1,-1],"split_conditions":[-2.1854328E-1,1.0505662E0,1.8064188E0,7.3017037E-1,-7.579448E-1,8.260365E-2,6.242818E-1,1.6159913E-2,4.276493E-2,-1.1282577E-1,-4.423287E-2,9.226798E-3,-1.6548604E-2,-3.5889905E-2,-1.1199372E-1],"split_indices":[2,0,2,0,2,0,0,0,0,0,0,0,0,0,0],"split_type":[0,0,0,0,0,0,0,0,0,0,0,0,0,0,0],"sum_hessian":[9.0997E4,3.9851E4,5.1146E4,3.9345E4,5.06E2,4.5117E4,6.029E3,3.3939E4,5.406E3,1.2E2,3.86E2,8.016E3,3.7101E4,5.926E3,1.03E2],"tree_param":{"num_deleted":"0","num_feature":"3","num_nodes":"15","size_leaf_vector":"1"}},{"base_weights":[-1.8888911E-3,4.036571E-1,-2.5383842E-1,5.219375E-1,1.0041115E-1,-2.0016623E-1,-6.966531E-1,1.1250525E-2,5.6497145E-2,-8.580434E-3,2.179098E-2,7.3786722E-3,-1.4355475E-2,-3.3690624E-2,-1.0411359E-1],"categories":[],"categories_nodes":[],"categories_segments":[],"categories_sizes":[],"default_left":[0,0,0,0,0,0,0,0,0,0,0,0,0,0,0],"id":33,"left_children":[1,3,5,7,9,11,13,-1,-1,-1,-1,-1,-1,-1,-1],"loss_changes":[9.313124E3,1.2526494E3,1.3359429E3,4.5356875E3,8.9441364E2,1.516091E3,1.9064893E2,0E0,0E0,0E0,0E0,0E0,0E0,0E0,0E0],"parents":[2147483647,0,0,1,1,2,2,3,3,4,4,5,5,6,6],"right_children":[2,4,6,8,10,12,14,-1,-1,-1,-1,-1,-1,-1,-1],"split_conditions":[-3.2059878E-1,2.016494E-1,1.8064188E0,-4.5071265E-1,7.163299E-1,1.28554E-1,6.242818E-1,1.1250525E-2,5.6497145E-2,-8.580434E-3,2.179098E-2,7.3786722E-3,-1.4355475E-2,-3.3690624E-2,-1.0411359E-1],"split_indices":[2,0,2,0,0,0,0,0,0,0,0,0,0,0,0],"split_type":[0,0,0,0,0,0,0,0,0,0,0,0,0,0,0],"sum_hessian":[9.1145E4,3.4926E4,5.6219E4,2.5125E4,9.801E3,5.0143E4,6.076E3,1.6882E4,8.243E3,5.412E3,4.389E3,1.0029E4,4.0114E4,5.979E3,9.7E1],"tree_param":{"num_deleted":"0","num_feature":"3","num_nodes":"15","size_leaf_vector":"1"}},{"base_weights":[-2.003602E-3,-5.760621E-1,1.9728677E-1,-3.8330138E-1,-1.0837148E0,6.2442577E-1,-6.3430004E-2,-7.485494E-2,-1.3281169E-2,-1.07591465E-1,-4.7132738E-2,6.1160333E-2,2.5892127E-2,-1.7302686E-2,3.516846E-3],"categories":[],"categories_nodes":[],"categories_segments":[],"categories_sizes":[],"default_left":[0,0,0,0,0,0,0,0,0,0,0,0,0,0,0],"id":34,"left_children":[1,3,5,7,9,11,13,-1,-1,-1,-1,-1,-1,-1,-1],"loss_changes":[1.0397674E4,2.2913115E3,7.5130415E3,2.2245913E3,9.687202E2,1.6311338E3,1.583884E3,0E0,0E0,0E0,0E0,0E0,0E0,0E0,0E0],"parents":[2147483647,0,0,1,1,2,2,3,3,4,4,5,5,6,6],"right_children":[2,4,6,8,10,12,14,-1,-1,-1,-1,-1,-1,-1,-1],"split_conditions":[-5.446885E-1,4.4407335E-1,-4.009675E-1,-1.0779727E0,-9.542706E-1,-1.4239718E0,-1.4598809E-1,-7.485494E-2,-1.3281169E-2,-1.07591465E-1,-4.7132738E-2,6.1160333E-2,2.5892127E-2,-1.7302686E-2,3.516846E-3],"split_indices":[1,2,2,2,1,2,1,0,0,0,0,0,0,0,0],"split_type":[0,0,0,0,0,0,0,0,0,0,0,0,0,0,0],"sum_hessian":[9.0883E4,2.342E4,6.7463E4,1.6976E4,6.444E3,2.557E4,4.1893E4,1.621E3,1.5355E4,7.5E2,5.694E3,3.862E3,2.1708E4,1.3458E4,2.8435E4],"tree_param":{"num_deleted":"0","num_feature":"3","num_nodes":"15","size_leaf_vector":"1"}},{"base_weights":[1.328714E-3,-5.55618E-1,1.9291067E-1,-1.655457E0,-5.001739E-1,5.34751E-1,-5.2756276E-2,-4.4346206E-2,-1.0958456E-1,2.8672211E-3,-3.0233705E-2,1.9709302E-2,4.0851284E-2,2.7824617E-3,-7.514155E-2],"categories":[],"categories_nodes":[],"categories_segments":[],"categories_sizes":[],"default_left":[0,0,0,0,0,0,0,0,0,0,0,0,0,0,0],"id":35,"left_children":[1,3,5,7,9,11,13,-1,-1,-1,-1,-1,-1,-1,-1],"loss_changes":[9.690223E3,1.4163638E3,5.6747803E3,4.5725488E2,1.2893999E3,1.1206973E3,6.1808643E3,0E0,0E0,0E0,0E0,0E0,0E0,0E0,0E0],"parents":[2147483647,0,0,1,1,2,2,3,3,4,4,5,5,6,6],"right_children":[2,4,6,8,10,12,14,-1,-1,-1,-1,-1,-1,-1,-1],"split_conditions":[-5.513162E-1,-1.2505376E0,1.5445769E-1,-2.284297E0,-1.3458921E0,-2.778082E-1,9.782327E-1,-4.4346206E-2,-1.0958456E-1,2.8672211E-3,-3.0233705E-2,1.9709302E-2,4.0851284E-2,2.7824617E-3,-7.514155E-2],"split_indices":[1,1,0,0,0,0,1,0,0,0,0,0,0,0,0],"split_type":[0,0,0,0,0,0,0,0,0,0,0,0,0,0,0],"sum_hessian":[9.0815E4,2.3243E4,6.7572E4,1.114E3,2.2129E4,2.8255E4,3.9317E4,4.59E2,6.55E2,3.493E3,1.8636E4,1.8864E4,9.391E3,3.6583E4,2.734E3],"tree_param":{"num_deleted":"0","num_feature":"3","num_nodes":"15","size_leaf_vector":"1"}},{"base_weights":[-2.7404728E-3,-3.4263358E-1,2.8400958E-1,-1.3882182E-2,-7.574296E-1,9.41894E-1,1.316677E-1,-7.320567E-2,4.1039824E-3,-7.598353E-2,-3.4837294E-2,8.302483E-3,6.70889E-2,1.6902927E-2,-1.8906081E-2],"categories":[],"categories_nodes":[],"categories_segments":[],"categories_sizes":[],"default_left":[0,0,0,0,0,0,0,0,0,0,0,0,0,0,0],"id":36,"left_children":[1,3,5,7,9,11,13,-1,-1,-1,-1,-1,-1,-1,-1],"loss_changes":[8.845092E3,5.662869E3,4.933162E3,3.224475E3,8.4801855E2,2.8709707E3,4.205601E3,0E0,0E0,0E0,0E0,0E0,0E0,0E0,0E0],"parents":[2147483647,0,0,1,1,2,2,3,3,4,4,5,5,6,6],"right_children":[2,4,6,8,10,12,14,-1,-1,-1,-1,-1,-1,-1,-1],"split_conditions":[-1.4598809E-1,1.3550891E-1,-9.435105E-1,-1.2428263E0,-9.6487176E-1,5.076634E-1,8.055702E-1,-7.320567E-2,4.1039824E-3,-7.598353E-2,-3.4837294E-2,8.302483E-3,6.70889E-2,1.6902927E-2,-1.8906081E-2],"split_indices":[1,2,2,2,1,1,1,0,0,0,0,0,0,0,0],"split_type":[0,0,0,0,0,0,0,0,0,0,0,0,0,0,0],"sum_hessian":[9.075E4,4.1527E4,4.9223E4,2.3167E4,1.836E4,9.254E3,3.9969E4,1.437E3,2.173E4,1.352E3,1.7008E4,3.148E3,6.106E3,2.8451E4,1.1518E4],"tree_param":{"num_deleted":"0","num_feature":"3","num_nodes":"15","size_leaf_vector":"1"}},{"base_weights":[2.9553946E-3,3.2567638E-1,-2.4545738E-1,3.4559086E-1,-1.0293912E0,-2.2152334E-1,-1.1595976E0,1.4070474E-2,3.835489E-2,-1.081818E-1,-3.5484098E-2,-9.103019E-3,-3.2518364E-2,1.1346438E-2,-6.1214875E-2],"categories":[],"categories_nodes":[],"categories_segments":[],"categories_sizes":[],"default_left":[0,0,0,0,0,0,0,0,0,0,0,0,0,0,0],"id":37,"left_children":[1,3,5,7,9,11,13,-1,-1,-1,-1,-1,-1,-1,-1],"loss_changes":[7.264272E3,1.0638389E3,1.1198354E3,1.0504678E3,2.0523804E2,8.442112E2,1.1753638E2,0E0,0E0,0E0,0E0,0E0,0E0,0E0,0E0],"parents":[2147483647,0,0,1,1,2,2,3,3,4,4,5,5,6,6],"right_children":[2,4,6,8,10,12,14,-1,-1,-1,-1,-1,-1,-1,-1],"split_conditions":[-2.255345E-1,1.0423875E0,1.1298392E0,7.3017037E-1,-7.579448E-1,2.008303E0,5.142996E-2,1.4070474E-2,3.835489E-2,-1.081818E-1,-3.5484098E-2,-9.103019E-3,-3.2518364E-2,1.1346438E-2,-6.1214875E-2],"split_indices":[2,0,0,0,2,2,2,0,0,0,0,0,0,0,0],"split_type":[0,0,0,0,0,0,0,0,0,0,0,0,0,0,0],"sum_hessian":[9.0611E4,3.9411E4,5.12E4,3.8841E4,5.7E2,4.9895E4,1.305E3,3.371E4,5.131E3,1.24E2,4.46E2,4.5692E4,4.203E3,5.8E1,1.247E3],"tree_param":{"num_deleted":"0","num_feature":"3","num_nodes":"15","size_leaf_vector":"1"}},{"base_weights":[-2.6881373E-3,3.0644172E-1,-2.3140427E-1,3.2686216E-1,-1.0707152E0,-2.0026658E-1,-9.209692E-1,8.031725E-3,2.3184981E-2,-8.235436E-2,-2.1392724E-2,-1.6886778E-2,-1.4699426E-3,1.962784E-3,-5.1227015E-2],"categories":[],"categories_nodes":[],"categories_segments":[],"categories_sizes":[],"default_left":[0,0,0,0,0,0,0,0,0,0,0,0,0,0,0],"id":38,"left_children":[1,3,5,7,9,11,13,-1,-1,-1,-1,-1,-1,-1,-1],"loss_changes":[6.438772E3,1.089334E3,1.1235625E3,8.678799E2,2.0880591E2,1.1763297E3,2.2499878E2,0E0,0E0,0E0,0E0,0E0,0E0,0E0,0E0],"parents":[2147483647,0,0,1,1,2,2,3,3,4,4,5,5,6,6],"right_children":[2,4,6,8,10,12,14,-1,-1,-1,-1,-1,-1,-1,-1],"split_conditions":[-2.4189498E-1,1.0423875E0,1.0874515E0,-4.893074E-1,-6.248862E-1,5.9777254E-1,1.0994787E-1,8.031725E-3,2.3184981E-2,-8.235436E-2,-2.1392724E-2,-1.6886778E-2,-1.4699426E-3,1.962784E-3,-5.1227015E-2],"split_indices":[2,0,0,0,2,0,2,0,0,0,0,0,0,0,0],"split_type":[0,0,0,0,0,0,0,0,0,0,0,0,0,0,0],"sum_hessian":[9.1066E4,3.8725E4,5.2341E4,3.816E4,5.65E2,5.0081E4,2.26E3,1.7231E4,2.0929E4,2.97E2,2.68E2,2.7752E4,2.2329E4,2.2E2,2.04E3],"tree_param":{"num_deleted":"0","num_feature":"3","num_nodes":"15","size_leaf_vector":"1"}},{"base_weights":[-1.657506E-3,-3.7081686E-1,2.3160319E-1,-2.3580942E-1,-9.188735E-1,5.209197E-1,1.2911082E-2,-3.1866737E-2,4.0143E-3,-4.1876115E-2,-1.2188466E-1,2.2210037E-2,4.8805244E-2,-3.6256813E-2,1.5329606E-2],"categories":[],"categories_nodes":[],"categories_segments":[],"categories_sizes":[],"default_left":[0,0,0,0,0,0,0,0,0,0,0,0,0,0,0],"id":39,"left_children":[1,3,5,7,9,11,13,-1,-1,-1,-1,-1,-1,-1,-1],"loss_changes":[7.826069E3,2.6035103E3,3.5237048E3,3.5839556E3,8.569756E2,8.366631E2,6.8752896E3,0E0,0E0,0E0,0E0,0E0,0E0,0E0,0E0],"parents":[2147483647,0,0,1,1,2,2,3,3,4,4,5,5,6,6],"right_children":[2,4,6,8,10,12,14,-1,-1,-1,-1,-1,-1,-1,-1],"split_conditions":[-2.8055024E-1,6.500781E-1,1.3770102E-1,-7.7061224E-1,1.019358E0,-1.9285735E-2,5.8970636E-1,-3.1866737E-2,4.0143E-3,-4.1876115E-2,-1.2188466E-1,2.2210037E-2,4.8805244E-2,-3.6256813E-2,1.5329606E-2],"split_indices":[1,0,0,1,0,0,0,0,0,0,0,0,0,0,0],"split_type":[0,0,0,0,0,0,0,0,0,0,0,0,0,0,0],"sum_hessian":[9.0882E4,3.519E4,5.5692E4,2.8236E4,6.954E3,2.3974E4,3.1718E4,1.2437E4,1.5799E4,6.602E3,3.52E2,2.0518E4,3.456E3,9.028E3,2.269E4],"tree_param":{"num_deleted":"0","num_feature":"3","num_nodes":"15","size_leaf_vector":"1"}},{"base_weights":[3.426038E-3,-4.9609044E-1,1.6690093E-1,-3.2773E-1,-9.384993E-1,5.7237995E-1,-3.871128E-2,-6.6186294E-2,-1.022429E-2,-8.8106595E-2,-3.9822105E-2,5.3856056E-2,2.3470592E-2,1.7959962E-3,-2.5321616E-2],"categories":[],"categories_nodes":[],"categories_segments":[],"categories_sizes":[],"default_left":[0,0,0,0,0,0,0,0,0,0,0,0,0,0,0],"id":40,"left_children":[1,3,5,7,9,11,13,-1,-1,-1,-1,-1,-1,-1,-1],"loss_changes":[7.416021E3,1.6674893E3,5.7047656E3,1.9908384E3,7.204824E2,1.195898E3,1.5849287E3,0E0,0E0,0E0,0E0,0E0,0E0,0E0,0E0],"parents":[2147483647,0,0,1,1,2,2,3,3,4,4,5,5,6,6],"right_children":[2,4,6,8,10,12,14,-1,-1,-1,-1,-1,-1,-1,-1],"split_conditions":[-5.636978E-1,4.4407335E-1,-4.6874547E-1,-1.0458391E0,-9.318369E-1,-1.4239718E0,7.8640914E-1,-6.6186294E-2,-1.022429E-2,-8.8106595E-2,-3.9822105E-2,5.3856056E-2,2.3470592E-2,1.7959962E-3,-2.5321616E-2],"split_indices":[1,2,2,2,1,2,1,0,0,0,0,0,0,0,0],"split_type":[0,0,0,0,0,0,0,0,0,0,0,0,0,0,0],"sum_hessian":[9.0816E4,2.2392E4,6.8424E4,1.6221E4,6.171E3,2.3022E4,4.5402E4,1.785E3,1.4436E4,9.06E2,5.265E3,3.899E3,1.9123E4,3.9155E4,6.247E3],"tree_param":{"num_deleted":"0","num_feature":"3","num_nodes":"15","size_leaf_vector":"1"}},{"base_weights":[2.5646428E-3,-2.849322E-1,2.5454092E-1,2.034792E-2,-6.4341354E-1,8.6455196E-1,1.2243447E-1,-2.8339757E-2,1.2252696E-2,-6.482075E-2,-2.9640391E-2,4.449463E-3,6.349834E-2,1.6359268E-2,-1.724593E-2],"categories":[],"categories_nodes":[],"categories_segments":[],"categories_sizes":[],"default_left":[0,0,0,0,0,0,0,0,0,0,0,0,0,0,0],"id":41,"left_children":[1,3,5,7,9,11,13,-1,-1,-1,-1,-1,-1,-1,-1],"loss_changes":[6.6108716E3,4.6647275E3,3.9189539E3,3.0373723E3,6.468696E2,2.721725E3,3.8255483E3,0E0,0E0,0E0,0E0,0E0,0E0,0E0,0E0],"parents":[2147483647,0,0,1,1,2,2,3,3,4,4,5,5,6,6],"right_children":[2,4,6,8,10,12,14,-1,-1,-1,-1,-1,-1,-1,-1],"split_conditions":[-1.2277606E-1,1.0994787E-1,-9.9038714E-1,-8.880557E-1,-9.6487176E-1,5.2241606E-1,7.8640914E-1,-2.8339757E-2,1.2252696E-2,-6.482075E-2,-2.9640391E-2,4.449463E-3,6.349834E-2,1.6359268E-2,-1.724593E-2],"split_indices":[1,2,2,1,1,1,1,0,0,0,0,0,0,0,0],"split_type":[0,0,0,0,0,0,0,0,0,0,0,0,0,0,0],"sum_hessian":[9.1255E4,4.2623E4,4.8632E4,2.302E4,1.9603E4,8.656E3,3.9976E4,6.371E3,1.6649E4,1.408E3,1.8195E4,2.972E3,5.684E3,2.7798E4,1.2178E4],"tree_param":{"num_deleted":"0","num_feature":"3","num_nodes":"15","size_leaf_vector":"1"}},{"base_weights":[-1.2552807E-3,-4.172447E-1,1.5509324E-1,-8.710906E-1,-3.12882E-1,4.3002528E-1,-5.3948753E-2,-4.2627078E-2,-3.2597214E-1,-7.4912715E-3,-3.809736E-2,3.9821792E-2,1.6784528E-2,2.78559E-3,-6.793776E-2],"categories":[],"categories_nodes":[],"categories_segments":[],"categories_sizes":[],"default_left":[0,0,0,0,0,0,0,0,0,0,0,0,0,0,0],"id":42,"left_children":[1,3,5,7,9,11,13,-1,-1,-1,-1,-1,-1,-1,-1],"loss_changes":[5.90215E3,1.1737769E3,3.7907642E3,4.792151E2,1.475751E3,9.8434863E2,5.3614883E3,0E0,0E0,0E0,0E0,0E0,0E0,0E0,0E0],"parents":[2147483647,0,0,1,1,2,2,3,3,4,4,5,5,6,6],"right_children":[2,4,6,8,10,12,14,-1,-1,-1,-1,-1,-1,-1,-1],"split_conditions":[-5.1726013E-1,-1.021835E0,1.8656446E-1,7.024343E-1,5.2882963E-1,-1.9940809E0,9.5166993E-1,-4.2627078E-2,-3.2597214E-1,-7.4912715E-3,-3.809736E-2,3.9821792E-2,1.6784528E-2,2.78559E-3,-6.793776E-2],"split_indices":[1,1,0,0,0,0,1,0,0,0,0,0,0,0,0],"split_type":[0,0,0,0,0,0,0,0,0,0,0,0,0,0,0],"sum_hessian":[9.0745E4,2.4789E4,6.5956E4,4.633E3,2.0156E4,2.8488E4,3.7468E4,4.619E3,1.4E1,1.4788E4,5.368E3,5.831E3,2.2657E4,3.4564E4,2.904E3],"tree_param":{"num_deleted":"0","num_feature":"3","num_nodes":"15","size_leaf_vector":"1"}},{"base_weights":[-2.1849496E-3,2.464669E-1,-1.9960271E-1,2.6404017E-1,-1.1018696E0,-1.6870421E-1,-8.626719E-1,9.948746E-3,3.3665575E-2,-7.3262416E-2,-2.5334273E-2,-6.589345E-3,-2.7902702E-2,5.6956722E-3,-4.7601406E-2],"categories":[],"categories_nodes":[],"categories_segments":[],"categories_sizes":[],"default_left":[0,0,0,0,0,0,0,0,0,0,0,0,0,0,0],"id":43,"left_children":[1,3,5,7,9,11,13,-1,-1,-1,-1,-1,-1,-1,-1],"loss_changes":[4.464723E3,9.539895E2,1.038485E3,1.0579226E3,1.1109204E2,6.961793E2,1.9714697E2,0E0,0E0,0E0,0E0,0E0,0E0,0E0,0E0],"parents":[2147483647,0,0,1,1,2,2,3,3,4,4,5,5,6,6],"right_children":[2,4,6,8,10,12,14,-1,-1,-1,-1,-1,-1,-1,-1],"split_conditions":[-2.1182826E-1,1.0505662E0,1.0874515E0,7.3017037E-1,-6.151837E-1,2.008303E0,9.182831E-2,9.948746E-3,3.3665575E-2,-7.3262416E-2,-2.5334273E-2,-6.589345E-3,-2.7902702E-2,5.6956722E-3,-4.7601406E-2],"split_indices":[2,0,0,0,2,2,2,0,0,0,0,0,0,0,0],"split_type":[0,0,0,0,0,0,0,0,0,0,0,0,0,0,0],"sum_hessian":[9.0951E4,4.0252E4,5.0699E4,3.9735E4,5.17E2,4.8443E4,2.256E3,3.4286E4,5.449E3,3.2E2,1.97E2,4.4249E4,4.194E3,1.89E2,2.067E3],"tree_param":{"num_deleted":"0","num_feature":"3","num_nodes":"15","size_leaf_vector":"1"}},{"base_weights":[3.4649952E-3,-2.9010126E-1,2.0122454E-1,-1.0123518E-1,-7.4562234E-1,6.3504165E-1,6.542039E-2,-5.701207E-2,-1.3742284E-3,-7.6447755E-2,-3.3069376E-2,5.6528773E-2,2.538389E-2,1.02543095E-2,-2.0390775E-2],"categories":[],"categories_nodes":[],"categories_segments":[],"categories_sizes":[],"default_left":[0,0,0,0,0,0,0,0,0,0,0,0,0,0,0],"id":44,"left_children":[1,3,5,7,9,11,13,-1,-1,-1,-1,-1,-1,-1,-1],"loss_changes":[5.2860054E3,3.1527578E3,3.2049956E3,1.985113E3,7.075034E2,8.1783936E2,2.738638E3,0E0,0E0,0E0,0E0,0E0,0E0,0E0,0E0],"parents":[2147483647,0,0,1,1,2,2,3,3,4,4,5,5,6,6],"right_children":[2,4,6,8,10,12,14,-1,-1,-1,-1,-1,-1,-1,-1],"split_conditions":[-2.4754184E-1,4.4407335E-1,-7.339726E-1,-1.142831E0,-9.1993517E-1,-1.5686612E0,8.284639E-1,-5.701207E-2,-1.3742284E-3,-7.6447755E-2,-3.3069376E-2,5.6528773E-2,2.538389E-2,1.02543095E-2,-2.0390775E-2],"split_indices":[1,2,2,2,1,2,1,0,0,0,0,0,0,0,0],"split_type":[0,0,0,0,0,0,0,0,0,0,0,0,0,0,0],"sum_hessian":[9.1049E4,3.6647E4,5.4402E4,2.5907E4,1.074E4,1.2969E4,4.1433E4,1.716E3,2.4191E4,1.041E3,9.699E3,2.65E3,1.0319E4,3.1992E4,9.441E3],"tree_param":{"num_deleted":"0","num_feature":"3","num_nodes":"15","size_leaf_vector":"1"}},{"base_weights":[-2.5562283E-3,2.609512E-1,-1.7204723E-1,2.798585E-1,-1.1120616E0,-1.5045875E-1,-1.0446718E0,5.0033364E-3,2.195697E-2,-3.841719E-2,-9.169055E-2,-1.4302023E-2,7.94906E-4,1.0370756E-2,-5.534881E-2],"categories":[],"categories_nodes":[],"categories_segments":[],"categories_sizes":[],"default_left":[0,0,0,0,0,0,0,0,0,0,0,0,0,0,0],"id":45,"left_children":[1,3,5,7,9,11,13,-1,-1,-1,-1,-1,-1,-1,-1],"loss_changes":[4.0559832E3,9.230542E2,1.0408784E3,1.0041013E3,1.18152466E2,1.21651E3,1.043855E2,0E0,0E0,0E0,0E0,0E0,0E0,0E0,0E0],"parents":[2147483647,0,0,1,1,2,2,3,3,4,4,5,5,6,6],"right_children":[2,4,6,8,10,12,14,-1,-1,-1,-1,-1,-1,-1,-1],"split_conditions":[-3.0664122E-1,1.0505662E0,1.1298392E0,-4.893074E-1,1.1119993E0,5.9777254E-1,5.142996E-2,5.0033364E-3,2.195697E-2,-3.841719E-2,-9.169055E-2,-1.4302023E-2,7.94906E-4,1.0370756E-2,-5.534881E-2],"split_indices":[2,0,0,0,0,0,2,0,0,0,0,0,0,0,0],"split_type":[0,0,0,0,0,0,0,0,0,0,0,0,0,0,0],"sum_hessian":[9.0813E4,3.5547E4,5.5266E4,3.5065E4,4.82E2,5.3933E4,1.333E3,1.6473E4,1.8592E4,3.28E2,1.54E2,2.9715E4,2.4218E4,6.3E1,1.27E3],"tree_param":{"num_deleted":"0","num_feature":"3","num_nodes":"15","size_leaf_vector":"1"}},{"base_weights":[1.2911457E-3,2.2805849E-1,-1.7893387E-1,5.615277E-1,1.54122E-1,-1.5064187E-1,-8.0044806E-1,5.987158E-2,2.0389538E-2,-1.6179783E-2,1.436033E-2,6.221024E-3,-9.565501E-3,1.0464515E-2,-4.3743294E-2],"categories":[],"categories_nodes":[],"categories_segments":[],"categories_sizes":[],"default_left":[0,0,0,0,0,0,0,0,0,0,0,0,0,0,0],"id":46,"left_children":[1,3,5,7,9,11,13,-1,-1,-1,-1,-1,-1,-1,-1],"loss_changes":[3.7137437E3,9.9195654E2,8.900558E2,7.1320874E2,2.0941843E3,5.417479E2,1.6586389E2,0E0,0E0,0E0,0E0,0E0,0E0,0E0,0E0],"parents":[2147483647,0,0,1,1,2,2,3,3,4,4,5,5,6,6],"right_children":[2,4,6,8,10,12,14,-1,-1,-1,-1,-1,-1,-1,-1],"split_conditions":[-2.1182826E-1,-1.9940809E0,1.0874515E0,-2.1941848E0,-9.5432264E-1,-7.5856024E-1,4.2881235E-2,5.987158E-2,2.0389538E-2,-1.6179783E-2,1.436033E-2,6.221024E-3,-9.565501E-3,1.0464515E-2,-4.3743294E-2],"split_indices":[2,0,0,2,0,0,2,0,0,0,0,0,0,0,0],"split_type":[0,0,0,0,0,0,0,0,0,0,0,0,0,0,0],"sum_hessian":[9.0867E4,4.0238E4,5.0629E4,7.301E3,3.2937E4,4.8426E4,2.203E3,1.42E3,5.881E3,7.176E3,2.5761E4,6.237E3,4.2189E4,1.51E2,2.052E3],"tree_param":{"num_deleted":"0","num_feature":"3","num_nodes":"15","size_leaf_vector":"1"}}]},"name":"gbtree"},"learner_model_param":{"base_score":"2.560377E1","boost_from_average":"1","num_class":"0","num_feature":"3","num_target":"1"},"objective":{"name":"reg:squarederror","reg_loss_param":{"scale_pos_weight":"1"}}},"version":[2,1,2]}