{"learner":{"attributes":{"best_iteration":"48","best_score":"1.0231663780073568","scikit_learn":"{\"_estimator_type\": \"regressor\"}"},"feature_names":[],"feature_types":[],"gradient_booster":{"model":{"gbtree_model_param":{"num_parallel_tree":"1","num_trees":"50"},"iteration_indptr":[0,1,2,3,4,5,6,7,8,9,10,11,12,13,14,15,16,17,18,19,20,21,22,23,24,25,26,27,28,29,30,31,32,33,34,35,36,37,38,39,40,41,42,43,44,45,46,47,48,49,50],"tree_info":[0,0,0,0,0,0,0,0,0,0,0,0,0,0,0,0,0,0,0,0,0,0,0,0,0,0,0,0,0,0,0,0,0,0,0,0,0,0,0,0,0,0,0,0,0,0,0,0,0,0],"trees":[{"base_weights":[-2.0479436E-3,6.983181E-2,-1.9837561E0,-1.6126193E0,1.5562102E-1,-2.1430845E0,1.6302725E0,-6.26554E-2,-2.136731E-1,6.151666E-3,1.3506609E-1,-1.1632611E-1,-6.193943E-2,1.1438679E-1,-2.5907296E-1],"categories":[],"categories_nodes":[],"categories_segments":[],"categories_sizes":[],"default_left":[0,0,0,0,0,0,0,0,0,0,0,0,0,0,0],"id":0,"left_children":[1,3,5,7,9,11,13,-1,-1,-1,-1,-1,-1,-1,-1],"loss_changes":[1.2766364E4,1.2483019E4,1.8098848E3,4.007998E3,6.8260454E3,4.952373E2,6.0719995E2,0E0,0E0,0E0,0E0,0E0,0E0,0E0,0E0],"parents":[2147483647,0,0,1,1,2,2,3,3,4,4,5,5,6,6],"right_children":[2,4,6,8,10,12,14,-1,-1,-1,-1,-1,-1,-1,-1],"split_conditions":[1.0989842E0,-2.1112182E0,1.2539109E0,2.4591395E-1,2.0206993E0,9.187545E-1,1.3107691E0,-6.26554E-2,-2.136731E-1,6.151666E-3,1.3506609E-1,-1.1632611E-1,-6.193943E-2,1.1438679E-1,-2.5907296E-1],"split_indices":[0,2,2,0,2,2,0,0,0,0,0,0,0,0,0],"split_type":[0,0,0,0,0,0,0,0,0,0,0,0,0,0,0],"sum_hessian":[8.962E4,8.6484E4,3.136E3,4.195E3,8.2289E4,3.004E3,1.32E2,3.697E3,4.98E2,8.125E4,1.039E3,2.496E3,5.08E2,1.21E2,1.1E1],"tree_param":{"num_deleted":"0","num_feature":"3","num_nodes":"15","size_leaf_vector":"1"}},{"base_weights":[3.7753102E-3,7.242163E-2,-1.8854867E0,-1.5317903E0,1.5503846E-1,-2.0419376E0,1.3605028E0,-6.0290318E-2,-2.027397E-1,5.9817634E-3,1.1314006E-1,-7.779672E-2,-1.199676E-1,9.879181E-2,-2.5158963E-1],"categories":[],"categories_nodes":[],"categories_segments":[],"categories_sizes":[],"default_left":[0,0,0,0,0,0,0,0,0,0,0,0,0,0,0],"id":1,"left_children":[1,3,5,7,9,11,13,-1,-1,-1,-1,-1,-1,-1,-1],"loss_changes":[1.1618571E4,1.1457346E4,1.5979658E3,3.476874E3,6.1344272E3,5.1646387E2,5.799783E2,0E0,0E0,0E0,0E0,0E0,0E0,0E0,0E0],"parents":[2147483647,0,0,1,1,2,2,3,3,4,4,5,5,6,6],"right_children":[2,4,6,8,10,12,14,-1,-1,-1,-1,-1,-1,-1,-1],"split_conditions":[1.0989842E0,-2.1112182E0,1.2539109E0,2.5068954E-1,1.8522258E0,1.1940864E0,1.3107691E0,-6.0290318E-2,-2.027397E-1,5.9817634E-3,1.1314006E-1,-7.779672E-2,-1.199676E-1,9.879181E-2,-2.5158963E-1],"split_indices":[0,2,2,0,2,0,0,0,0,0,0,0,0,0,0],"split_type":[0,0,0,0,0,0,0,0,0,0,0,0,0,0,0],"sum_hessian":[8.9586E4,8.6446E4,3.14E3,4.233E3,8.2213E4,2.996E3,1.44E2,3.75E3,4.83E2,8.0856E4,1.357E3,1.272E3,1.724E3,1.32E2,1.2E1],"tree_param":{"num_deleted":"0","num_feature":"3","num_nodes":"15","size_leaf_vector":"1"}},{"base_weights":[-3.2330002E-3,-1.3375455E0,1.9483538E0,-3.2182395E0,-6.2072754E-1,9.067464E-1,3.4771693E0,-2.6194033E-1,-1.4716947E-1,5.6631714E-3,-4.6502195E-2,7.55076E-2,2.611783E-2,8.331668E-2,2.0547448E-1],"categories":[],"categories_nodes":[],"categories_segments":[],"categories_sizes":[],"default_left":[0,0,0,0,0,0,0,0,0,0,0,0,0,0,0],"id":2,"left_children":[1,3,5,7,9,11,13,-1,-1,-1,-1,-1,-1,-1,-1],"loss_changes":[2.330447E5,7.1653984E4,5.7866734E4,8.129672E3,8.737871E3,5.0126855E3,1.6854266E4,0E0,0E0,0E0,0E0,0E0,0E0,0E0,0E0],"parents":[2147483647,0,0,1,1,2,2,3,3,4,4,5,5,6,6],"right_children":[2,4,6,8,10,12,14,-1,-1,-1,-1,-1,-1,-1,-1],"split_conditions":[2.1603495E-1,-7.4329376E-1,9.912525E-1,-1.6645304E0,-1.5483722E-1,1.355616E-1,-8.05826E-1,-2.6194033E-1,-1.4716947E-1,5.6631714E-3,-4.6502195E-2,7.55076E-2,2.611783E-2,8.331668E-2,2.0547448E-1],"split_indices":[1,1,1,1,0,0,0,0,0,0,0,0,0,0,0],"split_type":[0,0,0,0,0,0,0,0,0,0,0,0,0,0,0],"sum_hessian":[8.9492E4,5.3152E4,3.634E4,1.4667E4,3.8485E4,2.1615E4,1.4725E4,1.754E3,1.2913E4,1.141E4,2.7075E4,8.41E3,1.3205E4,3.812E3,1.0913E4],"tree_param":{"num_deleted":"0","num_feature":"3","num_nodes":"15","size_leaf_vector":"1"}},{"base_weights":[9.962957E-3,7.458954E-2,-1.7688006E0,-1.458659E0,1.5138057E-1,-1.9039723E0,1.381058E0,-5.6612518E-2,-1.9376485E-1,6.147073E-3,1.15928136E-1,-1.0424328E-1,-4.911854E-2,1.0273024E-1,-1.9565535E-1],"categories":[],"categories_nodes":[],"categories_segments":[],"categories_sizes":[],"default_left":[0,0,0,0,0,0,0,0,0,0,0,0,0,0,0],"id":3,"left_children":[1,3,5,7,9,11,13,-1,-1,-1,-1,-1,-1,-1,-1],"loss_changes":[1.0315602E4,1.0195293E4,1.3421602E3,3.2529043E3,5.0818306E3,5.0061328E2,4.7141678E2,0E0,0E0,0E0,0E0,0E0,0E0,0E0,0E0],"parents":[2147483647,0,0,1,1,2,2,3,3,4,4,5,5,6,6],"right_children":[2,4,6,8,10,12,14,-1,-1,-1,-1,-1,-1,-1,-1],"split_conditions":[1.0989842E0,-2.1112182E0,1.2539109E0,2.5068954E-1,2.0206993E0,9.187545E-1,1.2586265E0,-5.6612518E-2,-1.9376485E-1,6.147073E-3,1.15928136E-1,-1.0424328E-1,-4.911854E-2,1.0273024E-1,-1.9565535E-1],"split_indices":[0,2,2,0,2,2,0,0,0,0,0,0,0,0,0],"split_type":[0,0,0,0,0,0,0,0,0,0,0,0,0,0,0],"sum_hessian":[8.9735E4,8.659E4,3.145E3,4.129E3,8.2461E4,3.016E3,1.29E2,3.639E3,4.9E2,8.1394E4,1.067E3,2.52E3,4.96E2,1.15E2,1.4E1],"tree_param":{"num_deleted":"0","num_feature":"3","num_nodes":"15","size_leaf_vector":"1"}},{"base_weights":[1.7175456E-3,7.776623E-2,-1.3259573E0,-1.4101069E0,1.5511173E-1,-1.4644337E0,1.9980816E0,-5.539868E-2,-1.8313535E-1,6.373691E-3,1.14081256E-1,-5.307321E-2,-1.07233025E-1,8.213699E-2,2.0722759E-1],"categories":[],"categories_nodes":[],"categories_segments":[],"categories_sizes":[],"default_left":[0,0,0,0,0,0,0,0,0,0,0,0,0,0,0],"id":4,"left_children":[1,3,5,7,9,11,13,-1,-1,-1,-1,-1,-1,-1,-1],"loss_changes":[9.068716E3,9.77651E3,2.2426963E3,2.8525625E3,4.7456934E3,1.2780479E3,1.413454E2,0E0,0E0,0E0,0E0,0E0,0E0,0E0,0E0],"parents":[2147483647,0,0,1,1,2,2,3,3,4,4,5,5,6,6],"right_children":[2,4,6,8,10,12,14,-1,-1,-1,-1,-1,-1,-1,-1],"split_conditions":[1.0280786E0,-2.1112182E0,1.476523E0,2.5068954E-1,2.0206993E0,1.1940864E0,1.6580172E0,-5.539868E-2,-1.8313535E-1,6.373691E-3,1.14081256E-1,-5.307321E-2,-1.07233025E-1,8.213699E-2,2.0722759E-1],"split_indices":[0,2,2,0,2,0,2,0,0,0,0,0,0,0,0],"split_type":[0,0,0,0,0,0,0,0,0,0,0,0,0,0,0],"sum_hessian":[8.9817E4,8.4952E4,4.865E3,4.197E3,8.0755E4,4.671E3,1.94E2,3.702E3,4.95E2,7.972E4,1.035E3,2.935E3,1.736E3,1.68E2,2.6E1],"tree_param":{"num_deleted":"0","num_feature":"3","num_nodes":"15","size_leaf_vector":"1"}},{"base_weights":[-5.2684965E-3,-1.2762557E0,1.8570617E0,-2.7879097E0,-4.578683E-1,8.785835E-1,3.307132E0,-2.402957E-1,-1.2649815E-1,1.1826458E-2,-3.6901966E-2,7.315251E-2,2.7383892E-2,8.3279185E-2,1.9572406E-1],"categories":[],"categories_nodes":[],"categories_segments":[],"categories_sizes":[],"default_left":[0,0,0,0,0,0,0,0,0,0,0,0,0,0,0],"id":5,"left_children":[1,3,5,7,9,11,13,-1,-1,-1,-1,-1,-1,-1,-1],"loss_changes":[2.1200723E5,6.585766E4,5.154679E4,9.720125E3,6.7197886E3,4.194885E3,1.4586906E4,0E0,0E0,0E0,0E0,0E0,0E0,0E0,0E0],"parents":[2147483647,0,0,1,1,2,2,3,3,4,4,5,5,6,6],"right_children":[2,4,6,8,10,12,14,-1,-1,-1,-1,-1,-1,-1,-1],"split_conditions":[2.1603495E-1,-6.2212604E-1,9.912525E-1,-1.5277396E0,-1.5483722E-1,9.344224E-2,-6.867597E-1,-2.402957E-1,-1.2649815E-1,1.1826458E-2,-3.6901966E-2,7.315251E-2,2.7383892E-2,8.3279185E-2,1.9572406E-1],"split_indices":[1,1,1,1,0,0,0,0,0,0,0,0,0,0,0],"split_type":[0,0,0,0,0,0,0,0,0,0,0,0,0,0,0],"sum_hessian":[8.9566E4,5.3235E4,3.6331E4,1.8697E4,3.4538E4,2.1694E4,1.4637E4,2.117E3,1.658E4,9.929E3,2.4609E4,7.841E3,1.3853E4,3.954E3,1.0683E4],"tree_param":{"num_deleted":"0","num_feature":"3","num_nodes":"15","size_leaf_vector":"1"}},{"base_weights":[2.9174876E-3,-1.1737661E0,1.8336561E0,-2.6484914E0,-4.074153E-1,8.739844E-1,3.147156E0,-2.360395E-1,-1.2158735E-1,-1.9096719E-1,-1.7752757E-2,4.562464E-3,7.90242E-2,8.1884004E-2,2.1947578E-1],"categories":[],"categories_nodes":[],"categories_segments":[],"categories_sizes":[],"default_left":[0,0,0,0,0,0,0,0,0,0,0,0,0,0,0],"id":6,"left_children":[1,3,5,7,9,11,13,-1,-1,-1,-1,-1,-1,-1,-1],"loss_changes":[1.9324258E5,6.17131E4,4.4238875E4,8.374961E3,6.417988E3,1.1215677E4,2.7778703E4,0E0,0E0,0E0,0E0,0E0,0E0,0E0,0E0],"parents":[2147483647,0,0,1,1,2,2,3,3,4,4,5,5,6,6],"right_children":[2,4,6,8,10,12,14,-1,-1,-1,-1,-1,-1,-1,-1],"split_conditions":[2.640659E-1,-6.2212604E-1,9.912525E-1,-1.6645304E0,-2.1112182E0,-8.447862E-2,-1.284612E-1,-2.360395E-1,-1.2158735E-1,-1.9096719E-1,-1.7752757E-2,4.562464E-3,7.90242E-2,8.1884004E-2,2.1947578E-1],"split_indices":[1,1,1,1,2,2,2,0,0,0,0,0,0,0,0],"split_type":[0,0,0,0,0,0,0,0,0,0,0,0,0,0,0],"sum_hessian":[8.9703E4,5.4606E4,3.5097E4,1.8672E4,3.5934E4,2.0281E4,1.4816E4,1.766E3,1.6906E4,5.42E2,3.5392E4,9.622E3,1.0659E4,6.69E3,8.126E3],"tree_param":{"num_deleted":"0","num_feature":"3","num_nodes":"15","size_leaf_vector":"1"}},{"base_weights":[5.0329813E-3,-9.7567356E-1,1.9684824E0,-2.4896445E0,-2.7416202E-1,1.0948422E0,3.1585674E0,-2.0148483E-1,-1.1093606E-1,-1.7951052E-1,-1.0997869E-2,1.2370523E-2,9.274089E-2,8.554121E-2,2.2139457E-1],"categories":[],"categories_nodes":[],"categories_segments":[],"categories_sizes":[],"default_left":[0,0,0,0,0,0,0,0,0,0,0,0,0,0,0],"id":7,"left_children":[1,3,5,7,9,11,13,-1,-1,-1,-1,-1,-1,-1,-1],"loss_changes":[1.7288333E5,6.359142E4,3.109061E4,7.9008125E3,7.3536455E3,1.1107516E4,2.3256523E4,0E0,0E0,0E0,0E0,0E0,0E0,0E0,0E0],"parents":[2147483647,0,0,1,1,2,2,3,3,4,4,5,5,6,6],"right_children":[2,4,6,8,10,12,14,-1,-1,-1,-1,-1,-1,-1,-1],"split_conditions":[4.512056E-1,-6.12201E-1,1.0927149E0,-1.4062508E0,-2.1112182E0,-9.476331E-2,-1.284612E-1,-2.0148483E-1,-1.1093606E-1,-1.7951052E-1,-1.0997869E-2,1.2370523E-2,9.274089E-2,8.554121E-2,2.2139457E-1],"split_indices":[1,1,1,1,2,2,2,0,0,0,0,0,0,0,0],"split_type":[0,0,0,0,0,0,0,0,0,0,0,0,0,0,0],"sum_hessian":[8.9781E4,5.9875E4,2.9906E4,1.8958E4,4.0917E4,1.7247E4,1.2659E4,2.834E3,1.6124E4,6.57E2,4.026E4,8.155E3,9.092E3,5.915E3,6.744E3],"tree_param":{"num_deleted":"0","num_feature":"3","num_nodes":"15","size_leaf_vector":"1"}},{"base_weights":[-2.0622297E-3,-1.0627024E0,1.649609E0,-2.7373686E0,-5.004693E-1,8.4757054E-1,2.9558985E0,-2.2742687E-1,-1.2642823E-1,-2.4543274E-3,-4.6049863E-2,7.006454E-2,2.4819558E-2,6.526461E-2,1.7798218E-1],"categories":[],"categories_nodes":[],"categories_segments":[],"categories_sizes":[],"default_left":[0,0,0,0,0,0,0,0,0,0,0,0,0,0,0],"id":8,"left_children":[1,3,5,7,9,11,13,-1,-1,-1,-1,-1,-1,-1,-1],"loss_changes":[1.5726512E5,5.1470168E4,3.677643E4,5.1839844E3,7.7687734E3,4.2289004E3,1.3302734E4,0E0,0E0,0E0,0E0,0E0,0E0,0E0,0E0],"parents":[2147483647,0,0,1,1,2,2,3,3,4,4,5,5,6,6],"right_children":[2,4,6,8,10,12,14,-1,-1,-1,-1,-1,-1,-1,-1],"split_conditions":[2.640659E-1,-7.79876E-1,1.055879E0,-1.8171813E0,1.6588722E-1,1.355616E-1,-8.351554E-1,-2.2742687E-1,-1.2642823E-1,-2.4543274E-3,-4.6049863E-2,7.006454E-2,2.4819558E-2,6.526461E-2,1.7798218E-1],"split_indices":[1,1,1,1,0,0,0,0,0,0,0,0,0,0,0],"split_type":[0,0,0,0,0,0,0,0,0,0,0,0,0,0,0],"sum_hessian":[8.977E4,5.4666E4,3.5104E4,1.3739E4,4.0927E4,2.1751E4,1.3353E4,1.418E3,1.2321E4,1.974E4,2.1187E4,8.44E3,1.3311E4,3.577E3,9.776E3],"tree_param":{"num_deleted":"0","num_feature":"3","num_nodes":"15","size_leaf_vector":"1"}},{"base_weights":[-1.3493056E-3,-1.0453175E0,1.5319978E0,-2.5244133E0,-4.7960475E-1,7.2053653E-1,2.7323332E0,-2.1529765E-1,-1.16757415E-1,-1.7457783E-1,-2.1711132E-2,-7.3299225E-4,6.882889E-2,6.946584E-2,1.9160128E-1],"categories":[],"categories_nodes":[],"categories_segments":[],"categories_sizes":[],"default_left":[0,0,0,0,0,0,0,0,0,0,0,0,0,0,0],"id":9,"left_children":[1,3,5,7,9,11,13,-1,-1,-1,-1,-1,-1,-1,-1],"loss_changes":[1.4362866E5,4.4664688E4,3.539767E4,4.968797E3,5.2761953E3,1.0459729E4,2.1644094E4,0E0,0E0,0E0,0E0,0E0,0E0,0E0,0E0],"parents":[2147483647,0,0,1,1,2,2,3,3,4,4,5,5,6,6],"right_children":[2,4,6,8,10,12,14,-1,-1,-1,-1,-1,-1,-1,-1],"split_conditions":[2.1603495E-1,-7.4329376E-1,9.912525E-1,-1.8171813E0,-2.1112182E0,-8.447862E-2,-1.284612E-1,-2.1529765E-1,-1.16757415E-1,-1.7457783E-1,-2.1711132E-2,-7.3299225E-4,6.882889E-2,6.946584E-2,1.9160128E-1],"split_indices":[1,1,1,1,2,2,2,0,0,0,0,0,0,0,0],"split_type":[0,0,0,0,0,0,0,0,0,0,0,0,0,0,0],"sum_hessian":[8.9723E4,5.338E4,3.6343E4,1.4767E4,3.8613E4,2.1685E4,1.4658E4,1.416E3,1.3351E4,5.72E2,3.8041E4,1.0226E4,1.1459E4,6.6E3,8.058E3],"tree_param":{"num_deleted":"0","num_feature":"3","num_nodes":"15","size_leaf_vector":"1"}},{"base_weights":[3.705882E-3,-1.2494508E0,6.529412E-2,-6.399944E-1,-2.2904394E0,1.579747E-1,-9.2644817E-1,-9.320003E-2,1.4862939E-4,-9.453583E-2,-1.573851E-1,2.234824E-2,-2.6701211E-3,-5.9505522E-2,7.7562975E-3],"categories":[],"categories_nodes":[],"categories_segments":[],"categories_sizes":[],"default_left":[0,0,0,0,0,0,0,0,0,0,0,0,0,0,0],"id":10,"left_children":[1,3,5,7,9,11,13,-1,-1,-1,-1,-1,-1,-1,-1],"loss_changes":[6.9132583E3,2.6603389E3,7.847703E3,2.0841558E3,5.243374E2,4.769833E3,2.0811753E3,0E0,0E0,0E0,0E0,0E0,0E0,0E0,0E0],"parents":[2147483647,0,0,1,1,2,2,3,3,4,4,5,5,6,6],"right_children":[2,4,6,8,10,12,14,-1,-1,-1,-1,-1,-1,-1,-1],"split_conditions":[-2.1112182E0,-4.768424E-1,9.410619E-1,-2.467717E0,2.789437E-1,5.5934954E-2,8.8310677E-1,-9.320003E-2,1.4862939E-4,-9.453583E-2,-1.573851E-1,2.234824E-2,-2.6701211E-3,-5.9505522E-2,7.7562975E-3],"split_indices":[2,0,0,2,0,0,2,0,0,0,0,0,0,0,0],"split_type":[0,0,0,0,0,0,0,0,0,0,0,0,0,0,0],"sum_hessian":[8.9573E4,4.195E3,8.5378E4,2.647E3,1.548E3,7.8082E4,7.296E3,9.11E2,1.736E3,1.058E3,4.9E2,3.2985E4,4.5097E4,5.866E3,1.43E3],"tree_param":{"num_deleted":"0","num_feature":"3","num_nodes":"15","size_leaf_vector":"1"}},{"base_weights":[-1.5467999E-3,-9.946997E-1,1.4481257E0,-2.1624784E0,-3.4549117E-1,7.633159E-1,2.6996937E0,-1.3586265E-1,-8.046668E-2,-1.5770322E-1,-1.5063572E-2,5.233043E-4,7.03841E-2,6.979579E-2,1.901885E-1],"categories":[],"categories_nodes":[],"categories_segments":[],"categories_sizes":[],"default_left":[0,0,0,0,0,0,0,0,0,0,0,0,0,0,0],"id":11,"left_children":[1,3,5,7,9,11,13,-1,-1,-1,-1,-1,-1,-1,-1],"loss_changes":[1.2885726E5,4.026566E4,3.1184383E4,5.8186797E3,4.238326E3,1.140965E4,1.8517273E4,0E0,0E0,0E0,0E0,0E0,0E0,0E0,0E0],"parents":[2147483647,0,0,1,1,2,2,3,3,4,4,5,5,6,6],"right_children":[2,4,6,8,10,12,14,-1,-1,-1,-1,-1,-1,-1,-1],"split_conditions":[2.1603495E-1,-6.12201E-1,1.0756454E0,-9.616994E-1,-2.1112182E0,-9.000567E-2,-1.284612E-1,-1.3586265E-1,-8.046668E-2,-1.5770322E-1,-1.5063572E-2,5.233043E-4,7.03841E-2,6.979579E-2,1.901885E-1],"split_indices":[1,1,1,1,2,2,2,0,0,0,0,0,0,0,0],"split_type":[0,0,0,0,0,0,0,0,0,0,0,0,0,0,0],"sum_hessian":[8.9498E4,5.3112E4,3.6386E4,1.8976E4,3.4136E4,2.3519E4,1.2867E4,9.472E3,9.504E3,5.28E2,3.3608E4,1.0847E4,1.2672E4,5.901E3,6.966E3],"tree_param":{"num_deleted":"0","num_feature":"3","num_nodes":"15","size_leaf_vector":"1"}},{"base_weights":[3.7843662E-3,-8.0535734E-1,1.623828E0,-2.0095034E0,-2.1571271E-1,9.449105E-1,2.6454122E0,-1.2283903E-1,-6.848582E-2,2.1583566E-2,-2.3946773E-2,3.0954584E-2,6.7151345E-2,5.010984E-2,1.664742E-1],"categories":[],"categories_nodes":[],"categories_segments":[],"categories_sizes":[],"default_left":[0,0,0,0,0,0,0,0,0,0,0,0,0,0,0],"id":12,"left_children":[1,3,5,7,9,11,13,-1,-1,-1,-1,-1,-1,-1,-1],"loss_changes":[1.1779784E5,4.2551453E4,2.0757812E4,5.6336406E3,6.855994E3,2.3317441E3,1.3428945E4,0E0,0E0,0E0,0E0,0E0,0E0,0E0,0E0],"parents":[2147483647,0,0,1,1,2,2,3,3,4,4,5,5,6,6],"right_children":[2,4,6,8,10,12,14,-1,-1,-1,-1,-1,-1,-1,-1],"split_conditions":[4.512056E-1,-5.922816E-1,1.1335185E0,-8.6907935E-1,-1.2327108E-1,7.917812E-1,-8.351554E-1,-1.2283903E-1,-6.848582E-2,2.1583566E-2,-2.3946773E-2,3.0954584E-2,6.7151345E-2,5.010984E-2,1.664742E-1],"split_indices":[1,1,1,1,0,1,0,0,0,0,0,0,0,0,0],"split_type":[0,0,0,0,0,0,0,0,0,0,0,0,0,0,0],"sum_hessian":[8.9862E4,5.993E4,2.9932E4,1.9699E4,4.0231E4,1.7983E4,1.1949E4,1.1592E4,8.107E3,1.1629E4,2.8602E4,9.891E3,8.092E3,3.513E3,8.436E3],"tree_param":{"num_deleted":"0","num_feature":"3","num_nodes":"15","size_leaf_vector":"1"}},{"base_weights":[1.5351243E-3,-7.4108E-1,1.6002942E0,-1.9511154E0,-2.001243E-1,6.6412675E-1,2.3897076E0,-1.6138127E-1,-8.6340666E-2,-1.5252708E-1,-7.65042E-3,-2.568446E-2,5.399704E-2,7.942995E-2,1.8332551E-1],"categories":[],"categories_nodes":[],"categories_segments":[],"categories_sizes":[],"default_left":[0,0,0,0,0,0,0,0,0,0,0,0,0,0,0],"id":13,"left_children":[1,3,5,7,9,11,13,-1,-1,-1,-1,-1,-1,-1,-1],"loss_changes":[1.0646667E5,4.008036E4,2.1017406E4,5.4103203E3,5.6822485E3,6.3737583E3,1.5776336E4,0E0,0E0,0E0,0E0,0E0,0E0,0E0,0E0],"parents":[2147483647,0,0,1,1,2,2,3,3,4,4,5,5,6,6],"right_children":[2,4,6,8,10,12,14,-1,-1,-1,-1,-1,-1,-1,-1],"split_conditions":[4.976175E-1,-6.12201E-1,-1.179954E-1,-1.4062508E0,-2.1112182E0,-1.7998337E0,1.1602318E0,-1.6138127E-1,-8.6340666E-2,-1.5252708E-1,-7.65042E-3,-2.568446E-2,5.399704E-2,7.942995E-2,1.8332551E-1],"split_indices":[1,1,2,1,2,2,1,0,0,0,0,0,0,0,0],"split_type":[0,0,0,0,0,0,0,0,0,0,0,0,0,0,0],"sum_hessian":[8.9672E4,6.1231E4,2.8441E4,1.8916E4,4.2315E4,1.3012E4,1.5429E4,2.825E3,1.6091E4,6.87E2,4.1628E4,3.395E3,9.617E3,9.482E3,5.947E3],"tree_param":{"num_deleted":"0","num_feature":"3","num_nodes":"15","size_leaf_vector":"1"}},{"base_weights":[-5.81473E-3,4.956801E-2,-1.239778E0,-1.1542414E0,1.11554585E-1,-1.9830298E0,-6.9678766E-1,-3.0374376E-2,-1.06145374E-1,2.146039E-2,-5.209258E-3,-7.287922E-2,-1.4109644E-1,7.4612066E-2,-4.6348687E-2],"categories":[],"categories_nodes":[],"categories_segments":[],"categories_sizes":[],"default_left":[0,0,0,0,0,0,0,0,0,0,0,0,0,0,0],"id":14,"left_children":[1,3,5,7,9,11,13,-1,-1,-1,-1,-1,-1,-1,-1],"loss_changes":[6.149233E3,6.425779E3,1.5581812E3,2.231853E3,5.612513E3,7.143965E2,1.1275072E3,0E0,0E0,0E0,0E0,0E0,0E0,0E0,0E0],"parents":[2147483647,0,0,1,1,2,2,3,3,4,4,5,5,6,6],"right_children":[2,4,6,8,10,12,14,-1,-1,-1,-1,-1,-1,-1,-1],"split_conditions":[1.0675519E0,-2.1112182E0,4.6361858E-1,-4.768424E-1,5.5934954E-2,1.5360907E-1,5.4255253E-1,-3.0374376E-2,-1.06145374E-1,2.146039E-2,-5.209258E-3,-7.287922E-2,-1.4109644E-1,7.4612066E-2,-4.6348687E-2],"split_indices":[0,2,2,0,0,2,2,0,0,0,0,0,0,0,0],"split_type":[0,0,0,0,0,0,0,0,0,0,0,0,0,0,0],"sum_hessian":[8.9976E4,8.6112E4,3.864E3,4.216E3,8.1896E4,1.63E3,2.234E3,2.696E3,1.52E3,3.3124E4,4.8772E4,1.004E3,6.26E2,2.12E2,2.022E3],"tree_param":{"num_deleted":"0","num_feature":"3","num_nodes":"15","size_leaf_vector":"1"}},{"base_weights":[-2.665512E-4,4.7606703E-2,-1.310166E0,-1.1381295E0,1.0287494E-1,-1.5961077E0,-1.4907272E-1,-2.828982E-2,-9.578932E-2,1.8339226E-2,-6.106214E-3,-1.8916209E-1,-7.662374E-2,4.415457E-2,-5.9883665E-2],"categories":[],"categories_nodes":[],"categories_segments":[],"categories_sizes":[],"default_left":[0,0,0,0,0,0,0,0,0,0,0,0,0,0,0],"id":15,"left_children":[1,3,5,7,9,11,13,-1,-1,-1,-1,-1,-1,-1,-1],"loss_changes":[5.623757E3,5.6697144E3,1.0493877E3,1.7135571E3,4.908612E3,3.4675488E2,6.786264E2,0E0,0E0,0E0,0E0,0E0,0E0,0E0,0E0],"parents":[2147483647,0,0,1,1,2,2,3,3,4,4,5,5,6,6],"right_children":[2,4,6,8,10,12,14,-1,-1,-1,-1,-1,-1,-1,-1],"split_conditions":[1.0989842E0,-2.1341507E0,9.187545E-1,-1.0619485E0,1.2975383E-1,-8.0989647E-1,1.2586265E0,-2.828982E-2,-9.578932E-2,1.8339226E-2,-6.106214E-3,-1.8916209E-1,-7.662374E-2,4.415457E-2,-5.9883665E-2],"split_indices":[0,2,2,0,0,2,0,0,0,0,0,0,0,0,0],"split_type":[0,0,0,0,0,0,0,0,0,0,0,0,0,0,0],"sum_hessian":[8.9676E4,8.6515E4,3.161E3,3.852E3,8.2663E4,2.536E3,6.25E2,2.22E3,1.632E3,3.8042E4,4.4621E4,7E1,2.466E3,3.15E2,3.1E2],"tree_param":{"num_deleted":"0","num_feature":"3","num_nodes":"15","size_leaf_vector":"1"}},{"base_weights":[-1.9075254E-3,-8.6652297E-1,1.2623594E0,-2.1549668E0,-4.3465942E-1,5.98597E-1,2.1987948E0,-1.7237483E-1,-9.80633E-2,-1.7037285E-2,-7.500061E-2,-2.3887528E-3,5.722859E-2,5.4222684E-2,1.5683892E-1],"categories":[],"categories_nodes":[],"categories_segments":[],"categories_sizes":[],"default_left":[0,0,0,0,0,0,0,0,0,0,0,0,0,0,0],"id":16,"left_children":[1,3,5,7,9,11,13,-1,-1,-1,-1,-1,-1,-1,-1],"loss_changes":[9.8026305E4,2.9632145E4,2.2636629E4,3.3398242E3,3.990148E3,7.52229E3,1.5786516E4,0E0,0E0,0E0,0E0,0E0,0E0,0E0,0E0],"parents":[2147483647,0,0,1,1,2,2,3,3,4,4,5,5,6,6],"right_children":[2,4,6,8,10,12,14,-1,-1,-1,-1,-1,-1,-1,-1],"split_conditions":[2.1603495E-1,-7.946538E-1,9.732295E-1,-1.6645304E0,1.0115625E0,-9.476331E-2,-1.284612E-1,-1.7237483E-1,-9.80633E-2,-1.7037285E-2,-7.500061E-2,-2.3887528E-3,5.722859E-2,5.4222684E-2,1.5683892E-1],"split_indices":[1,1,1,1,2,2,2,0,0,0,0,0,0,0,0],"split_type":[0,0,0,0,0,0,0,0,0,0,0,0,0,0,0],"sum_hessian":[8.9675E4,5.3255E4,3.642E4,1.3368E4,3.9887E4,2.1314E4,1.5106E4,1.74E3,1.1628E4,3.6657E4,3.23E3,9.76E3,1.1554E4,6.905E3,8.201E3],"tree_param":{"num_deleted":"0","num_feature":"3","num_nodes":"15","size_leaf_vector":"1"}},{"base_weights":[-9.686161E-4,-6.659205E-1,1.4420644E0,-1.7412149E0,-1.5872279E-1,5.996683E-1,2.1587029E0,-1.5185826E-1,-7.787864E-2,-1.3936742E-1,-5.7644653E-3,-2.255219E-2,4.86868E-2,4.270004E-2,1.3899817E-1],"categories":[],"categories_nodes":[],"categories_segments":[],"categories_sizes":[],"default_left":[0,0,0,0,0,0,0,0,0,0,0,0,0,0,0],"id":17,"left_children":[1,3,5,7,9,11,13,-1,-1,-1,-1,-1,-1,-1,-1],"loss_changes":[8.605214E4,3.3481375E4,1.7076312E4,4.6775234E3,4.76212E3,5.111942E3,1.2386672E4,0E0,0E0,0E0,0E0,0E0,0E0,0E0,0E0],"parents":[2147483647,0,0,1,1,2,2,3,3,4,4,5,5,6,6],"right_children":[2,4,6,8,10,12,14,-1,-1,-1,-1,-1,-1,-1,-1],"split_conditions":[4.976175E-1,-5.922816E-1,-1.1383551E-1,-1.4751483E0,-2.1112182E0,-1.7998337E0,7.917812E-1,-1.5185826E-1,-7.787864E-2,-1.3936742E-1,-5.7644653E-3,-2.255219E-2,4.86868E-2,4.270004E-2,1.3899817E-1],"split_indices":[1,1,2,1,2,2,1,0,0,0,0,0,0,0,0],"split_type":[0,0,0,0,0,0,0,0,0,0,0,0,0,0,0],"sum_hessian":[8.9678E4,6.139E4,2.8288E4,1.9675E4,4.1715E4,1.3004E4,1.5284E4,2.44E3,1.7235E4,6.77E2,4.1038E4,3.414E3,9.59E3,4.931E3,1.0353E4],"tree_param":{"num_deleted":"0","num_feature":"3","num_nodes":"15","size_leaf_vector":"1"}},{"base_weights":[-6.3479603E-3,-7.795202E-1,1.1231608E0,-1.9797583E0,-3.9238927E-1,6.2059784E-1,2.166E0,-9.3677275E-2,-2.1416123E-1,-4.2813856E-2,-9.034137E-3,-2.338391E-3,5.9350308E-2,5.7291318E-2,1.5537992E-1],"categories":[],"categories_nodes":[],"categories_segments":[],"categories_sizes":[],"default_left":[0,0,0,0,0,0,0,0,0,0,0,0,0,0,0],"id":18,"left_children":[1,3,5,7,9,11,13,-1,-1,-1,-1,-1,-1,-1,-1],"loss_changes":[7.825508E4,2.4716006E4,1.9082152E4,3.1653086E3,3.9499653E3,9.2888E3,1.1370402E4,0E0,0E0,0E0,0E0,0E0,0E0,0E0,0E0],"parents":[2147483647,0,0,1,1,2,2,3,3,4,4,5,5,6,6],"right_children":[2,4,6,8,10,12,14,-1,-1,-1,-1,-1,-1,-1,-1],"split_conditions":[2.1603495E-1,-8.099682E-1,1.1335185E0,1.5590057E0,-4.2348605E-1,-8.447862E-2,-1.284612E-1,-9.3677275E-2,-2.1416123E-1,-4.2813856E-2,-9.034137E-3,-2.338391E-3,5.9350308E-2,5.7291318E-2,1.5537992E-1],"split_indices":[1,1,1,2,1,2,2,0,0,0,0,0,0,0,0],"split_type":[0,0,0,0,0,0,0,0,0,0,0,0,0,0,0],"sum_hessian":[8.9606E4,5.3194E4,3.6412E4,1.2972E4,4.0222E4,2.4572E4,1.184E4,1.2402E4,5.7E2,1.2603E4,2.7619E4,1.1281E4,1.3291E4,5.684E3,6.156E3],"tree_param":{"num_deleted":"0","num_feature":"3","num_nodes":"15","size_leaf_vector":"1"}},{"base_weights":[-3.8897173E-4,-6.30658E-1,1.2752696E0,-1.6100107E0,-1.8790296E-1,7.2135717E-1,2.0997887E0,-3.9298646E-2,-9.924069E-2,2.0418426E-2,-2.1016253E-2,7.4093245E-2,2.7894964E-2,3.762583E-2,1.328965E-1],"categories":[],"categories_nodes":[],"categories_segments":[],"categories_sizes":[],"default_left":[0,0,0,0,0,0,0,0,0,0,0,0,0,0,0],"id":19,"left_children":[1,3,5,7,9,11,13,-1,-1,-1,-1,-1,-1,-1,-1],"loss_changes":[7.203986E4,2.6003744E4,1.35305625E4,5.7647383E3,5.7239414E3,2.2023809E3,8.95059E3,0E0,0E0,0E0,0E0,0E0,0E0,0E0,0E0],"parents":[2147483647,0,0,1,1,2,2,3,3,4,4,5,5,6,6],"right_children":[2,4,6,8,10,12,14,-1,-1,-1,-1,-1,-1,-1,-1],"split_conditions":[4.512056E-1,-6.2212604E-1,1.1335185E0,-6.08789E-1,-1.4501868E-1,-4.5235696E-1,-8.351554E-1,-3.9298646E-2,-9.924069E-2,2.0418426E-2,-2.1016253E-2,7.4093245E-2,2.7894964E-2,3.762583E-2,1.328965E-1],"split_indices":[1,1,1,0,0,0,0,0,0,0,0,0,0,0,0],"split_type":[0,0,0,0,0,0,0,0,0,0,0,0,0,0,0],"sum_hessian":[8.9599E4,5.997E4,2.9629E4,1.867E4,4.13E4,1.7724E4,1.1905E4,5.838E3,1.2832E4,1.1583E4,2.9717E4,3.134E3,1.459E4,3.488E3,8.417E3],"tree_param":{"num_deleted":"0","num_feature":"3","num_nodes":"15","size_leaf_vector":"1"}},{"base_weights":[-6.0178693E-3,2.523584E-1,-2.3120472E-1,-3.4408856E-2,6.9394E-1,-1.6418913E-1,-1.1914409E0,-5.3322833E-2,4.6481555E-3,4.9044933E-2,-1.0187362E-2,-1.1287644E-1,-6.77864E-3,-9.368249E-2,-3.567819E-2],"categories":[],"categories_nodes":[],"categories_segments":[],"categories_sizes":[],"default_left":[0,0,0,0,0,0,0,0,0,0,0,0,0,0,0],"id":20,"left_children":[1,3,5,7,9,11,13,-1,-1,-1,-1,-1,-1,-1,-1],"loss_changes":[5.2181924E3,5.28884E3,3.083423E3,3.3288738E3,4.2362373E3,2.6829004E3,1.01751807E3,0E0,0E0,0E0,0E0,0E0,0E0,0E0,0E0],"parents":[2147483647,0,0,1,1,2,2,3,3,4,4,5,5,6,6],"right_children":[2,4,6,8,10,12,14,-1,-1,-1,-1,-1,-1,-1,-1],"split_conditions":[1.355616E-1,2.2226283E-1,1.0989842E0,-2.2393563E0,8.600455E-1,-1.3178058E0,4.6361858E-1,-5.3322833E-2,4.6481555E-3,4.9044933E-2,-1.0187362E-2,-1.1287644E-1,-6.77864E-3,-9.368249E-2,-3.567819E-2],"split_indices":[0,2,0,2,2,2,2,0,0,0,0,0,0,0,0],"split_type":[0,0,0,0,0,0,0,0,0,0,0,0,0,0,0],"sum_hessian":[8.9684E4,4.1764E4,4.792E4,2.5321E4,1.6443E4,4.4795E4,3.125E3,2.781E3,2.254E4,1.246E4,3.983E3,6.03E2,4.4192E4,1.286E3,1.839E3],"tree_param":{"num_deleted":"0","num_feature":"3","num_nodes":"15","size_leaf_vector":"1"}},{"base_weights":[-9.832393E-4,2.516552E-1,-2.1978207E-1,-9.837422E-1,3.4043434E-1,-1.5432766E-1,-1.1433436E0,-3.0407194E-2,-8.0614954E-2,1.55377975E-2,1.4960887E-1,-1.05708204E-1,-6.436472E-3,-8.977809E-2,-3.355768E-2],"categories":[],"categories_nodes":[],"categories_segments":[],"categories_sizes":[],"default_left":[0,0,0,0,0,0,0,0,0,0,0,0,0,0,0],"id":21,"left_children":[1,3,5,7,9,11,13,-1,-1,-1,-1,-1,-1,-1,-1],"loss_changes":[4.961383E3,4.568998E3,2.9073352E3,6.5818286E2,3.0573184E3,2.2529146E3,9.788198E2,0E0,0E0,0E0,0E0,0E0,0E0,0E0,0E0],"parents":[2147483647,0,0,1,1,2,2,3,3,4,4,5,5,6,6],"right_children":[2,4,6,8,10,12,14,-1,-1,-1,-1,-1,-1,-1,-1],"split_conditions":[1.355616E-1,-2.2393563E0,1.0989842E0,-1.0619485E0,1.8522258E0,-1.945856E0,4.6361858E-1,-3.0407194E-2,-8.0614954E-2,1.55377975E-2,1.4960887E-1,-1.05708204E-1,-6.436472E-3,-8.977809E-2,-3.355768E-2],"split_indices":[0,2,0,0,2,2,2,0,0,0,0,0,0,0,0],"split_type":[0,0,0,0,0,0,0,0,0,0,0,0,0,0,0],"sum_hessian":[8.9753E4,4.1655E4,4.8098E4,2.792E3,3.8863E4,4.4916E4,3.182E3,1.749E3,1.043E3,3.8434E4,4.29E2,5.78E2,4.4338E4,1.335E3,1.847E3],"tree_param":{"num_deleted":"0","num_feature":"3","num_nodes":"15","size_leaf_vector":"1"}},{"base_weights":[2.6838705E-3,-7.1079236E-1,1.0419774E0,-1.7770725E0,-3.5326645E-1,4.8653734E-1,1.8306293E0,-4.9800497E-2,-1.08650565E-1,-1.1726512E-2,-6.740982E-2,4.4980235E-2,8.083552E-3,4.0654693E-2,1.08447246E-1],"categories":[],"categories_nodes":[],"categories_segments":[],"categories_sizes":[],"default_left":[0,0,0,0,0,0,0,0,0,0,0,0,0,0,0],"id":22,"left_children":[1,3,5,7,9,11,13,-1,-1,-1,-1,-1,-1,-1,-1],"loss_changes":[6.623849E4,2.0191387E4,1.5927211E4,4.110582E3,4.6856743E3,2.862996E3,5.1706094E3,0E0,0E0,0E0,0E0,0E0,0E0,0E0,0E0],"parents":[2147483647,0,0,1,1,2,2,3,3,4,4,5,5,6,6],"right_children":[2,4,6,8,10,12,14,-1,-1,-1,-1,-1,-1,-1,-1],"split_conditions":[2.1603495E-1,-7.946538E-1,9.732295E-1,-6.08789E-1,8.422469E-1,1.9843292E-1,-8.351554E-1,-4.9800497E-2,-1.08650565E-1,-1.1726512E-2,-6.740982E-2,4.4980235E-2,8.083552E-3,4.0654693E-2,1.08447246E-1],"split_indices":[1,1,1,0,0,0,0,0,0,0,0,0,0,0,0],"split_type":[0,0,0,0,0,0,0,0,0,0,0,0,0,0,0],"sum_hessian":[8.9327E4,5.2966E4,3.6361E4,1.3299E4,3.9667E4,2.1336E4,1.5025E4,4.475E3,8.824E3,3.5439E4,4.228E3,9.392E3,1.1944E4,3.75E3,1.1275E4],"tree_param":{"num_deleted":"0","num_feature":"3","num_nodes":"15","size_leaf_vector":"1"}},{"base_weights":[-3.5317505E-3,-6.783126E-1,9.866675E-1,-1.7358031E0,-3.3852714E-1,5.381012E-1,1.9110364E0,-1.5541704E-1,-7.839348E-2,-1.2519737E-2,-6.7004696E-2,-3.8250356E-3,5.2595373E-2,1.3216416E-2,1.1768522E-1],"categories":[],"categories_nodes":[],"categories_segments":[],"categories_sizes":[],"default_left":[0,0,0,0,0,0,0,0,0,0,0,0,0,0,0],"id":23,"left_children":[1,3,5,7,9,11,13,-1,-1,-1,-1,-1,-1,-1,-1],"loss_changes":[5.980363E4,1.91258E4,1.5039406E4,2.9781914E3,3.5556592E3,7.7129424E3,8.637844E3,0E0,0E0,0E0,0E0,0E0,0E0,0E0,0E0],"parents":[2147483647,0,0,1,1,2,2,3,3,4,4,5,5,6,6],"right_children":[2,4,6,8,10,12,14,-1,-1,-1,-1,-1,-1,-1,-1],"split_conditions":[2.1603495E-1,-8.099682E-1,1.1335185E0,-1.8171813E0,1.0115625E0,-9.000567E-2,-1.1786315E0,-1.5541704E-1,-7.839348E-2,-1.2519737E-2,-6.7004696E-2,-3.8250356E-3,5.2595373E-2,1.3216416E-2,1.1768522E-1],"split_indices":[1,1,1,1,2,2,2,0,0,0,0,0,0,0,0],"split_type":[0,0,0,0,0,0,0,0,0,0,0,0,0,0,0],"sum_hessian":[8.9502E4,5.3229E4,3.6273E4,1.2943E4,4.0286E4,2.4423E4,1.185E4,1.409E3,1.1534E4,3.7029E4,3.257E3,1.1121E4,1.3302E4,2.511E3,9.339E3],"tree_param":{"num_deleted":"0","num_feature":"3","num_nodes":"15","size_leaf_vector":"1"}},{"base_weights":[-3.1319077E-3,-5.280441E-1,1.1500145E0,-1.3729109E0,-1.1231121E-1,6.920223E-1,1.8379732E0,-3.310498E-2,-8.408045E-2,2.0789532E-2,-1.6356258E-2,7.3646985E-2,2.653024E-2,3.3138826E-2,1.1942724E-1],"categories":[],"categories_nodes":[],"categories_segments":[],"categories_sizes":[],"default_left":[0,0,0,0,0,0,0,0,0,0,0,0,0,0,0],"id":24,"left_children":[1,3,5,7,9,11,13,-1,-1,-1,-1,-1,-1,-1,-1],"loss_changes":[5.4312957E4,2.1657436E4,8.842133E3,4.4606836E3,4.688412E3,2.123276E3,7.2558477E3,0E0,0E0,0E0,0E0,0E0,0E0,0E0,0E0],"parents":[2147483647,0,0,1,1,2,2,3,3,4,4,5,5,6,6],"right_children":[2,4,6,8,10,12,14,-1,-1,-1,-1,-1,-1,-1,-1],"split_conditions":[5.1051867E-1,-5.718326E-1,1.1825445E0,-6.08789E-1,-1.2327108E-1,-4.5235696E-1,-6.867597E-1,-3.310498E-2,-8.408045E-2,2.0789532E-2,-1.6356258E-2,7.3646985E-2,2.653024E-2,3.3138826E-2,1.1942724E-1],"split_indices":[1,1,1,0,0,0,0,0,0,0,0,0,0,0,0],"split_type":[0,0,0,0,0,0,0,0,0,0,0,0,0,0,0],"sum_hessian":[8.9727E4,6.166E4,2.8067E4,2.0334E4,4.1326E4,1.6851E4,1.1216E4,6.158E3,1.4176E4,1.1949E4,2.9377E4,2.885E3,1.3966E4,3.579E3,7.637E3],"tree_param":{"num_deleted":"0","num_feature":"3","num_nodes":"15","size_leaf_vector":"1"}},{"base_weights":[-1.7826209E-3,-4.048008E-1,1.4039508E0,-1.2974077E0,-3.8075287E-2,5.3347695E-1,2.1859512E0,-1.3640462E-1,-5.817729E-2,-1.1035589E-1,7.5265643E-4,-1.5273224E-2,4.4996884E-2,9.389202E-2,1.6734499E-1],"categories":[],"categories_nodes":[],"categories_segments":[],"categories_sizes":[],"default_left":[0,0,0,0,0,0,0,0,0,0,0,0,0,0,0],"id":25,"left_children":[1,3,5,7,9,11,13,-1,-1,-1,-1,-1,-1,-1,-1],"loss_changes":[5.0755875E4,2.2791969E4,1.358691E4,3.879582E3,5.687583E3,2.9050186E3,3.754414E3,0E0,0E0,0E0,0E0,0E0,0E0,0E0,0E0],"parents":[2147483647,0,0,1,1,2,2,3,3,4,4,5,5,6,6],"right_children":[2,4,6,8,10,12,14,-1,-1,-1,-1,-1,-1,-1,-1],"split_conditions":[7.917812E-1,-5.718326E-1,-1.284612E-1,-1.6645304E0,-2.1112182E0,-1.7998337E0,1.5696037E0,-1.3640462E-1,-5.817729E-2,-1.1035589E-1,7.5265643E-4,-1.5273224E-2,4.4996884E-2,9.389202E-2,1.6734499E-1],"split_indices":[1,1,2,1,2,2,1,0,0,0,0,0,0,0,0],"split_type":[0,0,0,0,0,0,0,0,0,0,0,0,0,0,0],"sum_hessian":[8.9588E4,6.9627E4,1.9961E4,2.0275E4,4.9352E4,9.447E3,1.0514E4,1.733E3,1.8542E4,1.179E3,4.8173E4,2.872E3,6.575E3,8.311E3,2.203E3],"tree_param":{"num_deleted":"0","num_feature":"3","num_nodes":"15","size_leaf_vector":"1"}},{"base_weights":[2.491381E-3,-5.8041E-1,8.583284E-1,-1.478231E0,-2.913187E-1,3.80832E-1,1.5074648E0,-3.8500924E-2,-9.2917465E-2,-9.124941E-3,-6.501405E-2,3.9971467E-2,5.0412808E-3,1.224759E-2,8.4249295E-2],"categories":[],"categories_nodes":[],"categories_segments":[],"categories_sizes":[],"default_left":[0,0,0,0,0,0,0,0,0,0,0,0,0,0,0],"id":26,"left_children":[1,3,5,7,9,11,13,-1,-1,-1,-1,-1,-1,-1,-1],"loss_changes":[4.4631805E4,1.38125E4,1.1234367E4,3.4877363E3,4.4197476E3,2.447876E3,3.442371E3,0E0,0E0,0E0,0E0,0E0,0E0,0E0,0E0],"parents":[2147483647,0,0,1,1,2,2,3,3,4,4,5,5,6,6],"right_children":[2,4,6,8,10,12,14,-1,-1,-1,-1,-1,-1,-1,-1],"split_conditions":[2.1603495E-1,-8.099682E-1,9.569528E-1,-5.6348294E-1,8.73538E-1,1.4505015E-1,-2.4306123E0,-3.8500924E-2,-9.2917465E-2,-9.124941E-3,-6.501405E-2,3.9971467E-2,5.0412808E-3,1.224759E-2,8.4249295E-2],"split_indices":[1,1,1,0,0,0,0,0,0,0,0,0,0,0,0],"split_type":[0,0,0,0,0,0,0,0,0,0,0,0,0,0,0],"sum_hessian":[8.9464E4,5.3218E4,3.6246E4,1.2961E4,4.0257E4,2.0885E4,1.5361E4,4.528E3,8.433E3,3.6339E4,3.918E3,8.37E3,1.2515E4,1.894E3,1.3467E4],"tree_param":{"num_deleted":"0","num_feature":"3","num_nodes":"15","size_leaf_vector":"1"}},{"base_weights":[1.359849E-3,2.328777E-1,-1.9950828E-1,-9.4474435E-1,3.1781453E-1,-5.424859E-1,-6.665103E-2,2.6471475E-2,-5.7591416E-2,4.814144E-3,3.0730024E-2,-2.0830294E-2,-8.005086E-2,2.2754045E-2,-1.1353426E-2],"categories":[],"categories_nodes":[],"categories_segments":[],"categories_sizes":[],"default_left":[0,0,0,0,0,0,0,0,0,0,0,0,0,0,0],"id":27,"left_children":[1,3,5,7,9,11,13,-1,-1,-1,-1,-1,-1,-1,-1],"loss_changes":[4.1721597E3,4.1690166E3,2.1888076E3,8.5667065E2,2.555803E3,1.7862524E3,2.898101E3,0E0,0E0,0E0,0E0,0E0,0E0,0E0,0E0],"parents":[2147483647,0,0,1,1,2,2,3,3,4,4,5,5,6,6],"right_children":[2,4,6,8,10,12,14,-1,-1,-1,-1,-1,-1,-1,-1],"split_conditions":[1.355616E-1,-2.2393563E0,-1.4642595E-1,-3.4089377E0,2.1572605E-1,9.529754E-1,1.06047034E-1,2.6471475E-2,-5.7591416E-2,4.814144E-3,3.0730024E-2,-2.0830294E-2,-8.005086E-2,2.2754045E-2,-1.1353426E-2],"split_indices":[0,2,2,2,2,0,2,0,0,0,0,0,0,0,0],"split_type":[0,0,0,0,0,0,0,0,0,0,0,0,0,0,0],"sum_hessian":[8.9713E4,4.1677E4,4.8036E4,2.803E3,3.8874E4,1.3411E4,3.4625E4,3.45E2,2.458E3,2.226E4,1.6614E4,1.1987E4,1.424E3,8.142E3,2.6483E4],"tree_param":{"num_deleted":"0","num_feature":"3","num_nodes":"15","size_leaf_vector":"1"}},{"base_weights":[1.9544552E-3,2.3283632E-1,-1.9755861E-1,-2.069935E-2,5.72355E-1,-1.9484625E0,-1.741745E-1,-4.2323664E-2,4.421699E-3,3.997165E-2,-1.4277716E-2,-5.7458688E-2,-1.05327986E-1,-6.7598596E-3,-5.9723902E-2],"categories":[],"categories_nodes":[],"categories_segments":[],"categories_sizes":[],"default_left":[0,0,0,0,0,0,0,0,0,0,0,0,0,0,0],"id":28,"left_children":[1,3,5,7,9,11,13,-1,-1,-1,-1,-1,-1,-1,-1],"loss_changes":[4.1318013E3,3.5792776E3,1.9695178E3,2.1454443E3,3.4632627E3,7.7369385E1,1.8880824E3,0E0,0E0,0E0,0E0,0E0,0E0,0E0,0E0],"parents":[2147483647,0,0,1,1,2,2,3,3,4,4,5,5,6,6],"right_children":[2,4,6,8,10,12,14,-1,-1,-1,-1,-1,-1,-1,-1],"split_conditions":[1.355616E-1,1.7631865E-1,-1.3178058E0,-2.2393563E0,9.187545E-1,2.5068954E-1,1.1940864E0,-4.2323664E-2,4.421699E-3,3.997165E-2,-1.4277716E-2,-5.7458688E-2,-1.05327986E-1,-6.7598596E-3,-5.9723902E-2],"split_indices":[0,2,2,2,2,0,0,0,0,0,0,0,0,0,0],"split_type":[0,0,0,0,0,0,0,0,0,0,0,0,0,0,0],"sum_hessian":[8.9695E4,4.1579E4,4.8116E4,2.3804E4,1.7775E4,6.33E2,4.7483E4,2.778E3,2.1026E4,1.4055E4,3.72E3,1.06E2,5.27E2,4.5737E4,1.746E3],"tree_param":{"num_deleted":"0","num_feature":"3","num_nodes":"15","size_leaf_vector":"1"}},{"base_weights":[2.4907272E-3,-5.767841E-1,8.1042475E-1,-1.4729291E0,-3.1323966E-1,2.6372334E-1,1.3596551E0,-6.843718E-2,-1.7481343E-1,-1.1914845E-2,-6.0385387E-2,-1.152306E-3,5.3296234E-2,3.172296E-2,1.0464106E-1],"categories":[],"categories_nodes":[],"categories_segments":[],"categories_sizes":[],"default_left":[0,0,0,0,0,0,0,0,0,0,0,0,0,0,0],"id":29,"left_children":[1,3,5,7,9,11,13,-1,-1,-1,-1,-1,-1,-1,-1],"loss_changes":[4.1931434E4,1.2323154E4,1.1233295E4,2.4944297E3,2.7026438E3,4.313737E3,9.921316E3,0E0,0E0,0E0,0E0,0E0,0E0,0E0,0E0],"parents":[2147483647,0,0,1,1,2,2,3,3,4,4,5,5,6,6],"right_children":[2,4,6,8,10,12,14,-1,-1,-1,-1,-1,-1,-1,-1],"split_conditions":[1.8715206E-1,-8.542064E-1,2.693479E-2,1.5590057E0,1.0115625E0,1.3272367E0,8.029797E-1,-6.843718E-2,-1.7481343E-1,-1.1914845E-2,-6.0385387E-2,-1.152306E-3,5.3296234E-2,3.172296E-2,1.0464106E-1],"split_indices":[1,1,2,2,2,1,1,0,0,0,0,0,0,0,0],"split_type":[0,0,0,0,0,0,0,0,0,0,0,0,0,0,0],"sum_hessian":[8.9592E4,5.218E4,3.7412E4,1.1857E4,4.0323E4,1.875E4,1.8662E4,1.1278E4,5.79E2,3.7207E4,3.116E3,1.3813E4,4.937E3,9.383E3,9.279E3],"tree_param":{"num_deleted":"0","num_feature":"3","num_nodes":"15","size_leaf_vector":"1"}},{"base_weights":[3.744334E-3,-4.3738443E-1,9.69926E-1,-1.1293756E0,-9.833213E-2,-4.49713E-1,1.2063E0,-1.0481148E-1,-4.8667327E-2,-1.1551108E-1,-3.226695E-3,-7.141669E-2,7.967397E-3,4.7443043E-2,1.2605765E-1],"categories":[],"categories_nodes":[],"categories_segments":[],"categories_sizes":[],"default_left":[0,0,0,0,0,0,0,0,0,0,0,0,0,0,0],"id":30,"left_children":[1,3,5,7,9,11,13,-1,-1,-1,-1,-1,-1,-1,-1],"loss_changes":[3.8231137E4,1.4448442E4,9.435721E3,3.052664E3,3.0895842E3,2.392858E3,8.156336E3,0E0,0E0,0E0,0E0,0E0,0E0,0E0,0E0],"parents":[2147483647,0,0,1,1,2,2,3,3,4,4,5,5,6,6],"right_children":[2,4,6,8,10,12,14,-1,-1,-1,-1,-1,-1,-1,-1],"split_conditions":[5.1051867E-1,-5.718326E-1,-1.2029146E0,-1.4062508E0,-2.1341507E0,1.221638E0,1.5386719E0,-1.0481148E-1,-4.8667327E-2,-1.1551108E-1,-3.226695E-3,-7.141669E-2,7.967397E-3,4.7443043E-2,1.2605765E-1],"split_indices":[1,1,2,1,2,1,1,0,0,0,0,0,0,0,0],"split_type":[0,0,0,0,0,0,0,0,0,0,0,0,0,0,0],"sum_hessian":[8.9698E4,6.1582E4,2.8116E4,2.025E4,4.1332E4,4.013E3,2.4103E4,2.812E3,1.7438E4,6.21E2,4.0711E4,1.539E3,2.474E3,2.0158E4,3.945E3],"tree_param":{"num_deleted":"0","num_feature":"3","num_nodes":"15","size_leaf_vector":"1"}},{"base_weights":[1.0637775E-3,-8.4911E-1,4.5447886E-1,-1.4492096E0,-5.8625615E-1,1.3239118E-1,1.2516397E0,-6.640187E-2,-1.7045422E-1,-9.577715E-3,-3.8195662E-2,-9.262396E-2,9.892907E-3,3.157304E-2,9.7574286E-2],"categories":[],"categories_nodes":[],"categories_segments":[],"categories_sizes":[],"default_left":[0,0,0,0,0,0,0,0,0,0,0,0,0,0,0],"id":31,"left_children":[1,3,5,7,9,11,13,-1,-1,-1,-1,-1,-1,-1,-1],"loss_changes":[3.45395E4,4.914865E3,1.5003471E4,2.2491797E3,1.5195732E3,5.408576E3,7.2971543E3,0E0,0E0,0E0,0E0,0E0,0E0,0E0,0E0],"parents":[2147483647,0,0,1,1,2,2,3,3,4,4,5,5,6,6],"right_children":[2,4,6,8,10,12,14,-1,-1,-1,-1,-1,-1,-1,-1],"split_conditions":[-2.994977E-1,-9.616994E-1,8.960811E-1,1.476523E0,-3.5609834E-2,-2.1112182E0,4.4345777E-2,-6.640187E-2,-1.7045422E-1,-9.577715E-3,-3.8195662E-2,-9.262396E-2,9.892907E-3,3.157304E-2,9.7574286E-2],"split_indices":[1,1,1,2,2,2,2,0,0,0,0,0,0,0,0],"split_type":[0,0,0,0,0,0,0,0,0,0,0,0,0,0,0],"sum_hessian":[8.9599E4,3.1164E4,5.8435E4,9.491E3,2.1673E4,4.162E4,1.6815E4,8.94E3,5.51E2,6.728E3,1.4945E4,1.328E3,4.0292E4,8.916E3,7.899E3],"tree_param":{"num_deleted":"0","num_feature":"3","num_nodes":"15","size_leaf_vector":"1"}},{"base_weights":[9.24E-4,2.2385603E-1,-1.9858722E-1,5.3077E-3,5.545752E-1,-5.167948E-1,-7.659708E-2,-4.6586063E-2,3.97408E-3,1.1870789E-1,2.2585874E-2,-1.3792253E-3,-3.9194446E-2,2.0458838E-2,-1.1264853E-2],"categories":[],"categories_nodes":[],"categories_segments":[],"categories_sizes":[],"default_left":[0,0,0,0,0,0,0,0,0,0,0,0,0,0,0],"id":32,"left_children":[1,3,5,7,9,11,13,-1,-1,-1,-1,-1,-1,-1,-1],"loss_changes":[3.9915415E3,3.063377E3,1.8382917E3,1.7737773E3,3.154879E3,1.7147471E3,2.4730962E3,0E0,0E0,0E0,0E0,0E0,0E0,0E0,0E0],"parents":[2147483647,0,0,1,1,2,2,3,3,4,4,5,5,6,6],"right_children":[2,4,6,8,10,12,14,-1,-1,-1,-1,-1,-1,-1,-1],"split_conditions":[1.4505015E-1,2.190711E-1,-1.4642595E-1,-2.3838239E0,-1.8736656E0,3.4221128E-1,1.06047034E-1,-4.6586063E-2,3.97408E-3,1.1870789E-1,2.2585874E-2,-1.3792253E-3,-3.9194446E-2,2.0458838E-2,-1.1264853E-2],"split_indices":[0,2,2,2,0,0,2,0,0,0,0,0,0,0,0],"split_type":[0,0,0,0,0,0,0,0,0,0,0,0,0,0,0],"sum_hessian":[8.9741E4,4.2383E4,4.7358E4,2.552E4,1.6863E4,1.3123E4,3.4235E4,1.871E3,2.3649E4,9.01E2,1.5962E4,4.635E3,8.488E3,8.023E3,2.6212E4],"tree_param":{"num_deleted":"0","num_feature":"3","num_nodes":"15","size_leaf_vector":"1"}},{"base_weights":[2.7024618E-3,2.1622759E-1,-1.8619585E-1,-7.3367554E-1,2.8535986E-1,-4.9097267E-1,-6.8969086E-2,3.724335E-2,-4.709753E-2,1.11746065E-1,1.2872547E-2,-1.8377492E-2,-7.379732E-2,2.036423E-2,-1.0776258E-2],"categories":[],"categories_nodes":[],"categories_segments":[],"categories_sizes":[],"default_left":[0,0,0,0,0,0,0,0,0,0,0,0,0,0,0],"id":33,"left_children":[1,3,5,7,9,11,13,-1,-1,-1,-1,-1,-1,-1,-1],"loss_changes":[3.6260374E3,2.7713289E3,1.7041359E3,8.823638E2,2.1395083E3,1.6100522E3,2.4046753E3,0E0,0E0,0E0,0E0,0E0,0E0,0E0,0E0],"parents":[2147483647,0,0,1,1,2,2,3,3,4,4,5,5,6,6],"right_children":[2,4,6,8,10,12,14,-1,-1,-1,-1,-1,-1,-1,-1],"split_conditions":[1.4054607E-1,-2.2393563E0,-1.4642595E-1,-3.4089377E0,-3.5269744E0,9.529754E-1,1.06047034E-1,3.724335E-2,-4.709753E-2,1.11746065E-1,1.2872547E-2,-1.8377492E-2,-7.379732E-2,2.036423E-2,-1.0776258E-2],"split_indices":[0,2,2,2,0,0,2,0,0,0,0,0,0,0,0],"split_type":[0,0,0,0,0,0,0,0,0,0,0,0,0,0,0],"sum_hessian":[8.9897E4,4.2198E4,4.7699E4,2.862E3,3.9336E4,1.3249E4,3.445E4,3.53E2,2.509E3,5.54E2,3.8782E4,1.1775E4,1.474E3,8.106E3,2.6344E4],"tree_param":{"num_deleted":"0","num_feature":"3","num_nodes":"15","size_leaf_vector":"1"}},{"base_weights":[-2.532807E-4,-4.883381E-1,7.1142113E-1,-1.1555626E0,-2.247736E-1,2.1332598E-1,1.1983404E0,-5.386805E-2,-1.5506555E-1,-7.089104E-3,-5.822618E-2,-2.0790126E-3,5.1009923E-2,2.9501418E-2,8.946048E-2],"categories":[],"categories_nodes":[],"categories_segments":[],"categories_sizes":[],"default_left":[0,0,0,0,0,0,0,0,0,0,0,0,0,0,0],"id":34,"left_children":[1,3,5,7,9,11,13,-1,-1,-1,-1,-1,-1,-1,-1],"loss_changes":[3.1128418E4,9.347795E3,8.841598E3,2.2865645E3,2.9717183E3,3.707054E3,6.6248496E3,0E0,0E0,0E0,0E0,0E0,0E0,0E0,0E0],"parents":[2147483647,0,0,1,1,2,2,3,3,4,4,5,5,6,6],"right_children":[2,4,6,8,10,12,14,-1,-1,-1,-1,-1,-1,-1,-1],"split_conditions":[2.1603495E-1,-7.313259E-1,6.3205627E-3,1.5590057E0,1.0115625E0,1.4399874E0,8.029797E-1,-5.386805E-2,-1.5506555E-1,-7.089104E-3,-5.822618E-2,-2.0790126E-3,5.1009923E-2,2.9501418E-2,8.946048E-2],"split_indices":[1,1,2,2,2,1,1,0,0,0,0,0,0,0,0],"split_type":[0,0,0,0,0,0,0,0,0,0,0,0,0,0,0],"sum_hessian":[8.9613E4,5.3157E4,3.6456E4,1.5051E4,3.8106E4,1.8022E4,1.8434E4,1.4471E4,5.8E2,3.5015E4,3.091E3,1.3696E4,4.326E3,9.084E3,9.35E3],"tree_param":{"num_deleted":"0","num_feature":"3","num_nodes":"15","size_leaf_vector":"1"}},{"base_weights":[8.887252E-4,-3.8152486E-1,8.4499866E-1,-9.893504E-1,-8.966421E-2,4.8914412E-1,1.3749685E0,-1.7426759E-2,-6.4208746E-2,1.7502075E-2,-1.338712E-2,5.943947E-2,1.718196E-2,1.8134566E-2,9.075994E-2],"categories":[],"categories_nodes":[],"categories_segments":[],"categories_sizes":[],"default_left":[0,0,0,0,0,0,0,0,0,0,0,0,0,0,0],"id":35,"left_children":[1,3,5,7,9,11,13,-1,-1,-1,-1,-1,-1,-1,-1],"loss_changes":[2.8910254E4,1.09342295E4,5.2653887E3,3.7770078E3,3.260816E3,1.700343E3,4.9978125E3,0E0,0E0,0E0,0E0,0E0,0E0,0E0,0E0],"parents":[2147483647,0,0,1,1,2,2,3,3,4,4,5,5,6,6],"right_children":[2,4,6,8,10,12,14,-1,-1,-1,-1,-1,-1,-1,-1],"split_conditions":[5.1051867E-1,-5.8207756E-1,1.1825445E0,-5.6348294E-1,-1.2327108E-1,-4.5235696E-1,-8.651512E-1,-1.7426759E-2,-6.4208746E-2,1.7502075E-2,-1.338712E-2,5.943947E-2,1.718196E-2,1.8134566E-2,9.075994E-2],"split_indices":[1,1,1,0,0,0,0,0,0,0,0,0,0,0,0],"split_type":[0,0,0,0,0,0,0,0,0,0,0,0,0,0,0],"sum_hessian":[8.9559E4,6.1636E4,2.7923E4,1.9994E4,4.1642E4,1.6707E4,1.1216E4,6.301E3,1.3693E4,1.2003E4,2.9639E4,2.875E3,1.3832E4,3.4E3,7.816E3],"tree_param":{"num_deleted":"0","num_feature":"3","num_nodes":"15","size_leaf_vector":"1"}},{"base_weights":[3.7090045E-3,-4.5666414E-1,6.458395E-1,-1.1605207E0,-2.4041565E-1,1.6862923E-1,1.103623E0,-5.376208E-2,-1.4531149E-1,-8.53658E-3,-5.3183105E-2,-3.343864E-3,4.5679923E-2,2.680329E-2,8.307193E-2],"categories":[],"categories_nodes":[],"categories_segments":[],"categories_sizes":[],"default_left":[0,0,0,0,0,0,0,0,0,0,0,0,0,0,0],"id":36,"left_children":[1,3,5,7,9,11,13,-1,-1,-1,-1,-1,-1,-1,-1],"loss_changes":[2.6460342E4,7.9344834E3,8.1648135E3,1.8204609E3,2.2875547E3,3.2109668E3,6.038203E3,0E0,0E0,0E0,0E0,0E0,0E0,0E0,0E0],"parents":[2147483647,0,0,1,1,2,2,3,3,4,4,5,5,6,6],"right_children":[2,4,6,8,10,12,14,-1,-1,-1,-1,-1,-1,-1,-1],"split_conditions":[1.8715206E-1,-8.412316E-1,6.3205627E-3,1.5590057E0,1.0115625E0,1.4143295E0,7.917812E-1,-5.376208E-2,-1.4531149E-1,-8.53658E-3,-5.3183105E-2,-3.343864E-3,4.5679923E-2,2.680329E-2,8.307193E-2],"split_indices":[1,1,2,2,2,1,1,0,0,0,0,0,0,0,0],"split_type":[0,0,0,0,0,0,0,0,0,0,0,0,0,0,0],"sum_hessian":[8.9506E4,5.2131E4,3.7375E4,1.2251E4,3.988E4,1.83E4,1.9075E4,1.1682E4,5.69E2,3.6769E4,3.111E3,1.3905E4,4.395E3,9.456E3,9.619E3],"tree_param":{"num_deleted":"0","num_feature":"3","num_nodes":"15","size_leaf_vector":"1"}},{"base_weights":[5.462592E-3,2.0755702E-1,-1.704803E-1,-6.3578E-1,2.8651103E-1,-4.422884E-1,-6.275955E-2,2.5458306E-2,-4.375015E-2,1.1648736E-1,1.2972459E-2,1.7423987E-3,-3.5813347E-2,1.8930925E-2,-9.739448E-3],"categories":[],"categories_nodes":[],"categories_segments":[],"categories_sizes":[],"default_left":[0,0,0,0,0,0,0,0,0,0,0,0,0,0,0],"id":37,"left_children":[1,3,5,7,9,11,13,-1,-1,-1,-1,-1,-1,-1,-1],"loss_changes":[3.1778105E3,2.7697432E3,1.3988021E3,9.758308E2,2.1022346E3,1.7727261E3,1.9941053E3,0E0,0E0,0E0,0E0,0E0,0E0,0E0,0E0],"parents":[2147483647,0,0,1,1,2,2,3,3,4,4,5,5,6,6],"right_children":[2,4,6,8,10,12,14,-1,-1,-1,-1,-1,-1,-1,-1],"split_conditions":[1.355616E-1,-2.1112182E0,-1.3625093E-1,-2.9413407E0,-3.5269744E0,3.4221128E-1,1.06047034E-1,2.5458306E-2,-4.375015E-2,1.1648736E-1,1.2972459E-2,1.7423987E-3,-3.5813347E-2,1.8930925E-2,-9.739448E-3],"split_indices":[0,2,2,0,0,0,2,0,0,0,0,0,0,0,0],"split_type":[0,0,0,0,0,0,0,0,0,0,0,0,0,0,0],"sum_hessian":[8.937E4,4.1594E4,4.7776E4,3.56E3,3.8034E4,1.3559E4,3.4217E4,6.15E2,2.945E3,4.96E2,3.7538E4,4.946E3,8.613E3,7.878E3,2.6339E4],"tree_param":{"num_deleted":"0","num_feature":"3","num_nodes":"15","size_leaf_vector":"1"}},{"base_weights":[-4.4109435E-3,1.8133602E-1,-1.7057213E-1,-3.0866703E-2,4.700737E-1,-1.3783893E-1,-1.0097625E0,-4.2457923E-2,1.8544261E-3,3.3945818E-2,-1.1591851E-2,-2.0597687E-2,-1.5441945E-3,-8.5952386E-2,-2.6177678E-2],"categories":[],"categories_nodes":[],"categories_segments":[],"categories_sizes":[],"default_left":[0,0,0,0,0,0,0,0,0,0,0,0,0,0,0],"id":38,"left_children":[1,3,5,7,9,11,13,-1,-1,-1,-1,-1,-1,-1,-1],"loss_changes":[2.7713335E3,2.5977617E3,1.3016576E3,1.3590415E3,2.6329385E3,1.3373405E3,6.123832E2,0E0,0E0,0E0,0E0,0E0,0E0,0E0,0E0],"parents":[2147483647,0,0,1,1,2,2,3,3,4,4,5,5,6,6],"right_children":[2,4,6,8,10,12,14,-1,-1,-1,-1,-1,-1,-1,-1],"split_conditions":[1.4505015E-1,1.8282755E-1,1.1940864E0,-2.3838239E0,8.600455E-1,-1.4642595E-1,5.322948E-1,-4.2457923E-2,1.8544261E-3,3.3945818E-2,-1.1591851E-2,-2.0597687E-2,-1.5441945E-3,-8.5952386E-2,-2.6177678E-2],"split_indices":[0,2,0,2,2,2,2,0,0,0,0,0,0,0,0],"split_type":[0,0,0,0,0,0,0,0,0,0,0,0,0,0,0],"sum_hessian":[8.979E4,4.2396E4,4.7394E4,2.4437E4,1.7959E4,4.5616E4,1.778E3,1.873E3,2.2564E4,1.3841E4,4.118E3,1.2802E4,3.2814E4,7.22E2,1.056E3],"tree_param":{"num_deleted":"0","num_feature":"3","num_nodes":"15","size_leaf_vector":"1"}},{"base_weights":[6.130267E-3,-7.2121155E-1,3.877568E-1,-2.921012E-1,-9.727343E-1,1.8351436E-1,1.2141174E0,-9.147013E-2,-3.0283264E-3,-7.8291036E-2,-3.7562035E-2,3.2265913E-2,2.7007324E-4,-1.2588653E-2,7.38922E-2],"categories":[],"categories_nodes":[],"categories_segments":[],"categories_sizes":[],"default_left":[0,0,0,0,0,0,0,0,0,0,0,0,0,0,0],"id":39,"left_children":[1,3,5,7,9,11,13,-1,-1,-1,-1,-1,-1,-1,-1],"loss_changes":[2.4877164E4,3.3283965E3,9.920739E3,4.0570444E3,2.5528496E3,3.876855E3,4.5039316E3,0E0,0E0,0E0,0E0,0E0,0E0,0E0,0E0],"parents":[2147483647,0,0,1,1,2,2,3,3,4,4,5,5,6,6],"right_children":[2,4,6,8,10,12,14,-1,-1,-1,-1,-1,-1,-1,-1],"split_conditions":[-3.064509E-1,-1.7861015E-1,1.1602318E0,-1.6645304E0,-9.616994E-1,-1.01640366E-1,-2.4306123E0,-9.147013E-2,-3.0283264E-3,-7.8291036E-2,-3.7562035E-2,3.2265913E-2,2.7007324E-4,-1.2588653E-2,7.38922E-2],"split_indices":[1,0,1,1,1,0,0,0,0,0,0,0,0,0,0],"split_type":[0,0,0,0,0,0,0,0,0,0,0,0,0,0,0],"sum_hessian":[8.9622E4,3.0841E4,5.8781E4,1.1398E4,1.9443E4,4.7133E4,1.1648E4,1.491E3,9.907E3,5.285E3,1.4158E4,1.3118E4,3.4015E4,1.776E3,9.872E3],"tree_param":{"num_deleted":"0","num_feature":"3","num_nodes":"15","size_leaf_vector":"1"}},{"base_weights":[-1.0218539E-3,-6.7956835E-1,3.6187616E-1,-1.1763453E0,-4.6313632E-1,1.06739506E-1,9.942244E-1,-5.399828E-2,-1.4034541E-1,-4.420955E-3,-3.1452026E-2,-8.1366785E-2,8.207639E-3,-1.0011586E-2,6.265016E-2],"categories":[],"categories_nodes":[],"categories_segments":[],"categories_sizes":[],"default_left":[0,0,0,0,0,0,0,0,0,0,0,0,0,0,0],"id":40,"left_children":[1,3,5,7,9,11,13,-1,-1,-1,-1,-1,-1,-1,-1],"loss_changes":[2.206145E4,3.355912E3,9.417406E3,1.485293E3,1.3518218E3,4.141075E3,5.1873613E3,0E0,0E0,0E0,0E0,0E0,0E0,0E0,0E0],"parents":[2147483647,0,0,1,1,2,2,3,3,4,4,5,5,6,6],"right_children":[2,4,6,8,10,12,14,-1,-1,-1,-1,-1,-1,-1,-1],"split_conditions":[-2.994977E-1,-9.616994E-1,8.960811E-1,1.476523E0,-5.161073E-2,-2.1112182E0,-1.2029146E0,-5.399828E-2,-1.4034541E-1,-4.420955E-3,-3.1452026E-2,-8.1366785E-2,8.207639E-3,-1.0011586E-2,6.265016E-2],"split_indices":[1,1,1,2,2,2,2,0,0,0,0,0,0,0,0],"split_type":[0,0,0,0,0,0,0,0,0,0,0,0,0,0,0],"sum_hessian":[8.959E4,3.1218E4,5.8372E4,9.472E3,2.1746E4,4.1592E4,1.678E4,8.945E3,5.27E2,6.674E3,1.5072E4,1.332E3,4.026E4,2.988E3,1.3792E4],"tree_param":{"num_deleted":"0","num_feature":"3","num_nodes":"15","size_leaf_vector":"1"}},{"base_weights":[-1.4563059E-3,-4.115071E-1,5.697782E-1,-1.0100113E0,-2.1967849E-1,1.4248872E-1,9.80788E-1,-9.905475E-2,-4.4307496E-2,-7.6060477E-3,-5.1002603E-2,-3.0685256E-3,4.0537097E-2,2.443218E-2,7.324389E-2],"categories":[],"categories_nodes":[],"categories_segments":[],"categories_sizes":[],"default_left":[0,0,0,0,0,0,0,0,0,0,0,0,0,0,0],"id":41,"left_children":[1,3,5,7,9,11,13,-1,-1,-1,-1,-1,-1,-1,-1],"loss_changes":[2.1087707E4,6.016629E3,6.606579E3,1.527916E3,2.1457627E3,2.5130156E3,4.567381E3,0E0,0E0,0E0,0E0,0E0,0E0,0E0,0E0],"parents":[2147483647,0,0,1,1,2,2,3,3,4,4,5,5,6,6],"right_children":[2,4,6,8,10,12,14,-1,-1,-1,-1,-1,-1,-1,-1],"split_conditions":[1.8715206E-1,-8.25532E-1,6.3205627E-3,-1.8171813E0,1.0115625E0,1.4399874E0,7.917812E-1,-9.905475E-2,-4.4307496E-2,-7.6060477E-3,-5.1002603E-2,-3.0685256E-3,4.0537097E-2,2.443218E-2,7.324389E-2],"split_indices":[1,1,2,1,2,1,1,0,0,0,0,0,0,0,0],"split_type":[0,0,0,0,0,0,0,0,0,0,0,0,0,0,0],"sum_hessian":[9.0026E4,5.2407E4,3.7619E4,1.2719E4,3.9688E4,1.8445E4,1.9174E4,1.437E3,1.1282E4,3.66E4,3.088E3,1.4134E4,4.311E3,9.509E3,9.665E3],"tree_param":{"num_deleted":"0","num_feature":"3","num_nodes":"15","size_leaf_vector":"1"}},{"base_weights":[-3.1750954E-3,-6.181897E-1,3.259995E-1,-1.9005534E-1,-8.679236E-1,9.460619E-2,8.9864254E-1,-7.236373E-2,9.883422E-4,-9.6109144E-2,-3.8119536E-2,2.4429994E-2,-2.7430586E-3,-8.6754905E-3,5.220293E-2],"categories":[],"categories_nodes":[],"categories_segments":[],"categories_sizes":[],"default_left":[0,0,0,0,0,0,0,0,0,0,0,0,0,0,0],"id":42,"left_children":[1,3,5,7,9,11,13,-1,-1,-1,-1,-1,-1,-1,-1],"loss_changes":[1.8114596E4,3.335087E3,7.7226494E3,3.0322021E3,2.190293E3,2.4446196E3,2.6153154E3,0E0,0E0,0E0,0E0,0E0,0E0,0E0,0E0],"parents":[2147483647,0,0,1,1,2,2,3,3,4,4,5,5,6,6],"right_children":[2,4,6,8,10,12,14,-1,-1,-1,-1,-1,-1,-1,-1],"split_conditions":[-2.994977E-1,-1.7861015E-1,8.960811E-1,-1.5277396E0,-1.230545E0,-1.01640366E-1,-2.4306123E0,-7.236373E-2,9.883422E-4,-9.6109144E-2,-3.8119536E-2,2.4429994E-2,-2.7430586E-3,-8.6754905E-3,5.220293E-2],"split_indices":[1,0,1,1,1,0,0,0,0,0,0,0,0,0,0],"split_type":[0,0,0,0,0,0,0,0,0,0,0,0,0,0,0],"sum_hessian":[8.9476E4,3.1194E4,5.8282E4,1.1493E4,1.9701E4,4.151E4,1.6772E4,1.643E3,9.85E3,1.791E3,1.791E4,1.1416E4,3.0094E4,2.003E3,1.4769E4],"tree_param":{"num_deleted":"0","num_feature":"3","num_nodes":"15","size_leaf_vector":"1"}},{"base_weights":[-1.7322625E-4,2.409303E-1,-1.1207064E-1,-6.3111577E-3,6.531641E-1,-1.2715126E0,-8.962132E-2,5.9575845E-2,-3.4704425E-3,3.989346E-2,-8.080538E-2,-1.0820142E-1,-5.490942E-2,-3.2392205E-3,-4.5503035E-2],"categories":[],"categories_nodes":[],"categories_segments":[],"categories_sizes":[],"default_left":[0,0,0,0,0,0,0,0,0,0,0,0,0,0,0],"id":43,"left_children":[1,3,5,7,9,11,13,-1,-1,-1,-1,-1,-1,-1,-1],"loss_changes":[2.4188308E3,2.8966714E3,1.5936687E3,1.342728E3,3.5000464E3,1.7720728E2,1.2240026E3,0E0,0E0,0E0,0E0,0E0,0E0,0E0,0E0],"parents":[2147483647,0,0,1,1,2,2,3,3,4,4,5,5,6,6],"right_children":[2,4,6,8,10,12,14,-1,-1,-1,-1,-1,-1,-1,-1],"split_conditions":[-1.5483722E-1,2.2226283E-1,-1.3178058E0,-3.3885555E0,1.5590057E0,-2.4460943E0,1.1940864E0,5.9575845E-2,-3.4704425E-3,3.989346E-2,-8.080538E-2,-1.0820142E-1,-5.490942E-2,-3.2392205E-3,-4.5503035E-2],"split_indices":[0,2,2,0,2,2,0,0,0,0,0,0,0,0,0],"split_type":[0,0,0,0,0,0,0,0,0,0,0,0,0,0,0],"sum_hessian":[8.9655E4,2.8419E4,6.1236E4,1.7765E4,1.0654E4,1.162E3,6.0074E4,8.88E2,1.6877E4,1.0016E4,6.38E2,1.87E2,9.75E2,5.831E4,1.764E3],"tree_param":{"num_deleted":"0","num_feature":"3","num_nodes":"15","size_leaf_vector":"1"}},{"base_weights":[5.499304E-4,-3.7433952E-1,5.13872E-1,-9.9574995E-1,-2.2974522E-1,1.1572693E-1,9.118377E-1,4.30035E-2,-5.3516448E-2,-8.630887E-3,-4.5306623E-2,-2.9371535E-2,1.4353116E-2,2.3377161E-2,6.770774E-2],"categories":[],"categories_nodes":[],"categories_segments":[],"categories_sizes":[],"default_left":[0,0,0,0,0,0,0,0,0,0,0,0,0,0,0],"id":44,"left_children":[1,3,5,7,9,11,13,-1,-1,-1,-1,-1,-1,-1,-1],"loss_changes":[1.728277E4,4.6632583E3,6.005926E3,1.3568975E3,1.626763E3,2.2831548E3,3.7245938E3,0E0,0E0,0E0,0E0,0E0,0E0,0E0,0E0],"parents":[2147483647,0,0,1,1,2,2,3,3,4,4,5,5,6,6],"right_children":[2,4,6,8,10,12,14,-1,-1,-1,-1,-1,-1,-1,-1],"split_conditions":[1.7689118E-1,-9.491481E-1,2.693479E-2,-2.7406764E0,1.0115625E0,-1.7998337E0,7.917812E-1,4.30035E-2,-5.3516448E-2,-8.630887E-3,-4.5306623E-2,-2.9371535E-2,1.4353116E-2,2.3377161E-2,6.770774E-2],"split_indices":[1,1,2,2,2,2,1,0,0,0,0,0,0,0,0],"split_type":[0,0,0,0,0,0,0,0,0,0,0,0,0,0,0],"sum_hessian":[8.9807E4,5.1902E4,3.7905E4,9.796E3,4.2106E4,1.8949E4,1.8956E4,3.78E2,9.418E3,3.8828E4,3.278E3,3.712E3,1.5237E4,9.458E3,9.498E3],"tree_param":{"num_deleted":"0","num_feature":"3","num_nodes":"15","size_leaf_vector":"1"}},{"base_weights":[1.1086081E-3,1.699488E-1,-1.5050812E-1,-5.6608415E-1,2.3828763E-1,-4.009421E-1,-4.9766105E-2,6.572659E-2,-3.76227E-2,1.042163E-1,1.0693793E-2,-9.495648E-3,-5.0731696E-2,1.9274535E-2,-8.449028E-3],"categories":[],"categories_nodes":[],"categories_segments":[],"categories_sizes":[],"default_left":[0,0,0,0,0,0,0,0,0,0,0,0,0,0,0],"id":45,"left_children":[1,3,5,7,9,11,13,-1,-1,-1,-1,-1,-1,-1,-1],"loss_changes":[2.2931602E3,2.1319512E3,1.1906786E3,1.2630482E3,1.7470828E3,1.7530806E3,1.746572E3,0E0,0E0,0E0,0E0,0E0,0E0,0E0,0E0],"parents":[2147483647,0,0,1,1,2,2,3,3,4,4,5,5,6,6],"right_children":[2,4,6,8,10,12,14,-1,-1,-1,-1,-1,-1,-1,-1],"split_conditions":[1.4505015E-1,-2.1112182E0,-1.284612E-1,-3.4089377E0,-3.5269744E0,6.3131696E-1,9.05269E-2,6.572659E-2,-3.76227E-2,1.042163E-1,1.0693793E-2,-9.495648E-3,-5.0731696E-2,1.9274535E-2,-8.449028E-3],"split_indices":[0,2,2,2,0,0,2,0,0,0,0,0,0,0,0],"split_type":[0,0,0,0,0,0,0,0,0,0,0,0,0,0,0],"sum_hessian":[8.9578E4,4.2382E4,4.7196E4,3.6E3,3.8782E4,1.3538E4,3.3658E4,3.24E2,3.276E3,5.05E2,3.8277E4,1.0075E4,3.463E3,7.236E3,2.6422E4],"tree_param":{"num_deleted":"0","num_feature":"3","num_nodes":"15","size_leaf_vector":"1"}},{"base_weights":[2.712567E-3,1.657429E-1,-1.5371074E-1,-4.8487216E-1,2.249381E-1,-4.292775E-1,-5.0266143E-2,3.2882757E-2,-3.873381E-2,1.0139815E-1,1.0125646E-2,-1.1626673E-2,-4.9876258E-2,1.703499E-2,-8.568359E-3],"categories":[],"categories_nodes":[],"categories_segments":[],"categories_sizes":[],"default_left":[0,0,0,0,0,0,0,0,0,0,0,0,0,0,0],"id":46,"left_children":[1,3,5,7,9,11,13,-1,-1,-1,-1,-1,-1,-1,-1],"loss_changes":[2.2855442E3,1.6902383E3,1.3037329E3,1.2123804E3,1.6258296E3,1.3952361E3,1.5745925E3,0E0,0E0,0E0,0E0,0E0,0E0,0E0,0E0],"parents":[2147483647,0,0,1,1,2,2,3,3,4,4,5,5,6,6],"right_children":[2,4,6,8,10,12,14,-1,-1,-1,-1,-1,-1,-1,-1],"split_conditions":[1.6588722E-1,-2.1112182E0,-1.4642595E-1,-2.6963625E0,-3.5269744E0,6.473364E-1,1.06047034E-1,3.2882757E-2,-3.873381E-2,1.0139815E-1,1.0125646E-2,-1.1626673E-2,-4.9876258E-2,1.703499E-2,-8.568359E-3],"split_indices":[0,2,2,0,0,0,2,0,0,0,0,0,0,0,0],"split_type":[0,0,0,0,0,0,0,0,0,0,0,0,0,0,0],"sum_hessian":[8.9621E4,4.3884E4,4.5737E4,3.659E3,4.0225E4,1.2482E4,3.3255E4,7.4E2,2.919E3,4.93E2,3.9732E4,9.273E3,3.209E3,7.864E3,2.5391E4],"tree_param":{"num_deleted":"0","num_feature":"3","num_nodes":"15","size_leaf_vector":"1"}},{"base_weights":[-5.416502E-3,2.0913498E-1,-1.05126485E-1,-2.0141052E-2,5.955741E-1,-1.1347637E0,-8.510568E-2,-3.398853E-2,2.6025106E-3,4.1668378E-2,-3.1047655E-2,-3.7691277E-2,-7.620627E-2,-3.119535E-3,-4.2295933E-2],"categories":[],"categories_nodes":[],"categories_segments":[],"categories_sizes":[],"default_left":[0,0,0,0,0,0,0,0,0,0,0,0,0,0,0],"id":47,"left_children":[1,3,5,7,9,11,13,-1,-1,-1,-1,-1,-1,-1,-1],"loss_changes":[1.9207538E3,2.5240527E3,1.2633887E3,8.5153455E2,3.069244E3,1.7201245E2,1.0390142E3,0E0,0E0,0E0,0E0,0E0,0E0,0E0,0E0],"parents":[2147483647,0,0,1,1,2,2,3,3,4,4,5,5,6,6],"right_children":[2,4,6,8,10,12,14,-1,-1,-1,-1,-1,-1,-1,-1],"split_conditions":[-1.5483722E-1,2.2226283E-1,-1.3178058E0,-2.3838239E0,8.3707684E-1,1.9383512E-1,1.1940864E0,-3.398853E-2,2.6025106E-3,4.1668378E-2,-3.1047655E-2,-3.7691277E-2,-7.620627E-2,-3.119535E-3,-4.2295933E-2],"split_indices":[0,2,2,2,2,0,0,0,0,0,0,0,0,0,0],"split_type":[0,0,0,0,0,0,0,0,0,0,0,0,0,0,0],"sum_hessian":[8.9783E4,2.8486E4,6.1297E4,1.7879E4,1.0607E4,1.168E3,6.0129E4,1.763E3,1.6116E4,8.873E3,1.734E3,5.92E2,5.76E2,5.8387E4,1.742E3],"tree_param":{"num_deleted":"0","num_feature":"3","num_nodes":"15","size_leaf_vector":"1"}},{"base_weights":[4.892181E-4,-2.8265482E-1,6.2114507E-1,-7.175449E-1,-6.749406E-2,-4.158467E-1,7.9404163E-1,-6.698289E-2,-2.9382933E-2,-9.3267433E-4,-6.034946E-2,-5.5890616E-2,3.341606E-3,3.00678E-2,9.43615E-2],"categories":[],"categories_nodes":[],"categories_segments":[],"categories_sizes":[],"default_left":[0,0,0,0,0,0,0,0,0,0,0,0,0,0,0],"id":48,"left_children":[1,3,5,7,9,11,13,-1,-1,-1,-1,-1,-1,-1,-1],"loss_changes":[1.573851E4,5.754601E3,5.0307715E3,1.6438643E3,2.2897776E3,1.358864E3,5.064129E3,0E0,0E0,0E0,0E0,0E0,0E0,0E0,0E0],"parents":[2147483647,0,0,1,1,2,2,3,3,4,4,5,5,6,6],"right_children":[2,4,6,8,10,12,14,-1,-1,-1,-1,-1,-1,-1,-1],"split_conditions":[5.1051867E-1,-5.718326E-1,-1.2029146E0,-1.3173834E0,1.3986114E0,1.3470145E0,1.5696037E0,-6.698289E-2,-2.9382933E-2,-9.3267433E-4,-6.034946E-2,-5.5890616E-2,3.341606E-3,3.00678E-2,9.43615E-2],"split_indices":[1,1,2,1,2,1,1,0,0,0,0,0,0,0,0],"split_type":[0,0,0,0,0,0,0,0,0,0,0,0,0,0,0],"sum_hessian":[8.9556E4,6.15E4,2.8056E4,2.0355E4,4.1145E4,4.009E3,2.4047E4,3.514E3,1.6841E4,3.9455E4,1.69E3,1.633E3,2.376E3,2.0445E4,3.602E3],"tree_param":{"num_deleted":"0","num_feature":"3","num_nodes":"15","size_leaf_vector":"1"}},{"base_weights":[2.56075E-3,-3.4158045E-1,4.7539517E-1,-7.367455E-1,-1.5291601E-1,1.1318773E-1,8.3859044E-1,-3.417384E-2,-1.07058406E-1,-4.5382353E-3,-4.502068E-2,-3.63184E-3,3.62252E-2,2.1531356E-2,6.21847E-2],"categories":[],"categories_nodes":[],"categories_segments":[],"categories_sizes":[],"default_left":[0,0,0,0,0,0,0,0,0,0,0,0,0,0,0],"id":49,"left_children":[1,3,5,7,9,11,13,-1,-1,-1,-1,-1,-1,-1,-1],"loss_changes":[1.4584117E4,3.867042E3,4.966425E3,1.25225E3,1.6310042E3,2.147566E3,3.114753E3,0E0,0E0,0E0,0E0,0E0,0E0,0E0,0E0],"parents":[2147483647,0,0,1,1,2,2,3,3,4,4,5,5,6,6],"right_children":[2,4,6,8,10,12,14,-1,-1,-1,-1,-1,-1,-1,-1],"split_conditions":[1.7689118E-1,-6.760419E-1,2.693479E-2,1.5590057E0,1.0115625E0,1.4143295E0,7.917812E-1,-3.417384E-2,-1.07058406E-1,-4.5382353E-3,-4.502068E-2,-3.63184E-3,3.62252E-2,2.1531356E-2,6.21847E-2],"split_indices":[1,1,2,2,2,1,1,0,0,0,0,0,0,0,0],"split_type":[0,0,0,0,0,0,0,0,0,0,0,0,0,0,0],"sum_hessian":[8.9624E4,5.1871E4,3.7753E4,1.6761E4,3.511E4,1.8903E4,1.885E4,1.615E4,6.11E2,3.2416E4,2.694E3,1.4497E4,4.406E3,9.393E3,9.457E3],"tree_param":{"num_deleted":"0","num_feature":"3","num_nodes":"15","size_leaf_vector":"1"}}]},"name":"gbtree"},"learner_model_param":{"base_score":"2.3045328E1","boost_from_average":"1","num_class":"0","num_feature":"3","num_target":"1"},"objective":{"name":"reg:squarederror","reg_loss_param":{"scale_pos_weight":"1"}}},"version":[2,1,2]}