{"learner":{"attributes":{"best_iteration":"31","best_score":"1.620176147098041","scikit_learn":"{\"_estimator_type\": \"regressor\"}"},"feature_names":[],"feature_types":[],"gradient_booster":{"model":{"gbtree_model_param":{"num_parallel_tree":"1","num_trees":"50"},"iteration_indptr":[0,1,2,3,4,5,6,7,8,9,10,11,12,13,14,15,16,17,18,19,20,21,22,23,24,25,26,27,28,29,30,31,32,33,34,35,36,37,38,39,40,41,42,43,44,45,46,47,48,49,50],"tree_info":[0,0,0,0,0,0,0,0,0,0,0,0,0,0,0,0,0,0,0,0,0,0,0,0,0,0,0,0,0,0,0,0,0,0,0,0,0,0,0,0,0,0,0,0,0,0,0,0,0,0],"trees":[{"base_weights":[1.592042E-3,2.4464289E1,-7.462535E-1,1.4323062E0,1.30573E1,1.9575517E0,-1.2661033E0,3.7771318E-2,7.5623876E-1,4.936771E-1,7.845591E-2,-1.26364E-1,-2.4136255E-2],"categories":[],"categories_nodes":[],"categories_segments":[],"categories_sizes":[],"default_left":[0,0,0,0,0,0,0,0,0,0,0,0,0],"id":0,"left_children":[1,3,5,-1,7,9,11,-1,-1,-1,-1,-1,-1],"loss_changes":[1.145245E6,8.82045E4,8.538252E4,0E0,1.2703883E4,3.0104453E4,5.0334992E4,0E0,0E0,0E0,0E0,0E0,0E0],"parents":[2147483647,0,0,1,1,2,2,4,4,5,5,6,6],"right_children":[2,4,6,-1,8,10,12,-1,-1,-1,-1,-1,-1],"split_conditions":[-3.950615E-1,-2.5726044E0,-9.1847025E-2,1.4323062E0,-5.673499E0,-1.0447222E0,-1.322297E-1,3.7771318E-2,7.5623876E-1,4.936771E-1,7.845591E-2,-1.26364E-1,-2.4136255E-2],"split_indices":[5,5,5,0,2,0,6,0,0,0,0,0,0],"split_type":[0,0,0,0,0,0,0,0,0,0,0,0,0],"sum_hessian":[6.2599E4,1.856E3,6.0743E4,1.357E3,4.99E2,9.795E3,5.0948E4,7.2E1,4.27E2,4.57E2,9.338E3,1.952E4,3.1428E4],"tree_param":{"num_deleted":"0","num_feature":"9","num_nodes":"13","size_leaf_vector":"1"}},{"base_weights":[9.047964E-3,2.508028E1,-6.1932075E-1,1.9492795E0,2.6236217E1,7.381976E0,-7.823967E-1,7.9279914E-2,2.5947148E-1,1.1085314E0,1.3606399E0,4.9153137E-1,1.9628194E-1,-9.5124505E-2,4.3492215E-3],"categories":[],"categories_nodes":[],"categories_segments":[],"categories_sizes":[],"default_left":[0,0,0,0,0,0,0,0,0,0,0,0,0,0,0],"id":1,"left_children":[1,3,5,7,9,11,13,-1,-1,-1,-1,-1,-1,-1,-1],"loss_changes":[9.870991E5,4.0908688E4,7.976218E4,7.829443E1,5.1845625E3,1.0293805E4,5.8335105E4,0E0,0E0,0E0,0E0,0E0,0E0,0E0,0E0],"parents":[2147483647,0,0,1,1,2,2,3,3,4,4,5,5,6,6],"right_children":[2,4,6,8,10,12,14,-1,-1,-1,-1,-1,-1,-1,-1],"split_conditions":[-2.226629E0,-6.4223733E0,-4.6281657E-1,-2.0495133E0,-1.11699276E-1,-1.67513E0,-6.2163915E-2,7.9279914E-2,2.5947148E-1,1.1085314E0,1.3606399E0,4.9153137E-1,1.9628194E-1,-9.5124505E-2,4.3492215E-3],"split_indices":[1,0,0,3,8,0,6,0,0,0,0,0,0,0,0],"split_type":[0,0,0,0,0,0,0,0,0,0,0,0,0,0,0],"sum_hessian":[6.2655E4,1.531E3,6.1124E4,7.3E1,1.458E3,1.22E3,5.9904E4,6.7E1,6E0,2.87E2,1.171E3,7.13E2,5.07E2,2.6177E4,3.3727E4],"tree_param":{"num_deleted":"0","num_feature":"9","num_nodes":"15","size_leaf_vector":"1"}},{"base_weights":[1.7769808E-2,2.2289553E1,-6.6877466E-1,1.2947598E0,1.211731E1,1.6951219E0,-1.193666E0,1.24568604E-1,7.974666E-1,4.0651542E-1,6.686855E-2,6.4444E-2,-7.138251E-2],"categories":[],"categories_nodes":[],"categories_segments":[],"categories_sizes":[],"default_left":[0,0,0,0,0,0,0,0,0,0,0,0,0],"id":2,"left_children":[1,3,5,-1,7,9,11,-1,-1,-1,-1,-1,-1],"loss_changes":[9.556624E5,6.8232625E4,7.5232234E4,0E0,1.8069844E4,2.5351438E4,2.8822023E4,0E0,0E0,0E0,0E0,0E0,0E0],"parents":[2147483647,0,0,1,1,2,2,4,4,5,5,6,6],"right_children":[2,4,6,-1,8,10,12,-1,-1,-1,-1,-1,-1],"split_conditions":[-3.950615E-1,-2.5726044E0,-7.812642E-2,1.2947598E0,-4.918449E-1,-4.6281657E-1,-2.2393207E-1,1.24568604E-1,7.974666E-1,4.0651542E-1,6.686855E-2,6.4444E-2,-7.138251E-2],"split_indices":[5,5,5,0,4,0,0,0,0,0,0,0,0],"split_type":[0,0,0,0,0,0,0,0,0,0,0,0,0],"sum_hessian":[6.2498E4,1.868E3,6.063E4,1.378E3,4.9E2,1.1016E4,4.9614E4,1.4E2,3.5E2,5.79E2,1.0437E4,4.273E3,4.5341E4],"tree_param":{"num_deleted":"0","num_feature":"9","num_nodes":"13","size_leaf_vector":"1"}},{"base_weights":[-1.2686056E-2,2.2592388E1,-5.748575E-1,1.7303889E0,2.3612644E1,8.823774E0,-6.8052036E-1,6.853503E-2,2.4301258E-1,9.884715E-1,1.2280225E0,1.3341846E-1,5.1025695E-1,-8.6533956E-2,7.0567727E-3],"categories":[],"categories_nodes":[],"categories_segments":[],"categories_sizes":[],"default_left":[0,0,0,0,0,0,0,0,0,0,0,0,0,0,0],"id":3,"left_children":[1,3,5,7,9,11,13,-1,-1,-1,-1,-1,-1,-1,-1],"loss_changes":[7.965437E5,3.2330375E4,6.074234E4,7.377074E1,4.7918125E3,5.753426E3,5.218759E4,0E0,0E0,0E0,0E0,0E0,0E0,0E0,0E0],"parents":[2147483647,0,0,1,1,2,2,3,3,4,4,5,5,6,6],"right_children":[2,4,6,8,10,12,14,-1,-1,-1,-1,-1,-1,-1,-1],"split_conditions":[-2.226629E0,-6.4223733E0,-1.67513E0,-2.529992E0,-1.11699276E-1,3.084748E-1,-6.2163915E-2,6.853503E-2,2.4301258E-1,9.884715E-1,1.2280225E0,1.3341846E-1,5.1025695E-1,-8.6533956E-2,7.0567727E-3],"split_indices":[1,0,0,2,8,4,6,0,0,0,0,0,0,0,0],"split_type":[0,0,0,0,0,0,0,0,0,0,0,0,0,0,0],"sum_hessian":[6.2679E4,1.52E3,6.1159E4,7.1E1,1.449E3,6.79E2,6.048E4,6.5E1,6E0,2.91E2,1.158E3,1.25E2,5.54E2,2.6548E4,3.3932E4],"tree_param":{"num_deleted":"0","num_feature":"9","num_nodes":"15","size_leaf_vector":"1"}},{"base_weights":[-3.7935053E-3,2.0059923E1,-6.169025E-1,1.170576E0,1.08764515E1,1.7336429E0,-1.0878807E0,1.1428493E0,4.1485605E-1,4.0486842E-1,7.16457E-2,-1.0931416E-1,-1.998704E-2],"categories":[],"categories_nodes":[],"categories_segments":[],"categories_sizes":[],"default_left":[0,0,0,0,0,0,0,0,0,0,0,0,0],"id":4,"left_children":[1,3,5,-1,7,9,11,-1,-1,-1,-1,-1,-1],"loss_changes":[7.7287306E5,5.708375E4,6.749458E4,0E0,1.5258113E4,1.9463736E4,3.838872E4,0E0,0E0,0E0,0E0,0E0,0E0],"parents":[2147483647,0,0,1,1,2,2,4,4,5,5,6,6],"right_children":[2,4,6,-1,8,10,12,-1,-1,-1,-1,-1,-1],"split_conditions":[-3.950615E-1,-2.5726044E0,-8.928799E-2,1.170576E0,-1.3005568E0,-1.0447222E0,-1.322297E-1,1.1428493E0,4.1485605E-1,4.0486842E-1,7.16457E-2,-1.0931416E-1,-1.998704E-2],"split_indices":[5,5,5,0,8,0,6,0,0,0,0,0,0],"split_type":[0,0,0,0,0,0,0,0,0,0,0,0,0],"sum_hessian":[6.2827E4,1.862E3,6.0965E4,1.363E3,4.99E2,1.0176E4,5.0789E4,8.7E1,4.12E2,4.58E2,9.718E3,1.9562E4,3.1227E4],"tree_param":{"num_deleted":"0","num_feature":"9","num_nodes":"13","size_leaf_vector":"1"}},{"base_weights":[4.7715823E-3,1.9073118E1,-5.7927907E-1,1.1120788E0,1.0357939E1,1.3881792E0,-1.0905123E0,8.602906E-2,7.115314E-1,3.4526002E-1,5.5501264E-2,-1.10537164E-1,-2.4924023E-2],"categories":[],"categories_nodes":[],"categories_segments":[],"categories_sizes":[],"default_left":[0,0,0,0,0,0,0,0,0,0,0,0,0],"id":5,"left_children":[1,3,5,-1,7,9,11,-1,-1,-1,-1,-1,-1],"loss_changes":[6.958897E5,5.1044938E4,6.098294E4,0E0,1.6598469E4,1.9181473E4,3.1915059E4,0E0,0E0,0E0,0E0,0E0,0E0],"parents":[2147483647,0,0,1,1,2,2,4,4,5,5,6,6],"right_children":[2,4,6,-1,8,10,12,-1,-1,-1,-1,-1,-1],"split_conditions":[-3.950615E-1,-2.5726044E0,-6.273309E-2,1.1120788E0,-4.918449E-1,-4.6281657E-1,-1.7009129E-1,8.602906E-2,7.115314E-1,3.4526002E-1,5.5501264E-2,-1.10537164E-1,-2.4924023E-2],"split_indices":[5,5,5,0,4,0,6,0,0,0,0,0,0],"split_type":[0,0,0,0,0,0,0,0,0,0,0,0,0],"sum_hessian":[6.2483E4,1.856E3,6.0627E4,1.36E3,4.96E2,1.2504E4,4.8123E4,1.54E2,3.42E2,5.99E2,1.1905E4,1.6638E4,3.1485E4],"tree_param":{"num_deleted":"0","num_feature":"9","num_nodes":"13","size_leaf_vector":"1"}},{"base_weights":[1.3694081E-3,1.8158325E1,-5.587469E-1,1.0564672E0,9.617292E0,1.4218013E0,-1.0150659E0,1.1820068E-1,6.601437E-1,4.0739542E-1,6.1235663E-2,-1.0291433E-1,-2.1076495E-2],"categories":[],"categories_nodes":[],"categories_segments":[],"categories_sizes":[],"default_left":[0,0,0,0,0,0,0,0,0,0,0,0,0],"id":6,"left_children":[1,3,5,-1,7,9,11,-1,-1,-1,-1,-1,-1],"loss_changes":[6.375493E5,4.739825E4,5.4961875E4,0E0,1.2606738E4,1.5085428E4,3.0602922E4,0E0,0E0,0E0,0E0,0E0,0E0],"parents":[2147483647,0,0,1,1,2,2,4,4,5,5,6,6],"right_children":[2,4,6,-1,8,10,12,-1,-1,-1,-1,-1,-1],"split_conditions":[-3.950615E-1,-2.5726044E0,-7.5002335E-2,1.0564672E0,2.4453042E-1,-1.6861397E-1,-1.5599097E-1,1.1820068E-1,6.601437E-1,4.0739542E-1,6.1235663E-2,-1.0291433E-1,-2.1076495E-2],"split_indices":[5,5,5,0,4,2,6,0,0,0,0,0,0],"split_type":[0,0,0,0,0,0,0,0,0,0,0,0,0],"sum_hessian":[6.2687E4,1.875E3,6.0812E4,1.39E3,4.85E2,1.1387E4,4.9425E4,1.61E2,3.24E2,3.23E2,1.1064E4,1.7922E4,3.1503E4],"tree_param":{"num_deleted":"0","num_feature":"9","num_nodes":"13","size_leaf_vector":"1"}},{"base_weights":[3.506881E-3,1.7174652E1,-5.2063334E-1,1.0037537E0,9.256758E0,1.6917329E0,-8.9755577E-1,5.3037625E-2,6.433607E-1,4.0444437E-1,7.286539E-2,-9.19446E-2,-1.4407711E-2],"categories":[],"categories_nodes":[],"categories_segments":[],"categories_sizes":[],"default_left":[0,0,0,0,0,0,0,0,0,0,0,0,0],"id":7,"left_children":[1,3,5,-1,7,9,11,-1,-1,-1,-1,-1,-1],"loss_changes":[5.645502E5,4.2480625E4,5.0759516E4,0E0,1.4780613E4,1.3275695E4,2.9834309E4,0E0,0E0,0E0,0E0,0E0,0E0],"parents":[2147483647,0,0,1,1,2,2,4,4,5,5,6,6],"right_children":[2,4,6,-1,8,10,12,-1,-1,-1,-1,-1,-1],"split_conditions":[-3.950615E-1,-2.5726044E0,-1.0103904E-1,1.0037537E0,-4.918449E-1,-1.511025E-1,-1.2279929E-1,5.3037625E-2,6.433607E-1,4.0444437E-1,7.286539E-2,-9.19446E-2,-1.4407711E-2],"split_indices":[5,5,5,0,4,2,6,0,0,0,0,0,0],"split_type":[0,0,0,0,0,0,0,0,0,0,0,0,0],"sum_hessian":[6.2725E4,1.857E3,6.0868E4,1.358E3,4.99E2,8.86E3,5.2008E4,1.53E2,3.46E2,3.12E2,8.548E3,2.0437E4,3.1571E4],"tree_param":{"num_deleted":"0","num_feature":"9","num_nodes":"13","size_leaf_vector":"1"}},{"base_weights":[1.3194804E-3,1.6406656E1,-4.9551672E-1,9.534607E-1,8.810899E0,1.2058635E0,-9.492264E-1,1.0137242E0,3.2877877E-1,3.0949187E-1,4.761671E-2,7.2451875E-2,-5.912439E-2],"categories":[],"categories_nodes":[],"categories_segments":[],"categories_sizes":[],"default_left":[0,0,0,0,0,0,0,0,0,0,0,0,0],"id":8,"left_children":[1,3,5,-1,7,9,11,-1,-1,-1,-1,-1,-1],"loss_changes":[5.1186966E5,3.7162938E4,4.70535E4,0E0,1.2189535E4,1.6208959E4,2.6922207E4,0E0,0E0,0E0,0E0,0E0,0E0],"parents":[2147483647,0,0,1,1,2,2,4,4,5,5,6,6],"right_children":[2,4,6,-1,8,10,12,-1,-1,-1,-1,-1,-1],"split_conditions":[-3.950615E-1,-2.5726044E0,-6.0858E-2,9.534607E-1,-1.3005568E0,-4.6281657E-1,-2.2393207E-1,1.0137242E0,3.2877877E-1,3.0949187E-1,4.761671E-2,7.2451875E-2,-5.912439E-2],"split_indices":[5,5,5,0,8,0,0,0,0,0,0,0,0],"split_type":[0,0,0,0,0,0,0,0,0,0,0,0,0],"sum_hessian":[6.2798E4,1.845E3,6.0953E4,1.365E3,4.8E2,1.2832E4,4.8121E4,7.7E1,4.03E2,6.2E2,1.2212E4,4.265E3,4.3856E4],"tree_param":{"num_deleted":"0","num_feature":"9","num_nodes":"13","size_leaf_vector":"1"}},{"base_weights":[3.334476E-3,1.5552286E1,-4.7614253E-1,9.059226E-1,8.31133E0,1.43611E0,-8.3969724E-1,4.351102E-2,5.828488E-1,3.2255188E-1,5.988651E-2,1.3194296E-2,-6.3379705E-2],"categories":[],"categories_nodes":[],"categories_segments":[],"categories_sizes":[],"default_left":[0,0,0,0,0,0,0,0,0,0,0,0,0],"id":9,"left_children":[1,3,5,-1,7,9,11,-1,-1,-1,-1,-1,-1],"loss_changes":[4.677958E5,3.472422E4,4.2317785E4,0E0,1.2261992E4,1.1616141E4,2.4152582E4,0E0,0E0,0E0,0E0,0E0,0E0],"parents":[2147483647,0,0,1,1,2,2,4,4,5,5,6,6],"right_children":[2,4,6,-1,8,10,12,-1,-1,-1,-1,-1,-1],"split_conditions":[-3.950615E-1,-2.5726044E0,-9.430804E-2,9.059226E-1,-4.918449E-1,-1.0447222E0,8.116092E-2,4.351102E-2,5.828488E-1,3.2255188E-1,5.988651E-2,1.3194296E-2,-6.3379705E-2],"split_indices":[5,5,5,0,4,0,0,0,0,0,0,0,0],"split_type":[0,0,0,0,0,0,0,0,0,0,0,0,0],"sum_hessian":[6.2744E4,1.876E3,6.0868E4,1.384E3,4.92E2,9.723E3,5.1145E4,1.53E2,3.39E2,4.4E2,9.283E3,1.429E4,3.6855E4],"tree_param":{"num_deleted":"0","num_feature":"9","num_nodes":"13","size_leaf_vector":"1"}},{"base_weights":[-1.1523972E-2,1.5813486E1,-3.9779764E-1,2.6315868E-1,1.6486502E1,1.8576343E0,-6.948328E-1,3.4807578E-2,-5.81081E-2,6.9019413E-1,8.57047E-1,3.0318055E-1,7.0168614E-2,-5.9862852E-2,1.2121594E-3],"categories":[],"categories_nodes":[],"categories_segments":[],"categories_sizes":[],"default_left":[0,0,0,0,0,0,0,0,0,0,0,0,0,0,0],"id":10,"left_children":[1,3,5,7,9,11,13,-1,-1,-1,-1,-1,-1,-1,-1],"loss_changes":[3.8327638E5,1.5629625E4,4.1006344E4,3.964312E1,2.2743438E3,1.3600059E4,1.9540043E4,0E0,0E0,0E0,0E0,0E0,0E0,0E0,0E0],"parents":[2147483647,0,0,1,1,2,2,3,3,4,4,5,5,6,6],"right_children":[2,4,6,8,10,12,14,-1,-1,-1,-1,-1,-1,-1,-1],"split_conditions":[-2.226629E0,-6.4223733E0,-2.4682683E-1,-5.673499E0,-1.11699276E-1,-1.67513E0,1.5260611E-1,3.4807578E-2,-5.81081E-2,6.9019413E-1,8.57047E-1,3.0318055E-1,7.0168614E-2,-5.9862852E-2,1.2121594E-3],"split_indices":[1,0,0,2,8,0,2,0,0,0,0,0,0,0,0],"split_type":[0,0,0,0,0,0,0,0,0,0,0,0,0,0,0],"sum_hessian":[6.2699E4,1.493E3,6.1206E4,6.2E1,1.431E3,7.122E3,5.4084E4,4.8E1,1.4E1,2.85E2,1.146E3,6.93E2,6.429E3,3.1838E4,2.2246E4],"tree_param":{"num_deleted":"0","num_feature":"9","num_nodes":"15","size_leaf_vector":"1"}},{"base_weights":[3.044392E-3,1.4193376E1,-4.2748845E-1,8.192955E-1,7.889174E0,1.5713453E0,-7.298026E-1,9.286589E-1,2.779028E-1,3.295175E-1,6.410965E-2,1.1979002E-2,-5.6787062E-2],"categories":[],"categories_nodes":[],"categories_segments":[],"categories_sizes":[],"default_left":[0,0,0,0,0,0,0,0,0,0,0,0,0],"id":11,"left_children":[1,3,5,-1,7,9,11,-1,-1,-1,-1,-1,-1],"loss_changes":[3.8196122E5,2.5314938E4,3.666791E4,0E0,1.1774363E4,1.1560182E4,2.0741482E4,0E0,0E0,0E0,0E0,0E0,0E0],"parents":[2147483647,0,0,1,1,2,2,4,4,5,5,6,6],"right_children":[2,4,6,-1,8,10,12,-1,-1,-1,-1,-1,-1],"split_conditions":[-3.950615E-1,-2.5726044E0,-1.1074268E-1,8.192955E-1,-1.3005568E0,-1.0447222E0,8.991951E-2,9.286589E-1,2.779028E-1,3.295175E-1,6.410965E-2,1.1979002E-2,-5.6787062E-2],"split_indices":[5,5,5,0,8,0,0,0,0,0,0,0,0],"split_type":[0,0,0,0,0,0,0,0,0,0,0,0,0],"sum_hessian":[6.2518E4,1.84E3,6.0678E4,1.364E3,4.76E2,7.971E3,5.2707E4,8.4E1,3.92E2,4.33E2,7.538E3,1.5557E4,3.715E4],"tree_param":{"num_deleted":"0","num_feature":"9","num_nodes":"13","size_leaf_vector":"1"}},{"base_weights":[3.529569E-4,1.3285029E1,-4.0248865E-1,7.781803E-1,7.0379E0,-1.231844E0,2.6204324E-1,6.927244E-4,5.145294E-1,5.990581E-2,-9.15175E-2,6.674977E-2,-2.627115E-2],"categories":[],"categories_nodes":[],"categories_segments":[],"categories_sizes":[],"default_left":[0,0,0,0,0,0,0,0,0,0,0,0,0],"id":12,"left_children":[1,3,5,-1,7,9,11,-1,-1,-1,-1,-1,-1],"loss_changes":[3.3621153E5,2.6207875E4,3.3605758E4,0E0,1.1330953E4,3.9449926E4,2.8602793E4,0E0,0E0,0E0,0E0,0E0,0E0],"parents":[2147483647,0,0,1,1,2,2,4,4,5,5,6,6],"right_children":[2,4,6,-1,8,10,12,-1,-1,-1,-1,-1,-1],"split_conditions":[-3.950615E-1,-2.5726044E0,-5.6445036E-2,7.781803E-1,-4.918449E-1,-2.2393207E-1,1.933155E-1,6.927244E-4,5.145294E-1,5.990581E-2,-9.15175E-2,6.674977E-2,-2.627115E-2],"split_indices":[5,5,6,0,4,0,0,0,0,0,0,0,0],"split_type":[0,0,0,0,0,0,0,0,0,0,0,0,0],"sum_hessian":[6.2822E4,1.848E3,6.0974E4,1.353E3,4.95E2,2.7123E4,3.3851E4,1.57E2,3.38E2,5.36E3,2.1763E4,1.4328E4,1.9523E4],"tree_param":{"num_deleted":"0","num_feature":"9","num_nodes":"13","size_leaf_vector":"1"}},{"base_weights":[-2.7600587E-3,7.392151E-1,-3.3181834E-1,2.2699046E0,-6.0567975E-1,3.0074823E-1,8.406748E-2,-7.632648E-2,-4.9652485E-4],"categories":[],"categories_nodes":[],"categories_segments":[],"categories_sizes":[],"default_left":[0,0,0,0,0,0,0,0,0],"id":13,"left_children":[1,-1,3,5,7,-1,-1,-1,-1],"loss_changes":[3.051089E5,0E0,4.3706656E4,1.2865902E4,3.0446338E4,0E0,0E0,0E0,0E0],"parents":[2147483647,0,0,2,2,3,3,4,4],"right_children":[2,-1,4,6,8,-1,-1,-1,-1],"split_conditions":[-2.5726044E0,7.392151E-1,-1.4175671E-1,-1.0447222E0,-1.1385201E-1,3.0074823E-1,8.406748E-2,-7.632648E-2,-4.9652485E-4],"split_indices":[5,0,5,0,6,0,0,0,0],"split_type":[0,0,0,0,0,0,0,0,0],"sum_hessian":[6.2703E4,1.364E3,6.1339E4,5.841E3,5.5498E4,7.92E2,5.049E3,2.18E4,3.3698E4],"tree_param":{"num_deleted":"0","num_feature":"9","num_nodes":"9","size_leaf_vector":"1"}},{"base_weights":[2.7912685E-3,1.23109865E1,-3.3125463E-1,-2.2150038E-1,1.28694105E1,6.699087E-1,-8.37223E-1,-2.9710485E-2,1.6549864E-1,6.805998E-1,2.4676163E-1,-1.26130255E-2,7.94001E-2,-9.691237E-2,-1.5007489E-3],"categories":[],"categories_nodes":[],"categories_segments":[],"categories_sizes":[],"default_left":[0,0,0,0,0,0,0,0,0,0,0,0,0,0,0],"id":14,"left_children":[1,3,5,7,9,11,13,-1,-1,-1,-1,-1,-1,-1,-1],"loss_changes":[2.5907925E5,1.1656516E4,3.1076834E4,9.646257E1,9.3225E3,1.7437877E4,3.6219203E4,0E0,0E0,0E0,0E0,0E0,0E0,0E0,0E0],"parents":[2147483647,0,0,1,1,2,2,3,3,4,4,5,5,6,6],"right_children":[2,4,6,8,10,12,14,-1,-1,-1,-1,-1,-1,-1,-1],"split_conditions":[-1.8693063E0,-6.4223733E0,8.991951E-2,-2.529992E0,-1.6511521E0,-1.8419392E-1,1.4652331E-1,-2.9710485E-2,1.6549864E-1,6.805998E-1,2.4676163E-1,-1.26130255E-2,7.94001E-2,-9.691237E-2,-1.5007489E-3],"split_indices":[6,0,0,2,1,6,6,0,0,0,0,0,0,0,0],"split_type":[0,0,0,0,0,0,0,0,0,0,0,0,0,0,0],"sum_hessian":[6.3011E4,1.664E3,6.1347E4,7.1E1,1.593E3,2.0595E4,4.0752E4,6.5E1,6E0,1.456E3,1.37E2,1.0275E4,1.032E4,1.7238E4,2.3514E4],"tree_param":{"num_deleted":"0","num_feature":"9","num_nodes":"15","size_leaf_vector":"1"}},{"base_weights":[2.2690143E-3,1.1655748E1,-3.5267422E-1,6.68493E-1,6.6756363E0,9.4924563E-1,-7.0912915E-1,8.38939E-1,2.2832303E-1,-4.3736016E-3,8.3835535E-2,6.3281775E-2,-4.5088425E-2],"categories":[],"categories_nodes":[],"categories_segments":[],"categories_sizes":[],"default_left":[0,0,0,0,0,0,0,0,0,0,0,0,0],"id":15,"left_children":[1,3,5,-1,7,9,11,-1,-1,-1,-1,-1,-1],"loss_changes":[2.595885E5,1.5743891E4,2.8264252E4,0E0,1.0085783E4,9.873225E3,1.8189998E4,0E0,0E0,0E0,0E0,0E0,0E0],"parents":[2147483647,0,0,1,1,2,2,4,4,5,5,6,6],"right_children":[2,4,6,-1,8,10,12,-1,-1,-1,-1,-1,-1],"split_conditions":[-3.950615E-1,-2.5726044E0,-5.8535818E-2,6.68493E-1,-1.3005568E0,-7.965766E-2,-2.2393207E-1,8.38939E-1,2.2832303E-1,-4.3736016E-3,8.3835535E-2,6.3281775E-2,-4.5088425E-2],"split_indices":[5,5,5,0,8,6,0,0,0,0,0,0,0],"split_type":[0,0,0,0,0,0,0,0,0,0,0,0,0],"sum_hessian":[6.2756E4,1.854E3,6.0902E4,1.378E3,4.76E2,1.309E4,4.7812E4,8.1E1,3.95E2,5.398E3,7.692E3,4.249E3,4.3563E4],"tree_param":{"num_deleted":"0","num_feature":"9","num_nodes":"13","size_leaf_vector":"1"}},{"base_weights":[-2.170332E-3,1.0968437E1,-3.3216786E-1,6.348819E-1,6.0191393E0,9.062305E-1,-6.729457E-1,1.889382E-2,4.7087416E-1,4.0352028E-2,4.2330858E-1,-7.9017095E-2,-1.2528762E-2],"categories":[],"categories_nodes":[],"categories_segments":[],"categories_sizes":[],"default_left":[0,0,0,0,0,0,0,0,0,0,0,0,0],"id":16,"left_children":[1,3,5,-1,7,9,11,-1,-1,-1,-1,-1,-1],"loss_changes":[2.2699733E5,1.5592031E4,2.5689283E4,0E0,9.120836E3,9.842534E3,1.829459E4,0E0,0E0,0E0,0E0,0E0,0E0],"parents":[2147483647,0,0,1,1,2,2,4,4,5,5,6,6],"right_children":[2,4,6,-1,8,10,12,-1,-1,-1,-1,-1,-1],"split_conditions":[-3.950615E-1,-2.5726044E0,-5.8535818E-2,6.348819E-1,2.73128E-1,1.8865931E0,-1.9744274E-1,1.889382E-2,4.7087416E-1,4.0352028E-2,4.2330858E-1,-7.9017095E-2,-1.2528762E-2],"split_indices":[5,5,5,0,4,8,6,0,0,0,0,0,0],"split_type":[0,0,0,0,0,0,0,0,0,0,0,0,0],"sum_hessian":[6.27E4,1.83E3,6.087E4,1.355E3,4.75E2,1.3135E4,4.7735E4,1.79E2,2.96E2,1.2966E4,1.69E2,1.5161E4,3.2574E4],"tree_param":{"num_deleted":"0","num_feature":"9","num_nodes":"13","size_leaf_vector":"1"}},{"base_weights":[-5.205139E-3,1.0461872E1,-3.178905E-1,6.0313314E-1,6.1858E0,1.3770318E0,-5.4987615E-1,-4.299465E-3,4.5144105E-1,3.2008463E-1,5.725009E-2,-6.6243015E-2,-2.3037356E-3],"categories":[],"categories_nodes":[],"categories_segments":[],"categories_sizes":[],"default_left":[0,0,0,0,0,0,0,0,0,0,0,0,0],"id":17,"left_children":[1,3,5,-1,7,9,11,-1,-1,-1,-1,-1,-1],"loss_changes":[2.0501684E5,1.2361109E4,2.3916531E4,0E0,8.863594E3,8.529597E3,2.0889021E4,0E0,0E0,0E0,0E0,0E0,0E0],"parents":[2147483647,0,0,1,1,2,2,4,4,5,5,6,6],"right_children":[2,4,6,-1,8,10,12,-1,-1,-1,-1,-1,-1],"split_conditions":[-3.950615E-1,-2.5726044E0,-1.1809839E-1,6.0313314E-1,-1.7584471E-1,-4.627604E-2,-1.1816955E-1,-4.299465E-3,4.5144105E-1,3.2008463E-1,5.725009E-2,-6.6243015E-2,-2.3037356E-3],"split_indices":[5,5,5,0,4,2,6,0,0,0,0,0,0],"split_type":[0,0,0,0,0,0,0,0,0,0,0,0,0],"sum_hessian":[6.2639E4,1.816E3,6.0823E4,1.32E3,4.96E2,7.322E3,5.3501E4,1.55E2,3.41E2,3.22E2,7E3,2.1077E4,3.2424E4],"tree_param":{"num_deleted":"0","num_feature":"9","num_nodes":"13","size_leaf_vector":"1"}},{"base_weights":[-4.5908415E-3,9.890053E0,-2.9551578E-1,5.7340646E-1,5.298776E0,-9.683933E-1,2.3104867E-1,4.6317172E-1,6.293019E-2,6.255935E-2,-5.7943653E-2,7.294103E-2,-1.1563137E-2],"categories":[],"categories_nodes":[],"categories_segments":[],"categories_sizes":[],"default_left":[0,0,0,0,0,0,0,0,0,0,0,0,0],"id":18,"left_children":[1,3,5,-1,7,9,11,-1,-1,-1,-1,-1,-1],"loss_changes":[1.8050161E5,1.2914047E4,2.1582943E4,0E0,7.3555244E3,1.1307561E4,1.9397498E4,0E0,0E0,0E0,0E0,0E0,0E0],"parents":[2147483647,0,0,1,1,2,2,4,4,5,5,6,6],"right_children":[2,4,6,-1,8,10,12,-1,-1,-1,-1,-1,-1],"split_conditions":[-3.950615E-1,-2.5726044E0,-6.2163915E-2,5.7340646E-1,-1.7493637E-1,-1.7694446E-1,-2.947201E-2,4.6317172E-1,6.293019E-2,6.255935E-2,-5.7943653E-2,7.294103E-2,-1.1563137E-2],"split_indices":[5,5,6,0,8,5,5,0,0,0,0,0,0],"split_type":[0,0,0,0,0,0,0,0,0,0,0,0,0],"sum_hessian":[6.2703E4,1.79E3,6.0913E4,1.331E3,4.59E2,2.6741E4,3.4172E4,2.31E2,2.28E2,2.113E3,2.4628E4,9.347E3,2.4825E4],"tree_param":{"num_deleted":"0","num_feature":"9","num_nodes":"13","size_leaf_vector":"1"}},{"base_weights":[9.1730285E-4,9.542016E0,-2.5802988E-1,-8.414103E-1,9.993778E0,6.90112E-1,-6.985484E-1,-6.491069E-2,1.4242968E-1,5.2772105E-1,1.9154377E-1,-4.4347425E-3,7.4556254E-2,-8.297152E-2,7.5477124E-5],"categories":[],"categories_nodes":[],"categories_segments":[],"categories_sizes":[],"default_left":[0,0,0,0,0,0,0,0,0,0,0,0,0,0,0],"id":19,"left_children":[1,3,5,7,9,11,13,-1,-1,-1,-1,-1,-1,-1,-1],"loss_changes":[1.5493481E5,7.7820312E3,2.5500736E4,1.2153551E2,5.4449688E3,1.2082698E4,2.804122E4,0E0,0E0,0E0,0E0,0E0,0E0,0E0,0E0],"parents":[2147483647,0,0,1,1,2,2,3,3,4,4,5,5,6,6],"right_children":[2,4,6,8,10,12,14,-1,-1,-1,-1,-1,-1,-1,-1],"split_conditions":[-1.8693063E0,-6.4223733E0,7.818988E-2,-2.529992E0,-1.4998296E0,-1.8419392E-1,1.4652331E-1,-6.491069E-2,1.4242968E-1,5.2772105E-1,1.9154377E-1,-4.4347425E-3,7.4556254E-2,-8.297152E-2,7.5477124E-5],"split_indices":[6,0,0,2,3,6,6,0,0,0,0,0,0,0,0],"split_type":[0,0,0,0,0,0,0,0,0,0,0,0,0,0,0],"sum_hessian":[6.2708E4,1.656E3,6.1052E4,6.9E1,1.587E3,1.9367E4,4.1685E4,6.2E1,7E0,1.454E3,1.33E2,9.82E3,9.547E3,1.7569E4,2.4116E4],"tree_param":{"num_deleted":"0","num_feature":"9","num_nodes":"15","size_leaf_vector":"1"}},{"base_weights":[4.559425E-3,9.108406E0,-2.7055976E-1,5.181084E-1,5.6308317E0,6.331081E-1,-6.5308434E-1,7.034125E-1,1.8460727E-1,-2.2464307E-2,5.6775875E-2,-7.8264184E-2,9.4332313E-4],"categories":[],"categories_nodes":[],"categories_segments":[],"categories_sizes":[],"default_left":[0,0,0,0,0,0,0,0,0,0,0,0,0],"id":20,"left_children":[1,3,5,-1,7,9,11,-1,-1,-1,-1,-1,-1],"loss_changes":[1.5685161E5,7.949453E3,2.1012969E4,0E0,7.9451045E3,9.83203E3,2.6178795E4,0E0,0E0,0E0,0E0,0E0,0E0],"parents":[2147483647,0,0,1,1,2,2,4,4,5,5,6,6],"right_children":[2,4,6,-1,8,10,12,-1,-1,-1,-1,-1,-1],"split_conditions":[-3.950615E-1,-2.5726044E0,5.3483166E-2,5.181084E-1,-1.3005568E0,-3.8822412E-1,1.4652331E-1,7.034125E-1,1.8460727E-1,-2.2464307E-2,5.6775875E-2,-7.8264184E-2,9.4332313E-4],"split_indices":[5,5,0,0,8,6,6,0,0,0,0,0,0],"split_type":[0,0,0,0,0,0,0,0,0,0,0,0,0],"sum_hessian":[6.2622E4,1.836E3,6.0786E4,1.348E3,4.88E2,1.8078E4,4.2708E4,9E1,3.98E2,5.731E3,1.2347E4,1.8115E4,2.4593E4],"tree_param":{"num_deleted":"0","num_feature":"9","num_nodes":"13","size_leaf_vector":"1"}},{"base_weights":[8.631149E-3,8.647515E0,-2.2863159E-1,9.181115E0,3.2434323E0,-8.299657E-1,2.4372697E-1,4.5103112E-1,9.216518E-1,-8.291945E-2,2.5349283E-1,-4.3761156E-2,4.8884892E-1,-1.1634958E-2,4.2618465E-2],"categories":[],"categories_nodes":[],"categories_segments":[],"categories_sizes":[],"default_left":[0,0,0,0,0,0,0,0,0,0,0,0,0,0,0],"id":21,"left_children":[1,3,5,7,9,11,13,-1,-1,-1,-1,-1,-1,-1,-1],"loss_changes":[1.28362305E5,4.7961562E3,1.7313107E4,2.0924375E3,1.3695752E3,1.2879996E4,9.899072E3,0E0,0E0,0E0,0E0,0E0,0E0,0E0,0E0],"parents":[2147483647,0,0,1,1,2,2,3,3,4,4,5,5,6,6],"right_children":[2,4,6,8,10,12,14,-1,-1,-1,-1,-1,-1,-1,-1],"split_conditions":[-1.8693063E0,-2.0495133E0,-6.2163915E-2,-4.918449E-1,-2.4975398E0,1.1428761E0,1.8245657E-1,4.5103112E-1,9.216518E-1,-8.291945E-2,2.5349283E-1,-4.3761156E-2,4.8884892E-1,-1.1634958E-2,4.2618465E-2],"split_indices":[6,3,6,4,2,1,2,0,0,0,0,0,0,0,0],"split_type":[0,0,0,0,0,0,0,0,0,0,0,0,0,0,0],"sum_hessian":[6.2623E4,1.673E3,6.095E4,1.522E3,1.51E2,2.6814E4,3.4136E4,1.498E3,2.4E1,4.1E1,1.1E2,2.6701E4,1.13E2,1.9148E4,1.4988E4],"tree_param":{"num_deleted":"0","num_feature":"9","num_nodes":"15","size_leaf_vector":"1"}},{"base_weights":[-1.9620715E-3,8.147821E0,-2.4768783E-1,4.6980745E-1,4.741292E0,5.129643E-1,-6.691025E-1,-8.602954E-2,3.8040254E-1,-2.6989548E-2,5.1112484E-2,-7.438543E-2,-3.821972E-3],"categories":[],"categories_nodes":[],"categories_segments":[],"categories_sizes":[],"default_left":[0,0,0,0,0,0,0,0,0,0,0,0,0],"id":22,"left_children":[1,3,5,-1,7,9,11,-1,-1,-1,-1,-1,-1],"loss_changes":[1.2500626E5,7.723289E3,1.9424082E4,0E0,9.127813E3,1.1583109E4,1.8917482E4,0E0,0E0,0E0,0E0,0E0,0E0],"parents":[2147483647,0,0,1,1,2,2,4,4,5,5,6,6],"right_children":[2,4,6,-1,8,10,12,-1,-1,-1,-1,-1,-1],"split_conditions":[-3.950615E-1,-2.5726044E0,1.127368E-1,4.6980745E-1,-4.918449E-1,-3.724381E-1,1.4652331E-1,-8.602954E-2,3.8040254E-1,-2.6989548E-2,5.1112484E-2,-7.438543E-2,-3.821972E-3],"split_indices":[5,5,0,0,4,6,6,0,0,0,0,0,0],"split_type":[0,0,0,0,0,0,0,0,0,0,0,0,0],"sum_hessian":[6.242E4,1.826E3,6.0594E4,1.335E3,4.91E2,2.1602E4,3.8992E4,1.51E2,3.4E2,7.043E3,1.4559E4,1.6374E4,2.2618E4],"tree_param":{"num_deleted":"0","num_feature":"9","num_nodes":"13","size_leaf_vector":"1"}},{"base_weights":[5.4742377E-3,7.778227E0,-2.3174283E-1,4.4620988E-1,4.627096E0,1.5249275E0,-4.0081948E-1,6.633155E-1,1.441831E-1,3.173159E-1,6.174782E-2,-8.054003E-2,-8.728566E-3],"categories":[],"categories_nodes":[],"categories_segments":[],"categories_sizes":[],"default_left":[0,0,0,0,0,0,0,0,0,0,0,0,0],"id":23,"left_children":[1,3,5,-1,7,9,11,-1,-1,-1,-1,-1,-1],"loss_changes":[1.15304586E5,6.6451094E3,1.8024074E4,0E0,7.430831E3,7.440289E3,1.5153581E4,0E0,0E0,0E0,0E0,0E0,0E0],"parents":[2147483647,0,0,1,1,2,2,4,4,5,5,6,6],"right_children":[2,4,6,-1,8,10,12,-1,-1,-1,-1,-1,-1],"split_conditions":[-3.950615E-1,-2.5726044E0,-1.4175671E-1,4.4620988E-1,-1.3005568E0,-4.4857625E-2,-3.8307965E-1,6.633155E-1,1.441831E-1,3.173159E-1,6.174782E-2,-8.054003E-2,-8.728566E-3],"split_indices":[5,5,5,0,8,2,6,0,0,0,0,0,0],"split_type":[0,0,0,0,0,0,0,0,0,0,0,0,0],"sum_hessian":[6.2533E4,1.851E3,6.0682E4,1.356E3,4.95E2,5.327E3,5.5355E4,8.2E1,4.13E2,3.01E2,5.026E3,8.719E3,4.6636E4],"tree_param":{"num_deleted":"0","num_feature":"9","num_nodes":"13","size_leaf_vector":"1"}},{"base_weights":[-1.8272811E-4,6.8968477E0,-2.3690559E-1,4.238082E-1,4.0186334E0,5.9803927E-1,-5.2785134E-1,5.980623E-1,1.40179E-1,2.607262E-2,3.6762154E-1,-5.6151506E-2,-6.251725E-3],"categories":[],"categories_nodes":[],"categories_segments":[],"categories_sizes":[],"default_left":[0,0,0,0,0,0,0,0,0,0,0,0,0],"id":24,"left_children":[1,3,5,-1,7,9,11,-1,-1,-1,-1,-1,-1],"loss_changes":[1.026348E5,9.446828E3,1.4764479E4,0E0,7.116158E3,8.120058E3,1.080566E4,0E0,0E0,0E0,0E0,0E0,0E0],"parents":[2147483647,0,0,1,1,2,2,4,4,5,5,6,6],"right_children":[2,4,6,-1,8,10,12,-1,-1,-1,-1,-1,-1],"split_conditions":[-3.4834778E-1,-2.5726044E0,-3.1622905E-2,4.238082E-1,-1.3005568E0,1.9624776E0,3.3681896E-1,5.980623E-1,1.40179E-1,2.607262E-2,3.6762154E-1,-5.6151506E-2,-6.251725E-3],"split_indices":[5,5,5,0,8,8,3,0,0,0,0,0,0],"split_type":[0,0,0,0,0,0,0,0,0,0,0,0,0],"sum_hessian":[6.2861E4,2.085E3,6.0776E4,1.345E3,7.4E2,1.5705E4,4.5071E4,9.7E1,6.43E2,1.553E4,1.75E2,1.8191E4,2.688E4],"tree_param":{"num_deleted":"0","num_feature":"9","num_nodes":"13","size_leaf_vector":"1"}},{"base_weights":[-6.46839E-3,6.1608796E0,-2.2806962E-1,7.3053217E0,3.6335487E0,2.5850725E-1,-7.5774693E-1,-6.604903E-2,3.836759E-1,1.6609924E-2,2.4162845E-1,-1.429572E-1,1.7210415E-2,-3.845101E-2,8.697419E-1],"categories":[],"categories_nodes":[],"categories_segments":[],"categories_sizes":[],"default_left":[0,0,0,0,0,0,0,0,0,0,0,0,0,0,0],"id":25,"left_children":[1,3,5,7,9,11,13,-1,-1,-1,-1,-1,-1,-1,-1],"loss_changes":[8.5583055E4,6.254617E3,1.55796875E4,4.7559766E3,2.685622E3,8.418957E3,5.934549E3,0E0,0E0,0E0,0E0,0E0,0E0,0E0,0E0],"parents":[2147483647,0,0,1,1,2,2,3,3,4,4,5,5,6,6],"right_children":[2,4,6,8,10,12,14,-1,-1,-1,-1,-1,-1,-1,-1],"split_conditions":[-1.67513E0,-1.6635485E0,1.7283328E-1,-6.4223733E0,-2.2107973E0,-1.8390088E0,4.8611093E-1,-6.604903E-2,3.836759E-1,1.6609924E-2,2.4162845E-1,-1.429572E-1,1.7210415E-2,-3.845101E-2,8.697419E-1],"split_indices":[0,3,0,0,0,2,4,0,0,0,0,0,0,0,0],"split_type":[0,0,0,0,0,0,0,0,0,0,0,0,0,0,0],"sum_hessian":[6.2619E4,2.171E3,6.0448E4,1.493E3,6.78E2,3.1506E4,2.8942E4,6.1E1,1.432E3,1.81E2,4.97E2,8.42E2,3.0664E4,2.8925E4,1.7E1],"tree_param":{"num_deleted":"0","num_feature":"9","num_nodes":"15","size_leaf_vector":"1"}},{"base_weights":[-2.4724503E-3,6.2395515E0,-2.1765569E-1,3.8356078E-1,3.5377507E0,6.173051E-1,-5.242237E-1,-1.10558905E-1,2.5747535E-1,-2.1629743E-3,6.7438826E-2,-6.388721E-2,2.1225074E-3],"categories":[],"categories_nodes":[],"categories_segments":[],"categories_sizes":[],"default_left":[0,0,0,0,0,0,0,0,0,0,0,0,0],"id":26,"left_children":[1,3,5,-1,7,9,11,-1,-1,-1,-1,-1,-1],"loss_changes":[8.391721E4,8.0250625E3,1.5459758E4,0E0,6.7109033E3,7.8374355E3,1.8863344E4,0E0,0E0,0E0,0E0,0E0,0E0],"parents":[2147483647,0,0,1,1,2,2,4,4,5,5,6,6],"right_children":[2,4,6,-1,8,10,12,-1,-1,-1,-1,-1,-1],"split_conditions":[-3.4834778E-1,-2.5726044E0,4.124348E-2,3.8356078E-1,-1.7584471E-1,-2.0118417E-1,1.2288033E-1,-1.10558905E-1,2.5747535E-1,-2.1629743E-3,6.7438826E-2,-6.388721E-2,2.1225074E-3],"split_indices":[5,5,0,0,4,6,6,0,0,0,0,0,0],"split_type":[0,0,0,0,0,0,0,0,0,0,0,0,0],"sum_hessian":[6.2475E4,2.081E3,6.0394E4,1.359E3,7.22E2,1.6219E4,4.4175E4,1.58E2,5.64E2,8.523E3,7.696E3,1.8961E4,2.5214E4],"tree_param":{"num_deleted":"0","num_feature":"9","num_nodes":"13","size_leaf_vector":"1"}},{"base_weights":[-5.199193E-3,5.911628E0,-2.1096866E-1,7.2846165E0,3.4190805E0,5.6488466E-1,-4.749048E-1,3.9054343E-1,3.5924095E-1,5.6174487E-1,1.1417917E-1,-1.6371949E-2,6.1071154E-2,-7.919251E-2,-1.4016953E-2],"categories":[],"categories_nodes":[],"categories_segments":[],"categories_sizes":[],"default_left":[0,0,0,0,0,0,0,0,0,0,0,0,0,0,0],"id":27,"left_children":[1,3,5,7,9,11,13,-1,-1,-1,-1,-1,-1,-1,-1],"loss_changes":[7.640139E4,7.1915234E3,1.241868E4,1.37578125E1,6.637996E3,9.018982E3,9.762851E3,0E0,0E0,0E0,0E0,0E0,0E0,0E0,0E0],"parents":[2147483647,0,0,1,1,2,2,3,3,4,4,5,5,6,6],"right_children":[2,4,6,8,10,12,14,-1,-1,-1,-1,-1,-1,-1,-1],"split_conditions":[-3.4834778E-1,-2.5726044E0,-3.4111015E-2,-1.7493637E-1,-1.3005568E0,7.297187E-2,-3.8822412E-1,3.9054343E-1,3.5924095E-1,5.6174487E-1,1.1417917E-1,-1.6371949E-2,6.1071154E-2,-7.919251E-2,-1.4016953E-2],"split_indices":[5,5,5,8,8,6,6,0,0,0,0,0,0,0,0],"split_type":[0,0,0,0,0,0,0,0,0,0,0,0,0,0,0],"sum_hessian":[6.2751E4,2.108E3,6.0643E4,1.358E3,7.5E2,1.5393E4,4.525E4,2.04E2,1.154E3,9.4E1,6.56E2,6.525E3,8.868E3,6.753E3,3.8497E4],"tree_param":{"num_deleted":"0","num_feature":"9","num_nodes":"15","size_leaf_vector":"1"}},{"base_weights":[-2.2926517E-3,5.6539907E0,-1.9344404E-1,6.92067E0,3.2584314E0,6.378442E-1,-4.81129E-1,3.7108427E-1,3.4129092E-1,5.062465E-1,1.1178821E-1,-1.449696E-1,3.860104E-2,-5.8362138E-2,2.162359E-3],"categories":[],"categories_nodes":[],"categories_segments":[],"categories_sizes":[],"default_left":[0,0,0,0,0,0,0,0,0,0,0,0,0,0,0],"id":28,"left_children":[1,3,5,7,9,11,13,-1,-1,-1,-1,-1,-1,-1,-1],"loss_changes":[6.790248E4,6.2060703E3,1.45286E4,1.1691406E1,4.97589E3,7.4150273E3,1.6237831E4,0E0,0E0,0E0,0E0,0E0,0E0,0E0,0E0],"parents":[2147483647,0,0,1,1,2,2,3,3,4,4,5,5,6,6],"right_children":[2,4,6,8,10,12,14,-1,-1,-1,-1,-1,-1,-1,-1],"split_conditions":[-3.4834778E-1,-2.5726044E0,3.354663E-2,-1.7493637E-1,-1.3005568E0,-1.9564153E0,1.2288033E-1,3.7108427E-1,3.4129092E-1,5.062465E-1,1.1178821E-1,-1.449696E-1,3.860104E-2,-5.8362138E-2,2.162359E-3],"split_indices":[5,5,0,8,8,2,6,0,0,0,0,0,0,0,0],"split_type":[0,0,0,0,0,0,0,0,0,0,0,0,0,0,0],"sum_hessian":[6.2801E4,2.052E3,6.0749E4,1.341E3,7.11E2,1.5618E4,4.5131E4,2.01E2,1.14E3,9.1E1,6.2E2,5.7E2,1.5048E4,1.955E4,2.5581E4],"tree_param":{"num_deleted":"0","num_feature":"9","num_nodes":"15","size_leaf_vector":"1"}},{"base_weights":[-2.5835165E-4,5.051762E0,-1.9728059E-1,6.574279E0,3.0156102E0,-7.2657406E-1,1.3681035E-1,3.52604E-1,3.2424173E-1,5.007289E-1,1.1159666E-1,-2.2845497E-2,-9.305325E-2,4.4310644E-2,-1.3733678E-2],"categories":[],"categories_nodes":[],"categories_segments":[],"categories_sizes":[],"default_left":[0,0,0,0,0,0,0,0,0,0,0,0,0,0,0],"id":29,"left_children":[1,3,5,7,9,11,13,-1,-1,-1,-1,-1,-1,-1,-1],"loss_changes":[6.2238406E4,7.2550938E3,1.0642272E4,1.0265625E1,5.4942627E3,7.123449E3,1.1377507E4,0E0,0E0,0E0,0E0,0E0,0E0,0E0,0E0],"parents":[2147483647,0,0,1,1,2,2,3,3,4,4,5,5,6,6],"right_children":[2,4,6,8,10,12,14,-1,-1,-1,-1,-1,-1,-1,-1],"split_conditions":[-3.1802344E-1,-2.5726044E0,-1.271798E-1,-1.7493637E-1,-7.9466E-1,2.3890767E-1,1.3577937E-2,3.52604E-1,3.2424173E-1,5.007289E-1,1.1159666E-1,-2.2845497E-2,-9.305325E-2,4.4310644E-2,-1.3733678E-2],"split_indices":[5,5,6,8,8,1,5,0,0,0,0,0,0,0,0],"split_type":[0,0,0,0,0,0,0,0,0,0,0,0,0,0,0],"sum_hessian":[6.2527E4,2.346E3,6.0181E4,1.341E3,1.005E3,2.3287E4,3.6894E4,1.99E2,1.142E3,1E2,9.05E2,1.8816E4,4.471E3,1.3077E4,2.3817E4],"tree_param":{"num_deleted":"0","num_feature":"9","num_nodes":"15","size_leaf_vector":"1"}},{"base_weights":[-1.4570028E-4,4.9109693E0,-1.8960558E-1,6.250038E0,3.0302846E0,-6.8071914E-1,1.4667363E-1,3.3515853E-1,3.0804527E-1,4.779644E-1,1.12220064E-1,-4.2754333E-2,5.46769E-2,4.469922E-2,-1.31957475E-2],"categories":[],"categories_nodes":[],"categories_segments":[],"categories_sizes":[],"default_left":[0,0,0,0,0,0,0,0,0,0,0,0,0,0,0],"id":30,"left_children":[1,3,5,7,9,11,13,-1,-1,-1,-1,-1,-1,-1,-1],"loss_changes":[5.836538E4,5.847926E3,9.974961E3,1.234375E1,4.9595996E3,7.5953945E3,1.1000723E4,0E0,0E0,0E0,0E0,0E0,0E0,0E0,0E0],"parents":[2147483647,0,0,1,1,2,2,3,3,4,4,5,5,6,6],"right_children":[2,4,6,8,10,12,14,-1,-1,-1,-1,-1,-1,-1,-1],"split_conditions":[-3.1802344E-1,-2.5726044E0,-1.0427686E-1,-1.7493637E-1,-7.9466E-1,1.8865931E0,1.1827178E-2,3.3515853E-1,3.0804527E-1,4.779644E-1,1.12220064E-1,-4.2754333E-2,5.46769E-2,4.469922E-2,-1.31957475E-2],"split_indices":[5,5,6,8,8,8,5,0,0,0,0,0,0,0,0],"split_type":[0,0,0,0,0,0,0,0,0,0,0,0,0,0,0],"sum_hessian":[6.2726E4,2.329E3,6.0397E4,1.359E3,9.7E2,2.4547E4,3.585E4,2.11E2,1.148E3,1.03E2,8.67E2,2.2351E4,2.196E3,1.2712E4,2.3138E4],"tree_param":{"num_deleted":"0","num_feature":"9","num_nodes":"15","size_leaf_vector":"1"}},{"base_weights":[-3.3277802E-3,5.1588545E0,-1.6359916E-1,-1.7845286E0,5.4432974E0,1.1806866E0,-3.3274487E-1,-1.0982654E-1,9.640276E-2,3.8231495E-1,2.3980112E-1,1.8413423E-2,9.657615E-2,-4.6976063E-2,7.894589E-3],"categories":[],"categories_nodes":[],"categories_segments":[],"categories_sizes":[],"default_left":[0,0,0,0,0,0,0,0,0,0,0,0,0,0,0],"id":31,"left_children":[1,3,5,7,9,11,13,-1,-1,-1,-1,-1,-1,-1,-1],"loss_changes":[5.184624E4,3.7368945E3,1.3820248E4,1.1898128E2,2.5473242E3,4.142741E3,1.607252E4,0E0,0E0,0E0,0E0,0E0,0E0,0E0,0E0],"parents":[2147483647,0,0,1,1,2,2,3,3,4,4,5,5,6,6],"right_children":[2,4,6,8,10,12,14,-1,-1,-1,-1,-1,-1,-1,-1],"split_conditions":[-3.950615E-1,-6.4223733E0,-2.4682683E-1,-2.529992E0,-1.7493637E-1,-2.8337908E-1,7.297187E-2,-1.0982654E-1,9.640276E-2,3.8231495E-1,2.3980112E-1,1.8413423E-2,9.657615E-2,-4.6976063E-2,7.894589E-3],"split_indices":[5,0,0,2,8,1,6,0,0,0,0,0,0,0,0],"split_type":[0,0,0,0,0,0,0,0,0,0,0,0,0,0,0],"sum_hessian":[6.2664E4,1.886E3,6.0778E4,7.4E1,1.812E3,6.792E3,5.3986E4,6.7E1,7E0,4.09E2,1.403E3,3.263E3,3.529E3,2.4136E4,2.985E4],"tree_param":{"num_deleted":"0","num_feature":"9","num_nodes":"15","size_leaf_vector":"1"}},{"base_weights":[7.1057765E-4,4.508422E0,-1.6461363E-1,-1.8730339E0,4.728878E0,2.6244625E-1,-6.380882E-1,-8.334301E-2,-2.2030465E-1,2.6602635E-1,1.16019525E-1,-1.4450443E-2,4.3833695E-2,-3.2442514E-2,1.3774332E0],"categories":[],"categories_nodes":[],"categories_segments":[],"categories_sizes":[],"default_left":[0,0,0,0,0,0,0,0,0,0,0,0,0,0,0],"id":32,"left_children":[1,3,5,7,9,11,13,-1,-1,-1,-1,-1,-1,-1,-1],"loss_changes":[4.6868934E4,3.1393398E3,1.2266992E4,3.1217102E1,3.0520234E3,1.0804431E4,8.742476E3,0E0,0E0,0E0,0E0,0E0,0E0,0E0,0E0],"parents":[2147483647,0,0,1,1,2,2,3,3,4,4,5,5,6,6],"right_children":[2,4,6,8,10,12,14,-1,-1,-1,-1,-1,-1,-1,-1],"split_conditions":[-1.67513E0,-6.4223733E0,1.807366E-1,-2.226629E0,-3.1850138E-1,-9.434863E-2,5.0376177E-1,-8.334301E-2,-2.2030465E-1,2.6602635E-1,1.16019525E-1,-1.4450443E-2,4.3833695E-2,-3.2442514E-2,1.3774332E0],"split_indices":[0,0,0,1,7,6,4,0,0,0,0,0,0,0,0],"split_type":[0,0,0,0,0,0,0,0,0,0,0,0,0,0,0],"sum_hessian":[6.2889E4,2.224E3,6.0665E4,7.4E1,2.15E3,3.1896E4,2.8769E4,7E1,4E0,1.725E3,4.25E2,1.6807E4,1.5089E4,2.8759E4,1E1],"tree_param":{"num_deleted":"0","num_feature":"9","num_nodes":"15","size_leaf_vector":"1"}},{"base_weights":[7.389794E-4,4.0845227E0,-1.6563225E-1,4.740861E0,-2.2208127E-1,2.2171636E-1,-6.1390334E-1,-8.891117E-2,2.4847566E-1,2.0323724E-2,-1.4533405E-1,-1.45252375E-2,4.079123E-2,-3.1339955E-2,9.1917175E-1],"categories":[],"categories_nodes":[],"categories_segments":[],"categories_sizes":[],"default_left":[0,0,0,0,0,0,0,0,0,0,0,0,0,0,0],"id":33,"left_children":[1,3,5,7,9,11,13,-1,-1,-1,-1,-1,-1,-1,-1],"loss_changes":[4.2662793E4,6.949254E3,1.0476402E4,3.1886133E3,5.5153064E2,9.850045E3,6.8614707E3,0E0,0E0,0E0,0E0,0E0,0E0,0E0,0E0],"parents":[2147483647,0,0,1,1,2,2,3,3,4,4,5,5,6,6],"right_children":[2,4,6,8,10,12,14,-1,-1,-1,-1,-1,-1,-1,-1],"split_conditions":[-1.0447222E0,-1.5067893E-1,1.9592743E-1,-6.4223733E0,4.8611093E-1,-7.965766E-2,4.8611093E-1,-8.891117E-2,2.4847566E-1,2.0323724E-2,-1.4533405E-1,-1.45252375E-2,4.079123E-2,-3.1339955E-2,9.1917175E-1],"split_indices":[0,5,0,0,4,6,4,0,0,0,0,0,0,0,0],"split_type":[0,0,0,0,0,0,0,0,0,0,0,0,0,0,0],"sum_hessian":[6.279E4,2.457E3,6.0333E4,2.132E3,3.25E2,3.2366E4,2.7967E4,7.2E1,2.06E3,2.64E2,6.1E1,1.7381E4,1.4985E4,2.7949E4,1.8E1],"tree_param":{"num_deleted":"0","num_feature":"9","num_nodes":"15","size_leaf_vector":"1"}},{"base_weights":[3.9450875E-3,3.8458076E0,-1.5412079E-1,2.144612E0,4.7884393E0,4.7281623E-1,-4.1787183E-1,1.7376985E-1,-2.7703935E-1,2.4642625E-1,-6.8905368E-3,-2.5569487E-2,4.3064777E-2,-5.1130462E-2,1.5043294E-3],"categories":[],"categories_nodes":[],"categories_segments":[],"categories_sizes":[],"default_left":[0,0,0,0,0,0,0,0,0,0,0,0,0,0,0],"id":34,"left_children":[1,3,5,7,9,11,13,-1,-1,-1,-1,-1,-1,-1,-1],"loss_changes":[3.806448E4,3.9611562E3,9.955242E3,9.070486E3,1.1004805E3,6.8168965E3,1.1479942E4,0E0,0E0,0E0,0E0,0E0,0E0,0E0,0E0],"parents":[2147483647,0,0,1,1,2,2,3,3,4,4,5,5,6,6],"right_children":[2,4,6,8,10,12,14,-1,-1,-1,-1,-1,-1,-1,-1],"split_conditions":[-1.0447222E0,-2.3167334E-2,6.087576E-2,-1.7493637E-1,1.0388432E-1,-4.0431783E-1,1.6026254E-1,1.7376985E-1,-2.7703935E-1,2.4642625E-1,-6.8905368E-3,-2.5569487E-2,4.3064777E-2,-5.1130462E-2,1.5043294E-3],"split_indices":[0,8,0,8,7,6,6,0,0,0,0,0,0,0,0],"split_type":[0,0,0,0,0,0,0,0,0,0,0,0,0,0,0],"sum_hessian":[6.2679E4,2.476E3,6.0203E4,8.84E2,1.592E3,1.7827E4,4.2376E4,7.54E2,1.3E2,1.548E3,4.4E1,5.045E3,1.2782E4,1.8032E4,2.4344E4],"tree_param":{"num_deleted":"0","num_feature":"9","num_nodes":"15","size_leaf_vector":"1"}},{"base_weights":[-1.4461572E-3,4.6097646E0,-1.2375364E-1,4.2706375E0,9.944343E0,1.06856E0,-2.7899307E-1,2.4641116E-1,-1.00826316E-1,8.821396E-1,4.0315613E-1,-7.241414E-2,6.5996766E-2,-4.0926587E-2,7.7938396E-3],"categories":[],"categories_nodes":[],"categories_segments":[],"categories_sizes":[],"default_left":[0,0,0,0,0,0,0,0,0,0,0,0,0,0,0],"id":35,"left_children":[1,3,5,7,9,11,13,-1,-1,-1,-1,-1,-1,-1,-1],"loss_changes":[3.5338324E4,2.885043E3,1.1298362E4,6.3109766E3,1.2454912E3,4.4508496E3,1.2672274E4,0E0,0E0,0E0,0E0,0E0,0E0,0E0,0E0],"parents":[2147483647,0,0,1,1,2,2,3,3,4,4,5,5,6,6],"right_children":[2,4,6,8,10,12,14,-1,-1,-1,-1,-1,-1,-1,-1],"split_conditions":[-5.4353905E-1,-5.4988533E-1,-2.4682683E-1,-2.5726044E0,-1.9577115E0,-1.5316705E0,7.297187E-2,2.4641116E-1,-1.00826316E-1,8.821396E-1,4.0315613E-1,-7.241414E-2,6.5996766E-2,-4.0926587E-2,7.7938396E-3],"split_indices":[5,7,0,5,3,3,6,0,0,0,0,0,0,0,0],"split_type":[0,0,0,0,0,0,0,0,0,0,0,0,0,0,0],"sum_hessian":[6.2657E4,1.618E3,6.1039E4,1.523E3,9.5E1,7.031E3,5.4008E4,1.379E3,1.44E2,1.7E1,7.8E1,6.38E2,6.393E3,2.4103E4,2.9905E4],"tree_param":{"num_deleted":"0","num_feature":"9","num_nodes":"15","size_leaf_vector":"1"}},{"base_weights":[1.9830028E-3,3.2321196E0,-1.6394088E-1,1.8866252E0,4.563153E0,2.017648E-1,-5.5405104E-1,3.2542536E-1,3.7894793E-2,2.2264431E-1,5.802225E-1,-1.9015873E-2,3.06429E-2,-5.6781292E-2,-1.020811E-2],"categories":[],"categories_nodes":[],"categories_segments":[],"categories_sizes":[],"default_left":[0,0,0,0,0,0,0,0,0,0,0,0,0,0,0],"id":36,"left_children":[1,3,5,7,9,11,13,-1,-1,-1,-1,-1,-1,-1,-1],"loss_changes":[3.346866E4,5.4547754E3,8.473764E3,7.91874E3,1.1369727E3,7.3361714E3,5.847634E3,0E0,0E0,0E0,0E0,0E0,0E0,0E0,0E0],"parents":[2147483647,0,0,1,1,2,2,3,3,4,4,5,5,6,6],"right_children":[2,4,6,8,10,12,14,-1,-1,-1,-1,-1,-1,-1,-1],"split_conditions":[-2.5174615E-1,-7.3757015E-2,1.7283328E-1,-7.9466E-1,-4.860922E-2,-1.9744274E-1,1.6026254E-1,3.2542536E-1,3.7894793E-2,2.2264431E-1,5.802225E-1,-1.9015873E-2,3.06429E-2,-5.6781292E-2,-1.020811E-2],"split_indices":[5,8,0,8,0,6,6,0,0,0,0,0,0,0,0],"split_type":[0,0,0,0,0,0,0,0,0,0,0,0,0,0,0],"sum_hessian":[6.2444E4,3.05E3,5.9394E4,1.518E3,1.532E3,3.0656E4,2.8738E4,2.97E2,1.221E3,1.51E3,2.2E1,1.2689E4,1.7967E4,1.0794E4,1.7944E4],"tree_param":{"num_deleted":"0","num_feature":"9","num_nodes":"15","size_leaf_vector":"1"}},{"base_weights":[-7.064208E-3,2.3814328E0,-2.0222001E-1,1.152599E0,4.1477895E0,-1.1373265E0,-3.9460097E-2,2.3562236E-1,1.9660937E-2,2.374134E-1,1.1120408E-1,-5.852917E-2,1.1314006E0,3.2422986E-2,-1.6083788E-2],"categories":[],"categories_nodes":[],"categories_segments":[],"categories_sizes":[],"default_left":[0,0,0,0,0,0,0,0,0,0,0,0,0,0,0],"id":37,"left_children":[1,3,5,7,9,11,13,-1,-1,-1,-1,-1,-1,-1,-1],"loss_changes":[2.9096502E4,1.0228871E4,8.782718E3,7.518157E3,2.2227969E3,6.785879E3,9.542825E3,0E0,0E0,0E0,0E0,0E0,0E0,0E0,0E0],"parents":[2147483647,0,0,1,1,2,2,3,3,4,4,5,5,6,6],"right_children":[2,4,6,8,10,12,14,-1,-1,-1,-1,-1,-1,-1,-1],"split_conditions":[-1.9064127E-1,-7.3757015E-2,-3.9831358E-1,-7.9466E-1,6.3482404E-1,3.362248E-1,1.127368E-1,2.3562236E-1,1.9660937E-2,2.374134E-1,1.1120408E-1,-5.852917E-2,1.1314006E0,3.2422986E-2,-1.6083788E-2],"split_indices":[5,8,6,8,2,0,0,0,0,0,0,0,0,0,0],"split_type":[0,0,0,0,0,0,0,0,0,0,0,0,0,0,0],"sum_hessian":[6.242E4,4.714E3,5.7706E4,2.781E3,1.933E3,8.554E3,4.9152E4,4.88E2,2.293E3,1.472E3,4.61E2,8.543E3,1.1E1,1.4298E4,3.4854E4],"tree_param":{"num_deleted":"0","num_feature":"9","num_nodes":"15","size_leaf_vector":"1"}},{"base_weights":[4.7887783E-3,3.1603332E0,-1.2528935E-1,1.8036704E0,3.900758E0,4.9383947E-1,-3.2579616E-1,1.5218413E-1,-2.6864454E-1,2.0177339E-1,-1.8775156E-2,-1.23155296E-1,3.1655006E-2,-4.0492263E-2,2.2089067E-3],"categories":[],"categories_nodes":[],"categories_segments":[],"categories_sizes":[],"default_left":[0,0,0,0,0,0,0,0,0,0,0,0,0,0,0],"id":38,"left_children":[1,3,5,7,9,11,13,-1,-1,-1,-1,-1,-1,-1,-1],"loss_changes":[2.5785025E4,2.4906016E3,7.4896074E3,7.8472607E3,9.281758E2,6.078927E3,8.1615864E3,0E0,0E0,0E0,0E0,0E0,0E0,0E0,0E0],"parents":[2147483647,0,0,1,1,2,2,3,3,4,4,5,5,6,6],"right_children":[2,4,6,8,10,12,14,-1,-1,-1,-1,-1,-1,-1,-1],"split_conditions":[-1.0447222E0,-2.3167334E-2,1.5948426E-2,-1.7493637E-1,1.1074075E-1,-3.8839754E-1,1.2288033E-1,1.5218413E-1,-2.6864454E-1,2.0177339E-1,-1.8775156E-2,-1.23155296E-1,3.1655006E-2,-4.0492263E-2,2.2089067E-3],"split_indices":[0,8,0,8,7,7,6,0,0,0,0,0,0,0,0],"split_type":[0,0,0,0,0,0,0,0,0,0,0,0,0,0,0],"sum_hessian":[6.2816E4,2.486E3,6.033E4,8.79E2,1.607E3,1.4758E4,4.5572E4,7.5E2,1.29E2,1.558E3,4.9E1,6.63E2,1.4095E4,1.9742E4,2.583E4],"tree_param":{"num_deleted":"0","num_feature":"9","num_nodes":"15","size_leaf_vector":"1"}},{"base_weights":[-5.9339165E-4,3.5002282E0,-9.5441476E-2,2.4458442E0,3.9517286E0,1.1662859E-1,-6.13959E-1,1.946423E-1,-4.63903E-1,1.977927E-1,-1.7723808E-2,-1.23503104E-1,8.787296E-3,-7.322134E-2,-1.1702691E-2],"categories":[],"categories_nodes":[],"categories_segments":[],"categories_sizes":[],"default_left":[0,0,0,0,0,0,0,0,0,0,0,0,0,0,0],"id":39,"left_children":[1,3,5,7,9,11,13,-1,-1,-1,-1,-1,-1,-1,-1],"loss_changes":[2.0795053E4,7.761387E2,6.705167E3,8.483907E3,2.228125E1,6.618047E3,5.7183066E3,0E0,0E0,0E0,0E0,0E0,0E0,0E0,0E0],"parents":[2147483647,0,0,1,1,2,2,3,3,4,4,5,5,6,6],"right_children":[2,4,6,8,10,12,14,-1,-1,-1,-1,-1,-1,-1,-1],"split_conditions":[-1.8693063E0,1.286017E-1,2.3890767E-1,-1.7493637E-1,5.760064E-1,-1.8390088E0,1.2288033E-1,1.946423E-1,-4.63903E-1,1.977927E-1,-1.7723808E-2,-1.23503104E-1,8.787296E-3,-7.322134E-2,-1.1702691E-2],"split_indices":[6,8,1,8,2,2,6,0,0,0,0,0,0,0,0],"split_type":[0,0,0,0,0,0,0,0,0,0,0,0,0,0,0],"sum_hessian":[6.2626E4,1.651E3,6.0975E4,4.97E2,1.154E3,4.3276E4,1.7699E4,4.43E2,5.4E1,1.153E3,1E0,9.66E2,4.231E4,5.464E3,1.2235E4],"tree_param":{"num_deleted":"0","num_feature":"9","num_nodes":"15","size_leaf_vector":"1"}},{"base_weights":[-5.2925465E-3,1.8676056E0,-2.026744E-1,3.6850271E0,1.0841982E0,-1.0202088E0,-4.8048045E-2,-1.1539861E-1,1.9537412E-1,-3.8886645E-3,9.674533E-2,-5.222289E-2,1.045644E0,2.8483212E-2,-1.5167484E-2],"categories":[],"categories_nodes":[],"categories_segments":[],"categories_sizes":[],"default_left":[0,0,0,0,0,0,0,0,0,0,0,0,0,0,0],"id":40,"left_children":[1,3,5,7,9,11,13,-1,-1,-1,-1,-1,-1,-1,-1],"loss_changes":[2.3163746E4,8.501197E3,7.165656E3,2.4075605E3,4.128307E3,4.8150625E3,7.5180034E3,0E0,0E0,0E0,0E0,0E0,0E0,0E0,0E0],"parents":[2147483647,0,0,1,1,2,2,3,3,4,4,5,5,6,6],"right_children":[2,4,6,8,10,12,14,-1,-1,-1,-1,-1,-1,-1,-1],"split_conditions":[-1.6551074E-1,-6.0505994E-2,-3.8307965E-1,-6.4223733E0,-6.731308E-1,3.362248E-1,1.1403353E-1,-1.1539861E-1,1.9537412E-1,-3.8886645E-3,9.674533E-2,-5.222289E-2,1.045644E0,2.8483212E-2,-1.5167484E-2],"split_indices":[5,2,6,0,3,0,0,0,0,0,0,0,0,0,0],"split_type":[0,0,0,0,0,0,0,0,0,0,0,0,0,0,0],"sum_hessian":[6.2658E4,5.973E3,5.6685E4,1.798E3,4.175E3,9.015E3,4.767E4,6.4E1,1.734E3,1.765E3,2.41E3,9.006E3,9E0,1.394E4,3.373E4],"tree_param":{"num_deleted":"0","num_feature":"9","num_nodes":"15","size_leaf_vector":"1"}},{"base_weights":[4.7868167E-4,2.6237032E0,-1.3388677E-1,5.7881274E0,2.2836752E0,8.8708174E-1,-2.4807042E-1,1.913703E-1,4.1046387E-1,3.152303E-2,1.8096791E-1,-2.5565873E-4,7.457145E-2,1.039205E-2,-2.5279326E-2],"categories":[],"categories_nodes":[],"categories_segments":[],"categories_sizes":[],"default_left":[0,0,0,0,0,0,0,0,0,0,0,0,0,0,0],"id":41,"left_children":[1,3,5,7,9,11,13,-1,-1,-1,-1,-1,-1,-1,-1],"loss_changes":[2.2193217E4,3.287121E3,6.982707E3,1.3772949E3,6.118342E3,3.2488096E3,6.324951E3,0E0,0E0,0E0,0E0,0E0,0E0,0E0,0E0],"parents":[2147483647,0,0,1,1,2,2,3,3,4,4,5,5,6,6],"right_children":[2,4,6,8,10,12,14,-1,-1,-1,-1,-1,-1,-1,-1],"split_conditions":[-2.5174615E-1,-7.9466E-1,-2.2393207E-1,-6.176756E0,-7.3757015E-2,-2.5137988E-1,2.4275856E-2,1.913703E-1,4.1046387E-1,3.152303E-2,1.8096791E-1,-2.5565873E-4,7.457145E-2,1.039205E-2,-2.5279326E-2],"split_indices":[5,8,0,0,8,1,5,0,0,0,0,0,0,0,0],"split_type":[0,0,0,0,0,0,0,0,0,0,0,0,0,0,0],"sum_hessian":[6.2962E4,3.067E3,5.9895E4,2.96E2,2.771E3,6.024E3,5.3871E4,1.65E2,1.31E2,1.239E3,1.532E3,2.433E3,3.591E3,1.9445E4,3.4426E4],"tree_param":{"num_deleted":"0","num_feature":"9","num_nodes":"15","size_leaf_vector":"1"}},{"base_weights":[3.7483012E-3,1.9960507E0,-1.6168334E-1,1.0258583E0,3.4027004E0,-9.934677E-1,-2.5621189E-2,2.0311613E-1,2.0028364E-2,1.6220097E-1,5.463926E-1,-5.140374E-2,1.0333709E0,2.7614722E-2,-1.3125623E-2],"categories":[],"categories_nodes":[],"categories_segments":[],"categories_sizes":[],"default_left":[0,0,0,0,0,0,0,0,0,0,0,0,0,0,0],"id":42,"left_children":[1,3,5,7,9,11,13,-1,-1,-1,-1,-1,-1,-1,-1],"loss_changes":[2.0625908E4,6.543996E3,6.5393135E3,5.3920586E3,2.3011797E3,6.1084478E3,6.798727E3,0E0,0E0,0E0,0E0,0E0,0E0,0E0,0E0],"parents":[2147483647,0,0,1,1,2,2,3,3,4,4,5,5,6,6],"right_children":[2,4,6,8,10,12,14,-1,-1,-1,-1,-1,-1,-1,-1],"split_conditions":[-1.9064127E-1,-7.3757015E-2,-4.1103685E-1,-7.9466E-1,-4.860922E-2,3.362248E-1,1.127368E-1,2.0311613E-1,2.0028364E-2,1.6220097E-1,5.463926E-1,-5.140374E-2,1.0333709E0,2.7614722E-2,-1.3125623E-2],"split_indices":[5,8,6,8,0,0,0,0,0,0,0,0,0,0,0],"split_type":[0,0,0,0,0,0,0,0,0,0,0,0,0,0,0],"sum_hessian":[6.2578E4,4.797E3,5.7781E4,2.84E3,1.957E3,8.122E3,4.9659E4,4.84E2,2.356E3,1.918E3,3.9E1,8.11E3,1.2E1,1.4437E4,3.5222E4],"tree_param":{"num_deleted":"0","num_feature":"9","num_nodes":"15","size_leaf_vector":"1"}},{"base_weights":[1.234424E-3,1.6391559E0,-1.7013723E-1,3.2205033E0,9.5905447E-1,-9.8476756E-1,-4.2331565E-2,1.3574563E-1,2.8644162E-1,7.4689933E-3,8.81192E-2,-5.0675254E-2,9.569418E-1,2.5101606E-2,-1.4030011E-2],"categories":[],"categories_nodes":[],"categories_segments":[],"categories_sizes":[],"default_left":[0,0,0,0,0,0,0,0,0,0,0,0,0,0,0],"id":43,"left_children":[1,3,5,7,9,11,13,-1,-1,-1,-1,-1,-1,-1,-1],"loss_changes":[1.7564527E4,6.370843E3,5.897726E3,2.2435137E3,2.6962515E3,4.4601167E3,6.3513735E3,0E0,0E0,0E0,0E0,0E0,0E0,0E0,0E0],"parents":[2147483647,0,0,1,1,2,2,3,3,4,4,5,5,6,6],"right_children":[2,4,6,8,10,12,14,-1,-1,-1,-1,-1,-1,-1,-1],"split_conditions":[-1.6551074E-1,-6.0505994E-2,-4.194E-1,-4.918449E-1,-2.8666353E-1,3.362248E-1,1.1602489E-1,1.3574563E-1,2.8644162E-1,7.4689933E-3,8.81192E-2,-5.0675254E-2,9.569418E-1,2.5101606E-2,-1.4030011E-2],"split_indices":[5,2,6,4,6,0,0,0,0,0,0,0,0,0,0],"split_type":[0,0,0,0,0,0,0,0,0,0,0,0,0,0,0],"sum_hessian":[6.2573E4,5.926E3,5.6647E4,1.781E3,4.145E3,7.681E3,4.8966E4,1.484E3,2.97E2,2.065E3,2.08E3,7.671E3,1E1,1.4907E4,3.4059E4],"tree_param":{"num_deleted":"0","num_feature":"9","num_nodes":"15","size_leaf_vector":"1"}},{"base_weights":[-2.0749301E-3,1.6875886E0,-1.5994455E-1,3.1591222E0,1.1859673E0,-9.484807E-1,-6.4586094E-3,1.7922094E-1,1.5372428E-1,-2.0978256E-1,6.4282745E-2,-4.900657E-2,9.407943E-1,1.7011896E-2,-1.6544277E-2],"categories":[],"categories_nodes":[],"categories_segments":[],"categories_sizes":[],"default_left":[0,0,0,0,0,0,0,0,0,0,0,0,0,0,0],"id":44,"left_children":[1,3,5,7,9,11,13,-1,-1,-1,-1,-1,-1,-1,-1],"loss_changes":[1.6744863E4,3.9552686E3,6.9483066E3,3.7376953E1,2.1520977E3,5.8680986E3,5.4055635E3,0E0,0E0,0E0,0E0,0E0,0E0,0E0,0E0],"parents":[2147483647,0,0,1,1,2,2,3,3,4,4,5,5,6,6],"right_children":[2,4,6,8,10,12,14,-1,-1,-1,-1,-1,-1,-1,-1],"split_conditions":[-2.685768E-1,-2.5726044E0,-3.724381E-1,-1.7493637E-1,-5.673499E0,3.4570846E-1,2.018984E-1,1.7922094E-1,1.5372428E-1,-2.0978256E-1,6.4282745E-2,-4.900657E-2,9.407943E-1,1.7011896E-2,-1.6544277E-2],"split_indices":[0,5,6,8,2,0,0,0,0,0,0,0,0,0,0],"split_type":[0,0,0,0,0,0,0,0,0,0,0,0,0,0,0],"sum_hessian":[6.2773E4,5.363E3,5.741E4,1.362E3,4.001E3,9.353E3,4.8057E4,2.19E2,1.143E3,7.2E1,3.929E3,9.339E3,1.4E1,2.3231E4,2.4826E4],"tree_param":{"num_deleted":"0","num_feature":"9","num_nodes":"15","size_leaf_vector":"1"}},{"base_weights":[7.0071155E-3,2.689606E0,-6.7162365E-2,2.566573E0,6.835112E0,-1.6206294E-1,8.0785674E-1,8.107056E-2,1.4712618E-1,5.949332E-1,-2.014705E-1,1.996893E-3,-3.2181125E-2,2.7804194E-2,6.1087936E-2],"categories":[],"categories_nodes":[],"categories_segments":[],"categories_sizes":[],"default_left":[0,0,0,0,0,0,0,0,0,0,0,0,0,0,0],"id":45,"left_children":[1,3,5,7,9,11,13,-1,-1,-1,-1,-1,-1,-1,-1],"loss_changes":[1.2475871E4,8.4194336E2,5.0667407E3,5.775205E2,2.6893596E3,5.3547085E3,6.21272E2,0E0,0E0,0E0,0E0,0E0,0E0,0E0,0E0],"parents":[2147483647,0,0,1,1,2,2,3,3,4,4,5,5,6,6],"right_children":[2,4,6,8,10,12,14,-1,-1,-1,-1,-1,-1,-1,-1],"split_conditions":[-1.8693063E0,5.3589076E-1,1.1759068E0,1.286017E-1,-4.3356627E-1,2.3890767E-1,2.0744736E-1,8.107056E-2,1.4712618E-1,5.949332E-1,-2.014705E-1,1.996893E-3,-3.2181125E-2,2.7804194E-2,6.1087936E-2],"split_indices":[6,4,6,8,1,1,4,0,0,0,0,0,0,0,0],"split_type":[0,0,0,0,0,0,0,0,0,0,0,0,0,0,0],"sum_hessian":[6.27E4,1.686E3,6.1014E4,1.639E3,4.7E1,5.5045E4,5.969E3,4.68E2,1.171E3,3.2E1,1.5E1,3.8779E4,1.6266E4,3.713E3,2.256E3],"tree_param":{"num_deleted":"0","num_feature":"9","num_nodes":"15","size_leaf_vector":"1"}},{"base_weights":[2.376304E-3,1.6823715E0,-1.3601348E-1,8.6400867E-1,2.9068403E0,5.7890706E-2,-5.9081507E-1,1.8923001E-1,1.3371924E-2,1.380766E-1,4.7304878E-1,1.0503031E-2,-2.9646052E-2,-7.3555075E-2,-1.0044453E-2],"categories":[],"categories_nodes":[],"categories_segments":[],"categories_sizes":[],"default_left":[0,0,0,0,0,0,0,0,0,0,0,0,0,0,0],"id":46,"left_children":[1,3,5,7,9,11,13,-1,-1,-1,-1,-1,-1,-1,-1],"loss_changes":[1.4568701E4,4.7759346E3,5.105552E3,4.981669E3,1.7916768E3,4.0197764E3,5.939419E3,0E0,0E0,0E0,0E0,0E0,0E0,0E0,0E0],"parents":[2147483647,0,0,1,1,2,2,3,3,4,4,5,5,6,6],"right_children":[2,4,6,8,10,12,14,-1,-1,-1,-1,-1,-1,-1,-1],"split_conditions":[-1.9064127E-1,-7.3757015E-2,2.3890767E-1,-7.9466E-1,-4.860922E-2,5.7983124E-1,1.9254129E-1,1.8923001E-1,1.3371924E-2,1.380766E-1,4.7304878E-1,1.0503031E-2,-2.9646052E-2,-7.3555075E-2,-1.0044453E-2],"split_indices":[5,8,1,8,0,5,6,0,0,0,0,0,0,0,0],"split_type":[0,0,0,0,0,0,0,0,0,0,0,0,0,0,0],"sum_hessian":[6.266E4,4.768E3,5.7892E4,2.859E3,1.909E3,4.0588E4,1.7304E4,4.84E2,2.375E3,1.869E3,4E1,3.2897E4,7.691E3,5.311E3,1.1993E4],"tree_param":{"num_deleted":"0","num_feature":"9","num_nodes":"15","size_leaf_vector":"1"}},{"base_weights":[-1.4572691E-4,1.3695333E0,-1.5452193E-1,6.678671E-1,2.0947165E0,2.2632678E-1,-3.6547554E-1,1.4818205E-1,2.0966385E-2,1.4371131E-1,6.526431E-2,-9.279543E-3,3.8413588E-2,-5.581045E-3,-4.638748E-2],"categories":[],"categories_nodes":[],"categories_segments":[],"categories_sizes":[],"default_left":[0,0,0,0,0,0,0,0,0,0,0,0,0,0,0],"id":47,"left_children":[1,3,5,7,9,11,13,-1,-1,-1,-1,-1,-1,-1,-1],"loss_changes":[1.3288827E4,3.2375771E3,4.537941E3,1.84542E3,1.9219346E3,4.494848E3,5.1880986E3,0E0,0E0,0E0,0E0,0E0,0E0,0E0,0E0],"parents":[2147483647,0,0,1,1,2,2,3,3,4,4,5,5,6,6],"right_children":[2,4,6,8,10,12,14,-1,-1,-1,-1,-1,-1,-1,-1],"split_conditions":[-2.625548E-1,1.4774924E-2,2.0767711E-2,-1.3005568E0,-1.4612892E-1,1.7857905E-1,2.3890767E-1,1.4818205E-1,2.0966385E-2,1.4371131E-1,6.526431E-2,-9.279543E-3,3.8413588E-2,-5.581045E-3,-4.638748E-2],"split_indices":[0,8,5,8,5,7,1,0,0,0,0,0,0,0,0],"split_type":[0,0,0,0,0,0,0,0,0,0,0,0,0,0,0],"sum_hessian":[6.2846E4,6.365E3,5.6481E4,3.236E3,3.129E3,2.0133E4,3.6348E4,3.15E2,2.921E3,1.573E3,1.556E3,1.1439E4,8.694E3,2.5043E4,1.1305E4],"tree_param":{"num_deleted":"0","num_feature":"9","num_nodes":"15","size_leaf_vector":"1"}},{"base_weights":[-1.3034851E-3,1.1646779E0,-1.6268429E-1,2.579687E0,8.5212064E-1,-5.5131406E-1,1.6032434E-1,1.2795593E-1,1.4832409E-1,-3.806029E-2,5.6249976E-2,-1.297753E-2,-5.4103047E-2,3.432376E-2,-1.9221853E-2],"categories":[],"categories_nodes":[],"categories_segments":[],"categories_sizes":[],"default_left":[0,0,0,0,0,0,0,0,0,0,0,0,0,0,0],"id":48,"left_children":[1,3,5,7,9,11,13,-1,-1,-1,-1,-1,-1,-1,-1],"loss_changes":[1.1784048E4,3.364914E3,6.9058267E3,2.8105469E0,2.7471265E3,3.8662524E3,8.611419E3,0E0,0E0,0E0,0E0,0E0,0E0,0E0,0E0],"parents":[2147483647,0,0,1,1,2,2,3,3,4,4,5,5,6,6],"right_children":[2,4,6,8,10,12,14,-1,-1,-1,-1,-1,-1,-1,-1],"split_conditions":[-2.5628343E-1,-2.5726044E0,6.0602147E-2,-4.2033405E0,-1.416489E0,1.0204858E-1,4.932955E-2,1.2795593E-1,1.4832409E-1,-3.806029E-2,5.6249976E-2,-1.297753E-2,-5.4103047E-2,3.432376E-2,-1.9221853E-2],"split_indices":[0,5,6,3,3,2,5,0,0,0,0,0,0,0,0],"split_type":[0,0,0,0,0,0,0,0,0,0,0,0,0,0,0],"sum_hessian":[6.2624E4,7.613E3,5.5011E4,1.376E3,6.237E3,2.4969E4,3.0042E4,1.314E3,6.2E1,9.02E2,5.335E3,1.6113E4,8.856E3,1.5282E4,1.476E4],"tree_param":{"num_deleted":"0","num_feature":"9","num_nodes":"15","size_leaf_vector":"1"}},{"base_weights":[-3.0447508E-3,1.2899297E0,-1.3851984E-1,2.4716296E0,7.773247E-1,-9.1649157E-1,-3.549954E-2,9.499295E-2,2.6083446E-1,-8.463378E-3,7.327904E-2,-4.7478836E-2,9.5299846E-1,5.426343E-2,-6.235587E-3],"categories":[],"categories_nodes":[],"categories_segments":[],"categories_sizes":[],"default_left":[0,0,0,0,0,0,0,0,0,0,0,0,0,0,0],"id":49,"left_children":[1,3,5,7,9,11,13,-1,-1,-1,-1,-1,-1,-1,-1],"loss_changes":[1.0967197E4,3.59467E3,4.542036E3,2.8082803E3,2.6995332E3,4.396236E3,5.004048E3,0E0,0E0,0E0,0E0,0E0,0E0,0E0,0E0],"parents":[2147483647,0,0,1,1,2,2,3,3,4,4,5,5,6,6],"right_children":[2,4,6,8,10,12,14,-1,-1,-1,-1,-1,-1,-1,-1],"split_conditions":[-1.6551074E-1,-6.0505994E-2,-4.5653427E-1,-4.918449E-1,-6.731308E-1,3.362248E-1,-1.9221467E-1,9.499295E-2,2.6083446E-1,-8.463378E-3,7.327904E-2,-4.7478836E-2,9.5299846E-1,5.426343E-2,-6.235587E-3],"split_indices":[5,2,6,4,3,0,0,0,0,0,0,0,0,0,0],"split_type":[0,0,0,0,0,0,0,0,0,0,0,0,0,0,0],"sum_hessian":[6.2609E4,5.937E3,5.6672E4,1.795E3,4.142E3,6.626E3,5.0046E4,1.487E3,3.08E2,1.744E3,2.398E3,6.616E3,1E1,3.689E3,4.6357E4],"tree_param":{"num_deleted":"0","num_feature":"9","num_nodes":"15","size_leaf_vector":"1"}}]},"name":"gbtree"},"learner_model_param":{"base_score":"5.0532692E1","boost_from_average":"1","num_class":"0","num_feature":"9","num_target":"1"},"objective":{"name":"reg:squarederror","reg_loss_param":{"scale_pos_weight":"1"}}},"version":[2,1,2]}