{"learner":{"attributes":{"best_iteration":"49","best_score":"20.560756439132515","scikit_learn":"{\"_estimator_type\": \"regressor\"}"},"feature_names":[],"feature_types":[],"gradient_booster":{"model":{"gbtree_model_param":{"num_parallel_tree":"1","num_trees":"50"},"iteration_indptr":[0,1,2,3,4,5,6,7,8,9,10,11,12,13,14,15,16,17,18,19,20,21,22,23,24,25,26,27,28,29,30,31,32,33,34,35,36,37,38,39,40,41,42,43,44,45,46,47,48,49,50],"tree_info":[0,0,0,0,0,0,0,0,0,0,0,0,0,0,0,0,0,0,0,0,0,0,0,0,0,0,0,0,0,0,0,0,0,0,0,0,0,0,0,0,0,0,0,0,0,0,0,0,0,0],"trees":[{"base_weights":[-5.273048E-1,-5.26136E2,2.8088501E1,-5.364856E2,8.264373E1,5.025829E1,1.2523859E0,-2.7040522E1,-1.7416058E1,5.6624043E-1,5.7633605E0,2.8852994E0,1.0270184E0,8.771968E-1,-1.0920349E0],"categories":[],"categories_nodes":[],"categories_segments":[],"categories_sizes":[],"default_left":[0,0,0,0,0,0,0,0,0,0,0,0,0,0,0],"id":0,"left_children":[1,3,5,7,9,11,13,-1,-1,-1,-1,-1,-1,-1,-1],"loss_changes":[9.7820275E8,2.1201984E7,3.669592E7,2.498624E6,1.3130228E5,7.474448E6,1.0498485E7,0E0,0E0,0E0,0E0,0E0,0E0,0E0,0E0],"parents":[2147483647,0,0,1,1,2,2,3,3,4,4,5,5,6,6],"right_children":[2,4,6,8,10,12,14,-1,-1,-1,-1,-1,-1,-1,-1],"split_conditions":[-4.018523E-1,-2.2724864E-1,1.8685111E-1,-1.8262017E0,-1.1765593E0,4.080254E-1,4.080254E-1,-2.7040522E1,-1.7416058E1,5.6624043E-1,5.7633605E0,2.8852994E0,1.0270184E0,8.771968E-1,-1.0920349E0],"split_indices":[3,2,3,2,0,2,2,0,0,0,0,0,0,0,0],"split_type":[0,0,0,0,0,0,0,0,0,0,0,0,0,0,0],"sum_hessian":[6.5035E4,3.357E3,6.1678E4,3.301E3,5.6E1,3.3775E4,2.7903E4,3.225E3,7.6E1,1.8E1,3.8E1,2.7006E4,6.769E3,1.6361E4,1.1542E4],"tree_param":{"num_deleted":"0","num_feature":"4","num_nodes":"15","size_leaf_vector":"1"}},{"base_weights":[1.11001655E-1,-5.1095224E2,2.6732063E1,-5.1304584E2,2.7102697E-1,4.725882E1,9.030881E-1,-2.5715485E1,-2.0142199E1,2.715843E0,9.4708884E-1,8.8799554E-1,-9.6312255E-1],"categories":[],"categories_nodes":[],"categories_segments":[],"categories_sizes":[],"default_left":[0,0,0,0,0,0,0,0,0,0,0,0,0],"id":1,"left_children":[1,3,5,7,-1,9,11,-1,-1,-1,-1,-1,-1],"loss_changes":[8.8537555E8,3.48608E6,3.2794544E7,2.3968E5,0E0,6.88724E6,9.311281E6,0E0,0E0,0E0,0E0,0E0,0E0],"parents":[2147483647,0,0,1,1,2,2,3,3,5,5,6,6],"right_children":[2,4,6,8,-1,10,12,-1,-1,-1,-1,-1,-1],"split_conditions":[-1.5310041E0,-4.8892948E-1,1.8995316E-1,-1.936999E0,2.7102697E-1,4.080254E-1,2.723158E-1,-2.5715485E1,-2.0142199E1,2.715843E0,9.4708884E-1,8.8799554E-1,-9.6312255E-1],"split_indices":[1,2,3,2,0,2,2,0,0,0,0,0,0],"split_type":[0,0,0,0,0,0,0,0,0,0,0,0,0],"sum_hessian":[6.5075E4,3.221E3,6.1854E4,3.208E3,1.3E1,3.4464E4,2.739E4,3.168E3,4E1,2.7587E4,6.877E3,1.4919E4,1.2471E4],"tree_param":{"num_deleted":"0","num_feature":"4","num_nodes":"13","size_leaf_vector":"1"}},{"base_weights":[8.015939E-2,-4.7389294E2,2.5358828E1,-4.8690955E2,-9.352253E1,4.6346752E1,2.6603897E0,-2.4420551E1,-1.6201626E1,-8.161075E0,-2.7234306E0,2.624109E0,1.0039827E0,9.298941E-1,-8.612385E-1],"categories":[],"categories_nodes":[],"categories_segments":[],"categories_sizes":[],"default_left":[0,0,0,0,0,0,0,0,0,0,0,0,0,0,0],"id":2,"left_children":[1,3,5,7,9,11,13,-1,-1,-1,-1,-1,-1,-1,-1],"loss_changes":[7.778091E8,1.6228736E7,2.9360452E7,6.19008E5,2.905097E5,5.1596E6,9.384308E6,0E0,0E0,0E0,0E0,0E0,0E0,0E0,0E0],"parents":[2147483647,0,0,1,1,2,2,3,3,4,4,5,5,6,6],"right_children":[2,4,6,8,10,12,14,-1,-1,-1,-1,-1,-1,-1,-1],"split_conditions":[-3.0623443E0,-1.2092459E0,1.7224157E-1,-1.8262017E0,-6.797693E-1,4.080254E-1,2.7979884E-1,-2.4420551E1,-1.6201626E1,-8.161075E0,-2.7234306E0,2.624109E0,1.0039827E0,9.298941E-1,-8.612385E-1],"split_indices":[0,2,3,2,2,2,2,0,0,0,0,0,0,0,0],"split_type":[0,0,0,0,0,0,0,0,0,0,0,0,0,0,0],"sum_hessian":[6.4916E4,3.286E3,6.163E4,3.177E3,1.09E2,3.2021E4,2.9609E4,3.146E3,3.1E1,3.8E1,7.1E1,2.5957E4,6.064E3,1.6436E4,1.3173E4],"tree_param":{"num_deleted":"0","num_feature":"4","num_nodes":"15","size_leaf_vector":"1"}},{"base_weights":[1.6546431E-1,-4.6009055E2,2.409708E1,-2.3113026E1,3.0572267E0,4.129671E1,-1.3792493E0,1.8444356E-1,4.54917E-2,1.621863E0,2.72869E0,-6.9736093E-1,4.8972455E-1],"categories":[],"categories_nodes":[],"categories_segments":[],"categories_sizes":[],"default_left":[0,0,0,0,0,0,0,0,0,0,0,0,0],"id":3,"left_children":[1,3,5,-1,7,9,11,-1,-1,-1,-1,-1,-1],"loss_changes":[7.171321E8,3.235584E6,2.71188E7,0E0,1.7886108E1,4.344092E6,3.5030535E6,0E0,0E0,0E0,0E0,0E0,0E0],"parents":[2147483647,0,0,1,1,2,2,4,4,5,5,6,6],"right_children":[2,4,6,-1,8,10,12,-1,-1,-1,-1,-1,-1],"split_conditions":[-1.5310041E0,-1.3702276E0,2.0705155E-1,-2.3113026E1,2.1988312E-2,5.591418E-1,-1.109393E-1,1.8444356E-1,4.54917E-2,1.621863E0,2.72869E0,-6.9736093E-1,4.8972455E-1],"split_indices":[1,0,3,0,3,1,1,0,0,0,0,0,0],"split_type":[0,0,0,0,0,0,0,0,0,0,0,0,0],"sum_hessian":[6.5105E4,3.217E3,6.1888E4,3.202E3,1.5E1,3.6945E4,2.4943E4,1.1E1,4E0,2.2161E4,1.4784E4,1.1739E4,1.3204E4],"tree_param":{"num_deleted":"0","num_feature":"4","num_nodes":"13","size_leaf_vector":"1"}},{"base_weights":[7.212015E-2,-4.3750677E2,2.2772425E1,-4.3970746E2,2.5975256E0,4.2783504E1,2.7599642E0,-2.2037472E1,-1.7932928E1,1.6346985E-1,4.020976E-2,2.4118612E0,9.3403673E-1,8.65918E-1,-7.765461E-1],"categories":[],"categories_nodes":[],"categories_segments":[],"categories_sizes":[],"default_left":[0,0,0,0,0,0,0,0,0,0,0,0,0,0,0],"id":4,"left_children":[1,3,5,7,9,11,13,-1,-1,-1,-1,-1,-1,-1,-1],"loss_changes":[6.47931E8,3.116992E6,2.4833882E7,1.12192E5,1.7446495E1,4.074952E6,8.256731E6,0E0,0E0,0E0,0E0,0E0,0E0,0E0,0E0],"parents":[2147483647,0,0,1,1,2,2,3,3,4,4,5,5,6,6],"right_children":[2,4,6,8,10,12,14,-1,-1,-1,-1,-1,-1,-1,-1],"split_conditions":[-1.5310041E0,-5.696927E-1,1.6340077E-1,-1.936999E0,2.1988312E-2,4.080254E-1,2.7979884E-1,-2.2037472E1,-1.7932928E1,1.6346985E-1,4.020976E-2,2.4118612E0,9.3403673E-1,8.65918E-1,-7.765461E-1],"split_indices":[1,2,3,2,3,2,2,0,0,0,0,0,0,0,0],"split_type":[0,0,0,0,0,0,0,0,0,0,0,0,0,0,0],"sum_hessian":[6.5227E4,3.216E3,6.2011E4,3.2E3,1.6E1,3.1006E4,3.1005E4,3.155E3,4.5E1,1.1E1,5E0,2.5284E4,5.722E3,1.7264E4,1.3741E4],"tree_param":{"num_deleted":"0","num_feature":"4","num_nodes":"15","size_leaf_vector":"1"}},{"base_weights":[-1.8313976E-1,-4.1651117E2,2.1793161E1,-4.1819205E2,2.5976458E0,3.6730568E1,-2.6144357E0,-2.0949427E1,-1.7100634E1,1.5306053E-1,3.242157E-2,2.1264675E0,4.1797662E-1,9.340006E-1,-7.30597E-1],"categories":[],"categories_nodes":[],"categories_segments":[],"categories_sizes":[],"default_left":[0,0,0,0,0,0,0,0,0,0,0,0,0,0,0],"id":5,"left_children":[1,3,5,7,9,11,13,-1,-1,-1,-1,-1,-1,-1,-1],"loss_changes":[5.9414957E8,2.294912E6,2.248887E7,5.3312E4,1.0294273E1,6.2949E6,5.983364E6,0E0,0E0,0E0,0E0,0E0,0E0,0E0,0E0],"parents":[2147483647,0,0,1,1,2,2,3,3,4,4,5,5,6,6],"right_children":[2,4,6,8,10,12,14,-1,-1,-1,-1,-1,-1,-1,-1],"split_conditions":[-1.5310041E0,-4.8892948E-1,2.1759483E-1,-1.936999E0,2.1988312E-2,4.8785993E-1,-3.1609196E-2,-2.0949427E1,-1.7100634E1,1.5306053E-1,3.242157E-2,2.1264675E0,4.1797662E-1,9.340006E-1,-7.30597E-1],"split_indices":[1,2,3,2,3,2,2,0,0,0,0,0,0,0,0],"split_type":[0,0,0,0,0,0,0,0,0,0,0,0,0,0,0],"sum_hessian":[6.4937E4,3.255E3,6.1682E4,3.242E3,1.3E1,3.8264E4,2.3418E4,3.204E3,3.8E1,1E1,3E0,3.177E4,6.494E3,8.439E3,1.4979E4],"tree_param":{"num_deleted":"0","num_feature":"4","num_nodes":"15","size_leaf_vector":"1"}},{"base_weights":[8.134617E-2,-3.950161E2,2.0571001E1,-3.9663193E2,2.2878313E0,3.9071144E1,2.7160525E0,-1.9882507E1,-1.5730174E1,1.3926563E-1,4.0765136E-2,2.199228E0,8.9027625E-1,7.524551E-1,-7.7765363E-1],"categories":[],"categories_nodes":[],"categories_segments":[],"categories_sizes":[],"default_left":[0,0,0,0,0,0,0,0,0,0,0,0,0,0,0],"id":6,"left_children":[1,3,5,7,9,11,13,-1,-1,-1,-1,-1,-1,-1,-1],"loss_changes":[5.2723792E8,2.062304E6,2.0452258E7,1.41888E5,7.6248474E0,3.176552E6,7.099653E6,0E0,0E0,0E0,0E0,0E0,0E0,0E0,0E0],"parents":[2147483647,0,0,1,1,2,2,3,3,4,4,5,5,6,6],"right_children":[2,4,6,8,10,12,14,-1,-1,-1,-1,-1,-1,-1,-1],"split_conditions":[-1.5310041E0,-5.696927E-1,1.5964136E-1,-1.936999E0,2.1988312E-2,3.9785177E-1,4.2756227E-1,-1.9882507E1,-1.5730174E1,1.3926563E-1,4.0765136E-2,2.199228E0,8.9027625E-1,7.524551E-1,-7.7765363E-1],"split_indices":[1,2,3,2,3,2,2,0,0,0,0,0,0,0,0],"split_type":[0,0,0,0,0,0,0,0,0,0,0,0,0,0,0],"sum_hessian":[6.5126E4,3.21E3,6.1916E4,3.197E3,1.3E1,3.0408E4,3.1508E4,3.154E3,4.3E1,9E0,4E0,2.47E4,5.708E3,1.881E4,1.2698E4],"tree_param":{"num_deleted":"0","num_feature":"4","num_nodes":"15","size_leaf_vector":"1"}},{"base_weights":[2.7609322E-2,-3.6797574E2,1.9779154E1,-3.762143E2,5.7036762E1,3.1277912E1,-7.3026547E0,-1.8927427E1,-1.3875968E1,-3.047032E-1,4.883203E0,1.8505217E0,2.3774043E-1,-1.2672241E0,2.66065E-1],"categories":[],"categories_nodes":[],"categories_segments":[],"categories_sizes":[],"default_left":[0,0,0,0,0,0,0,0,0,0,0,0,0,0,0],"id":7,"left_children":[1,3,5,7,9,11,13,-1,-1,-1,-1,-1,-1,-1,-1],"loss_changes":[4.7374774E8,1.16464E7,1.9262946E7,6.45248E5,1.6475375E5,6.601736E6,4.1993335E6,0E0,0E0,0E0,0E0,0E0,0E0,0E0,0E0],"parents":[2147483647,0,0,1,1,2,2,3,3,4,4,5,5,6,6],"right_children":[2,4,6,8,10,12,14,-1,-1,-1,-1,-1,-1,-1,-1],"split_conditions":[-4.018523E-1,-2.958933E-1,3.2823408E-1,-1.936999E0,-4.4668636E-1,4.8785993E-1,4.035526E-1,-1.8927427E1,-1.3875968E1,-3.047032E-1,4.883203E0,1.8505217E0,2.3774043E-1,-1.2672241E0,2.66065E-1],"split_indices":[3,2,3,2,0,2,0,0,0,0,0,0,0,0,0],"split_type":[0,0,0,0,0,0,0,0,0,0,0,0,0,0,0],"sum_hessian":[6.5175E4,3.319E3,6.1856E4,3.256E3,6.3E1,4.342E4,1.8436E4,3.178E3,7.8E1,2.5E1,3.8E1,3.5703E4,7.717E3,7.589E3,1.0847E4],"tree_param":{"num_deleted":"0","num_feature":"4","num_nodes":"15","size_leaf_vector":"1"}},{"base_weights":[4.528414E-2,-3.5691644E2,1.8583591E1,-1.79072E1,9.828166E-1,3.1761684E1,-2.649362E0,6.779834E-2,-2.7764484E-2,1.421298E-1,1.7567345E0,-6.7280996E-1,3.5857245E-1],"categories":[],"categories_nodes":[],"categories_segments":[],"categories_sizes":[],"default_left":[0,0,0,0,0,0,0,0,0,0,0,0,0],"id":8,"left_children":[1,3,5,-1,7,9,11,-1,-1,-1,-1,-1,-1],"loss_changes":[4.31472E8,1.414592E6,1.734354E7,0E0,7.720358E0,3.730572E6,2.5194562E6,0E0,0E0,0E0,0E0,0E0,0E0],"parents":[2147483647,0,0,1,1,2,2,4,4,5,5,6,6],"right_children":[2,4,6,-1,8,10,12,-1,-1,-1,-1,-1,-1],"split_conditions":[-1.5310041E0,-1.3702276E0,2.157333E-1,-1.79072E1,2.1988312E-2,-7.993893E-1,-1.109393E-1,6.779834E-2,-2.7764484E-2,1.421298E-1,1.7567345E0,-6.7280996E-1,3.5857245E-1],"split_indices":[1,0,3,0,3,1,1,0,0,0,0,0,0],"split_type":[0,0,0,0,0,0,0,0,0,0,0,0,0],"sum_hessian":[6.52E4,3.218E3,6.1982E4,3.207E3,1.1E1,3.8245E4,2.3737E4,9E0,2E0,3.995E3,3.425E4,1.1301E4,1.2436E4],"tree_param":{"num_deleted":"0","num_feature":"4","num_nodes":"13","size_leaf_vector":"1"}},{"base_weights":[2.502194E-2,-3.3890323E2,1.7647608E1,-3.4049155E2,4.2983094E-1,2.7385185E1,-5.898428E0,-1.705892E1,-1.3713504E1,-2.2882624E-2,6.935104E-2,-2.896764E0,1.4532255E0,-6.0002035E-1,3.217341E-1],"categories":[],"categories_nodes":[],"categories_segments":[],"categories_sizes":[],"default_left":[0,0,0,0,0,0,0,0,0,0,0,0,0,0,0],"id":9,"left_children":[1,3,5,7,9,11,13,-1,-1,-1,-1,-1,-1,-1,-1],"loss_changes":[3.8912144E8,1.735616E6,1.4199328E7,5.216E4,1.4319553E1,6.27895E6,1.3636482E6,0E0,0E0,0E0,0E0,0E0,0E0,0E0,0E0],"parents":[2147483647,0,0,1,1,2,2,3,3,4,4,5,5,6,6],"right_children":[2,4,6,8,10,12,14,-1,-1,-1,-1,-1,-1,-1,-1],"split_conditions":[-1.5310041E0,-1.3702276E0,4.19055E-1,-1.8262017E0,-4.5100635E-1,-7.809302E-1,-1.109393E-1,-1.705892E1,-1.3713504E1,-2.2882624E-2,6.935104E-2,-2.896764E0,1.4532255E0,-6.0002035E-1,3.217341E-1],"split_indices":[1,0,2,2,2,0,1,0,0,0,0,0,0,0,0],"split_type":[0,0,0,0,0,0,0,0,0,0,0,0,0,0,0],"sum_hessian":[6.5147E4,3.219E3,6.1928E4,3.204E3,1.5E1,4.381E4,1.8118E4,3.167E3,3.7E1,8E0,7E0,8.45E2,4.2965E4,1.2121E4,5.997E3],"tree_param":{"num_deleted":"0","num_feature":"4","num_nodes":"15","size_leaf_vector":"1"}},{"base_weights":[-1.2381385E-1,-3.1548306E2,1.6867987E1,-3.2245465E2,5.093955E1,3.3372635E1,1.5344222E0,-1.6209175E1,-1.2477505E1,-1.5891116E0,4.507812E0,2.8844163E0,1.4876128E0,9.422224E-1,-4.2773753E-1],"categories":[],"categories_nodes":[],"categories_segments":[],"categories_sizes":[],"default_left":[0,0,0,0,0,0,0,0,0,0,0,0,0,0,0],"id":10,"left_children":[1,3,5,7,9,11,13,-1,-1,-1,-1,-1,-1,-1,-1],"loss_changes":[3.4880758E8,8.518016E6,1.5631384E7,3.30688E5,2.0724789E5,2.616964E6,5.592258E6,0E0,0E0,0E0,0E0,0E0,0E0,0E0,0E0],"parents":[2147483647,0,0,1,1,2,2,3,3,4,4,5,5,6,6],"right_children":[2,4,6,8,10,12,14,-1,-1,-1,-1,-1,-1,-1,-1],"split_conditions":[-4.018523E-1,-2.2724864E-1,1.5619344E-1,-1.936999E0,-4.4668636E-1,-9.706643E-2,-3.1609196E-2,-1.6209175E1,-1.2477505E1,-1.5891116E0,4.507812E0,2.8844163E0,1.4876128E0,9.422224E-1,-4.2773753E-1],"split_indices":[3,2,3,2,0,3,2,0,0,0,0,0,0,0,0],"split_type":[0,0,0,0,0,0,0,0,0,0,0,0,0,0,0],"sum_hessian":[6.5092E4,3.327E3,6.1765E4,3.265E3,6.2E1,2.9746E4,3.2019E4,3.186E3,7.9E1,2E1,4.2E1,3.853E3,2.5893E4,1.179E4,2.0229E4],"tree_param":{"num_deleted":"0","num_feature":"4","num_nodes":"15","size_leaf_vector":"1"}},{"base_weights":[2.0326105E-1,-2.9897433E2,1.6038794E1,-3.0688748E2,-7.9553665E1,2.5965319E1,-7.3377557E0,-1.5381477E1,-1.008953E1,-5.0017805E0,-9.066158E-2,1.5405729E0,1.620665E-1,-1.1611077E0,1.9228657E-1],"categories":[],"categories_nodes":[],"categories_segments":[],"categories_sizes":[],"default_left":[0,0,0,0,0,0,0,0,0,0,0,0,0,0,0],"id":11,"left_children":[1,3,5,7,9,11,13,-1,-1,-1,-1,-1,-1,-1,-1],"loss_changes":[3.077095E8,5.644576E6,1.4314065E7,1.83648E5,1.8292006E5,4.768136E6,3.266412E6,0E0,0E0,0E0,0E0,0E0,0E0,0E0,0E0],"parents":[2147483647,0,0,1,1,2,2,3,3,4,4,5,5,6,6],"right_children":[2,4,6,8,10,12,14,-1,-1,-1,-1,-1,-1,-1,-1],"split_conditions":[-3.0623443E0,-1.2092459E0,3.2823408E-1,-1.8262017E0,-2.8248125E-1,4.9354345E-1,4.035526E-1,-1.5381477E1,-1.008953E1,-5.0017805E0,-9.066158E-2,1.5405729E0,1.620665E-1,-1.1611077E0,1.9228657E-1],"split_indices":[0,2,3,2,2,2,0,0,0,0,0,0,0,0,0],"split_type":[0,0,0,0,0,0,0,0,0,0,0,0,0,0,0],"sum_hessian":[6.4948E4,3.264E3,6.1684E4,3.15E3,1.14E2,4.3298E4,1.8386E4,3.126E3,2.4E1,9E1,2.4E1,3.5687E4,7.611E3,7.596E3,1.079E4],"tree_param":{"num_deleted":"0","num_feature":"4","num_nodes":"15","size_leaf_vector":"1"}},{"base_weights":[3.735396E-2,-2.9079828E2,1.514649E1,-2.9214542E2,-2.3445878E0,2.3673124E1,-5.4306774E0,-1.4643989E1,-1.141209E1,-1.5083334E-1,-6.414627E-2,-2.7516706E0,1.2614375E0,-5.493464E-1,2.8509846E-1],"categories":[],"categories_nodes":[],"categories_segments":[],"categories_sizes":[],"default_left":[0,0,0,0,0,0,0,0,0,0,0,0,0,0,0],"id":12,"left_children":[1,3,5,7,9,11,13,-1,-1,-1,-1,-1,-1,-1,-1],"loss_changes":[2.8695933E8,1.252512E6,1.0891962E7,8.3744E4,7.1162186E0,5.37531E6,1.1250959E6,0E0,0E0,0E0,0E0,0E0,0E0,0E0,0E0],"parents":[2147483647,0,0,1,1,2,2,3,3,4,4,5,5,6,6],"right_children":[2,4,6,8,10,12,14,-1,-1,-1,-1,-1,-1,-1,-1],"split_conditions":[-1.5310041E0,-1.3702276E0,4.19055E-1,-1.936999E0,-4.5100635E-1,-7.809302E-1,-1.109393E-1,-1.4643989E1,-1.141209E1,-1.5083334E-1,-6.414627E-2,-2.7516706E0,1.2614375E0,-5.493464E-1,2.8509846E-1],"split_indices":[1,0,2,2,2,0,1,0,0,0,0,0,0,0,0],"split_type":[0,0,0,0,0,0,0,0,0,0,0,0,0,0,0],"sum_hessian":[6.5301E4,3.224E3,6.2077E4,3.209E3,1.5E1,4.389E4,1.8187E4,3.169E3,4E1,8E0,7E0,8.5E2,4.304E4,1.2132E4,6.055E3],"tree_param":{"num_deleted":"0","num_feature":"4","num_nodes":"15","size_leaf_vector":"1"}},{"base_weights":[-1.0273932E-2,-2.7636908E2,1.4427045E1,-2.7764615E2,-2.2389436E0,2.2619244E1,-5.0089474E0,-1.3915436E1,-1.1351028E1,-1.441276E-1,-6.1125793E-2,-2.5234983E0,1.2029192E0,-5.201071E-1,2.7440897E-1],"categories":[],"categories_nodes":[],"categories_segments":[],"categories_sizes":[],"default_left":[0,0,0,0,0,0,0,0,0,0,0,0,0,0,0],"id":13,"left_children":[1,3,5,7,9,11,13,-1,-1,-1,-1,-1,-1,-1,-1],"loss_changes":[2.5981702E8,1.131184E6,9.853821E6,4.472E4,6.532425E0,4.58057E6,1.03896344E6,0E0,0E0,0E0,0E0,0E0,0E0,0E0,0E0],"parents":[2147483647,0,0,1,1,2,2,3,3,4,4,5,5,6,6],"right_children":[2,4,6,8,10,12,14,-1,-1,-1,-1,-1,-1,-1,-1],"split_conditions":[-1.5310041E0,-1.3702276E0,4.080254E-1,-1.936999E0,-4.5100635E-1,-7.809302E-1,-1.109393E-1,-1.3915436E1,-1.1351028E1,-1.441276E-1,-6.1125793E-2,-2.5234983E0,1.2029192E0,-5.201071E-1,2.7440897E-1],"split_indices":[1,0,2,2,2,0,1,0,0,0,0,0,0,0,0],"split_type":[0,0,0,0,0,0,0,0,0,0,0,0,0,0,0],"sum_hessian":[6.5117E4,3.232E3,6.1885E4,3.217E3,1.5E1,4.3535E4,1.835E4,3.171E3,4.6E1,8E0,7E0,8.4E2,4.2695E4,1.2122E4,6.228E3],"tree_param":{"num_deleted":"0","num_feature":"4","num_nodes":"15","size_leaf_vector":"1"}},{"base_weights":[1.1940156E-2,-2.576961E2,1.3883771E1,-2.6339856E2,-5.5644432E1,3.0158081E1,1.9811368E0,-1.3217868E1,-9.095211E0,-7.52062E-1,-5.3385935E0,-6.3501163E0,1.5318884E0,9.103064E-1,-3.0652097E-1],"categories":[],"categories_nodes":[],"categories_segments":[],"categories_sizes":[],"default_left":[0,0,0,0,0,0,0,0,0,0,0,0,0,0,0],"id":14,"left_children":[1,3,5,7,9,11,13,-1,-1,-1,-1,-1,-1,-1,-1],"loss_changes":[2.3390094E8,3.835936E6,1.2026635E7,2.05808E5,1.9144394E5,1.981062E6,4.7197765E6,0E0,0E0,0E0,0E0,0E0,0E0,0E0,0E0],"parents":[2147483647,0,0,1,1,2,2,3,3,4,4,5,5,6,6],"right_children":[2,4,6,8,10,12,14,-1,-1,-1,-1,-1,-1,-1,-1],"split_conditions":[-3.0623443E0,-8.9793867E-1,1.3106479E-1,-1.8262017E0,2.2283699E-1,-1.1765593E0,-1.05943084E-1,-1.3217868E1,-9.095211E0,-7.52062E-1,-5.3385935E0,-6.3501163E0,1.5318884E0,9.103064E-1,-3.0652097E-1],"split_indices":[0,2,3,2,3,0,2,0,0,0,0,0,0,0,0],"split_type":[0,0,0,0,0,0,0,0,0,0,0,0,0,0,0],"sum_hessian":[6.5427E4,3.341E3,6.2086E4,3.249E3,9.2E1,2.6226E4,3.586E4,3.209E3,4E1,5.2E1,4E1,7.9E1,2.6147E4,1.1952E4,2.3908E4],"tree_param":{"num_deleted":"0","num_feature":"4","num_nodes":"15","size_leaf_vector":"1"}},{"base_weights":[-7.602666E-2,-2.4892676E2,1.2961345E1,-2.499133E2,-1.6592923E-1,2.0388548E1,-5.064714E0,-1.2520497E1,-1.0256881E1,-2.5383856E0,1.0883352E0,-5.0025934E-1,2.4855582E-1],"categories":[],"categories_nodes":[],"categories_segments":[],"categories_sizes":[],"default_left":[0,0,0,0,0,0,0,0,0,0,0,0,0],"id":15,"left_children":[1,3,5,7,-1,9,11,-1,-1,-1,-1,-1,-1],"loss_changes":[2.115452E8,7.85664E5,8.295242E6,2.048E4,0E0,4.304064E6,8.964881E5,0E0,0E0,0E0,0E0,0E0,0E0],"parents":[2147483647,0,0,1,1,2,2,3,3,5,5,6,6],"right_children":[2,4,6,8,-1,10,12,-1,-1,-1,-1,-1,-1],"split_conditions":[-1.5310041E0,-1.3702276E0,4.19055E-1,-1.936999E0,-1.6592923E-1,-7.809302E-1,-1.109393E-1,-1.2520497E1,-1.0256881E1,-2.5383856E0,1.0883352E0,-5.0025934E-1,2.4855582E-1],"split_indices":[1,0,2,2,0,0,1,0,0,0,0,0,0],"split_type":[0,0,0,0,0,0,0,0,0,0,0,0,0],"sum_hessian":[6.5202E4,3.245E3,6.1957E4,3.232E3,1.3E1,4.3878E4,1.8079E4,3.192E3,4E1,8.33E2,4.3045E4,1.2115E4,5.964E3],"tree_param":{"num_deleted":"0","num_feature":"4","num_nodes":"13","size_leaf_vector":"1"}},{"base_weights":[-1.6488382E-1,-2.3310939E2,1.243191E1,-2.3823961E2,4.6648785E1,2.1101486E1,-8.044962E0,-1.1809972E1,-1.3270949E1,9.0682E-2,3.8865573E0,1.5170345E0,6.2794703E-1,-1.0615841E0,5.644647E-2],"categories":[],"categories_nodes":[],"categories_segments":[],"categories_sizes":[],"default_left":[0,0,0,0,0,0,0,0,0,0,0,0,0,0,0],"id":16,"left_children":[1,3,5,7,9,11,13,-1,-1,-1,-1,-1,-1,-1,-1],"loss_changes":[1.9109683E8,4.806208E6,1.0968246E7,1.19184E5,8.485958E4,3.425492E6,2.2232775E6,0E0,0E0,0E0,0E0,0E0,0E0,0E0,0E0],"parents":[2147483647,0,0,1,1,2,2,3,3,4,4,5,5,6,6],"right_children":[2,4,6,8,10,12,14,-1,-1,-1,-1,-1,-1,-1,-1],"split_conditions":[-4.018523E-1,-2.2724864E-1,3.2823408E-1,-4.666585E0,-1.1765593E0,1.0503186E-1,4.035526E-1,-1.1809972E1,-1.3270949E1,9.0682E-2,3.8865573E0,1.5170345E0,6.2794703E-1,-1.0615841E0,5.644647E-2],"split_indices":[3,2,3,0,0,3,0,0,0,0,0,0,0,0,0],"split_type":[0,0,0,0,0,0,0,0,0,0,0,0,0,0,0],"sum_hessian":[6.5122E4,3.34E3,6.1782E4,3.28E3,6E1,4.3405E4,1.8377E4,3.06E3,2.2E2,2.5E1,3.5E1,2.0851E4,2.2554E4,7.539E3,1.0838E4],"tree_param":{"num_deleted":"0","num_feature":"4","num_nodes":"15","size_leaf_vector":"1"}},{"base_weights":[-1.4834908E-1,-2.2123483E2,1.1830931E1,-2.2646889E2,4.21535E1,2.2478275E1,-3.5870886E0,-1.1227093E1,-1.26248255E1,3.0080035E0,-3.234464E0,2.324085E0,9.729554E-1,6.160008E-1,-5.602954E-1],"categories":[],"categories_nodes":[],"categories_segments":[],"categories_sizes":[],"default_left":[0,0,0,0,0,0,0,0,0,0,0,0,0,0,0],"id":17,"left_children":[1,3,5,7,9,11,13,-1,-1,-1,-1,-1,-1,-1,-1],"loss_changes":[1.7230859E8,4.619584E6,1.0131441E7,1.07728E5,1.3086679E5,2.64469E6,3.0555435E6,0E0,0E0,0E0,0E0,0E0,0E0,0E0,0E0],"parents":[2147483647,0,0,1,1,2,2,3,3,4,4,5,5,6,6],"right_children":[2,4,6,8,10,12,14,-1,-1,-1,-1,-1,-1,-1,-1],"split_conditions":[-4.018523E-1,-2.2724864E-1,2.052298E-1,-4.666585E0,-1.2913427E-2,-9.165689E-2,-1.18768215E-1,-1.1227093E1,-1.26248255E1,3.0080035E0,-3.234464E0,2.324085E0,9.729554E-1,6.160008E-1,-5.602954E-1],"split_indices":[3,2,3,0,2,3,2,0,0,0,0,0,0,0,0],"split_type":[0,0,0,0,0,0,0,0,0,0,0,0,0,0,0],"sum_hessian":[6.5058E4,3.343E3,6.1715E4,3.278E3,6.5E1,3.6505E4,2.521E4,3.061E3,2.17E2,5.6E1,9E0,4.077E3,3.2428E4,8.164E3,1.7046E4],"tree_param":{"num_deleted":"0","num_feature":"4","num_nodes":"15","size_leaf_vector":"1"}},{"base_weights":[-7.069116E-2,-2.1443161E2,1.1166416E1,-2.1514024E2,-2.8463432E-1,1.8829071E1,-7.8395386E0,-1.0691485E1,-1.1649047E1,1.3746585E0,5.513772E-1,-1.0051867E0,3.631678E-2],"categories":[],"categories_nodes":[],"categories_segments":[],"categories_sizes":[],"default_left":[0,0,0,0,0,0,0,0,0,0,0,0,0],"id":18,"left_children":[1,3,5,7,-1,9,11,-1,-1,-1,-1,-1,-1],"loss_changes":[1.5682952E8,4.78464E5,9.009779E6,2.5712E4,0E0,2.979808E6,1.8674485E6,0E0,0E0,0E0,0E0,0E0,0E0],"parents":[2147483647,0,0,1,1,2,2,3,3,5,5,6,6],"right_children":[2,4,6,8,-1,10,12,-1,-1,-1,-1,-1,-1],"split_conditions":[-1.5310041E0,-1.3702276E0,3.40774E-1,-4.666585E0,-2.8463432E-1,1.0503186E-1,4.035526E-1,-1.0691485E1,-1.1649047E1,1.3746585E0,5.513772E-1,-1.0051867E0,3.631678E-2],"split_indices":[1,0,3,0,0,3,0,0,0,0,0,0,0],"split_type":[0,0,0,0,0,0,0,0,0,0,0,0,0],"sum_hessian":[6.5105E4,3.242E3,6.1863E4,3.231E3,1.1E1,4.4088E4,1.7775E4,3.022E3,2.09E2,2.0888E4,2.32E4,7.309E3,1.0466E4],"tree_param":{"num_deleted":"0","num_feature":"4","num_nodes":"13","size_leaf_vector":"1"}},{"base_weights":[-2.7712837E-1,-2.0343071E2,1.0549149E1,-2.042734E2,-2.7397168E-1,1.7066673E1,-5.0063367E0,-1.0151973E1,-1.1072245E1,-2.2975223E0,9.153034E-1,-4.7469845E-1,1.9507617E-1],"categories":[],"categories_nodes":[],"categories_segments":[],"categories_sizes":[],"default_left":[0,0,0,0,0,0,0,0,0,0,0,0,0],"id":19,"left_children":[1,3,5,7,-1,9,11,-1,-1,-1,-1,-1,-1],"loss_changes":[1.4327966E8,5.48672E5,6.2705395E6,2.4544E4,0E0,3.40512E6,7.3010475E5,0E0,0E0,0E0,0E0,0E0,0E0],"parents":[2147483647,0,0,1,1,2,2,3,3,5,5,6,6],"right_children":[2,4,6,8,-1,10,12,-1,-1,-1,-1,-1,-1],"split_conditions":[-1.5310041E0,-1.3702276E0,4.080254E-1,-4.666585E0,-2.7397168E-1,-7.809302E-1,-1.109393E-1,-1.0151973E1,-1.1072245E1,-2.2975223E0,9.153034E-1,-4.7469845E-1,1.9507617E-1],"split_indices":[1,0,2,0,0,0,1,0,0,0,0,0,0],"split_type":[0,0,0,0,0,0,0,0,0,0,0,0,0],"sum_hessian":[6.5143E4,3.295E3,6.1848E4,3.281E3,1.4E1,4.3586E4,1.8262E4,3.073E3,2.08E2,8.4E2,4.2746E4,1.2144E4,6.118E3],"tree_param":{"num_deleted":"0","num_feature":"4","num_nodes":"13","size_leaf_vector":"1"}},{"base_weights":[-3.3493403E-2,-1.9347955E2,1.0029342E1,-1.9418175E2,-2.735097E-1,1.7140724E1,-8.039985E0,-9.732448E0,-7.8095636E0,1.3087128E0,5.2506083E-1,1.2670766E-1,-6.0788196E-1],"categories":[],"categories_nodes":[],"categories_segments":[],"categories_sizes":[],"default_left":[0,0,0,0,0,0,0,0,0,0,0,0,0],"id":20,"left_children":[1,3,5,7,-1,9,11,-1,-1,-1,-1,-1,-1],"loss_changes":[1.2664684E8,4.23624E5,7.9468335E6,2.6448E4,0E0,2.661435E6,7.605126E5,0E0,0E0,0E0,0E0,0E0,0E0],"parents":[2147483647,0,0,1,1,2,2,3,3,5,5,6,6],"right_children":[2,4,6,8,-1,10,12,-1,-1,-1,-1,-1,-1],"split_conditions":[-1.5310041E0,-4.8892948E-1,3.441474E-1,-1.936999E0,-2.735097E-1,-3.7249036E-2,-3.1609196E-2,-9.732448E0,-7.8095636E0,1.3087128E0,5.2506083E-1,1.2670766E-1,-6.0788196E-1],"split_indices":[1,2,3,2,0,2,2,0,0,0,0,0,0],"split_type":[0,0,0,0,0,0,0,0,0,0,0,0,0],"sum_hessian":[6.5058E4,3.216E3,6.1842E4,3.204E3,1.2E1,4.4377E4,1.7465E4,3.161E3,4.3E1,1.8798E4,2.5579E4,4.895E3,1.257E4],"tree_param":{"num_deleted":"0","num_feature":"4","num_nodes":"13","size_leaf_vector":"1"}},{"base_weights":[1.0220691E-1,-1.7991582E2,9.647072E0,-1.840927E2,3.602604E1,2.2540346E1,2.1093269E-1,-9.136123E0,-1.0155732E1,-4.9943367E-1,3.4316685E0,2.17429E0,9.7087204E-1,6.456099E-1,-3.0535933E-1],"categories":[],"categories_nodes":[],"categories_segments":[],"categories_sizes":[],"default_left":[0,0,0,0,0,0,0,0,0,0,0,0,0,0,0],"id":21,"left_children":[1,3,5,7,9,11,13,-1,-1,-1,-1,-1,-1,-1,-1],"loss_changes":[1.1179263E8,2.96148E6,7.5170465E6,4.6624E4,9.521769E4,1.707021E6,2.8630912E6,0E0,0E0,0E0,0E0,0E0,0E0,0E0,0E0],"parents":[2147483647,0,0,1,1,2,2,3,3,4,4,5,5,6,6],"right_children":[2,4,6,8,10,12,14,-1,-1,-1,-1,-1,-1,-1,-1],"split_conditions":[-4.018523E-1,-2.2724864E-1,1.3224773E-1,-4.666585E0,-4.4668636E-1,-1.11940935E-1,-1.099379E-1,-9.136123E0,-1.0155732E1,-4.9943367E-1,3.4316685E0,2.17429E0,9.7087204E-1,6.456099E-1,-3.0535933E-1],"split_indices":[3,2,3,0,0,3,2,0,0,0,0,0,0,0,0],"split_type":[0,0,0,0,0,0,0,0,0,0,0,0,0,0,0],"sum_hessian":[6.506E4,3.275E3,6.1785E4,3.213E3,6.2E1,2.6109E4,3.5676E4,3.007E3,2.06E2,2.6E1,3.6E1,3.386E3,2.2723E4,1.1851E4,2.3825E4],"tree_param":{"num_deleted":"0","num_feature":"4","num_nodes":"15","size_leaf_vector":"1"}},{"base_weights":[4.1319203E-2,-1.7450455E2,9.125555E0,-1.7518982E2,-2.8228578E-1,1.4796908E1,-4.7115307E0,-8.791602E0,-5.935363E0,-2.1175802E0,7.961424E-1,-4.4692913E-1,1.9033204E-1],"categories":[],"categories_nodes":[],"categories_segments":[],"categories_sizes":[],"default_left":[0,0,0,0,0,0,0,0,0,0,0,0,0],"id":22,"left_children":[1,3,5,7,-1,9,11,-1,-1,-1,-1,-1,-1],"loss_changes":[1.0282242E8,3.702E5,4.837192E6,9.5E4,0E0,2.813869E6,6.452755E5,0E0,0E0,0E0,0E0,0E0,0E0],"parents":[2147483647,0,0,1,1,2,2,3,3,5,5,6,6],"right_children":[2,4,6,8,-1,10,12,-1,-1,-1,-1,-1,-1],"split_conditions":[-1.5310041E0,-1.3702276E0,4.19055E-1,-1.8262017E0,-2.8228578E-1,-7.809302E-1,-1.109393E-1,-8.791602E0,-5.935363E0,-2.1175802E0,7.961424E-1,-4.4692913E-1,1.9033204E-1],"split_indices":[1,0,2,2,0,0,1,0,0,0,0,0,0],"split_type":[0,0,0,0,0,0,0,0,0,0,0,0,0],"sum_hessian":[6.4845E4,3.207E3,6.1638E4,3.194E3,1.3E1,4.3719E4,1.7919E4,3.156E3,3.8E1,8.44E2,4.2875E4,1.1976E4,5.943E3],"tree_param":{"num_deleted":"0","num_feature":"4","num_nodes":"13","size_leaf_vector":"1"}},{"base_weights":[1.0398143E-3,-1.6265558E2,8.647153E0,-1.6678777E2,-6.290762E1,1.7393661E1,-3.3491857E0,-8.284038E0,-9.3274355E0,-3.8566883E0,5.3081494E-2,1.8110325E0,7.3580533E-1,4.7304073E-1,-4.7440186E-1],"categories":[],"categories_nodes":[],"categories_segments":[],"categories_sizes":[],"default_left":[0,0,0,0,0,0,0,0,0,0,0,0,0,0,0],"id":23,"left_children":[1,3,5,7,9,11,13,-1,-1,-1,-1,-1,-1,-1,-1],"loss_changes":[9.133663E7,1.3406E6,6.4706415E6,3.7896E4,1.2021428E5,1.797345E6,2.04501E6,0E0,0E0,0E0,0E0,0E0,0E0,0E0,0E0],"parents":[2147483647,0,0,1,1,2,2,3,3,4,4,5,5,6,6],"right_children":[2,4,6,8,10,12,14,-1,-1,-1,-1,-1,-1,-1,-1],"split_conditions":[-3.0623443E0,-1.8262017E0,1.9878452E-1,-4.666585E0,-2.87178E-1,-8.60357E-2,-1.2317707E-1,-8.284038E0,-9.3274355E0,-3.8566883E0,5.3081494E-2,1.8110325E0,7.3580533E-1,4.7304073E-1,-4.7440186E-1],"split_indices":[0,2,3,0,2,3,2,0,0,0,0,0,0,0,0],"split_type":[0,0,0,0,0,0,0,0,0,0,0,0,0,0,0],"sum_hessian":[6.4944E4,3.277E3,6.1667E4,3.146E3,1.31E2,3.5664E4,2.6003E4,2.988E3,1.58E2,1.07E2,2.4E1,4.439E3,3.1225E4,8.424E3,1.7579E4],"tree_param":{"num_deleted":"0","num_feature":"4","num_nodes":"15","size_leaf_vector":"1"}},{"base_weights":[-3.250229E-2,-1.5386644E2,8.237604E0,-1.5751318E2,-5.1467873E1,1.4502659E1,-7.4776554E0,-7.83007E0,-8.641387E0,-1.2800819E0,-4.907865E0,1.1410264E0,4.11095E-1,-1.2184739E0,-1.363868E-1],"categories":[],"categories_nodes":[],"categories_segments":[],"categories_sizes":[],"default_left":[0,0,0,0,0,0,0,0,0,0,0,0,0,0,0],"id":24,"left_children":[1,3,5,7,9,11,13,-1,-1,-1,-1,-1,-1,-1,-1],"loss_changes":[8.304055E7,1.235368E6,6.09873E6,1.78E4,1.3756547E5,2.313475E6,1.4165562E6,0E0,0E0,0E0,0E0,0E0,0E0,0E0,0E0],"parents":[2147483647,0,0,1,1,2,2,3,3,4,4,5,5,6,6],"right_children":[2,4,6,8,10,12,14,-1,-1,-1,-1,-1,-1,-1,-1],"split_conditions":[-3.0623443E0,-1.3655028E0,3.441474E-1,-4.666585E0,2.2899897E-1,-3.1609196E-2,2.6873443E-1,-7.83007E0,-8.641387E0,-1.2800819E0,-4.907865E0,1.1410264E0,4.11095E-1,-1.2184739E0,-1.363868E-1],"split_indices":[0,2,3,0,3,2,0,0,0,0,0,0,0,0,0],"split_type":[0,0,0,0,0,0,0,0,0,0,0,0,0,0,0],"sum_hessian":[6.527E4,3.329E3,6.1941E4,3.214E3,1.15E2,4.4286E4,1.7655E4,3.044E3,1.7E2,7.5E1,4E1,1.9052E4,2.5234E4,3.874E3,1.3781E4],"tree_param":{"num_deleted":"0","num_feature":"4","num_nodes":"15","size_leaf_vector":"1"}},{"base_weights":[3.0853288E-2,-1.4922697E2,7.7846336E0,-1.4989035E2,-3.67287E-1,1.2890503E1,-4.4095516E0,-7.5163054E0,-5.8012185E0,-2.0583518E0,6.98015E-1,-4.1416168E-1,1.5682049E-1],"categories":[],"categories_nodes":[],"categories_segments":[],"categories_sizes":[],"default_left":[0,0,0,0,0,0,0,0,0,0,0,0,0],"id":25,"left_children":[1,3,5,7,-1,9,11,-1,-1,-1,-1,-1,-1],"loss_changes":[7.5273896E7,3.012E5,3.8497112E6,2.9712E4,0E0,2.5209435E6,5.334568E5,0E0,0E0,0E0,0E0,0E0,0E0],"parents":[2147483647,0,0,1,1,2,2,3,3,5,5,6,6],"right_children":[2,4,6,8,-1,10,12,-1,-1,-1,-1,-1,-1],"split_conditions":[-1.5310041E0,-1.3702276E0,4.080254E-1,-1.936999E0,-3.67287E-1,-7.809302E-1,-1.109393E-1,-7.5163054E0,-5.8012185E0,-2.0583518E0,6.98015E-1,-4.1416168E-1,1.5682049E-1],"split_indices":[1,0,2,2,0,0,1,0,0,0,0,0,0],"split_type":[0,0,0,0,0,0,0,0,0,0,0,0,0],"sum_hessian":[6.504E4,3.211E3,6.1829E4,3.196E3,1.5E1,4.3581E4,1.8248E4,3.152E3,4.4E1,8.45E2,4.2736E4,1.2058E4,6.19E3],"tree_param":{"num_deleted":"0","num_feature":"4","num_nodes":"13","size_leaf_vector":"1"}},{"base_weights":[7.460018E-2,-1.4190826E2,7.3948226E0,-1.4237451E2,-3.4331757E-1,1.2302374E1,-4.1299186E0,-7.0811996E0,-7.6796412E0,-1.9823271E0,6.658823E-1,-3.90682E-1,1.5627153E-1],"categories":[],"categories_nodes":[],"categories_segments":[],"categories_sizes":[],"default_left":[0,0,0,0,0,0,0,0,0,0,0,0,0],"id":26,"left_children":[1,3,5,7,-1,9,11,-1,-1,-1,-1,-1,-1],"loss_changes":[6.745356E7,1.99356E5,3.4907142E6,4.916E3,0E0,2.283527E6,4.926779E5,0E0,0E0,0E0,0E0,0E0,0E0],"parents":[2147483647,0,0,1,1,2,2,3,3,5,5,6,6],"right_children":[2,4,6,8,-1,10,12,-1,-1,-1,-1,-1,-1],"split_conditions":[-1.5310041E0,-1.3702276E0,3.9785177E-1,-4.666585E0,-3.4331757E-1,-7.809302E-1,-1.109393E-1,-7.0811996E0,-7.6796412E0,-1.9823271E0,6.658823E-1,-3.90682E-1,1.5627153E-1],"split_indices":[1,0,2,0,0,0,1,0,0,0,0,0,0],"split_type":[0,0,0,0,0,0,0,0,0,0,0,0,0],"sum_hessian":[6.4898E4,3.181E3,6.1717E4,3.17E3,1.1E1,4.3285E4,1.8432E4,2.984E3,1.86E2,8.29E2,4.2456E4,1.2225E4,6.207E3],"tree_param":{"num_deleted":"0","num_feature":"4","num_nodes":"13","size_leaf_vector":"1"}},{"base_weights":[-4.3907896E-2,-1.3480128E2,7.010335E0,-1.3547429E2,-3.3639622E-1,1.8542942E1,-5.0235695E-1,-6.794468E0,-5.1560125E0,5.6045145E-1,1.4216964E0,1.9807072E-1,-6.423353E-1],"categories":[],"categories_nodes":[],"categories_segments":[],"categories_sizes":[],"default_left":[0,0,0,0,0,0,0,0,0,0,0,0,0],"id":27,"left_children":[1,3,5,7,-1,9,11,-1,-1,-1,-1,-1,-1],"loss_changes":[6.195515E7,2.78512E5,5.3658565E6,2.9268E4,0E0,1.77182E6,2.0665551E6,0E0,0E0,0E0,0E0,0E0,0E0],"parents":[2147483647,0,0,1,1,2,2,3,3,5,5,6,6],"right_children":[2,4,6,8,-1,10,12,-1,-1,-1,-1,-1,-1],"split_conditions":[-1.5310041E0,-4.8892948E-1,1.22393265E-1,-1.936999E0,-3.3639622E-1,5.527008E-1,4.371058E-1,-6.794468E0,-5.1560125E0,5.6045145E-1,1.4216964E0,1.9807072E-1,-6.423353E-1],"split_indices":[1,2,3,2,0,1,3,0,0,0,0,0,0],"split_type":[0,0,0,0,0,0,0,0,0,0,0,0,0],"sum_hessian":[6.5172E4,3.241E3,6.1931E4,3.224E3,1.7E1,2.4429E4,3.7502E4,3.18E3,4.4E1,1.4029E4,1.04E4,2.7543E4,9.959E3],"tree_param":{"num_deleted":"0","num_feature":"4","num_nodes":"13","size_leaf_vector":"1"}},{"base_weights":[1.1173838E-1,-1.2838779E2,6.6683226E0,-1.2885095E2,-3.0671614E-1,1.5380185E1,1.0496129E0,-6.4601083E0,-4.9874244E0,-1.5777572E0,8.3309144E-1,2.7232164E-1,-2.6282123E-1],"categories":[],"categories_nodes":[],"categories_segments":[],"categories_sizes":[],"default_left":[0,0,0,0,0,0,0,0,0,0,0,0,0],"id":28,"left_children":[1,3,5,7,-1,9,11,-1,-1,-1,-1,-1,-1],"loss_changes":[5.4944812E7,1.7846E5,3.0372455E6,1.9324E4,0E0,1.4639595E6,1.04592806E6,0E0,0E0,0E0,0E0,0E0,0E0],"parents":[2147483647,0,0,1,1,2,2,3,3,5,5,6,6],"right_children":[2,4,6,8,-1,10,12,-1,-1,-1,-1,-1,-1],"split_conditions":[-1.5310041E0,-1.3702276E0,-2.5882266E-2,-1.936999E0,-3.0671614E-1,-7.809302E-1,4.8785993E-1,-6.4601083E0,-4.9874244E0,-1.5777572E0,8.3309144E-1,2.7232164E-1,-2.6282123E-1],"split_indices":[1,0,2,2,0,0,2,0,0,0,0,0,0],"split_type":[0,0,0,0,0,0,0,0,0,0,0,0,0],"sum_hessian":[6.5213E4,3.165E3,6.2048E4,3.153E3,1.2E1,2.4327E4,3.7721E4,3.112E3,4.1E1,6.46E2,2.3681E4,2.2225E4,1.5496E4],"tree_param":{"num_deleted":"0","num_feature":"4","num_nodes":"13","size_leaf_vector":"1"}},{"base_weights":[4.3744285E-2,-1.1996393E2,6.463901E0,-1.2289856E2,3.5232605E1,1.7292698E1,-8.966575E-1,-6.111411E0,-1.098814E1,2.6412342E0,-2.5561905E0,1.6786689E0,7.045111E-1,1.6354965E-1,-6.4474577E-1],"categories":[],"categories_nodes":[],"categories_segments":[],"categories_sizes":[],"default_left":[0,0,0,0,0,0,0,0,0,0,0,0,0,0,0],"id":29,"left_children":[1,3,5,7,9,11,13,-1,-1,-1,-1,-1,-1,-1,-1],"loss_changes":[5.0053452E7,1.506848E6,4.915167E6,1.83356E5,9.689046E4,1.300586E6,1.8358602E6,0E0,0E0,0E0,0E0,0E0,0E0,0E0,0E0],"parents":[2147483647,0,0,1,1,2,2,3,3,4,4,5,5,6,6],"right_children":[2,4,6,8,10,12,14,-1,-1,-1,-1,-1,-1,-1,-1],"split_conditions":[-4.018523E-1,-2.958933E-1,1.260346E-1,-8.9793867E-1,-1.2913427E-2,-9.165689E-2,4.421609E-1,-6.111411E0,-1.098814E1,2.6412342E0,-2.5561905E0,1.6786689E0,7.045111E-1,1.6354965E-1,-6.4474577E-1],"split_indices":[3,2,3,2,2,3,3,0,0,0,0,0,0,0,0],"split_type":[0,0,0,0,0,0,0,0,0,0,0,0,0,0,0],"sum_hessian":[6.4963E4,3.298E3,6.1665E4,3.237E3,6.1E1,2.4953E4,3.6712E4,3.217E3,2E1,5.1E1,1E1,4.1E3,2.0853E4,2.7248E4,9.464E3],"tree_param":{"num_deleted":"0","num_feature":"4","num_nodes":"15","size_leaf_vector":"1"}},{"base_weights":[-1.2432887E-1,-1.1465189E2,6.102514E0,-1.1733743E2,3.2509445E1,1.7423391E1,-1.9524993E-1,-5.8248916E0,-1.1856948E1,2.4609642E0,-1.9907836E0,4.7420225E-1,1.2209685E0,4.8888335E-1,-2.3634814E-1],"categories":[],"categories_nodes":[],"categories_segments":[],"categories_sizes":[],"default_left":[0,0,0,0,0,0,0,0,0,0,0,0,0,0,0],"id":30,"left_children":[1,3,5,7,9,11,13,-1,-1,-1,-1,-1,-1,-1,-1],"loss_changes":[4.646782E7,1.33172E6,4.40604E6,3.04272E5,7.568164E4,1.22672E6,1.7947151E6,0E0,0E0,0E0,0E0,0E0,0E0,0E0,0E0],"parents":[2147483647,0,0,1,1,2,2,3,3,4,4,5,5,6,6],"right_children":[2,4,6,8,10,12,14,-1,-1,-1,-1,-1,-1,-1,-1],"split_conditions":[-4.018523E-1,-2.2724864E-1,1.1172628E-1,-8.9793867E-1,-3.7249036E-2,7.719885E-2,-1.4510024E-1,-5.8248916E0,-1.1856948E1,2.4609642E0,-1.9907836E0,4.7420225E-1,1.2209685E0,4.8888335E-1,-2.3634814E-1],"split_indices":[3,2,3,2,2,0,2,0,0,0,0,0,0,0,0],"split_type":[0,0,0,0,0,0,0,0,0,0,0,0,0,0,0],"sum_hessian":[6.5157E4,3.359E3,6.1798E4,3.299E3,6E1,2.2089E4,3.9709E4,3.278E3,2.1E1,4.9E1,1.1E1,1.0348E4,1.1741E4,1.2406E4,2.7303E4],"tree_param":{"num_deleted":"0","num_feature":"4","num_nodes":"15","size_leaf_vector":"1"}},{"base_weights":[-1.0339702E-1,-1.1013249E2,5.650072E0,-1.10641495E2,-3.633835E-1,1.3367944E1,-2.921317E0,-5.543333E0,-4.413897E0,5.3178656E-1,1.6992022E0,3.388026E-1,-3.7536144E-1],"categories":[],"categories_nodes":[],"categories_segments":[],"categories_sizes":[],"default_left":[0,0,0,0,0,0,0,0,0,0,0,0,0],"id":31,"left_children":[1,3,5,7,-1,9,11,-1,-1,-1,-1,-1,-1],"loss_changes":[4.121213E7,1.68556E5,4.0926545E6,6.404E3,0E0,1.8333215E6,1.3036374E6,0E0,0E0,0E0,0E0,0E0,0E0],"parents":[2147483647,0,0,1,1,2,2,3,3,5,5,6,6],"right_children":[2,4,6,8,-1,10,12,-1,-1,-1,-1,-1,-1],"split_conditions":[-1.5310041E0,-4.8892948E-1,1.7612079E-1,-1.8262017E0,-3.633835E-1,8.6827415E-1,-1.4128263E-1,-5.543333E0,-4.413897E0,5.3178656E-1,1.6992022E0,3.388026E-1,-3.7536144E-1],"split_indices":[1,2,3,2,0,1,2,0,0,0,0,0,0],"split_type":[0,0,0,0,0,0,0,0,0,0,0,0,0],"sum_hessian":[6.5099E4,3.234E3,6.1865E4,3.218E3,1.6E1,3.2553E4,2.9312E4,3.182E3,3.6E1,2.8745E4,3.808E3,9.411E3,1.9901E4],"tree_param":{"num_deleted":"0","num_feature":"4","num_nodes":"13","size_leaf_vector":"1"}},{"base_weights":[-9.722165E-2,-1.0494438E2,5.44151E0,-1.0533276E2,-3.4467983E-1,9.983705E0,-8.096234E0,-5.2373443E0,-5.927217E0,8.6290807E-1,2.3754513E-1,-2.24677E-1,-8.284993E-1],"categories":[],"categories_nodes":[],"categories_segments":[],"categories_sizes":[],"default_left":[0,0,0,0,0,0,0,0,0,0,0,0,0],"id":32,"left_children":[1,3,5,7,-1,9,11,-1,-1,-1,-1,-1,-1],"loss_changes":[3.792685E7,1.24048E5,3.814557E6,1.2828E4,0E0,1.7680335E6,4.757075E5,0E0,0E0,0E0,0E0,0E0,0E0],"parents":[2147483647,0,0,1,1,2,2,3,3,5,5,6,6],"right_children":[2,4,6,8,-1,10,12,-1,-1,-1,-1,-1,-1],"split_conditions":[-1.5310041E0,-4.8892948E-1,3.738372E-1,-3.105735E0,-3.4467983E-1,-4.322015E-2,4.8185006E-1,-5.2373443E0,-5.927217E0,8.6290807E-1,2.3754513E-1,-2.24677E-1,-8.284993E-1],"split_indices":[1,2,3,2,0,2,3,0,0,0,0,0,0],"split_type":[0,0,0,0,0,0,0,0,0,0,0,0,0],"sum_hessian":[6.5308E4,3.276E3,6.2032E4,3.263E3,1.3E1,4.6448E4,1.5584E4,3.133E3,1.3E2,1.9432E4,2.7016E4,1.0936E4,4.648E3],"tree_param":{"num_deleted":"0","num_feature":"4","num_nodes":"13","size_leaf_vector":"1"}},{"base_weights":[1.4368456E-4,-9.778995E1,5.273458E0,-1.0021021E2,3.6105797E1,1.4489487E1,-9.799077E-1,-4.9742017E0,-9.72749E0,-2.3742692E0,2.688787E0,5.829217E-1,1.7685543E0,1.1675179E-1,-6.046824E-1],"categories":[],"categories_nodes":[],"categories_segments":[],"categories_sizes":[],"default_left":[0,0,0,0,0,0,0,0,0,0,0,0,0,0,0],"id":33,"left_children":[1,3,5,7,9,11,13,-1,-1,-1,-1,-1,-1,-1,-1],"loss_changes":[3.36423E7,1.08535E6,3.5674445E6,2.05254E5,9.117729E4,1.478866E6,1.3587041E6,0E0,0E0,0E0,0E0,0E0,0E0,0E0,0E0],"parents":[2147483647,0,0,1,1,2,2,3,3,4,4,5,5,6,6],"right_children":[2,4,6,8,10,12,14,-1,-1,-1,-1,-1,-1,-1,-1],"split_conditions":[-4.018523E-1,-2.2724864E-1,1.260346E-1,-8.9793867E-1,-7.993893E-1,8.6827415E-1,4.509695E-1,-4.9742017E0,-9.72749E0,-2.3742692E0,2.688787E0,5.829217E-1,1.7685543E0,1.1675179E-1,-6.046824E-1],"split_indices":[3,2,3,2,1,1,3,0,0,0,0,0,0,0,0],"split_type":[0,0,0,0,0,0,0,0,0,0,0,0,0,0,0],"sum_hessian":[6.5237E4,3.337E3,6.19E4,3.278E3,5.9E1,2.5022E4,3.6878E4,3.255E3,2.3E1,1E1,4.9E1,2.2036E4,2.986E3,2.8406E4,8.472E3],"tree_param":{"num_deleted":"0","num_feature":"4","num_nodes":"15","size_leaf_vector":"1"}},{"base_weights":[2.1298217E-2,-9.307473E1,5.00899E0,-9.524489E1,-4.169415E1,1.26899E1,1.4163288E-1,-4.7034535E0,-5.768189E0,-2.6845896E0,6.859533E-1,-3.2490635E0,6.558006E-1,-1.01924255E-1,5.8477443E-1],"categories":[],"categories_nodes":[],"categories_segments":[],"categories_sizes":[],"default_left":[0,0,0,0,0,0,0,0,0,0,0,0,0,0,0],"id":34,"left_children":[1,3,5,7,9,11,13,-1,-1,-1,-1,-1,-1,-1,-1],"loss_changes":[3.024255E7,3.65316E5,2.3111455E6,6.428E4,9.11572E4,7.9447E5,9.5319306E5,0E0,0E0,0E0,0E0,0E0,0E0,0E0,0E0],"parents":[2147483647,0,0,1,1,2,2,3,3,4,4,5,5,6,6],"right_children":[2,4,6,8,10,12,14,-1,-1,-1,-1,-1,-1,-1,-1],"split_conditions":[-3.0623443E0,-1.8262017E0,-3.1609196E-2,-4.666585E0,-3.0879354E-1,-9.367594E-1,8.716186E-1,-4.7034535E0,-5.768189E0,-2.6845896E0,6.859533E-1,-3.2490635E0,6.558006E-1,-1.01924255E-1,5.8477443E-1],"split_indices":[0,2,2,0,2,1,1,0,0,0,0,0,0,0,0],"split_type":[0,0,0,0,0,0,0,0,0,0,0,0,0,0,0],"sum_hessian":[6.5129E4,3.311E3,6.1818E4,3.176E3,1.35E2,2.3978E4,3.784E4,3.006E3,1.7E2,1.11E2,2.4E1,1.3E2,2.3848E4,3.1834E4,6.006E3],"tree_param":{"num_deleted":"0","num_feature":"4","num_nodes":"15","size_leaf_vector":"1"}},{"base_weights":[-3.952662E-2,-8.227169E1,5.0912547E0,-9.0327805E1,-3.1967041E1,1.564665E1,1.1497851E-1,-4.5546947E0,1.6684456E0,8.050806E-1,-2.0667613E0,2.1445322E0,6.6880375E-1,4.5305035E-1,-1.8421715E-1],"categories":[],"categories_nodes":[],"categories_segments":[],"categories_sizes":[],"default_left":[0,0,0,0,0,0,0,0,0,0,0,0,0,0,0],"id":35,"left_children":[1,3,5,7,9,11,13,-1,-1,-1,-1,-1,-1,-1,-1],"loss_changes":[2.7450232E7,1.545596E6,3.2167232E6,3.151E5,2.3888531E5,1.2131665E6,1.4146492E6,0E0,0E0,0E0,0E0,0E0,0E0,0E0,0E0],"parents":[2147483647,0,0,1,1,2,2,3,3,4,4,5,5,6,6],"right_children":[2,4,6,8,10,12,14,-1,-1,-1,-1,-1,-1,-1,-1],"split_conditions":[-1.1765593E0,1.8123413E-2,9.747089E-2,-2.2724864E-1,2.1231592E-1,-1.8241927E-1,-1.5571487E-1,-4.5546947E0,1.6684456E0,8.050806E-1,-2.0667613E0,2.1445322E0,6.6880375E-1,4.5305035E-1,-1.8421715E-1],"split_indices":[0,3,3,2,3,3,2,0,0,0,0,0,0,0,0],"split_type":[0,0,0,0,0,0,0,0,0,0,0,0,0,0,0],"sum_hessian":[6.5059E4,3.82E3,6.1239E4,3.292E3,5.28E2,1.962E4,4.1619E4,3.272E3,2E1,8.6E1,4.42E2,1.508E3,1.8112E4,1.2406E4,2.9213E4],"tree_param":{"num_deleted":"0","num_feature":"4","num_nodes":"15","size_leaf_vector":"1"}},{"base_weights":[-2.2302179E-2,-8.496801E1,4.383717E0,-8.529418E1,-2.3322134E-1,9.703455E0,-4.7791953E0,-4.277624E0,-3.2211263E0,2.4620397E-1,8.6111766E-1,-4.7316533E-2,-6.285247E-1],"categories":[],"categories_nodes":[],"categories_segments":[],"categories_sizes":[],"default_left":[0,0,0,0,0,0,0,0,0,0,0,0,0],"id":36,"left_children":[1,3,5,7,-1,9,11,-1,-1,-1,-1,-1,-1],"loss_changes":[2.4280556E7,8.3382E4,3.0063515E6,1.165E4,0E0,1.4021572E6,6.765331E5,0E0,0E0,0E0,0E0,0E0,0E0],"parents":[2147483647,0,0,1,1,2,2,3,3,5,5,6,6],"right_children":[2,4,6,8,-1,10,12,-1,-1,-1,-1,-1,-1],"split_conditions":[-1.5310041E0,-4.8892948E-1,2.2283699E-1,-1.936999E0,-2.3322134E-1,5.7809436E-1,4.5870322E-1,-4.277624E0,-3.2211263E0,2.4620397E-1,8.6111766E-1,-4.7316533E-2,-6.285247E-1],"split_indices":[1,2,3,2,0,1,3,0,0,0,0,0,0],"split_type":[0,0,0,0,0,0,0,0,0,0,0,0,0],"sum_hessian":[6.4872E4,3.198E3,6.1674E4,3.185E3,1.3E1,3.902E4,2.2654E4,3.143E3,4.2E1,2.3857E4,1.5163E4,1.5185E4,7.469E3],"tree_param":{"num_deleted":"0","num_feature":"4","num_nodes":"13","size_leaf_vector":"1"}},{"base_weights":[4.7046454E-3,-7.4709946E1,4.6495805E0,-8.136965E1,-3.2716312E1,1.1754211E1,1.0317607E-1,-4.032433E0,-1.1156759E1,-7.289989E0,-1.5108906E0,7.46478E-1,2.3105763E-1,-1.0656871E-1,5.410019E-1],"categories":[],"categories_nodes":[],"categories_segments":[],"categories_sizes":[],"default_left":[0,0,0,0,0,0,0,0,0,0,0,0,0,0,0],"id":37,"left_children":[1,3,5,7,9,11,13,-1,-1,-1,-1,-1,-1,-1,-1],"loss_changes":[2.2495838E7,1.058376E6,1.9712342E6,3.16614E5,1.4277962E5,5.39315E5,8.91225E5,0E0,0E0,0E0,0E0,0E0,0E0,0E0,0E0],"parents":[2147483647,0,0,1,1,2,2,3,3,4,4,5,5,6,6],"right_children":[2,4,6,8,10,12,14,-1,-1,-1,-1,-1,-1,-1,-1],"split_conditions":[-1.1765593E0,-9.387573E-1,-2.5882266E-2,-6.797693E-1,-4.666585E0,3.0250165E-1,8.598244E-1,-4.032433E0,-1.1156759E1,-7.289989E0,-1.5108906E0,7.46478E-1,2.3105763E-1,-1.0656871E-1,5.410019E-1],"split_indices":[0,1,2,2,0,0,1,0,0,0,0,0,0,0,0],"split_type":[0,0,0,0,0,0,0,0,0,0,0,0,0,0,0],"sum_hessian":[6.482E4,3.793E3,6.1027E4,3.273E3,5.2E2,2.3813E4,3.7214E4,3.258E3,1.5E1,1E1,5.1E2,1.6477E4,7.336E3,3.0794E4,6.42E3],"tree_param":{"num_deleted":"0","num_feature":"4","num_nodes":"15","size_leaf_vector":"1"}},{"base_weights":[6.948181E-2,-7.011409E1,4.4269648E0,-7.715909E1,-2.8253712E1,1.4101008E1,-3.9338455E-2,-3.8903835E0,1.7385769E-1,7.273591E-1,-1.8601344E0,3.1559786E-1,1.0571315E0,3.9378843E-1,-1.7420791E-1],"categories":[],"categories_nodes":[],"categories_segments":[],"categories_sizes":[],"default_left":[0,0,0,0,0,0,0,0,0,0,0,0,0,0,0],"id":38,"left_children":[1,3,5,7,9,11,13,-1,-1,-1,-1,-1,-1,-1,-1],"loss_changes":[1.9953162E7,1.122582E6,2.654221E6,1.70982E5,2.1158975E5,1.0640708E6,1.1459674E6,0E0,0E0,0E0,0E0,0E0,0E0,0E0,0E0],"parents":[2147483647,0,0,1,1,2,2,3,3,4,4,5,5,6,6],"right_children":[2,4,6,8,10,12,14,-1,-1,-1,-1,-1,-1,-1,-1],"split_conditions":[-1.1765593E0,-1.0329223E-1,9.595513E-2,-2.2724864E-1,2.1231592E-1,8.1121214E-2,-1.5263562E-1,-3.8903835E0,1.7385769E-1,7.273591E-1,-1.8601344E0,3.1559786E-1,1.0571315E0,3.9378843E-1,-1.7420791E-1],"split_indices":[0,3,3,2,3,0,2,0,0,0,0,0,0,0,0],"split_type":[0,0,0,0,0,0,0,0,0,0,0,0,0,0,0],"sum_hessian":[6.5242E4,3.813E3,6.1429E4,3.263E3,5.5E2,1.9402E4,4.2027E4,3.237E3,2.6E1,9.5E1,4.55E2,9.213E3,1.0189E4,1.2744E4,2.9283E4],"tree_param":{"num_deleted":"0","num_feature":"4","num_nodes":"15","size_leaf_vector":"1"}},{"base_weights":[4.8369493E-2,-6.735836E1,4.2135715E0,-7.397155E1,-2.6501574E1,1.0999689E1,-1.531468E0,-3.6508996E0,-7.0215464E0,6.794876E-1,-1.715772E0,4.298474E-1,1.4725593E0,7.356104E-2,-4.9779916E-1],"categories":[],"categories_nodes":[],"categories_segments":[],"categories_sizes":[],"default_left":[0,0,0,0,0,0,0,0,0,0,0,0,0,0,0],"id":39,"left_children":[1,3,5,7,9,11,13,-1,-1,-1,-1,-1,-1,-1,-1],"loss_changes":[1.826529E7,1.020984E6,2.3887215E6,1.96194E5,1.6618731E5,1.2450898E6,8.393686E5,0E0,0E0,0E0,0E0,0E0,0E0,0E0,0E0],"parents":[2147483647,0,0,1,1,2,2,3,3,4,4,5,5,6,6],"right_children":[2,4,6,8,10,12,14,-1,-1,-1,-1,-1,-1,-1,-1],"split_conditions":[-1.1765593E0,1.8123413E-2,1.4444034E-1,-3.0623443E0,2.1065214E-1,8.6827415E-1,4.4664642E-1,-3.6508996E0,-7.0215464E0,6.794876E-1,-1.715772E0,4.298474E-1,1.4725593E0,7.356104E-2,-4.9779916E-1],"split_indices":[0,3,3,0,3,1,3,0,0,0,0,0,0,0,0],"split_type":[0,0,0,0,0,0,0,0,0,0,0,0,0,0,0],"sum_hessian":[6.5054E4,3.785E3,6.1269E4,3.257E3,5.28E2,2.8089E4,3.318E4,3.213E3,4.4E1,8.6E1,4.42E2,2.4854E4,3.235E3,2.4462E4,8.718E3],"tree_param":{"num_deleted":"0","num_feature":"4","num_nodes":"15","size_leaf_vector":"1"}},{"base_weights":[-7.022291E-2,-6.438306E1,3.978084E0,-7.045539E1,-2.7146706E1,7.442608E0,-3.992154E0,-3.4661655E0,-9.403502E0,-7.4260134E-1,-2.2960508E0,4.8965588E-1,1.0084786E-1,-3.5769346E-1,1.1256494E-1],"categories":[],"categories_nodes":[],"categories_segments":[],"categories_sizes":[],"default_left":[0,0,0,0,0,0,0,0,0,0,0,0,0,0,0],"id":40,"left_children":[1,3,5,7,9,11,13,-1,-1,-1,-1,-1,-1,-1,-1],"loss_changes":[1.6944108E7,8.6951E5,1.6906684E6,4.2806E5,1.2441859E5,5.4422775E5,3.6621366E5,0E0,0E0,0E0,0E0,0E0,0E0,0E0,0E0],"parents":[2147483647,0,0,1,1,2,2,3,3,4,4,5,5,6,6],"right_children":[2,4,6,8,10,12,14,-1,-1,-1,-1,-1,-1,-1,-1],"split_conditions":[-1.1765593E0,-9.387573E-1,3.9785177E-1,-8.9793867E-1,-1.2913427E-2,3.0250165E-1,-1.109393E-1,-3.4661655E0,-9.403502E0,-7.4260134E-1,-2.2960508E0,4.8965588E-1,1.0084786E-1,-3.5769346E-1,1.1256494E-1],"split_indices":[0,1,2,2,2,0,1,0,0,0,0,0,0,0,0],"split_type":[0,0,0,0,0,0,0,0,0,0,0,0,0,0,0],"sum_hessian":[6.5078E4,3.853E3,6.1225E4,3.312E3,5.41E2,4.2675E4,1.855E4,3.282E3,3E1,3.28E2,2.13E2,2.9775E4,1.29E4,1.2314E4,6.236E3],"tree_param":{"num_deleted":"0","num_feature":"4","num_nodes":"15","size_leaf_vector":"1"}},{"base_weights":[7.876567E-2,-6.0851032E1,3.8680139E0,-6.689439E1,-2.3190052E1,1.2392379E1,-3.0322406E-1,-3.297879E0,-6.8984504E0,1.1517017E0,-1.6025723E0,1.8745564E0,5.196621E-1,3.5117868E-1,-1.7429538E-1],"categories":[],"categories_nodes":[],"categories_segments":[],"categories_sizes":[],"default_left":[0,0,0,0,0,0,0,0,0,0,0,0,0,0,0],"id":41,"left_children":[1,3,5,7,9,11,13,-1,-1,-1,-1,-1,-1,-1,-1],"loss_changes":[1.5098965E7,8.69915E5,2.1892232E6,2.10539E5,2.1824197E5,1.01461225E6,9.6404994E5,0E0,0E0,0E0,0E0,0E0,0E0,0E0,0E0],"parents":[2147483647,0,0,1,1,2,2,3,3,4,4,5,5,6,6],"right_children":[2,4,6,8,10,12,14,-1,-1,-1,-1,-1,-1,-1,-1],"split_conditions":[-1.1765593E0,-1.0329223E-1,1.004445E-1,-3.0623443E0,2.1231592E-1,-1.8241927E-1,-1.5263562E-1,-3.297879E0,-6.8984504E0,1.1517017E0,-1.6025723E0,1.8745564E0,5.196621E-1,3.5117868E-1,-1.7429538E-1],"split_indices":[0,3,3,0,3,3,2,0,0,0,0,0,0,0,0],"split_type":[0,0,0,0,0,0,0,0,0,0,0,0,0,0,0],"sum_hessian":[6.5396E4,3.828E3,6.1568E4,3.298E3,5.3E2,2.0228E4,4.134E4,3.257E3,4.1E1,8.5E1,4.45E2,1.491E3,1.8737E4,1.2519E4,2.8821E4],"tree_param":{"num_deleted":"0","num_feature":"4","num_nodes":"15","size_leaf_vector":"1"}},{"base_weights":[-7.075998E-2,-6.079742E1,3.3659086E0,-6.411475E1,-1.1092668E1,6.6195397E0,-7.153591E0,-3.1532204E0,-1.1163008E1,-1.4784358E0,-4.333273E-1,1.1780914E0,2.4356635E-1,-2.6637706E-1,-9.5329857E-1],"categories":[],"categories_nodes":[],"categories_segments":[],"categories_sizes":[],"default_left":[0,0,0,0,0,0,0,0,0,0,0,0,0,0,0],"id":42,"left_children":[1,3,5,7,9,11,13,-1,-1,-1,-1,-1,-1,-1,-1],"loss_changes":[1.3563456E7,5.73253E5,2.1053238E6,5.31326E5,9.556627E3,1.3913702E6,3.15983E5,0E0,0E0,0E0,0E0,0E0,0E0,0E0,0E0],"parents":[2147483647,0,0,1,1,2,2,3,3,4,4,5,5,6,6],"right_children":[2,4,6,8,10,12,14,-1,-1,-1,-1,-1,-1,-1,-1],"split_conditions":[-1.0009711E0,-7.479519E-2,3.8580465E-1,-8.9793867E-1,1.8123413E-2,-8.60357E-2,5.113768E-1,-3.1532204E0,-1.1163008E1,-1.4784358E0,-4.333273E-1,1.1780914E0,2.4356635E-1,-2.6637706E-1,-9.5329857E-1],"split_indices":[1,3,3,2,3,3,3,0,0,0,0,0,0,0,0],"split_type":[0,0,0,0,0,0,0,0,0,0,0,0,0,0,0],"sum_hessian":[6.4989E4,3.48E3,6.1509E4,3.262E3,2.18E2,4.6979E4,1.453E4,3.242E3,2E1,2.4E1,1.94E2,4.393E3,4.2586E4,1.26E4,1.93E3],"tree_param":{"num_deleted":"0","num_feature":"4","num_nodes":"15","size_leaf_vector":"1"}},{"base_weights":[2.6212698E-2,-5.505656E1,3.4221647E0,-6.0640892E1,-2.1706087E1,2.263201E1,1.8467127E0,-2.9364858E0,-4.1459746E0,3.6639464E-1,-1.5477898E0,6.124158E-1,1.8483925E0,2.3102622E-1,-3.1757692E-1],"categories":[],"categories_nodes":[],"categories_segments":[],"categories_sizes":[],"default_left":[0,0,0,0,0,0,0,0,0,0,0,0,0,0,0],"id":43,"left_children":[1,3,5,7,9,11,13,-1,-1,-1,-1,-1,-1,-1,-1],"loss_changes":[1.2159917E7,7.01733E5,1.8530622E6,1.32772E5,1.4605498E5,6.90397E5,1.2869312E6,0E0,0E0,0E0,0E0,0E0,0E0,0E0,0E0],"parents":[2147483647,0,0,1,1,2,2,3,3,4,4,5,5,6,6],"right_children":[2,4,6,8,10,12,14,-1,-1,-1,-1,-1,-1,-1,-1],"split_conditions":[-1.1765593E0,-9.4770205E-1,-8.03508E-2,-4.666585E0,2.1231592E-1,8.1121214E-2,3.8580465E-1,-2.9364858E0,-4.1459746E0,3.6639464E-1,-1.5477898E0,6.124158E-1,1.8483925E0,2.3102622E-1,-3.1757692E-1],"split_indices":[0,1,3,0,3,0,3,0,0,0,0,0,0,0,0],"split_type":[0,0,0,0,0,0,0,0,0,0,0,0,0,0,0],"sum_hessian":[6.5004E4,3.774E3,6.123E4,3.232E3,5.42E2,4.64E3,5.659E4,2.98E3,2.52E2,1.31E2,4.11E2,2.692E3,1.948E3,4.2284E4,1.4306E4],"tree_param":{"num_deleted":"0","num_feature":"4","num_nodes":"15","size_leaf_vector":"1"}},{"base_weights":[-1.4802424E-2,-5.009173E1,3.3502593E0,-5.6583824E1,-2.2459019E1,9.709661E0,-6.295913E-1,-2.7974367E0,-8.843373E0,-5.455443E0,-1.0369753E0,6.283061E-1,1.7580996E-1,-1.338942E-1,4.5981476E-1],"categories":[],"categories_nodes":[],"categories_segments":[],"categories_sizes":[],"default_left":[0,0,0,0,0,0,0,0,0,0,0,0,0,0,0],"id":44,"left_children":[1,3,5,7,9,11,13,-1,-1,-1,-1,-1,-1,-1,-1],"loss_changes":[1.0991196E7,7.35493E5,1.546871E6,2.44081E5,1.1438769E5,4.1616175E5,7.566317E5,0E0,0E0,0E0,0E0,0E0,0E0,0E0,0E0],"parents":[2147483647,0,0,1,1,2,2,3,3,4,4,5,5,6,6],"right_children":[2,4,6,8,10,12,14,-1,-1,-1,-1,-1,-1,-1,-1],"split_conditions":[-7.809302E-1,-9.387573E-1,-3.1609196E-2,-5.696927E-1,-4.666585E0,3.0250165E-1,8.598244E-1,-2.7974367E0,-8.843373E0,-5.455443E0,-1.0369753E0,6.283061E-1,1.7580996E-1,-1.338942E-1,4.5981476E-1],"split_indices":[0,1,2,2,0,0,1,0,0,0,0,0,0,0,0],"split_type":[0,0,0,0,0,0,0,0,0,0,0,0,0,0,0],"sum_hessian":[6.5223E4,4.106E3,6.1117E4,3.324E3,7.82E2,2.3525E4,3.7592E4,3.308E3,1.6E1,1.4E1,7.68E2,1.6099E4,7.426E3,3.1108E4,6.484E3],"tree_param":{"num_deleted":"0","num_feature":"4","num_nodes":"15","size_leaf_vector":"1"}},{"base_weights":[2.3357894E-2,-5.1623642E1,2.9167838E0,-5.4499462E1,-8.671245E0,8.132275E0,-2.7376719E0,-2.6885588E0,-1.0918246E1,3.0628026E-1,-5.4423E-1,3.0312476E-1,1.1888566E0,9.826841E-4,-5.0839514E-1],"categories":[],"categories_nodes":[],"categories_segments":[],"categories_sizes":[],"default_left":[0,0,0,0,0,0,0,0,0,0,0,0,0,0,0],"id":45,"left_children":[1,3,5,7,9,11,13,-1,-1,-1,-1,-1,-1,-1,-1],"loss_changes":[9.732215E6,4.26294E5,1.8187476E6,3.74656E5,7.206799E3,1.038681E6,6.0624875E5,0E0,0E0,0E0,0E0,0E0,0E0,0E0,0E0],"parents":[2147483647,0,0,1,1,2,2,3,3,4,4,5,5,6,6],"right_children":[2,4,6,8,10,12,14,-1,-1,-1,-1,-1,-1,-1,-1],"split_conditions":[-1.0009711E0,-7.479519E-2,1.7427662E-1,-5.696927E-1,-1.2092459E0,8.6827415E-1,4.548776E-1,-2.6885588E0,-1.0918246E1,3.0628026E-1,-5.4423E-1,3.0312476E-1,1.1888566E0,9.826841E-4,-5.0839514E-1],"split_indices":[1,3,3,2,2,1,3,0,0,0,0,0,0,0,0],"split_type":[0,0,0,0,0,0,0,0,0,0,0,0,0,0,0],"sum_hessian":[6.5124E4,3.454E3,6.167E4,3.237E3,2.17E2,3.208E4,2.959E4,3.224E3,1.3E1,2.8E1,1.89E2,2.8333E4,3.747E3,2.1582E4,8.008E3],"tree_param":{"num_deleted":"0","num_feature":"4","num_nodes":"15","size_leaf_vector":"1"}},{"base_weights":[7.363728E-3,-4.9378178E1,2.7958791E0,-5.2124332E1,-9.794593E0,1.0814581E1,-6.1589205E-1,-2.5706034E0,-8.534298E0,-1.3010334E0,-3.8285527E-1,1.9816498E-1,9.715579E-1,2.9452986E-1,-1.710276E-1],"categories":[],"categories_nodes":[],"categories_segments":[],"categories_sizes":[],"default_left":[0,0,0,0,0,0,0,0,0,0,0,0,0,0,0],"id":46,"left_children":[1,3,5,7,9,11,13,-1,-1,-1,-1,-1,-1,-1,-1],"loss_changes":[8.966721E6,3.77769E5,1.6861344E6,2.65994E5,7.6704355E3,1.0859212E6,7.890299E5,0E0,0E0,0E0,0E0,0E0,0E0,0E0,0E0],"parents":[2147483647,0,0,1,1,2,2,3,3,4,4,5,5,6,6],"right_children":[2,4,6,8,10,12,14,-1,-1,-1,-1,-1,-1,-1,-1],"split_conditions":[-1.0009711E0,-7.479519E-2,8.9452006E-2,-8.9793867E-1,1.8123413E-2,5.527008E-1,-1.5571487E-1,-2.5706034E0,-8.534298E0,-1.3010334E0,-3.8285527E-1,1.9816498E-1,9.715579E-1,2.9452986E-1,-1.710276E-1],"split_indices":[1,3,3,2,3,1,2,0,0,0,0,0,0,0,0],"split_type":[0,0,0,0,0,0,0,0,0,0,0,0,0,0,0],"sum_hessian":[6.511E4,3.479E3,6.1631E4,3.253E3,2.26E2,1.8395E4,4.3236E4,3.235E3,1.8E1,2.5E1,2.01E2,1.0248E4,8.147E3,1.3023E4,3.0213E4],"tree_param":{"num_deleted":"0","num_feature":"4","num_nodes":"15","size_leaf_vector":"1"}},{"base_weights":[-6.3895576E-2,-4.3678974E1,2.8613794E0,-4.9008472E1,-2.0938322E1,2.005159E1,1.3636276E0,-2.4397469E0,-9.040221E0,-4.5998445E-1,-1.6207501E0,5.1924956E-1,1.6676368E0,-1.9949666E-1,2.2242074E-1],"categories":[],"categories_nodes":[],"categories_segments":[],"categories_sizes":[],"default_left":[0,0,0,0,0,0,0,0,0,0,0,0,0,0,0],"id":47,"left_children":[1,3,5,7,9,11,13,-1,-1,-1,-1,-1,-1,-1,-1],"loss_changes":[8.320401E6,4.95751E5,1.5734782E6,8.459E4,1.0477966E5,6.2941875E5,9.2843525E5,0E0,0E0,0E0,0E0,0E0,0E0,0E0,0E0],"parents":[2147483647,0,0,1,1,2,2,3,3,4,4,5,5,6,6],"right_children":[2,4,6,8,10,12,14,-1,-1,-1,-1,-1,-1,-1,-1],"split_conditions":[-7.809302E-1,3.4397822E-3,-7.479519E-2,-1.109393E-1,3.441474E-1,8.1121214E-2,-1.109393E-1,-2.4397469E0,-9.040221E0,-4.5998445E-1,-1.6207501E0,5.1924956E-1,1.6676368E0,-1.9949666E-1,2.2242074E-1],"split_indices":[0,3,3,1,3,0,1,0,0,0,0,0,0,0,0],"split_type":[0,0,0,0,0,0,0,0,0,0,0,0,0,0,0],"sum_hessian":[6.5212E4,4.098E3,6.1114E4,3.319E3,7.79E2,4.897E3,5.6217E4,3.315E3,4E0,3.86E2,3.93E2,2.837E3,2.06E3,2.0551E4,3.5666E4],"tree_param":{"num_deleted":"0","num_feature":"4","num_nodes":"15","size_leaf_vector":"1"}},{"base_weights":[3.351806E-2,-4.1455914E1,2.7864723E0,-4.6451366E1,-1.7695133E1,8.536343E0,-7.932602E-1,-2.3039563E0,-6.300537E0,2.4400142E-1,-1.2579297E0,5.484094E-1,1.6241038E-1,-1.2913974E-1,4.0613213E-1],"categories":[],"categories_nodes":[],"categories_segments":[],"categories_sizes":[],"default_left":[0,0,0,0,0,0,0,0,0,0,0,0,0,0,0],"id":48,"left_children":[1,3,5,7,9,11,13,-1,-1,-1,-1,-1,-1,-1,-1],"loss_changes":[7.43231E6,4.79771E5,1.2560234E6,9.324E4,1.1890941E5,3.0106525E5,6.000838E5,0E0,0E0,0E0,0E0,0E0,0E0,0E0,0E0],"parents":[2147483647,0,0,1,1,2,2,3,3,4,4,5,5,6,6],"right_children":[2,4,6,8,10,12,14,-1,-1,-1,-1,-1,-1,-1,-1],"split_conditions":[-7.809302E-1,-6.8831044E-1,-3.1609196E-2,-4.322015E-2,-3.8850018E-1,3.0250165E-1,8.6438924E-1,-2.3039563E0,-6.300537E0,2.4400142E-1,-1.2579297E0,5.484094E-1,1.6241038E-1,-1.2913974E-1,4.0613213E-1],"split_indices":[0,1,2,2,1,0,1,0,0,0,0,0,0,0,0],"split_type":[0,0,0,0,0,0,0,0,0,0,0,0,0,0,0],"sum_hessian":[6.5069E4,4.048E3,6.1021E4,3.344E3,7.04E2,2.3413E4,3.7608E4,3.33E3,1.4E1,1.75E2,5.29E2,1.6037E4,7.376E3,3.1322E4,6.286E3],"tree_param":{"num_deleted":"0","num_feature":"4","num_nodes":"15","size_leaf_vector":"1"}},{"base_weights":[7.114801E-2,-4.110423E1,2.6210737E0,-4.4602184E1,-1.9632301E1,1.8919E1,1.28758E0,-2.185422E0,-5.3740935E0,7.146325E-1,-1.2827618E0,4.742713E-1,1.5982368E0,1.5923224E-1,-3.6984122E-1],"categories":[],"categories_nodes":[],"categories_segments":[],"categories_sizes":[],"default_left":[0,0,0,0,0,0,0,0,0,0,0,0,0,0,0],"id":49,"left_children":[1,3,5,7,9,11,13,-1,-1,-1,-1,-1,-1,-1,-1],"loss_changes":[6.827139E6,2.839265E5,1.33074E6,1.784945E5,1.09274484E5,5.696201E5,9.325342E5,0E0,0E0,0E0,0E0,0E0,0E0,0E0,0E0],"parents":[2147483647,0,0,1,1,2,2,3,3,4,4,5,5,6,6],"right_children":[2,4,6,8,10,12,14,-1,-1,-1,-1,-1,-1,-1,-1],"split_conditions":[-1.1765593E0,1.8123413E-2,-8.03508E-2,-3.0623443E0,2.1231592E-1,8.1121214E-2,4.317733E-1,-2.185422E0,-5.3740935E0,7.146325E-1,-1.2827618E0,4.742713E-1,1.5982368E0,1.5923224E-1,-3.6984122E-1],"split_indices":[0,3,3,0,3,0,3,0,0,0,0,0,0,0,0],"split_type":[0,0,0,0,0,0,0,0,0,0,0,0,0,0,0],"sum_hessian":[6.5022E4,3.791E3,6.1231E4,3.259E3,5.32E2,4.63E3,5.6601E4,3.215E3,4.4E1,8E1,4.52E2,2.688E3,1.942E3,4.6454E4,1.0147E4],"tree_param":{"num_deleted":"0","num_feature":"4","num_nodes":"15","size_leaf_vector":"1"}}]},"name":"gbtree"},"learner_model_param":{"base_score":"1.7415883E3","boost_from_average":"1","num_class":"0","num_feature":"4","num_target":"1"},"objective":{"name":"reg:squarederror","reg_loss_param":{"scale_pos_weight":"1"}}},"version":[2,1,2]}