{"learner":{"attributes":{"best_iteration":"48","best_score":"15.469471666581342","scikit_learn":"{\"_estimator_type\": \"regressor\"}"},"feature_names":[],"feature_types":[],"gradient_booster":{"model":{"gbtree_model_param":{"num_parallel_tree":"1","num_trees":"50"},"iteration_indptr":[0,1,2,3,4,5,6,7,8,9,10,11,12,13,14,15,16,17,18,19,20,21,22,23,24,25,26,27,28,29,30,31,32,33,34,35,36,37,38,39,40,41,42,43,44,45,46,47,48,49,50],"tree_info":[0,0,0,0,0,0,0,0,0,0,0,0,0,0,0,0,0,0,0,0,0,0,0,0,0,0,0,0,0,0,0,0,0,0,0,0,0,0,0,0,0,0,0,0,0,0,0,0,0,0],"trees":[{"base_weights":[-3.930836E-1,-3.8237195E2,2.3775618E1,-3.8939676E2,-1.7364291E2,-5.86899E1,2.671187E1,-2.0484295E1,-1.7391973E1,-9.480406E0,-1.9962542E0,-2.33555E0,-3.8430278E0,1.6801767E0,1.0263466E0],"categories":[],"categories_nodes":[],"categories_segments":[],"categories_sizes":[],"default_left":[0,0,0,0,0,0,0,0,0,0,0,0,0,0,0],"id":0,"left_children":[1,3,5,7,9,11,13,-1,-1,-1,-1,-1,-1,-1,-1],"loss_changes":[5.155295E8,4.804768E6,1.271849E7,2.567328E6,2.2723875E5,3.89499E5,2.160968E6,0E0,0E0,0E0,0E0,0E0,0E0,0E0,0E0],"parents":[2147483647,0,0,1,1,2,2,3,3,4,4,5,5,6,6],"right_children":[2,4,6,8,10,12,14,-1,-1,-1,-1,-1,-1,-1,-1],"split_conditions":[-3.6476576E-1,-1.8762317E0,-5.8244985E-1,-4.349433E0,1.9406097E-2,3.144575E-1,1.72739E-1,-2.0484295E1,-1.7391973E1,-9.480406E0,-1.9962542E0,-2.33555E0,-3.8430278E0,1.6801767E0,1.0263466E0],"split_indices":[3,2,2,0,2,3,3,0,0,0,0,0,0,0,0],"split_type":[0,0,0,0,0,0,0,0,0,0,0,0,0,0,0],"sum_hessian":[5.584E4,3.322E3,5.2518E4,3.213E3,1.09E2,1.805E3,5.0713E4,2.153E3,1.06E3,9.7E1,1.2E1,1.09E3,7.15E2,2.3984E4,2.6729E4],"tree_param":{"num_deleted":"0","num_feature":"4","num_nodes":"15","size_leaf_vector":"1"}},{"base_weights":[7.84038E-2,-3.6856778E2,2.233634E1,-1.9477142E1,-3.5371332E2,-5.923345E1,2.5377613E1,-1.7838718E1,-1.4628522E1,-8.281442E0,-2.8072476E0,1.8491338E0,1.1128701E0],"categories":[],"categories_nodes":[],"categories_segments":[],"categories_sizes":[],"default_left":[0,0,0,0,0,0,0,0,0,0,0,0,0],"id":1,"left_children":[1,3,5,-1,7,9,11,-1,-1,-1,-1,-1,-1],"loss_changes":[4.5911952E8,8.54816E5,1.3091976E7,0E0,2.46656E5,6.140375E5,1.84126E6,0E0,0E0,0E0,0E0,0E0,0E0],"parents":[2147483647,0,0,1,1,2,2,4,4,5,5,6,6],"right_children":[2,4,6,-1,8,10,12,-1,-1,-1,-1,-1,-1],"split_conditions":[-1.7509571E0,-4.0955133E0,-5.8244985E-1,-1.9477142E1,-2.7978916E0,-2.7610463E-1,6.028273E-2,-1.7838718E1,-1.4628522E1,-8.281442E0,-2.8072476E0,1.8491338E0,1.1128701E0],"split_indices":[1,2,2,0,2,3,3,0,0,0,0,0,0],"split_type":[0,0,0,0,0,0,0,0,0,0,0,0,0],"sum_hessian":[5.5952E4,3.185E3,5.2767E4,1.31E3,1.875E3,1.896E3,5.0871E4,1.781E3,9.4E1,5.2E1,1.844E3,1.0777E4,4.0094E4],"tree_param":{"num_deleted":"0","num_feature":"4","num_nodes":"13","size_leaf_vector":"1"}},{"base_weights":[1.3551156E-1,-3.4401166E2,2.1482899E1,-3.5103522E2,-1.6065073E2,-5.3692184E1,2.416942E1,-1.8515398E1,-1.5600263E1,-8.600029E0,-8.1611454E-1,-5.1506653E0,-2.442645E0,-1.9884541E0,1.2421572E0],"categories":[],"categories_nodes":[],"categories_segments":[],"categories_sizes":[],"default_left":[0,0,0,0,0,0,0,0,0,0,0,0,0,0,0],"id":2,"left_children":[1,3,5,7,9,11,13,-1,-1,-1,-1,-1,-1,-1,-1],"loss_changes":[4.096782E8,4.138048E6,1.0605578E7,2.243328E6,1.9702275E5,4.274385E5,2.184812E6,0E0,0E0,0E0,0E0,0E0,0E0,0E0,0E0],"parents":[2147483647,0,0,1,1,2,2,3,3,4,4,5,5,6,6],"right_children":[2,4,6,8,10,12,14,-1,-1,-1,-1,-1,-1,-1,-1],"split_conditions":[-3.6476576E-1,-1.8762317E0,-5.8244985E-1,-4.349433E0,-1.3410262E0,-1.8762317E0,-5.262278E-1,-1.8515398E1,-1.5600263E1,-8.600029E0,-8.1611454E-1,-5.1506653E0,-2.442645E0,-1.9884541E0,1.2421572E0],"split_indices":[3,2,2,0,0,2,0,0,0,0,0,0,0,0,0],"split_type":[0,0,0,0,0,0,0,0,0,0,0,0,0,0,0],"sum_hessian":[5.5762E4,3.256E3,5.2506E4,3.135E3,1.21E2,1.811E3,5.0695E4,2.093E3,1.042E3,1.12E2,9E0,1.6E2,1.651E3,5.28E2,5.0167E4],"tree_param":{"num_deleted":"0","num_feature":"4","num_nodes":"15","size_leaf_vector":"1"}},{"base_weights":[1.2352348E-1,-3.325933E2,2.0186024E1,-1.7591764E1,-2.9337238E2,-5.7106857E1,2.1622656E1,-1.3471598E1,-1.6690695E1,-6.924939E0,-2.4170294E0,1.452826E0,7.199075E-1],"categories":[],"categories_nodes":[],"categories_segments":[],"categories_sizes":[],"default_left":[0,0,0,0,0,0,0,0,0,0,0,0,0],"id":3,"left_children":[1,3,5,-1,7,9,11,-1,-1,-1,-1,-1,-1],"loss_changes":[3.7301965E8,2.295104E6,5.853558E6,0E0,9.28536E5,6.796765E5,2.778488E6,0E0,0E0,0E0,0E0,0E0,0E0],"parents":[2147483647,0,0,1,1,2,2,4,4,5,5,6,6],"right_children":[2,4,6,-1,8,10,12,-1,-1,-1,-1,-1,-1],"split_conditions":[-1.7509571E0,-4.349433E0,-5.262278E-1,-1.7591764E1,-4.346474E0,-1.7294236E-1,1.8710601E-1,-1.3471598E1,-1.6690695E1,-6.924939E0,-2.4170294E0,1.452826E0,7.199075E-1],"split_indices":[1,0,0,0,0,3,3,0,0,0,0,0,0],"split_type":[0,0,0,0,0,0,0,0,0,0,0,0,0],"sum_hessian":[5.588E4,3.177E3,5.2703E4,2.126E3,1.051E3,9.61E2,5.1742E4,6.65E2,3.86E2,9.2E1,8.69E2,2.55E4,2.6242E4],"tree_param":{"num_deleted":"0","num_feature":"4","num_nodes":"13","size_leaf_vector":"1"}},{"base_weights":[3.289074E-2,-3.1661688E2,1.9089823E1,-1.6706724E1,-3.0436963E2,-5.3896034E1,2.1749004E1,-1.5369377E1,-1.2316239E1,-7.014272E0,-2.568867E0,1.6211236E0,9.4432175E-1],"categories":[],"categories_nodes":[],"categories_segments":[],"categories_sizes":[],"default_left":[0,0,0,0,0,0,0,0,0,0,0,0,0],"id":4,"left_children":[1,3,5,-1,7,9,11,-1,-1,-1,-1,-1,-1],"loss_changes":[3.377197E8,5.79808E5,1.0246598E7,0E0,2.53728E5,3.96618E5,1.555596E6,0E0,0E0,0E0,0E0,0E0,0E0],"parents":[2147483647,0,0,1,1,2,2,4,4,5,5,6,6],"right_children":[2,4,6,-1,8,10,12,-1,-1,-1,-1,-1,-1],"split_conditions":[-1.7509571E0,-4.0955133E0,-5.8244985E-1,-1.6706724E1,-2.7978916E0,1.30434865E-2,6.028273E-2,-1.5369377E1,-1.2316239E1,-7.014272E0,-2.568867E0,1.6211236E0,9.4432175E-1],"split_indices":[1,2,2,0,2,3,3,0,0,0,0,0,0],"split_type":[0,0,0,0,0,0,0,0,0,0,0,0,0],"sum_hessian":[5.5964E4,3.176E3,5.2788E4,1.296E3,1.88E3,1.855E3,5.0933E4,1.783E3,9.7E1,5.1E1,1.804E3,1.0769E4,4.0164E4],"tree_param":{"num_deleted":"0","num_feature":"4","num_nodes":"13","size_leaf_vector":"1"}},{"base_weights":[-1.822873E-1,-3.0027426E2,1.822241E1,-1.5871161E1,-2.8801382E2,-5.0708515E1,2.0764162E1,-1.4538844E1,-1.1755858E1,-4.940326E0,-2.3149326E0,1.315003E0,7.7895015E-1],"categories":[],"categories_nodes":[],"categories_segments":[],"categories_sizes":[],"default_left":[0,0,0,0,0,0,0,0,0,0,0,0,0],"id":5,"left_children":[1,3,5,-1,7,9,11,-1,-1,-1,-1,-1,-1],"loss_changes":[3.0785766E8,5.8576E5,9.20266E6,0E0,2.07664E5,3.91624E5,1.453528E6,0E0,0E0,0E0,0E0,0E0,0E0],"parents":[2147483647,0,0,1,1,2,2,4,4,5,5,6,6],"right_children":[2,4,6,-1,8,10,12,-1,-1,-1,-1,-1,-1],"split_conditions":[-1.7509571E0,-4.0955133E0,-5.8244985E-1,-1.5871161E1,-2.7978916E0,-1.8762317E0,1.7618546E-1,-1.4538844E1,-1.1755858E1,-4.940326E0,-2.3149326E0,1.315003E0,7.7895015E-1],"split_indices":[1,2,2,0,2,2,3,0,0,0,0,0,0],"split_type":[0,0,0,0,0,0,0,0,0,0,0,0,0],"sum_hessian":[5.5738E4,3.22E3,5.2518E4,1.332E3,1.888E3,1.867E3,5.0651E4,1.79E3,9.8E1,1.55E2,1.712E3,2.4495E4,2.6156E4],"tree_param":{"num_deleted":"0","num_feature":"4","num_nodes":"13","size_leaf_vector":"1"}},{"base_weights":[2.7476586E-2,-2.8622006E2,1.7277464E1,-1.5079335E1,-2.7526697E2,-4.8288586E1,1.9670027E1,-1.3903033E1,-1.0821211E1,-6.659164E0,-2.2785175E0,4.9936492E-2,1.0608512E0],"categories":[],"categories_nodes":[],"categories_segments":[],"categories_sizes":[],"default_left":[0,0,0,0,0,0,0,0,0,0,0,0,0],"id":6,"left_children":[1,3,5,-1,7,9,11,-1,-1,-1,-1,-1,-1],"loss_changes":[2.7565574E8,4.50976E5,8.260675E6,0E0,2.46192E5,4.217485E5,1.467306E6,0E0,0E0,0E0,0E0,0E0,0E0],"parents":[2147483647,0,0,1,1,2,2,4,4,5,5,6,6],"right_children":[2,4,6,-1,8,10,12,-1,-1,-1,-1,-1,-1],"split_conditions":[-1.7509571E0,-4.0955133E0,-5.8244985E-1,-1.5079335E1,-2.7978916E0,-2.7610463E-1,-2.1826021E-1,-1.3903033E1,-1.0821211E1,-6.659164E0,-2.2785175E0,4.9936492E-2,1.0608512E0],"split_indices":[1,2,2,0,2,3,2,0,0,0,0,0,0],"split_type":[0,0,0,0,0,0,0,0,0,0,0,0,0],"sum_hessian":[5.5824E4,3.172E3,5.2652E4,1.309E3,1.863E3,1.853E3,5.0799E4,1.775E3,8.8E1,5.6E1,1.797E3,3.887E3,4.6912E4],"tree_param":{"num_deleted":"0","num_feature":"4","num_nodes":"13","size_leaf_vector":"1"}},{"base_weights":[-4.225008E-2,-2.674739E2,1.6635408E1,-2.8786404E2,-2.2923352E2,-4.349918E1,1.8781649E1,-1.4411356E1,-5.540357E0,-1.1985877E1,-6.254578E0,-1.6037766E0,-3.0044363E0,-1.7982508E0,9.6806175E-1],"categories":[],"categories_nodes":[],"categories_segments":[],"categories_sizes":[],"default_left":[0,0,0,0,0,0,0,0,0,0,0,0,0,0,0],"id":7,"left_children":[1,3,5,7,9,11,13,-1,-1,-1,-1,-1,-1,-1,-1],"loss_changes":[2.4951774E8,2.494592E6,6.797288E6,1.0544E5,1.2223E6,3.4203E5,1.614058E6,0E0,0E0,0E0,0E0,0E0,0E0,0E0,0E0],"parents":[2147483647,0,0,1,1,2,2,3,3,4,4,5,5,6,6],"right_children":[2,4,6,8,10,12,14,-1,-1,-1,-1,-1,-1,-1,-1],"split_conditions":[-3.6476576E-1,-4.349433E0,-5.8244985E-1,-1.8762317E0,-1.8762317E0,3.144575E-1,-5.262278E-1,-1.4411356E1,-5.540357E0,-1.1985877E1,-6.254578E0,-1.6037766E0,-3.0044363E0,-1.7982508E0,9.6806175E-1],"split_indices":[3,0,2,2,2,3,0,0,0,0,0,0,0,0,0],"split_type":[0,0,0,0,0,0,0,0,0,0,0,0,0,0,0],"sum_hessian":[5.5942E4,3.283E3,5.2659E4,2.137E3,1.146E3,1.814E3,5.0845E4,2.132E3,5E0,1.04E3,1.06E2,1.076E3,7.38E2,5.32E2,5.0313E4],"tree_param":{"num_deleted":"0","num_feature":"4","num_nodes":"15","size_leaf_vector":"1"}},{"base_weights":[-1.3744036E-2,-2.5755594E2,1.5518936E1,-1.3688728E1,-2.2481467E2,-5.004324E1,1.6760456E1,-1.015623E1,-1.3118558E1,-5.7995124E0,-2.1465816E0,1.156675E0,5.273735E-1],"categories":[],"categories_nodes":[],"categories_segments":[],"categories_sizes":[],"default_left":[0,0,0,0,0,0,0,0,0,0,0,0,0],"id":8,"left_children":[1,3,5,-1,7,9,11,-1,-1,-1,-1,-1,-1],"loss_changes":[2.2406597E8,1.630224E6,4.300703E6,0E0,8.10952E5,4.55552E5,2.052589E6,0E0,0E0,0E0,0E0,0E0,0E0],"parents":[2147483647,0,0,1,1,2,2,4,4,5,5,6,6],"right_children":[2,4,6,-1,8,10,12,-1,-1,-1,-1,-1,-1],"split_conditions":[-1.7509571E0,-4.349433E0,-5.262278E-1,-1.3688728E1,-4.346474E0,-1.7294236E-1,1.8710601E-1,-1.015623E1,-1.3118558E1,-5.7995124E0,-2.1465816E0,1.156675E0,5.273735E-1],"split_indices":[1,0,0,0,0,3,3,0,0,0,0,0,0],"split_type":[0,0,0,0,0,0,0,0,0,0,0,0,0],"sum_hessian":[5.601E4,3.185E3,5.2825E4,2.125E3,1.06E3,9.81E2,5.1844E4,6.76E2,3.84E2,9.4E1,8.87E2,2.5591E4,2.6253E4],"tree_param":{"num_deleted":"0","num_feature":"4","num_nodes":"13","size_leaf_vector":"1"}},{"base_weights":[-6.4734425E-3,-2.4462355E2,1.4734406E1,-2.6008908E2,-2.1395474E2,-4.6825394E1,1.6750223E1,-1.3007586E1,-3.196683E0,-9.63683E0,-1.2513491E1,-4.4203343E0,-2.1367304E0,-1.8340206E0,8.712613E-1],"categories":[],"categories_nodes":[],"categories_segments":[],"categories_sizes":[],"default_left":[0,0,0,0,0,0,0,0,0,0,0,0,0,0,0],"id":9,"left_children":[1,3,5,7,9,11,13,-1,-1,-1,-1,-1,-1,-1,-1],"loss_changes":[2.0181342E8,1.453088E6,6.551294E6,9.264E3,7.77736E5,2.809565E5,1.844104E6,0E0,0E0,0E0,0E0,0E0,0E0,0E0,0E0],"parents":[2147483647,0,0,1,1,2,2,3,3,4,4,5,5,6,6],"right_children":[2,4,6,8,10,12,14,-1,-1,-1,-1,-1,-1,-1,-1],"split_conditions":[-1.7509571E0,-4.349433E0,-7.7464515E-1,-1.8762317E0,-4.346474E0,-1.8762317E0,-5.262278E-1,-1.3007586E1,-3.196683E0,-9.63683E0,-1.2513491E1,-4.4203343E0,-2.1367304E0,-1.8340206E0,8.712613E-1],"split_indices":[1,0,2,2,0,2,0,0,0,0,0,0,0,0,0],"split_type":[0,0,0,0,0,0,0,0,0,0,0,0,0,0,0],"sum_hessian":[5.5966E4,3.18E3,5.2786E4,2.109E3,1.071E3,1.673E3,5.1113E4,2.108E3,1E0,6.8E2,3.91E2,1.48E2,1.525E3,6.37E2,5.0476E4],"tree_param":{"num_deleted":"0","num_feature":"4","num_nodes":"15","size_leaf_vector":"1"}},{"base_weights":[2.7176937E-2,-2.2913756E2,1.4351608E1,-2.4690955E2,-1.9717964E2,-3.8839237E1,1.62381E1,-1.2358508E1,-4.38943E0,-1.023336E1,-5.320267E0,-4.068562E0,-1.7548064E0,1.3336848E0,6.830792E-1],"categories":[],"categories_nodes":[],"categories_segments":[],"categories_sizes":[],"default_left":[0,0,0,0,0,0,0,0,0,0,0,0,0,0,0],"id":10,"left_children":[1,3,5,7,9,11,13,-1,-1,-1,-1,-1,-1,-1,-1],"loss_changes":[1.8346755E8,1.818704E6,5.278929E6,6.5736E4,7.80208E5,2.840145E5,1.365543E6,0E0,0E0,0E0,0E0,0E0,0E0,0E0,0E0],"parents":[2147483647,0,0,1,1,2,2,3,3,4,4,5,5,6,6],"right_children":[2,4,6,8,10,12,14,-1,-1,-1,-1,-1,-1,-1,-1],"split_conditions":[-3.6476576E-1,-4.349433E0,-5.8244985E-1,-1.8762317E0,-1.6623302E0,-1.8762317E0,5.1197108E-2,-1.2358508E1,-4.38943E0,-1.023336E1,-5.320267E0,-4.068562E0,-1.7548064E0,1.3336848E0,6.830792E-1],"split_indices":[3,0,2,2,2,2,3,0,0,0,0,0,0,0,0],"split_type":[0,0,0,0,0,0,0,0,0,0,0,0,0,0,0],"sum_hessian":[5.5888E4,3.287E3,5.2601E4,2.108E3,1.179E3,1.801E3,5.08E4,2.104E3,4E0,1.088E3,9.1E1,1.44E2,1.657E3,1.0057E4,4.0743E4],"tree_param":{"num_deleted":"0","num_feature":"4","num_nodes":"15","size_leaf_vector":"1"}},{"base_weights":[9.02394E-2,-2.1755312E2,1.3449508E1,-2.3457693E2,-1.8592781E2,-4.0796394E1,1.514919E1,-1.1738483E1,-3.7625508E0,-9.688154E0,-4.414195E0,-1.5298929E0,-2.8507197E0,-1.16159E-1,8.357792E-1],"categories":[],"categories_nodes":[],"categories_segments":[],"categories_sizes":[],"default_left":[0,0,0,0,0,0,0,0,0,0,0,0,0,0,0],"id":11,"left_children":[1,3,5,7,9,11,13,-1,-1,-1,-1,-1,-1,-1,-1],"loss_changes":[1.6209043E8,1.692096E6,4.84337E6,4.6536E4,8.49684E5,2.62225E5,1.393897E6,0E0,0E0,0E0,0E0,0E0,0E0,0E0,0E0],"parents":[2147483647,0,0,1,1,2,2,3,3,4,4,5,5,6,6],"right_children":[2,4,6,8,10,12,14,-1,-1,-1,-1,-1,-1,-1,-1],"split_conditions":[-3.6476576E-1,-4.349433E0,-7.7464515E-1,-1.8762317E0,-1.4460117E0,3.144575E-1,-2.1826021E-1,-1.1738483E1,-3.7625508E0,-9.688154E0,-4.414195E0,-1.5298929E0,-2.8507197E0,-1.16159E-1,8.357792E-1],"split_indices":[3,0,2,2,2,3,2,0,0,0,0,0,0,0,0],"split_type":[0,0,0,0,0,0,0,0,0,0,0,0,0,0,0],"sum_hessian":[5.5746E4,3.223E3,5.2523E4,2.091E3,1.132E3,1.595E3,5.0928E4,2.088E3,3E0,1.047E3,8.5E1,9.81E2,6.14E2,4.19E3,4.6738E4],"tree_param":{"num_deleted":"0","num_feature":"4","num_nodes":"15","size_leaf_vector":"1"}},{"base_weights":[2.8224004E-2,-2.103976E2,1.2715758E1,-2.2301878E2,-1.8506421E2,-3.450103E1,1.4649922E1,-1.1153449E1,-2.9129665E0,-8.211012E0,-1.1007271E1,-3.2479134E0,-1.4704133E0,-1.681028E0,7.574203E-1],"categories":[],"categories_nodes":[],"categories_segments":[],"categories_sizes":[],"default_left":[0,0,0,0,0,0,0,0,0,0,0,0,0,0,0],"id":12,"left_children":[1,3,5,7,9,11,13,-1,-1,-1,-1,-1,-1,-1,-1],"loss_changes":[1.4953195E8,9.7704E5,4.824656E6,4.528E3,7.42572E5,3.2055725E5,1.221561E6,0E0,0E0,0E0,0E0,0E0,0E0,0E0,0E0],"parents":[2147483647,0,0,1,1,2,2,3,3,4,4,5,5,6,6],"right_children":[2,4,6,8,10,12,14,-1,-1,-1,-1,-1,-1,-1,-1],"split_conditions":[-1.7509571E0,-4.349433E0,-4.5666286E-1,-1.8762317E0,-4.346474E0,-8.0217975E-1,-5.262278E-1,-1.1153449E1,-2.9129665E0,-8.211012E0,-1.1007271E1,-3.2479134E0,-1.4704133E0,-1.681028E0,7.574203E-1],"split_indices":[1,0,2,2,0,0,0,0,0,0,0,0,0,0,0],"split_type":[0,0,0,0,0,0,0,0,0,0,0,0,0,0,0],"sum_hessian":[5.6007E4,3.184E3,5.2823E4,2.12E3,1.064E3,2.078E3,5.0745E4,2.119E3,1E0,6.71E2,3.93E2,2.96E2,1.782E3,5.18E2,5.0227E4],"tree_param":{"num_deleted":"0","num_feature":"4","num_nodes":"15","size_leaf_vector":"1"}},{"base_weights":[-3.0082121E-2,-1.9983101E2,1.2079409E1,-2.118518E2,-1.7595006E2,-3.9414867E1,1.3755515E1,-1.0594908E1,-2.8401423E0,-7.8041344E0,-1.038336E1,-3.7456162E0,-1.7724783E0,-1.6531153E0,7.1665066E-1],"categories":[],"categories_nodes":[],"categories_segments":[],"categories_sizes":[],"default_left":[0,0,0,0,0,0,0,0,0,0,0,0,0,0,0],"id":13,"left_children":[1,3,5,7,9,11,13,-1,-1,-1,-1,-1,-1,-1,-1],"loss_changes":[1.3519128E8,8.79296E5,4.5476045E6,3.168E3,6.44946E5,2.311325E5,1.37999E6,0E0,0E0,0E0,0E0,0E0,0E0,0E0,0E0],"parents":[2147483647,0,0,1,1,2,2,3,3,4,4,5,5,6,6],"right_children":[2,4,6,8,10,12,14,-1,-1,-1,-1,-1,-1,-1,-1],"split_conditions":[-1.7509571E0,-4.349433E0,-7.7464515E-1,-1.8762317E0,-4.346474E0,-1.8762317E0,-5.262278E-1,-1.0594908E1,-2.8401423E0,-7.8041344E0,-1.038336E1,-3.7456162E0,-1.7724783E0,-1.6531153E0,7.1665066E-1],"split_indices":[1,0,2,2,0,2,0,0,0,0,0,0,0,0,0],"split_type":[0,0,0,0,0,0,0,0,0,0,0,0,0,0,0],"sum_hessian":[5.5874E4,3.192E3,5.2682E4,2.118E3,1.074E3,1.66E3,5.1022E4,2.117E3,1E0,6.64E2,4.1E2,1.65E2,1.495E3,6.21E2,5.0401E4],"tree_param":{"num_deleted":"0","num_feature":"4","num_nodes":"15","size_leaf_vector":"1"}},{"base_weights":[2.3459563E-2,-1.8741478E2,1.1717557E1,-2.0125696E2,-1.6138202E2,-3.486351E1,1.3203111E1,-1.0068461E1,-4.5285387E0,-8.297861E0,-3.2638936E0,-1.2753185E0,-2.4870486E0,1.1800042E0,5.478613E-1],"categories":[],"categories_nodes":[],"categories_segments":[],"categories_sizes":[],"default_left":[0,0,0,0,0,0,0,0,0,0,0,0,0,0,0],"id":14,"left_children":[1,3,5,7,9,11,13,-1,-1,-1,-1,-1,-1,-1,-1],"loss_changes":[1.2332184E8,1.158072E6,3.6650815E6,8.496E3,4.95672E5,2.2661125E5,1.198128E6,0E0,0E0,0E0,0E0,0E0,0E0,0E0,0E0],"parents":[2147483647,0,0,1,1,2,2,3,3,4,4,5,5,6,6],"right_children":[2,4,6,8,10,12,14,-1,-1,-1,-1,-1,-1,-1,-1],"split_conditions":[-3.6476576E-1,-4.349433E0,-7.7464515E-1,-1.8762317E0,-3.1846097E0,3.144575E-1,3.5221383E-2,-1.0068461E1,-4.5285387E0,-8.297861E0,-3.2638936E0,-1.2753185E0,-2.4870486E0,1.1800042E0,5.478613E-1],"split_indices":[3,0,2,2,0,3,3,0,0,0,0,0,0,0,0],"split_type":[0,0,0,0,0,0,0,0,0,0,0,0,0,0,0],"sum_hessian":[5.626E4,3.303E3,5.2957E4,2.152E3,1.151E3,1.636E3,5.1321E4,2.149E3,3E0,1.098E3,5.3E1,1.006E3,6.3E2,9.115E3,4.2206E4],"tree_param":{"num_deleted":"0","num_feature":"4","num_nodes":"15","size_leaf_vector":"1"}},{"base_weights":[-1.0144739E-1,-1.7755914E2,1.1025262E1,-1.9106622E2,-1.5226376E2,-1.2341776E1,1.3773043E1,-9.565524E0,-3.597983E0,-7.9180613E0,-3.830027E0,-1.8087319E0,-2.047687E-1,-1.1617538E0,7.023287E-1],"categories":[],"categories_nodes":[],"categories_segments":[],"categories_sizes":[],"default_left":[0,0,0,0,0,0,0,0,0,0,0,0,0,0,0],"id":15,"left_children":[1,3,5,7,9,11,13,-1,-1,-1,-1,-1,-1,-1,-1],"loss_changes":[1.1047045E8,1.098712E6,3.380503E6,4.8704E4,5.2025E5,1.0886535E6,4.77194E5,0E0,0E0,0E0,0E0,0E0,0E0,0E0,0E0],"parents":[2147483647,0,0,1,1,2,2,3,3,4,4,5,5,6,6],"right_children":[2,4,6,8,10,12,14,-1,-1,-1,-1,-1,-1,-1,-1],"split_conditions":[-3.1846097E0,-4.349433E0,-2.2625795E-1,-1.8762317E0,-1.208166E0,-1.0564461E0,-8.0217975E-1,-9.565524E0,-3.597983E0,-7.9180613E0,-3.830027E0,-1.8087319E0,-2.047687E-1,-1.1617538E0,7.023287E-1],"split_indices":[0,0,2,2,2,2,0,0,0,0,0,0,0,0,0],"split_type":[0,0,0,0,0,0,0,0,0,0,0,0,0,0,0],"sum_hessian":[5.5946E4,3.3E3,5.2646E4,2.147E3,1.153E3,5.539E3,4.7107E4,2.142E3,5E0,1.066E3,8.7E1,1.423E3,4.116E3,3.45E2,4.6762E4],"tree_param":{"num_deleted":"0","num_feature":"4","num_nodes":"15","size_leaf_vector":"1"}},{"base_weights":[-1.1619052E-1,-1.6849646E2,1.0462523E1,-1.8161377E2,-1.4384349E2,-1.2527797E1,1.3044838E1,-9.087527E0,-3.128445E0,-7.4962754E0,-4.295975E0,-1.693778E0,-2.315905E-1,1.1415628E0,5.5183536E-1],"categories":[],"categories_nodes":[],"categories_segments":[],"categories_sizes":[],"default_left":[0,0,0,0,0,0,0,0,0,0,0,0,0,0,0],"id":16,"left_children":[1,3,5,7,9,11,13,-1,-1,-1,-1,-1,-1,-1,-1],"loss_changes":[9.971064E7,1.043896E6,3.1270295E6,2.3712E4,3.93642E5,8.964186E5,9.303055E5,0E0,0E0,0E0,0E0,0E0,0E0,0E0,0E0],"parents":[2147483647,0,0,1,1,2,2,3,3,4,4,5,5,6,6],"right_children":[2,4,6,8,10,12,14,-1,-1,-1,-1,-1,-1,-1,-1],"split_conditions":[-3.6476576E-1,-4.349433E0,-2.3326467E-1,-1.4460117E0,-1.8762317E0,-1.0564461E0,2.5177302E-2,-9.087527E0,-3.128445E0,-7.4962754E0,-4.295975E0,-1.693778E0,-2.315905E-1,1.1415628E0,5.5183536E-1],"split_indices":[3,0,2,2,2,2,3,0,0,0,0,0,0,0,0],"split_type":[0,0,0,0,0,0,0,0,0,0,0,0,0,0,0],"sum_hessian":[5.5976E4,3.308E3,5.2668E4,2.155E3,1.153E3,5.318E3,4.735E4,2.152E3,3E0,1.042E3,1.11E2,1.435E3,3.883E3,8.06E3,3.929E4],"tree_param":{"num_deleted":"0","num_feature":"4","num_nodes":"15","size_leaf_vector":"1"}},{"base_weights":[-1.7170955E-1,-1.6047757E2,9.91165E0,-1.7257823E2,-1.3767168E2,-1.1788898E1,1.2334853E1,-8.636582E0,-3.6007164E0,-7.2879906E0,-4.523282E0,-1.5998368E0,-2.1804655E-1,1.0868362E0,5.203671E-1],"categories":[],"categories_nodes":[],"categories_segments":[],"categories_sizes":[],"default_left":[0,0,0,0,0,0,0,0,0,0,0,0,0,0,0],"id":17,"left_children":[1,3,5,7,9,11,13,-1,-1,-1,-1,-1,-1,-1,-1],"loss_changes":[9.0301384E7,8.88552E5,2.7639525E6,2.08E4,4.26254E5,7.924015E5,8.56589E5,0E0,0E0,0E0,0E0,0E0,0E0,0E0,0E0],"parents":[2147483647,0,0,1,1,2,2,3,3,4,4,5,5,6,6],"right_children":[2,4,6,8,10,12,14,-1,-1,-1,-1,-1,-1,-1,-1],"split_conditions":[-3.6476576E-1,-4.349433E0,-2.3326467E-1,-1.8762317E0,-2.7978916E0,-1.0564461E0,2.5177302E-2,-8.636582E0,-3.6007164E0,-7.2879906E0,-4.523282E0,-1.5998368E0,-2.1804655E-1,1.0868362E0,5.203671E-1],"split_indices":[3,0,2,2,2,2,3,0,0,0,0,0,0,0,0],"split_type":[0,0,0,0,0,0,0,0,0,0,0,0,0,0,0],"sum_hessian":[5.5863E4,3.305E3,5.2558E4,2.155E3,1.15E3,5.279E3,4.7279E4,2.151E3,4E0,9.8E2,1.7E2,1.418E3,3.861E3,8.042E3,3.9237E4],"tree_param":{"num_deleted":"0","num_feature":"4","num_nodes":"15","size_leaf_vector":"1"}},{"base_weights":[-7.166283E-2,-1.5199873E2,9.455154E0,-1.6372267E2,-1.3023752E2,-3.1367765E1,1.0146367E1,-8.198241E0,-3.3213754E0,-6.793121E0,-3.5880888E0,-2.7659986E0,-1.432992E0,7.5675005E-1,2.6714224E-1],"categories":[],"categories_nodes":[],"categories_segments":[],"categories_sizes":[],"default_left":[0,0,0,0,0,0,0,0,0,0,0,0,0,0,0],"id":18,"left_children":[1,3,5,7,9,11,13,-1,-1,-1,-1,-1,-1,-1,-1],"loss_changes":[8.099547E7,8.2108E5,1.4861825E6,3.9552E4,3.72104E5,5.5289062E4,1.2407695E6,0E0,0E0,0E0,0E0,0E0,0E0,0E0,0E0],"parents":[2147483647,0,0,1,1,2,2,3,3,4,4,5,5,6,6],"right_children":[2,4,6,8,10,12,14,-1,-1,-1,-1,-1,-1,-1,-1],"split_conditions":[-3.1846097E0,-4.349433E0,-5.262278E-1,-1.7509571E0,-1.7509571E0,-8.8535154E-1,1.8710601E-1,-8.198241E0,-3.3213754E0,-6.793121E0,-3.5880888E0,-2.7659986E0,-1.432992E0,7.5675005E-1,2.6714224E-1],"split_indices":[0,0,0,1,1,1,3,0,0,0,0,0,0,0,0],"split_type":[0,0,0,0,0,0,0,0,0,0,0,0,0,0,0],"sum_hessian":[5.5958E4,3.301E3,5.2657E4,2.141E3,1.16E3,8.76E2,5.1781E4,2.135E3,6E0,1.057E3,1.03E2,8.7E1,7.89E2,2.54E4,2.6381E4],"tree_param":{"num_deleted":"0","num_feature":"4","num_nodes":"15","size_leaf_vector":"1"}},{"base_weights":[-2.2440936E-1,-1.4477895E2,8.969147E0,-1.557377E2,-1.2459315E2,-2.8869486E1,1.0212105E1,-7.7948885E0,-2.7710633E0,-5.4287753E0,-7.3187532E0,-3.110998E0,-1.2807994E0,-1.4330576E-1,5.6808007E-1],"categories":[],"categories_nodes":[],"categories_segments":[],"categories_sizes":[],"default_left":[0,0,0,0,0,0,0,0,0,0,0,0,0,0,0],"id":19,"left_children":[1,3,5,7,9,11,13,-1,-1,-1,-1,-1,-1,-1,-1],"loss_changes":[7.434258E7,7.2052E5,2.4739325E6,2.6084E4,3.96474E5,1.7992762E5,7.65577E5,0E0,0E0,0E0,0E0,0E0,0E0,0E0,0E0],"parents":[2147483647,0,0,1,1,2,2,3,3,4,4,5,5,6,6],"right_children":[2,4,6,8,10,12,14,-1,-1,-1,-1,-1,-1,-1,-1],"split_conditions":[-3.1846097E0,-4.349433E0,-7.7464515E-1,-1.4460117E0,-4.346474E0,-1.8762317E0,-2.1826021E-1,-7.7948885E0,-2.7710633E0,-5.4287753E0,-7.3187532E0,-3.110998E0,-1.2807994E0,-1.4330576E-1,5.6808007E-1],"split_indices":[0,0,2,2,0,2,2,0,0,0,0,0,0,0,0],"split_type":[0,0,0,0,0,0,0,0,0,0,0,0,0,0,0],"sum_hessian":[5.5938E4,3.344E3,5.2594E4,2.163E3,1.181E3,1.672E3,5.0922E4,2.159E3,4E0,6.84E2,4.97E2,1.47E2,1.525E3,4.114E3,4.6808E4],"tree_param":{"num_deleted":"0","num_feature":"4","num_nodes":"15","size_leaf_vector":"1"}},{"base_weights":[2.1317823E-2,-1.3753166E2,8.55559E0,-1.4066547E2,-8.211601E1,-1.0300172E1,1.0767277E1,-7.344855E0,-6.7965302E0,-4.290546E0,1.8737051E0,1.6136853E-1,-9.8045653E-1,1.0118946E0,4.5517156E-1],"categories":[],"categories_nodes":[],"categories_segments":[],"categories_sizes":[],"default_left":[0,0,0,0,0,0,0,0,0,0,0,0,0,0,0],"id":20,"left_children":[1,3,5,7,9,11,13,-1,-1,-1,-1,-1,-1,-1,-1],"loss_changes":[6.554903E7,5.54912E5,2.1926902E6,7.106E4,8.1432375E4,6.9518394E5,7.4132E5,0E0,0E0,0E0,0E0,0E0,0E0,0E0,0E0],"parents":[2147483647,0,0,1,1,2,2,3,3,4,4,5,5,6,6],"right_children":[2,4,6,8,10,12,14,-1,-1,-1,-1,-1,-1,-1,-1],"split_conditions":[-3.6476576E-1,-2.7978916E0,-2.2625795E-1,-4.0955133E0,1.2085847E-1,2.4053553E-1,1.30434865E-2,-7.344855E0,-6.7965302E0,-4.290546E0,1.8737051E0,1.6136853E-1,-9.8045653E-1,1.0118946E0,4.5517156E-1],"split_indices":[3,2,2,2,2,3,3,0,0,0,0,0,0,0,0],"split_type":[0,0,0,0,0,0,0,0,0,0,0,0,0,0,0],"sum_hessian":[5.5836E4,3.261E3,5.2575E4,3.085E3,1.76E2,5.519E3,4.7056E4,1.319E3,1.766E3,1.71E2,5E0,2.25E3,3.269E3,7.03E3,4.0026E4],"tree_param":{"num_deleted":"0","num_feature":"4","num_nodes":"15","size_leaf_vector":"1"}},{"base_weights":[1.6572947E-2,-1.3174428E2,8.139626E0,-1.3475745E2,-7.913648E1,-2.6510202E1,9.246058E0,-6.570432E0,-8.163077E0,-4.2188425E0,8.6646503E-1,-8.840933E-1,-2.0136936E0,6.6393036E-1,2.7569994E-1],"categories":[],"categories_nodes":[],"categories_segments":[],"categories_sizes":[],"default_left":[0,0,0,0,0,0,0,0,0,0,0,0,0,0,0],"id":21,"left_children":[1,3,5,7,9,11,13,-1,-1,-1,-1,-1,-1,-1,-1],"loss_changes":[5.973559E7,5.03064E5,2.0156948E6,2.70992E5,9.1450625E4,1.9697925E5,7.666325E5,0E0,0E0,0E0,0E0,0E0,0E0,0E0,0E0],"parents":[2147483647,0,0,1,1,2,2,3,3,4,4,5,5,6,6],"right_children":[2,4,6,8,10,12,14,-1,-1,-1,-1,-1,-1,-1,-1],"split_conditions":[-3.6476576E-1,-2.7978916E0,-7.7464515E-1,-4.346474E0,1.2085847E-1,3.144575E-1,1.7618546E-1,-6.570432E0,-8.163077E0,-4.2188425E0,8.6646503E-1,-8.840933E-1,-2.0136936E0,6.6393036E-1,2.7569994E-1],"split_indices":[3,2,2,0,2,3,3,0,0,0,0,0,0,0,0],"split_type":[0,0,0,0,0,0,0,0,0,0,0,0,0,0,0],"sum_hessian":[5.581E4,3.24E3,5.257E4,3.063E3,1.77E2,1.626E3,5.0944E4,2.746E3,3.17E2,1.68E2,9E0,9.92E2,6.34E2,2.4485E4,2.6459E4],"tree_param":{"num_deleted":"0","num_feature":"4","num_nodes":"15","size_leaf_vector":"1"}},{"base_weights":[6.9566322E-3,-1.24892265E2,7.7696896E0,-1.3422858E2,-1.06868355E2,-9.834686E0,9.835731E0,-6.7202578E0,-2.446034E0,-4.623531E0,-6.33549E0,-1.3819251E0,-1.8129893E-1,4.2252007E-1,8.9247066E-1],"categories":[],"categories_nodes":[],"categories_segments":[],"categories_sizes":[],"default_left":[0,0,0,0,0,0,0,0,0,0,0,0,0,0,0],"id":22,"left_children":[1,3,5,7,9,11,13,-1,-1,-1,-1,-1,-1,-1,-1],"loss_changes":[5.399959E7,5.34044E5,1.9072652E6,2.5688E4,3.07356E5,6.087437E5,5.20833E5,0E0,0E0,0E0,0E0,0E0,0E0,0E0,0E0],"parents":[2147483647,0,0,1,1,2,2,3,3,4,4,5,5,6,6],"right_children":[2,4,6,8,10,12,14,-1,-1,-1,-1,-1,-1,-1,-1],"split_conditions":[-3.1846097E0,-4.349433E0,-2.2625795E-1,-1.4460117E0,-4.346474E0,-1.0564461E0,4.8928073E-1,-6.7202578E0,-2.446034E0,-4.623531E0,-6.33549E0,-1.3819251E0,-1.8129893E-1,4.2252007E-1,8.9247066E-1],"split_indices":[0,0,2,2,0,2,0,0,0,0,0,0,0,0,0],"split_type":[0,0,0,0,0,0,0,0,0,0,0,0,0,0,0],"sum_hessian":[5.5693E4,3.258E3,5.2435E4,2.142E3,1.116E3,5.507E3,4.6928E4,2.137E3,5E0,6.5E2,4.66E2,1.423E3,4.084E3,4.0013E4,6.915E3],"tree_param":{"num_deleted":"0","num_feature":"4","num_nodes":"15","size_leaf_vector":"1"}},{"base_weights":[8.1961654E-2,-1.1800957E2,7.395516E0,-1.27476326E2,-1.0006237E2,-9.30202E0,9.347413E0,-6.3847384E0,-2.683479E0,-5.317659E0,-3.023873E0,-1.3104231E0,-1.690295E-1,9.072882E-1,3.9040518E-1],"categories":[],"categories_nodes":[],"categories_segments":[],"categories_sizes":[],"default_left":[0,0,0,0,0,0,0,0,0,0,0,0,0,0,0],"id":23,"left_children":[1,3,5,7,9,11,13,-1,-1,-1,-1,-1,-1,-1,-1],"loss_changes":[4.817458E7,5.39916E5,1.7120072E6,2.7404E4,2.74447E5,5.50315E5,6.367875E5,0E0,0E0,0E0,0E0,0E0,0E0,0E0,0E0],"parents":[2147483647,0,0,1,1,2,2,3,3,4,4,5,5,6,6],"right_children":[2,4,6,8,10,12,14,-1,-1,-1,-1,-1,-1,-1,-1],"split_conditions":[-3.1846097E0,-4.349433E0,-2.2625795E-1,-1.8762317E0,-2.7978916E0,-1.0564461E0,1.30434865E-2,-6.3847384E0,-2.683479E0,-5.317659E0,-3.023873E0,-1.3104231E0,-1.690295E-1,9.072882E-1,3.9040518E-1],"split_indices":[0,0,2,2,2,2,3,0,0,0,0,0,0,0,0],"split_type":[0,0,0,0,0,0,0,0,0,0,0,0,0,0,0],"sum_hessian":[5.5777E4,3.252E3,5.2525E4,2.125E3,1.127E3,5.497E3,4.7028E4,2.118E3,7E0,9.71E2,1.56E2,1.425E3,4.072E3,7.001E3,4.0027E4],"tree_param":{"num_deleted":"0","num_feature":"4","num_nodes":"15","size_leaf_vector":"1"}},{"base_weights":[-1.1447721E-2,-1.1180795E2,6.954797E0,-1.21161934E2,-9.449651E1,-9.147186E0,8.843833E0,-6.0628843E0,-2.8069763E0,-3.9706292E0,-5.8102446E0,1.11678064E-1,-8.934168E-1,7.838721E-1,3.5143325E-1],"categories":[],"categories_nodes":[],"categories_segments":[],"categories_sizes":[],"default_left":[0,0,0,0,0,0,0,0,0,0,0,0,0,0,0],"id":24,"left_children":[1,3,5,7,9,11,13,-1,-1,-1,-1,-1,-1,-1,-1],"loss_changes":[4.369546E7,5.21448E5,1.6065668E6,6.454E3,3.70264E5,5.504999E5,5.86232E5,0E0,0E0,0E0,0E0,0E0,0E0,0E0,0E0],"parents":[2147483647,0,0,1,1,2,2,3,3,4,4,5,5,6,6],"right_children":[2,4,6,8,10,12,14,-1,-1,-1,-1,-1,-1,-1,-1],"split_conditions":[-3.6476576E-1,-4.349433E0,-2.2625795E-1,-1.8762317E0,-4.346474E0,2.4647729E-1,5.1197108E-2,-6.0628843E0,-2.8069763E0,-3.9706292E0,-5.8102446E0,1.11678064E-1,-8.934168E-1,7.838721E-1,3.5143325E-1],"split_indices":[3,0,2,2,0,3,3,0,0,0,0,0,0,0,0],"split_type":[0,0,0,0,0,0,0,0,0,0,0,0,0,0,0],"sum_hessian":[5.6104E4,3.29E3,5.2814E4,2.132E3,1.158E3,5.545E3,4.7269E4,2.128E3,4E0,6.86E2,4.72E2,2.406E3,3.139E3,9.919E3,3.735E4],"tree_param":{"num_deleted":"0","num_feature":"4","num_nodes":"15","size_leaf_vector":"1"}},{"base_weights":[-7.4183177E-3,-1.0655174E2,6.5884414E0,-1.1510163E2,-9.035633E1,-2.2539324E1,7.533156E0,-5.763145E0,-2.487786E0,-3.7624676E0,-5.562843E0,-2.6162484E0,-9.65609E-1,-1.19153E0,3.9435792E-1],"categories":[],"categories_nodes":[],"categories_segments":[],"categories_sizes":[],"default_left":[0,0,0,0,0,0,0,0,0,0,0,0,0,0,0],"id":25,"left_children":[1,3,5,7,9,11,13,-1,-1,-1,-1,-1,-1,-1,-1],"loss_changes":[3.9261324E7,4.40572E5,1.4478875E6,1.6676E4,3.484E5,1.5787306E5,5.6597625E5,0E0,0E0,0E0,0E0,0E0,0E0,0E0,0E0],"parents":[2147483647,0,0,1,1,2,2,3,3,4,4,5,5,6,6],"right_children":[2,4,6,8,10,12,14,-1,-1,-1,-1,-1,-1,-1,-1],"split_conditions":[-3.1846097E0,-4.349433E0,-7.7464515E-1,-1.8762317E0,-4.346474E0,-1.8762317E0,-5.262278E-1,-5.763145E0,-2.487786E0,-3.7624676E0,-5.562843E0,-2.6162484E0,-9.65609E-1,-1.19153E0,3.9435792E-1],"split_indices":[0,0,2,2,0,2,0,0,0,0,0,0,0,0,0],"split_type":[0,0,0,0,0,0,0,0,0,0,0,0,0,0,0],"sum_hessian":[5.5866E4,3.256E3,5.261E4,2.127E3,1.129E3,1.652E3,5.0958E4,2.121E3,6E0,6.58E2,4.71E2,1.6E2,1.492E3,5.68E2,5.039E4],"tree_param":{"num_deleted":"0","num_feature":"4","num_nodes":"15","size_leaf_vector":"1"}},{"base_weights":[7.180619E-2,-1.0069183E2,6.366654E0,-1.09366844E2,-8.505156E1,-2.9186989E1,7.037551E0,-5.383247E0,-5.6598983E0,-3.614309E0,-5.076483E0,-2.5470207E0,-1.2701912E0,-2.197221E-1,4.1478977E-1],"categories":[],"categories_nodes":[],"categories_segments":[],"categories_sizes":[],"default_left":[0,0,0,0,0,0,0,0,0,0,0,0,0,0,0],"id":26,"left_children":[1,3,5,7,9,11,13,-1,-1,-1,-1,-1,-1,-1,-1],"loss_changes":[3.5361764E7,4.35436E5,1.2518092E6,1.514E3,2.39593E5,7.869075E4,7.408395E5,0E0,0E0,0E0,0E0,0E0,0E0,0E0,0E0],"parents":[2147483647,0,0,1,1,2,2,3,3,4,4,5,5,6,6],"right_children":[2,4,6,8,10,12,14,-1,-1,-1,-1,-1,-1,-1,-1],"split_conditions":[-1.8762317E0,-4.349433E0,-5.262278E-1,-4.35398E0,-4.346474E0,-1.4460117E0,-2.1826021E-1,-5.383247E0,-5.6598983E0,-3.614309E0,-5.076483E0,-2.5470207E0,-1.2701912E0,-2.197221E-1,4.1478977E-1],"split_indices":[2,0,0,0,0,2,2,0,0,0,0,0,0,0,0],"split_type":[0,0,0,0,0,0,0,0,0,0,0,0,0,0,0],"sum_hessian":[5.5748E4,3.277E3,5.2471E4,2.104E3,1.173E3,9.71E2,5.15E4,1.477E3,6.27E2,6.64E2,5.09E2,1.42E2,8.29E2,5.106E3,4.6394E4],"tree_param":{"num_deleted":"0","num_feature":"4","num_nodes":"15","size_leaf_vector":"1"}},{"base_weights":[-1.6702179E-2,-9.5914986E1,6.05717E0,-9.904392E1,-5.2896355E1,-7.4178677E0,7.6141973E0,-5.134675E0,-4.816438E0,-3.4422283E0,-2.2546844E0,1.4315537E-2,-7.427687E-1,7.432455E-1,3.0773476E-1],"categories":[],"categories_nodes":[],"categories_segments":[],"categories_sizes":[],"default_left":[0,0,0,0,0,0,0,0,0,0,0,0,0,0,0],"id":27,"left_children":[1,3,5,7,9,11,13,-1,-1,-1,-1,-1,-1,-1,-1],"loss_changes":[3.2573696E7,4.43108E5,1.1034894E6,2.0844E4,2.5256188E4,3.121754E5,4.9881525E5,0E0,0E0,0E0,0E0,0E0,0E0,0E0,0E0],"parents":[2147483647,0,0,1,1,2,2,3,3,4,4,5,5,6,6],"right_children":[2,4,6,8,10,12,14,-1,-1,-1,-1,-1,-1,-1,-1],"split_conditions":[-1.8762317E0,-2.7978916E0,-2.2625795E-1,-4.0955133E0,-9.3288094E-1,2.5335464E-1,2.272159E-2,-5.134675E0,-4.816438E0,-3.4422283E0,-2.2546844E0,1.4315537E-2,-7.427687E-1,7.432455E-1,3.0773476E-1],"split_indices":[2,2,2,2,1,3,3,0,0,0,0,0,0,0,0],"split_type":[0,0,0,0,0,0,0,0,0,0,0,0,0,0,0],"sum_hessian":[5.5921E4,3.33E3,5.2591E4,3.103E3,2.27E2,5.447E3,4.7144E4,1.308E3,1.795E3,7.2E1,1.55E2,2.676E3,2.771E3,7.898E3,3.9246E4],"tree_param":{"num_deleted":"0","num_feature":"4","num_nodes":"15","size_leaf_vector":"1"}},{"base_weights":[4.0435627E-2,-9.4011765E1,5.614177E0,-9.899522E1,-8.39691E1,-8.091624E0,7.242898E0,-4.839159E0,-5.102235E0,-3.3995056E0,-5.5045624E0,-1.1037863E0,-1.6162403E-1,2.9366395E-1,7.581819E-1],"categories":[],"categories_nodes":[],"categories_segments":[],"categories_sizes":[],"default_left":[0,0,0,0,0,0,0,0,0,0,0,0,0,0,0],"id":28,"left_children":[1,3,5,7,9,11,13,-1,-1,-1,-1,-1,-1,-1,-1],"loss_changes":[2.933759E7,1.48368E5,1.1794454E6,4.182E3,4.286855E5,3.8126588E5,5.1219175E5,0E0,0E0,0E0,0E0,0E0,0E0,0E0,0E0],"parents":[2147483647,0,0,1,1,2,2,3,3,4,4,5,5,6,6],"right_children":[2,4,6,8,10,12,14,-1,-1,-1,-1,-1,-1,-1,-1],"split_conditions":[-1.7509571E0,-4.349433E0,-2.2625795E-1,-4.0955133E0,-4.346474E0,-1.0564461E0,4.8928073E-1,-4.839159E0,-5.102235E0,-3.3995056E0,-5.5045624E0,-1.1037863E0,-1.6162403E-1,2.9366395E-1,7.581819E-1],"split_indices":[1,0,2,2,0,2,0,0,0,0,0,0,0,0,0],"split_type":[0,0,0,0,0,0,0,0,0,0,0,0,0,0,0],"sum_hessian":[5.5962E4,3.13E3,5.2832E4,2.086E3,1.044E3,5.611E3,4.7221E4,1.228E3,8.58E2,6.5E2,3.94E2,1.446E3,4.165E3,4.0261E4,6.96E3],"tree_param":{"num_deleted":"0","num_feature":"4","num_nodes":"15","size_leaf_vector":"1"}},{"base_weights":[1.2047906E-2,-8.6992744E1,5.423958E0,-9.386447E1,-7.416427E1,-1.8548761E1,6.220129E0,-4.6997848E0,-2.037715E0,-3.0337E0,-4.6518154E0,-7.3047405E-1,-1.9683094E0,4.808496E-1,1.3948503E-1],"categories":[],"categories_nodes":[],"categories_segments":[],"categories_sizes":[],"default_left":[0,0,0,0,0,0,0,0,0,0,0,0,0,0,0],"id":29,"left_children":[1,3,5,7,9,11,13,-1,-1,-1,-1,-1,-1,-1,-1],"loss_changes":[2.6260912E7,2.80932E5,1.0022644E6,1.0952E4,2.855895E5,1.3784512E5,5.921501E5,0E0,0E0,0E0,0E0,0E0,0E0,0E0,0E0],"parents":[2147483647,0,0,1,1,2,2,3,3,4,4,5,5,6,6],"right_children":[2,4,6,8,10,12,14,-1,-1,-1,-1,-1,-1,-1,-1],"split_conditions":[-3.1846097E0,-4.349433E0,-7.7464515E-1,-1.8762317E0,-4.346474E0,5.0243056E-1,1.8710601E-1,-4.6997848E0,-2.037715E0,-3.0337E0,-4.6518154E0,-7.3047405E-1,-1.9683094E0,4.808496E-1,1.3948503E-1],"split_indices":[0,0,2,2,0,3,3,0,0,0,0,0,0,0,0],"split_type":[0,0,0,0,0,0,0,0,0,0,0,0,0,0,0],"sum_hessian":[5.577E4,3.265E3,5.2505E4,2.122E3,1.143E3,1.687E3,5.0818E4,2.116E3,6E0,6.69E2,4.74E2,1.42E3,2.67E2,2.5533E4,2.5285E4],"tree_param":{"num_deleted":"0","num_feature":"4","num_nodes":"15","size_leaf_vector":"1"}},{"base_weights":[-4.015163E-2,-8.209312E1,5.148925E0,-8.9287224E1,-6.881853E1,-6.7718654E0,6.5499816E0,-4.3627815E0,-4.6122966E0,-2.7853894E0,-4.3782268E0,1.6424233E-1,-6.7971826E-1,3.1210378E-1,2.011637E0],"categories":[],"categories_nodes":[],"categories_segments":[],"categories_sizes":[],"default_left":[0,0,0,0,0,0,0,0,0,0,0,0,0,0,0],"id":30,"left_children":[1,3,5,7,9,11,13,-1,-1,-1,-1,-1,-1,-1,-1],"loss_changes":[2.3801908E7,3.11374E5,8.781699E5,4.874E3,2.834005E5,3.7946962E5,4.8768512E5,0E0,0E0,0E0,0E0,0E0,0E0,0E0,0E0],"parents":[2147483647,0,0,1,1,2,2,3,3,4,4,5,5,6,6],"right_children":[2,4,6,8,10,12,14,-1,-1,-1,-1,-1,-1,-1,-1],"split_conditions":[-3.6476576E-1,-4.349433E0,-2.2625795E-1,-4.0955133E0,-4.346474E0,2.4053553E-1,1.2020407E0,-4.3627815E0,-4.6122966E0,-2.7853894E0,-4.3782268E0,1.6424233E-1,-6.7971826E-1,3.1210378E-1,2.011637E0],"split_indices":[3,0,2,2,0,3,2,0,0,0,0,0,0,0,0],"split_type":[0,0,0,0,0,0,0,0,0,0,0,0,0,0,0],"sum_hessian":[5.59E4,3.324E3,5.2576E4,2.152E3,1.172E3,5.529E3,4.7047E4,1.294E3,8.58E2,6.92E2,4.8E2,2.235E3,3.294E3,4.6622E4,4.25E2],"tree_param":{"num_deleted":"0","num_feature":"4","num_nodes":"15","size_leaf_vector":"1"}},{"base_weights":[-7.955636E-2,-7.8806656E1,4.9147344E0,-8.133219E1,-4.483398E1,8.708977E0,1.2340488E0,-5.1516037E0,-4.049318E0,-2.7295446E0,-1.8921162E0,2.9116675E-1,8.246798E-1,3.201784E-2,1.8914692E0],"categories":[],"categories_nodes":[],"categories_segments":[],"categories_sizes":[],"default_left":[0,0,0,0,0,0,0,0,0,0,0,0,0,0,0],"id":31,"left_children":[1,3,5,7,9,11,13,-1,-1,-1,-1,-1,-1,-1,-1],"loss_changes":[2.198146E7,2.82482E5,7.341641E5,1.4924E4,1.38195E4,5.813951E5,5.797616E5,0E0,0E0,0E0,0E0,0E0,0E0,0E0,0E0],"parents":[2147483647,0,0,1,1,2,2,3,3,4,4,5,5,6,6],"right_children":[2,4,6,8,10,12,14,-1,-1,-1,-1,-1,-1,-1,-1],"split_conditions":[-1.8762317E0,-2.7978916E0,1.8968709E-1,-4.0957355E0,-2.938327E-1,2.211329E-1,1.2020407E0,-5.1516037E0,-4.049318E0,-2.7295446E0,-1.8921162E0,2.9116675E-1,8.246798E-1,3.201784E-2,1.8914692E0],"split_indices":[2,2,3,2,1,2,2,0,0,0,0,0,0,0,0],"split_type":[0,0,0,0,0,0,0,0,0,0,0,0,0,0,0],"sum_hessian":[5.5904E4,3.334E3,5.257E4,3.102E3,2.32E2,2.5885E4,2.6685E4,4.4E1,3.058E3,9.4E1,1.38E2,1.8886E4,6.999E3,2.626E4,4.25E2],"tree_param":{"num_deleted":"0","num_feature":"4","num_nodes":"15","size_leaf_vector":"1"}},{"base_weights":[-7.011283E-2,-7.494004E1,4.6974063E0,-7.728169E1,-4.1811382E1,-6.0755515E0,5.9485636E0,-4.888872E0,-3.8492687E0,-2.4325857E0,-1.8052101E0,-1.7854284E-1,-1.312999E0,6.581949E-1,2.3657356E-1],"categories":[],"categories_nodes":[],"categories_segments":[],"categories_sizes":[],"default_left":[0,0,0,0,0,0,0,0,0,0,0,0,0,0,0],"id":32,"left_children":[1,3,5,7,9,11,13,-1,-1,-1,-1,-1,-1,-1,-1],"loss_changes":[2.0033828E7,2.57412E5,7.112515E5,1.1508E4,6.9797188E3,2.775053E5,4.15101E5,0E0,0E0,0E0,0E0,0E0,0E0,0E0,0E0],"parents":[2147483647,0,0,1,1,2,2,3,3,4,4,5,5,6,6],"right_children":[2,4,6,8,10,12,14,-1,-1,-1,-1,-1,-1,-1,-1],"split_conditions":[-1.8762317E0,-2.7978916E0,-2.2625795E-1,-4.0957355E0,-2.8780237E-1,4.9228445E-1,9.950686E-3,-4.888872E0,-3.8492687E0,-2.4325857E0,-1.8052101E0,-1.7854284E-1,-1.312999E0,6.581949E-1,2.3657356E-1],"split_indices":[2,2,2,2,1,3,3,0,0,0,0,0,0,0,0],"split_type":[0,0,0,0,0,0,0,0,0,0,0,0,0,0,0],"sum_hessian":[5.6124E4,3.359E3,5.2765E4,3.136E3,2.23E2,5.49E3,4.7275E4,4E1,3.096E3,9.8E1,1.25E2,4.885E3,6.05E2,6.822E3,4.0453E4],"tree_param":{"num_deleted":"0","num_feature":"4","num_nodes":"15","size_leaf_vector":"1"}},{"base_weights":[5.0967955E-3,-7.1014175E1,4.4512157E0,-7.262077E1,-4.174215E1,-1.7520304E1,5.063546E0,-3.7814908E0,-3.5175157E0,-2.2446096E0,4.5038953E-1,-5.809561E-1,-1.8266766E0,4.2275763E-1,1.1551076E-1],"categories":[],"categories_nodes":[],"categories_segments":[],"categories_sizes":[],"default_left":[0,0,0,0,0,0,0,0,0,0,0,0,0,0,0],"id":33,"left_children":[1,3,5,7,9,11,13,-1,-1,-1,-1,-1,-1,-1,-1],"loss_changes":[1.7680982E7,1.52102E5,7.090502E5,1.6022E4,2.8224375E4,1.5990525E5,4.7873112E5,0E0,0E0,0E0,0E0,0E0,0E0,0E0,0E0],"parents":[2147483647,0,0,1,1,2,2,3,3,4,4,5,5,6,6],"right_children":[2,4,6,8,10,12,14,-1,-1,-1,-1,-1,-1,-1,-1],"split_conditions":[-3.6476576E-1,-2.7978916E0,-1.0564461E0,-4.0955133E0,1.9406097E-2,3.402772E-1,1.629631E-1,-3.7814908E0,-3.5175157E0,-2.2446096E0,4.5038953E-1,-5.809561E-1,-1.8266766E0,4.2275763E-1,1.1551076E-1],"split_indices":[3,2,2,2,2,3,3,0,0,0,0,0,0,0,0],"split_type":[0,0,0,0,0,0,0,0,0,0,0,0,0,0,0],"sum_hessian":[5.5993E4,3.298E3,5.2695E4,3.125E3,1.73E2,1.428E3,5.1267E4,1.33E3,1.795E3,1.63E2,1E1,1.091E3,3.37E2,2.297E4,2.8297E4],"tree_param":{"num_deleted":"0","num_feature":"4","num_nodes":"15","size_leaf_vector":"1"}},{"base_weights":[3.510639E-2,-6.718531E1,4.22577E0,-7.329284E1,-5.608301E1,-5.5901775E0,5.484255E0,-3.5611565E0,-3.8096573E0,-2.1521783E0,-3.7256742E0,-8.39254E-1,-1.0480993E-1,2.0355141E-1,6.6597235E-1],"categories":[],"categories_nodes":[],"categories_segments":[],"categories_sizes":[],"default_left":[0,0,0,0,0,0,0,0,0,0,0,0,0,0,0],"id":34,"left_children":[1,3,5,7,9,11,13,-1,-1,-1,-1,-1,-1,-1,-1],"loss_changes":[1.5754529E7,2.18421E5,6.5036606E5,7.248E3,2.7771875E5,2.3398652E5,5.1663875E5,0E0,0E0,0E0,0E0,0E0,0E0,0E0,0E0],"parents":[2147483647,0,0,1,1,2,2,3,3,4,4,5,5,6,6],"right_children":[2,4,6,8,10,12,14,-1,-1,-1,-1,-1,-1,-1,-1],"split_conditions":[-3.1846097E0,-4.349433E0,-2.0666361E-1,-4.0955133E0,-4.346474E0,-1.0564461E0,4.8770803E-1,-3.5611565E0,-3.8096573E0,-2.1521783E0,-3.7256742E0,-8.39254E-1,-1.0480993E-1,2.0355141E-1,6.6597235E-1],"split_indices":[0,0,2,2,0,2,0,0,0,0,0,0,0,0,0],"split_type":[0,0,0,0,0,0,0,0,0,0,0,0,0,0,0],"sum_hessian":[5.5925E4,3.281E3,5.2644E4,2.113E3,1.168E3,5.982E3,4.6662E4,1.248E3,8.65E2,6.86E2,4.82E2,1.422E3,4.56E3,3.9533E4,7.129E3],"tree_param":{"num_deleted":"0","num_feature":"4","num_nodes":"15","size_leaf_vector":"1"}},{"base_weights":[-3.083196E-2,-6.4598595E1,3.990837E0,-6.965362E1,-5.5247246E1,-2.2768068E1,4.4472766E0,-3.3832881E0,-3.6268601E0,-2.17417E0,-3.6260903E0,-2.001739E0,-1.0024345E0,3.8053057E-1,6.660501E-2],"categories":[],"categories_nodes":[],"categories_segments":[],"categories_sizes":[],"default_left":[0,0,0,0,0,0,0,0,0,0,0,0,0,0,0],"id":35,"left_children":[1,3,5,7,9,11,13,-1,-1,-1,-1,-1,-1,-1,-1],"loss_changes":[1.4503883E7,1.50952E5,6.4230206E5,7.242E3,2.3134525E5,4.0605438E4,5.0944875E5,0E0,0E0,0E0,0E0,0E0,0E0,0E0,0E0],"parents":[2147483647,0,0,1,1,2,2,3,3,4,4,5,5,6,6],"right_children":[2,4,6,8,10,12,14,-1,-1,-1,-1,-1,-1,-1,-1],"split_conditions":[-3.6476576E-1,-4.349433E0,-5.262278E-1,-4.0955133E0,-4.346474E0,-1.4460117E0,1.8968709E-1,-3.3832881E0,-3.6268601E0,-2.17417E0,-3.6260903E0,-2.001739E0,-1.0024345E0,3.8053057E-1,6.660501E-2],"split_indices":[3,0,0,2,0,2,3,0,0,0,0,0,0,0,0],"split_type":[0,0,0,0,0,0,0,0,0,0,0,0,0,0,0],"sum_hessian":[5.5853E4,3.274E3,5.2579E4,2.121E3,1.153E3,8.81E2,5.1698E4,1.27E3,8.51E2,6.88E2,4.65E2,1.18E2,7.63E2,2.565E4,2.6048E4],"tree_param":{"num_deleted":"0","num_feature":"4","num_nodes":"15","size_leaf_vector":"1"}},{"base_weights":[-5.257808E-2,-6.124746E1,3.790352E0,-6.312933E1,-3.4955578E1,-5.315405E0,4.897741E0,-4.107305E0,-3.1425524E0,-1.9563109E0,-1.5763472E0,5.1285185E-2,-5.842999E-1,2.299695E-1,1.7917702E0],"categories":[],"categories_nodes":[],"categories_segments":[],"categories_sizes":[],"default_left":[0,0,0,0,0,0,0,0,0,0,0,0,0,0,0],"id":36,"left_children":[1,3,5,7,9,11,13,-1,-1,-1,-1,-1,-1,-1,-1],"loss_changes":[1.3094139E7,1.60565E5,5.283063E5,1.1063E4,1.9339062E3,2.2950623E5,4.3097738E5,0E0,0E0,0E0,0E0,0E0,0E0,0E0,0E0],"parents":[2147483647,0,0,1,1,2,2,3,3,4,4,5,5,6,6],"right_children":[2,4,6,8,10,12,14,-1,-1,-1,-1,-1,-1,-1,-1],"split_conditions":[-1.8762317E0,-2.7978916E0,-2.1826021E-1,-4.0957355E0,-2.938327E-1,2.5335464E-1,1.2020407E0,-4.107305E0,-3.1425524E0,-1.9563109E0,-1.5763472E0,5.1285185E-2,-5.842999E-1,2.299695E-1,1.7917702E0],"split_indices":[2,2,2,2,1,3,2,0,0,0,0,0,0,0,0],"split_type":[0,0,0,0,0,0,0,0,0,0,0,0,0,0,0],"sum_hessian":[5.5678E4,3.289E3,5.2389E4,3.068E3,2.21E2,5.68E3,4.6709E4,4E1,3.028E3,9.5E1,1.26E2,2.847E3,2.833E3,4.6264E4,4.45E2],"tree_param":{"num_deleted":"0","num_feature":"4","num_nodes":"15","size_leaf_vector":"1"}},{"base_weights":[-9.711018E-3,-5.860621E1,3.6868632E0,-6.041951E1,-3.2166092E1,-2.285374E1,4.191236E0,-2.882639E0,-4.242561E0,-3.3222253E0,-1.4242444E0,-1.9119176E0,-1.0050671E0,1.404198E-1,5.822274E-1],"categories":[],"categories_nodes":[],"categories_segments":[],"categories_sizes":[],"default_left":[0,0,0,0,0,0,0,0,0,0,0,0,0,0,0],"id":37,"left_children":[1,3,5,7,9,11,13,-1,-1,-1,-1,-1,-1,-1,-1],"loss_changes":[1.2049163E7,1.56311E5,7.005484E5,2.03831E5,2.510161E4,4.0553844E4,5.2922725E5,0E0,0E0,0E0,0E0,0E0,0E0,0E0,0E0],"parents":[2147483647,0,0,1,1,2,2,3,3,4,4,5,5,6,6],"right_children":[2,4,6,8,10,12,14,-1,-1,-1,-1,-1,-1,-1,-1],"split_conditions":[-1.8762317E0,-2.7978916E0,-5.262278E-1,-4.346474E0,-4.346474E0,-1.4460117E0,4.7859403E-1,-2.882639E0,-4.242561E0,-3.3222253E0,-1.4242444E0,-1.9119176E0,-1.0050671E0,1.404198E-1,5.822274E-1],"split_indices":[2,2,0,0,0,2,0,0,0,0,0,0,0,0,0],"split_type":[0,0,0,0,0,0,0,0,0,0,0,0,0,0,0],"sum_hessian":[5.5625E4,3.3E3,5.2325E4,3.087E3,2.13E2,9.75E2,5.135E4,2.776E3,3.11E2,1.9E1,1.94E2,1.46E2,8.29E2,4.3315E4,8.035E3],"tree_param":{"num_deleted":"0","num_feature":"4","num_nodes":"15","size_leaf_vector":"1"}},{"base_weights":[1.00291364E-1,-5.4414425E1,3.5126328E0,-6.027021E1,-4.4040222E1,-2.0608852E1,3.9890788E0,-2.91322E0,-3.1600137E0,-1.6171385E0,-2.994047E0,-1.8203405E0,-8.954995E-1,1.3378744E-1,5.5458945E-1],"categories":[],"categories_nodes":[],"categories_segments":[],"categories_sizes":[],"default_left":[0,0,0,0,0,0,0,0,0,0,0,0,0,0,0],"id":38,"left_children":[1,3,5,7,9,11,13,-1,-1,-1,-1,-1,-1,-1,-1],"loss_changes":[1.0417837E7,1.97747E5,6.0578556E5,8.683E3,2.192975E5,4.2874406E4,4.820877E5,0E0,0E0,0E0,0E0,0E0,0E0,0E0,0E0],"parents":[2147483647,0,0,1,1,2,2,3,3,4,4,5,5,6,6],"right_children":[2,4,6,8,10,12,14,-1,-1,-1,-1,-1,-1,-1,-1],"split_conditions":[-1.8762317E0,-4.349433E0,-5.262278E-1,-4.0955133E0,-4.346474E0,-1.4460117E0,4.7859403E-1,-2.91322E0,-3.1600137E0,-1.6171385E0,-2.994047E0,-1.8203405E0,-8.954995E-1,1.3378744E-1,5.5458945E-1],"split_indices":[2,0,0,2,0,2,0,0,0,0,0,0,0,0,0],"split_type":[0,0,0,0,0,0,0,0,0,0,0,0,0,0,0],"sum_hessian":[5.6001E4,3.298E3,5.2703E4,2.105E3,1.193E3,1.02E3,5.1683E4,1.262E3,8.43E2,6.88E2,5.05E2,1.47E2,8.73E2,4.3619E4,8.064E3],"tree_param":{"num_deleted":"0","num_feature":"4","num_nodes":"15","size_leaf_vector":"1"}},{"base_weights":[4.150285E-3,-5.2440563E1,3.239041E0,-5.7235912E1,-4.34759E1,6.5131235E0,-1.13962986E-1,-2.7920947E0,-3.0177634E0,-1.5338832E0,-3.0647948E0,5.7379144E-1,9.87868E-2,-6.382366E-1,2.1181472E-1],"categories":[],"categories_nodes":[],"categories_segments":[],"categories_sizes":[],"default_left":[0,0,0,0,0,0,0,0,0,0,0,0,0,0,0],"id":39,"left_children":[1,3,5,7,9,11,13,-1,-1,-1,-1,-1,-1,-1,-1],"loss_changes":[9.466968E6,1.3687E5,5.770057E5,5.789E3,2.567355E5,5.987894E5,1.4291804E6,0E0,0E0,0E0,0E0,0E0,0E0,0E0,0E0],"parents":[2147483647,0,0,1,1,2,2,3,3,4,4,5,5,6,6],"right_children":[2,4,6,8,10,12,14,-1,-1,-1,-1,-1,-1,-1,-1],"split_conditions":[-3.6476576E-1,-4.349433E0,1.998187E-1,-4.35398E0,-4.346474E0,2.4137738E-1,2.0176102E-1,-2.7920947E0,-3.0177634E0,-1.5338832E0,-3.0647948E0,5.7379144E-1,9.87868E-2,-6.382366E-1,2.1181472E-1],"split_indices":[3,0,3,0,0,1,0,0,0,0,0,0,0,0,0],"split_type":[0,0,0,0,0,0,0,0,0,0,0,0,0,0,0],"sum_hessian":[5.58E4,3.241E3,5.2559E4,2.108E3,1.133E3,2.6592E4,2.5967E4,1.47E3,6.38E2,6.61E2,4.72E2,1.27E4,1.3892E4,6.644E3,1.9323E4],"tree_param":{"num_deleted":"0","num_feature":"4","num_nodes":"15","size_leaf_vector":"1"}},{"base_weights":[-4.686325E-2,-5.0059147E1,3.1403005E0,-5.156827E1,-2.7958605E1,-1.997375E1,3.5836549E0,-2.447984E0,-3.7321343E0,-2.9575377E0,-1.2236717E0,-1.6800365E0,-8.870191E-1,1.1645112E-1,5.1668435E-1],"categories":[],"categories_nodes":[],"categories_segments":[],"categories_sizes":[],"default_left":[0,0,0,0,0,0,0,0,0,0,0,0,0,0,0],"id":40,"left_children":[1,3,5,7,9,11,13,-1,-1,-1,-1,-1,-1,-1,-1],"loss_changes":[8.899793E6,1.10115E5,5.379624E5,1.847325E5,2.202536E4,2.9467656E4,4.361353E5,0E0,0E0,0E0,0E0,0E0,0E0,0E0,0E0],"parents":[2147483647,0,0,1,1,2,2,3,3,4,4,5,5,6,6],"right_children":[2,4,6,8,10,12,14,-1,-1,-1,-1,-1,-1,-1,-1],"split_conditions":[-1.8762317E0,-2.7978916E0,-5.262278E-1,-4.346474E0,-4.346474E0,-1.4460117E0,4.7859403E-1,-2.447984E0,-3.7321343E0,-2.9575377E0,-1.2236717E0,-1.6800365E0,-8.870191E-1,1.1645112E-1,5.1668435E-1],"split_indices":[2,2,0,0,0,2,0,0,0,0,0,0,0,0,0],"split_type":[0,0,0,0,0,0,0,0,0,0,0,0,0,0,0],"sum_hessian":[5.5832E4,3.344E3,5.2488E4,3.129E3,2.15E2,9.87E2,5.1501E4,2.814E3,3.15E2,2E1,1.95E2,1.37E2,8.5E2,4.343E4,8.071E3],"tree_param":{"num_deleted":"0","num_feature":"4","num_nodes":"15","size_leaf_vector":"1"}},{"base_weights":[2.9385712E-2,-4.5745884E1,3.1264713E0,-4.8886013E1,-2.3872673E1,6.0888577E0,9.322174E-2,-2.3076801E0,-3.5703285E0,-8.358674E-1,-1.5791054E0,3.9034912E-1,-2.6107773E-1,-3.7021992E-1,3.044414E-1],"categories":[],"categories_nodes":[],"categories_segments":[],"categories_sizes":[],"default_left":[0,0,0,0,0,0,0,0,0,0,0,0,0,0,0],"id":41,"left_children":[1,3,5,7,9,11,13,-1,-1,-1,-1,-1,-1,-1,-1],"loss_changes":[7.9664745E6,2.43411E5,4.7293188E5,1.88253E5,2.423561E4,5.1747556E5,1.1690868E6,0E0,0E0,0E0,0E0,0E0,0E0,0E0,0E0],"parents":[2147483647,0,0,1,1,2,2,3,3,4,4,5,5,6,6],"right_children":[2,4,6,8,10,12,14,-1,-1,-1,-1,-1,-1,-1,-1],"split_conditions":[-1.6623302E0,-2.7978916E0,1.9686306E-1,-4.346474E0,3.144575E-1,3.0952626E-1,3.5908505E-1,-2.3076801E0,-3.5703285E0,-8.358674E-1,-1.5791054E0,3.9034912E-1,-2.6107773E-1,-3.7021992E-1,3.044414E-1],"split_indices":[2,2,3,0,3,0,0,0,0,0,0,0,0,0,0],"split_type":[0,0,0,0,0,0,0,0,0,0,0,0,0,0,0],"sum_hessian":[5.6191E4,3.56E3,5.2631E4,3.112E3,4.48E2,2.6626E4,2.6005E4,2.778E3,3.34E2,2.34E2,2.14E2,2.3115E4,3.511E3,1.1555E4,1.445E4],"tree_param":{"num_deleted":"0","num_feature":"4","num_nodes":"15","size_leaf_vector":"1"}},{"base_weights":[-6.587154E-2,-4.3466892E1,2.873262E0,-4.6281445E1,-2.311688E1,2.6090925E0,3.4121693E1,-2.4126947E0,-2.242482E0,-1.3235054E0,-4.3485236E-1,2.7584684E-1,-3.80895E-2,3.129091E0,1.5187802E0],"categories":[],"categories_nodes":[],"categories_segments":[],"categories_sizes":[],"default_left":[0,0,0,0,0,0,0,0,0,0,0,0,0,0,0],"id":42,"left_children":[1,3,5,7,9,11,13,-1,-1,-1,-1,-1,-1,-1,-1],"loss_changes":[7.1176715E6,2.01624E5,4.3129894E5,6.604E3,2.0654734E4,5.0796406E5,4.478675E4,0E0,0E0,0E0,0E0,0E0,0E0,0E0,0E0],"parents":[2147483647,0,0,1,1,2,2,3,3,4,4,5,5,6,6],"right_children":[2,4,6,8,10,12,14,-1,-1,-1,-1,-1,-1,-1,-1],"split_conditions":[-1.6623302E0,-2.7978916E0,1.2020407E0,-4.0955133E0,-1.7583698E-1,2.155665E-1,3.5148886E-1,-2.4126947E0,-2.242482E0,-1.3235054E0,-4.3485236E-1,2.7584684E-1,-3.80895E-2,3.129091E0,1.5187802E0],"split_indices":[2,2,2,2,1,3,3,0,0,0,0,0,0,0,0],"split_type":[0,0,0,0,0,0,0,0,0,0,0,0,0,0,0],"sum_hessian":[5.5796E4,3.538E3,5.2258E4,3.107E3,4.31E2,5.1821E4,4.37E2,1.293E3,1.814E3,3.49E2,8.2E1,2.7821E4,2.4E4,4.9E1,3.88E2],"tree_param":{"num_deleted":"0","num_feature":"4","num_nodes":"15","size_leaf_vector":"1"}},{"base_weights":[6.507932E-2,-4.3121742E1,2.7162611E0,-4.72674E1,-3.5528286E1,5.556713E0,-2.0027065E-1,-2.2927244E0,-2.516833E0,-1.2658702E0,-2.511151E0,5.129833E-1,7.053563E-2,-3.8248077E-1,2.8788826E-1],"categories":[],"categories_nodes":[],"categories_segments":[],"categories_sizes":[],"default_left":[0,0,0,0,0,0,0,0,0,0,0,0,0,0,0],"id":43,"left_children":[1,3,5,7,9,11,13,-1,-1,-1,-1,-1,-1,-1,-1],"loss_changes":[6.3901415E6,9.99295E4,4.3561338E5,6.724E3,1.7037375E5,5.1940356E5,1.1515731E6,0E0,0E0,0E0,0E0,0E0,0E0,0E0,0E0],"parents":[2147483647,0,0,1,1,2,2,3,3,4,4,5,5,6,6],"right_children":[2,4,6,8,10,12,14,-1,-1,-1,-1,-1,-1,-1,-1],"split_conditions":[-3.1846097E0,-4.349433E0,1.998187E-1,-4.35398E0,-4.346474E0,7.423819E-2,3.5908505E-1,-2.2927244E0,-2.516833E0,-1.2658702E0,-2.511151E0,5.129833E-1,7.053563E-2,-3.8248077E-1,2.8788826E-1],"split_indices":[0,0,3,0,0,1,0,0,0,0,0,0,0,0,0],"split_type":[0,0,0,0,0,0,0,0,0,0,0,0,0,0,0],"sum_hessian":[5.5809E4,3.227E3,5.2582E4,2.084E3,1.143E3,2.6638E4,2.5944E4,1.438E3,6.46E2,6.76E2,4.67E2,1.248E4,1.4158E4,1.1529E4,1.4415E4],"tree_param":{"num_deleted":"0","num_feature":"4","num_nodes":"15","size_leaf_vector":"1"}},{"base_weights":[-9.504099E-3,-3.7269844E1,2.831383E0,-4.192006E1,-2.0198835E1,1.6935859E0,9.377694E0,-1.9830407E0,-3.1157339E0,-2.2095706E0,-9.6643734E-1,1.1931304E-1,-8.7097293E-1,2.6823515E-1,9.417877E-1],"categories":[],"categories_nodes":[],"categories_segments":[],"categories_sizes":[],"default_left":[0,0,0,0,0,0,0,0,0,0,0,0,0,0,0],"id":44,"left_children":[1,3,5,7,9,11,13,-1,-1,-1,-1,-1,-1,-1,-1],"loss_changes":[5.925939E6,3.139835E5,3.874251E5,1.41092E5,1.6904656E4,5.867452E5,2.922268E5,0E0,0E0,0E0,0E0,0E0,0E0,0E0,0E0],"parents":[2147483647,0,0,1,1,2,2,3,3,4,4,5,5,6,6],"right_children":[2,4,6,8,10,12,14,-1,-1,-1,-1,-1,-1,-1,-1],"split_conditions":[-8.0217975E-1,-2.7978916E0,4.8770803E-1,-4.346474E0,-4.346474E0,9.6952283E-1,4.192827E-1,-1.9830407E0,-3.1157339E0,-2.2095706E0,-9.6643734E-1,1.1931304E-1,-8.7097293E-1,2.6823515E-1,9.417877E-1],"split_indices":[0,2,0,0,0,1,2,0,0,0,0,0,0,0,0],"split_type":[0,0,0,0,0,0,0,0,0,0,0,0,0,0,0],"sum_hessian":[5.5981E4,3.965E3,5.2016E4,3.115E3,8.5E2,4.4315E4,7.701E3,2.807E3,3.08E2,2.8E1,8.22E2,4.2766E4,1.549E3,5.408E3,2.293E3],"tree_param":{"num_deleted":"0","num_feature":"4","num_nodes":"15","size_leaf_vector":"1"}},{"base_weights":[1.4080866E-2,-3.701039E1,2.5145798E0,-3.9291462E1,-2.1118217E1,2.2702324E0,3.2016552E1,-2.0767052E0,-1.8804859E0,-1.203458E0,-4.0566713E-1,2.468338E-1,-4.1125096E-2,2.8721313E0,1.4144715E0],"categories":[],"categories_nodes":[],"categories_segments":[],"categories_sizes":[],"default_left":[0,0,0,0,0,0,0,0,0,0,0,0,0,0,0],"id":45,"left_children":[1,3,5,7,9,11,13,-1,-1,-1,-1,-1,-1,-1,-1],"loss_changes":[5.174551E6,1.273485E5,3.7735106E5,1.0088E4,1.6917484E4,4.2823397E5,3.9115844E4,0E0,0E0,0E0,0E0,0E0,0E0,0E0,0E0],"parents":[2147483647,0,0,1,1,2,2,3,3,4,4,5,5,6,6],"right_children":[2,4,6,8,10,12,14,-1,-1,-1,-1,-1,-1,-1,-1],"split_conditions":[-1.6623302E0,-2.7978916E0,1.2020407E0,-4.0955133E0,-1.7583698E-1,2.155665E-1,3.5422194E-1,-2.0767052E0,-1.8804859E0,-1.203458E0,-4.0566713E-1,2.468338E-1,-4.1125096E-2,2.8721313E0,1.4144715E0],"split_indices":[2,2,2,2,1,3,3,0,0,0,0,0,0,0,0],"split_type":[0,0,0,0,0,0,0,0,0,0,0,0,0,0,0],"sum_hessian":[5.5891E4,3.535E3,5.2356E4,3.09E3,4.45E2,5.1927E4,4.29E2,1.314E3,1.776E3,3.62E2,8.3E1,2.7885E4,2.4042E4,5.3E1,3.76E2],"tree_param":{"num_deleted":"0","num_feature":"4","num_nodes":"15","size_leaf_vector":"1"}},{"base_weights":[6.0655093E-3,-3.536857E1,2.4025705E0,-3.749541E1,-2.0005793E1,7.412056E0,1.0699214E0,-1.9743881E0,-1.8003428E0,-6.9195837E-1,-1.3335549E0,1.6611403E-1,7.653023E-1,3.3763472E-2,1.246732E0],"categories":[],"categories_nodes":[],"categories_segments":[],"categories_sizes":[],"default_left":[0,0,0,0,0,0,0,0,0,0,0,0,0,0,0],"id":46,"left_children":[1,3,5,7,9,11,13,-1,-1,-1,-1,-1,-1,-1,-1],"loss_changes":[4.733945E6,1.15009E5,3.4912675E5,7.797E3,1.7424188E4,3.5472325E5,3.8904878E5,0E0,0E0,0E0,0E0,0E0,0E0,0E0,0E0],"parents":[2147483647,0,0,1,1,2,2,3,3,4,4,5,5,6,6],"right_children":[2,4,6,8,10,12,14,-1,-1,-1,-1,-1,-1,-1,-1],"split_conditions":[-1.6623302E0,-2.7978916E0,6.3710034E-2,-4.0955133E0,3.144575E-1,2.3190734E-1,1.1341985E0,-1.9743881E0,-1.8003428E0,-6.9195837E-1,-1.3335549E0,1.6611403E-1,7.653023E-1,3.3763472E-2,1.246732E0],"split_indices":[2,2,3,2,3,2,2,0,0,0,0,0,0,0,0],"split_type":[0,0,0,0,0,0,0,0,0,0,0,0,0,0,0],"sum_hessian":[5.5839E4,3.542E3,5.2297E4,3.11E3,4.32E2,1.0988E4,4.1309E4,1.319E3,1.791E3,2.26E2,2.06E2,7.239E3,3.749E3,4.0638E4,6.71E2],"tree_param":{"num_deleted":"0","num_feature":"4","num_nodes":"15","size_leaf_vector":"1"}},{"base_weights":[5.5702087E-3,-3.2695446E1,2.4883678E0,-3.545976E1,-1.5928261E1,1.3827993E0,9.061045E0,-1.9464687E0,-1.4757156E0,-1.4014907E-1,-1.0504582E0,2.3662367E-1,-2.1177511E-1,4.2597613E-1,7.780637E-1],"categories":[],"categories_nodes":[],"categories_segments":[],"categories_sizes":[],"default_left":[0,0,0,0,0,0,0,0,0,0,0,0,0,0,0],"id":47,"left_children":[1,3,5,7,9,11,13,-1,-1,-1,-1,-1,-1,-1,-1],"loss_changes":[4.5538635E6,1.82882E5,3.787987E5,6.8919E4,3.7417547E4,8.398581E5,2.628625E4,0E0,0E0,0E0,0E0,0E0,0E0,0E0,0E0],"parents":[2147483647,0,0,1,1,2,2,3,3,4,4,5,5,6,6],"right_children":[2,4,6,8,10,12,14,-1,-1,-1,-1,-1,-1,-1,-1],"split_conditions":[-8.0217975E-1,-6.7553806E-1,4.8928073E-1,-4.349433E0,-3.4005404E-1,2.18367E-1,9.3355006E-1,-1.9464687E0,-1.4757156E0,-1.4014907E-1,-1.0504582E0,2.3662367E-1,-2.1177511E-1,4.2597613E-1,7.780637E-1],"split_indices":[0,1,0,0,1,3,1,0,0,0,0,0,0,0,0],"split_type":[0,0,0,0,0,0,0,0,0,0,0,0,0,0,0],"sum_hessian":[5.6087E4,3.957E3,5.213E4,3.396E3,5.61E2,4.4625E4,7.505E3,2.141E3,1.255E3,1.57E2,4.04E2,2.7957E4,1.6668E4,6.93E3,5.75E2],"tree_param":{"num_deleted":"0","num_feature":"4","num_nodes":"15","size_leaf_vector":"1"}},{"base_weights":[4.155242E-2,-3.014404E1,2.3140748E0,-3.7048332E1,-2.219507E1,1.1690779E0,8.324088E0,-1.7567753E0,-1.9930378E0,-6.4156216E-1,-1.3793973E0,9.0780765E-2,-8.304327E-1,2.4198893E-1,8.416815E-1],"categories":[],"categories_nodes":[],"categories_segments":[],"categories_sizes":[],"default_left":[0,0,0,0,0,0,0,0,0,0,0,0,0,0,0],"id":48,"left_children":[1,3,5,7,9,11,13,-1,-1,-1,-1,-1,-1,-1,-1],"loss_changes":[3.8308905E6,2.137605E5,3.573841E5,9.84075E3,9.154825E4,5.0146453E5,2.4633656E5,0E0,0E0,0E0,0E0,0E0,0E0,0E0,0E0],"parents":[2147483647,0,0,1,1,2,2,3,3,4,4,5,5,6,6],"right_children":[2,4,6,8,10,12,14,-1,-1,-1,-1,-1,-1,-1,-1],"split_conditions":[-8.0217975E-1,-4.349433E0,4.6961492E-1,-4.0955133E0,-4.346474E0,9.6952283E-1,4.192827E-1,-1.7567753E0,-1.9930378E0,-6.4156216E-1,-1.3793973E0,9.0780765E-2,-8.304327E-1,2.4198893E-1,8.416815E-1],"split_indices":[0,0,0,2,0,1,2,0,0,0,0,0,0,0,0],"split_type":[0,0,0,0,0,0,0,0,0,0,0,0,0,0,0],"sum_hessian":[5.5844E4,3.909E3,5.1935E4,2.09E3,1.819E3,4.3625E4,8.31E3,1.252E3,8.38E2,6.66E2,1.153E3,4.2095E4,1.53E3,5.897E3,2.413E3],"tree_param":{"num_deleted":"0","num_feature":"4","num_nodes":"15","size_leaf_vector":"1"}},{"base_weights":[-2.5112867E-2,-3.0628849E1,2.1399727E0,-3.2771694E1,-1.4454365E1,7.096905E0,8.3497554E-1,-1.54629E0,-2.1674457E0,-1.7136805E-1,-8.4717053E-1,6.218238E-1,1.7670868E-1,-4.586931E-2,3.90008E-1],"categories":[],"categories_nodes":[],"categories_segments":[],"categories_sizes":[],"default_left":[0,0,0,0,0,0,0,0,0,0,0,0,0,0,0],"id":49,"left_children":[1,3,5,7,9,11,13,-1,-1,-1,-1,-1,-1,-1,-1],"loss_changes":[3.6964988E6,1.2727625E5,3.370298E5,6.21845E4,1.182432E4,2.0651119E5,5.0342462E5,0E0,0E0,0E0,0E0,0E0,0E0,0E0,0E0],"parents":[2147483647,0,0,1,1,2,2,3,3,4,4,5,5,6,6],"right_children":[2,4,6,8,10,12,14,-1,-1,-1,-1,-1,-1,-1,-1],"split_conditions":[-1.0705297E0,2.7584752E-2,6.3710034E-2,-4.346474E0,2.3421006E-1,7.423819E-2,4.6961492E-1,-1.54629E0,-2.1674457E0,-1.7136805E-1,-8.4717053E-1,6.218238E-1,1.7670868E-1,-4.586931E-2,3.90008E-1],"split_indices":[0,3,3,0,3,1,0,0,0,0,0,0,0,0,0],"split_type":[0,0,0,0,0,0,0,0,0,0,0,0,0,0,0],"sum_hessian":[5.5786E4,3.685E3,5.2101E4,3.253E3,4.32E2,1.0857E4,4.1244E4,2.773E3,4.8E2,8E1,3.52E2,4.344E3,6.513E3,3.2954E4,8.29E3],"tree_param":{"num_deleted":"0","num_feature":"4","num_nodes":"15","size_leaf_vector":"1"}}]},"name":"gbtree"},"learner_model_param":{"base_score":"4.1025635E2","boost_from_average":"1","num_class":"0","num_feature":"4","num_target":"1"},"objective":{"name":"reg:squarederror","reg_loss_param":{"scale_pos_weight":"1"}}},"version":[2,1,2]}