{"learner":{"attributes":{"best_iteration":"24","best_score":"38.162332102112316","scikit_learn":"{\"_estimator_type\": \"regressor\"}"},"feature_names":[],"feature_types":[],"gradient_booster":{"model":{"gbtree_model_param":{"num_parallel_tree":"1","num_trees":"50"},"iteration_indptr":[0,1,2,3,4,5,6,7,8,9,10,11,12,13,14,15,16,17,18,19,20,21,22,23,24,25,26,27,28,29,30,31,32,33,34,35,36,37,38,39,40,41,42,43,44,45,46,47,48,49,50],"tree_info":[0,0,0,0,0,0,0,0,0,0,0,0,0,0,0,0,0,0,0,0,0,0,0,0,0,0,0,0,0,0,0,0,0,0,0,0,0,0,0,0,0,0,0,0,0,0,0,0,0,0],"trees":[{"base_weights":[-1.5528746E-1,-1.1338425E2,4.016286E0,-2.2788343E1,-1.0977739E2,-5.0633625E1,9.078899E0,-3.2227268E0,-6.957405E0,-6.933399E0,-1.8531399E0,-7.129224E-1,8.7996894E-1],"categories":[],"categories_nodes":[],"categories_segments":[],"categories_sizes":[],"default_left":[0,0,0,0,0,0,0,0,0,0,0,0,0],"id":0,"left_children":[1,3,5,-1,7,9,11,-1,-1,-1,-1,-1,-1],"loss_changes":[4.2484876E7,3.896736E6,2.4001418E7,0E0,4.202816E6,8.781856E6,1.5787579E7,0E0,0E0,0E0,0E0,0E0,0E0],"parents":[2147483647,0,0,1,1,2,2,4,4,5,5,6,6],"right_children":[2,4,6,-1,8,10,12,-1,-1,-1,-1,-1,-1],"split_conditions":[-1.749106E0,-2.1191046E0,-7.3851174E-1,-2.2788343E1,1.858695E-1,-4.392574E0,-5.906127E-1,-3.2227268E0,-6.957405E0,-6.933399E0,-1.8531399E0,-7.129224E-1,8.7996894E-1],"split_indices":[2,3,0,0,3,0,2,0,0,0,0,0,0],"split_type":[0,0,0,0,0,0,0,0,0,0,0,0,0],"sum_hessian":[8.9943E4,3.195E3,8.6748E4,3.2E1,3.163E3,7.354E3,7.9394E4,1.245E3,1.918E3,9.81E2,6.373E3,2.1234E4,5.816E4],"tree_param":{"num_deleted":"0","num_feature":"4","num_nodes":"13","size_leaf_vector":"1"}},{"base_weights":[-1.7038219E-1,-1.0765664E2,3.781301E0,-2.1540571E1,-1.04553635E2,2.2802582E1,-8.525105E0,-3.1344311E0,-6.6057754E0,-2.005388E0,1.2274045E0,-1.4149684E0,2.302239E-2],"categories":[],"categories_nodes":[],"categories_segments":[],"categories_sizes":[],"default_left":[0,0,0,0,0,0,0,0,0,0,0,0,0],"id":1,"left_children":[1,3,5,-1,7,9,11,-1,-1,-1,-1,-1,-1],"loss_changes":[3.8186016E7,3.151676E6,2.0298522E7,0E0,3.6368E6,3.741566E6,9.355186E6,0E0,0E0,0E0,0E0,0E0,0E0],"parents":[2147483647,0,0,1,1,2,2,4,4,5,5,6,6],"right_children":[2,4,6,-1,8,10,12,-1,-1,-1,-1,-1,-1],"split_conditions":[-1.749106E0,-2.1191046E0,-1.9319333E-1,-2.1540571E1,1.9319876E-1,-4.9876156E0,-5.906127E-1,-3.1344311E0,-6.6057754E0,-2.005388E0,1.2274045E0,-1.4149684E0,2.302239E-2],"split_indices":[2,3,3,0,3,1,2,0,0,0,0,0,0],"split_type":[0,0,0,0,0,0,0,0,0,0,0,0,0],"sum_hessian":[8.99E4,3.187E3,8.6713E4,2.9E1,3.158E3,3.4063E4,5.265E4,1.255E3,1.903E3,9.19E2,3.3144E4,1.6449E4,3.6201E4],"tree_param":{"num_deleted":"0","num_feature":"4","num_nodes":"13","size_leaf_vector":"1"}},{"base_weights":[-4.203551E-3,-1.01884605E2,3.7543778E0,-1.6900482E2,-8.408183E1,-4.0333027E1,9.369314E0,-2.0709177E1,-7.80189E0,-1.6699454E0,-5.9058228E0,-6.5855904E0,-1.5046092E0,6.503075E-1,-2.1722085E0],"categories":[],"categories_nodes":[],"categories_segments":[],"categories_sizes":[],"default_left":[0,0,0,0,0,0,0,0,0,0,0,0,0,0,0],"id":2,"left_children":[1,3,5,7,9,11,13,-1,-1,-1,-1,-1,-1,-1,-1],"loss_changes":[3.4397084E7,3.804746E6,2.1445704E7,2.062228E6,4.356774E6,9.154655E6,1.4760483E7,0E0,0E0,0E0,0E0,0E0,0E0,0E0,0E0],"parents":[2147483647,0,0,1,1,2,2,3,3,4,4,5,5,6,6],"right_children":[2,4,6,8,10,12,14,-1,-1,-1,-1,-1,-1,-1,-1],"split_conditions":[-1.749106E0,-9.165564E-1,-6.4610803E-1,-2.1191046E0,1.858695E-1,-4.392574E0,7.8390867E-1,-2.0709177E1,-7.80189E0,-1.6699454E0,-5.9058228E0,-6.5855904E0,-1.5046092E0,6.503075E-1,-2.1722085E0],"split_indices":[2,0,0,3,3,0,3,0,0,0,0,0,0,0,0],"split_type":[0,0,0,0,0,0,0,0,0,0,0,0,0,0,0],"sum_hessian":[8.9825E4,3.195E3,8.663E4,6.68E2,2.527E3,9.786E3,7.6844E4,3.2E1,6.36E2,1.016E3,1.511E3,9.85E2,8.801E3,7.1894E4,4.95E3],"tree_param":{"num_deleted":"0","num_feature":"4","num_nodes":"15","size_leaf_vector":"1"}},{"base_weights":[1.3309252E-1,-1.0462568E2,3.0599294E0,-1.677515E2,-9.348369E1,8.041473E0,-4.280788E1,-1.1982938E1,-6.62854E0,-1.0973E0,-5.3688297E0,1.2364601E0,-5.7487577E-2,-3.6530285E0,-1.5759275E0],"categories":[],"categories_nodes":[],"categories_segments":[],"categories_sizes":[],"default_left":[0,0,0,0,0,0,0,0,0,0,0,0,0,0,0],"id":3,"left_children":[1,3,5,7,9,11,13,-1,-1,-1,-1,-1,-1,-1,-1],"loss_changes":[2.7615916E7,1.706088E6,2.0020856E7,8.94079E5,2.067856E6,1.2122777E7,2.929402E6,0E0,0E0,0E0,0E0,0E0,0E0,0E0,0E0],"parents":[2147483647,0,0,1,1,2,2,3,3,4,4,5,5,6,6],"right_children":[2,4,6,8,10,12,14,-1,-1,-1,-1,-1,-1,-1,-1],"split_conditions":[-1.1587449E0,-7.6151195E0,7.137107E-1,-2.4201605E0,-1.4543617E-1,-2.7334335E-1,-1.2595975E-1,-1.1982938E1,-6.62854E0,-1.0973E0,-5.3688297E0,1.2364601E0,-5.7487577E-2,-3.6530285E0,-1.5759275E0],"split_indices":[0,0,3,1,3,3,1,0,0,0,0,0,0,0,0],"split_type":[0,0,0,0,0,0,0,0,0,0,0,0,0,0,0],"sum_hessian":[9.0066E4,2.447E3,8.7619E4,3.65E2,2.082E3,7.9036E4,8.583E3,1.18E2,2.47E2,3.39E2,1.743E3,2.807E4,5.0966E4,2.331E3,6.252E3],"tree_param":{"num_deleted":"0","num_feature":"4","num_nodes":"15","size_leaf_vector":"1"}},{"base_weights":[9.747772E-2,-8.597127E1,3.9813437E0,-1.4628688E2,-7.218759E1,2.0512156E1,-6.819039E0,-1.8649733E1,-6.7451806E0,-1.2358702E0,-5.074025E0,-1.8791336E0,1.10301E0,-1.2629058E0,6.350066E-2],"categories":[],"categories_nodes":[],"categories_segments":[],"categories_sizes":[],"default_left":[0,0,0,0,0,0,0,0,0,0,0,0,0,0,0],"id":4,"left_children":[1,3,5,7,9,11,13,-1,-1,-1,-1,-1,-1,-1,-1],"loss_changes":[3.0132288E7,3.225114E6,1.5398961E7,1.815458E6,4.405491E6,3.066025E6,7.780985E6,0E0,0E0,0E0,0E0,0E0,0E0,0E0,0E0],"parents":[2147483647,0,0,1,1,2,2,3,3,4,4,5,5,6,6],"right_children":[2,4,6,8,10,12,14,-1,-1,-1,-1,-1,-1,-1,-1],"split_conditions":[-1.6245748E0,2.4698917E-2,-1.9319333E-1,-2.1191046E0,1.858695E-1,-4.9876156E0,-5.906127E-1,-1.8649733E1,-6.7451806E0,-1.2358702E0,-5.074025E0,-1.8791336E0,1.10301E0,-1.2629058E0,6.350066E-2],"split_indices":[2,1,3,3,3,1,2,0,0,0,0,0,0,0,0],"split_type":[0,0,0,0,0,0,0,0,0,0,0,0,0,0,0],"sum_hessian":[9.0139E4,3.891E3,8.6248E4,7.22E2,3.169E3,3.4082E4,5.2166E4,3.3E1,6.89E2,1.21E3,1.959E3,8.84E2,3.3198E4,1.5906E4,3.626E4],"tree_param":{"num_deleted":"0","num_feature":"4","num_nodes":"15","size_leaf_vector":"1"}},{"base_weights":[-7.0309445E-2,-9.1379E1,3.30416E0,-1.8301123E1,-8.8755135E1,1.9037016E1,-7.3724217E0,-2.5452929E0,-5.524471E0,-1.8455333E0,1.0268921E0,-1.3612434E0,1.0437182E-3],"categories":[],"categories_nodes":[],"categories_segments":[],"categories_sizes":[],"default_left":[0,0,0,0,0,0,0,0,0,0,0,0,0],"id":5,"left_children":[1,3,5,-1,7,9,11,-1,-1,-1,-1,-1,-1],"loss_changes":[2.7699846E7,2.276362E6,1.4562741E7,0E0,2.6062E6,2.943738E6,7.580638E6,0E0,0E0,0E0,0E0,0E0,0E0],"parents":[2147483647,0,0,1,1,2,2,4,4,5,5,6,6],"right_children":[2,4,6,-1,8,10,12,-1,-1,-1,-1,-1,-1],"split_conditions":[-1.749106E0,-2.1191046E0,-1.7991027E-1,-1.8301123E1,1.4280297E-1,-4.9876156E0,1.4124386E-1,-2.5452929E0,-5.524471E0,-1.8455333E0,1.0268921E0,-1.3612434E0,1.0437182E-3],"split_indices":[2,3,3,0,3,1,1,0,0,0,0,0,0],"split_type":[0,0,0,0,0,0,0,0,0,0,0,0,0],"sum_hessian":[8.9898E4,3.203E3,8.6695E4,2.9E1,3.174E3,3.5048E4,5.1647E4,1.159E3,2.015E3,9.15E2,3.4133E4,1.4014E4,3.7633E4],"tree_param":{"num_deleted":"0","num_feature":"4","num_nodes":"13","size_leaf_vector":"1"}},{"base_weights":[5.2700423E-2,-7.446477E1,3.718918E0,-1.3270248E2,-6.170322E1,1.7263159E1,-7.1888685E0,-1.6984903E1,-6.155534E0,-9.1662645E-1,-4.3069925E0,3.225251E-1,1.208279E0,-1.434188E0,1.9787507E-2],"categories":[],"categories_nodes":[],"categories_segments":[],"categories_sizes":[],"default_left":[0,0,0,0,0,0,0,0,0,0,0,0,0,0,0],"id":6,"left_children":[1,3,5,7,9,11,13,-1,-1,-1,-1,-1,-1,-1,-1],"loss_changes":[2.4597584E7,3.129596E6,1.2678088E7,1.463115E6,3.670733E6,2.856885E6,7.749508E6,0E0,0E0,0E0,0E0,0E0,0E0,0E0,0E0],"parents":[2147483647,0,0,1,1,2,2,3,3,4,4,5,5,6,6],"right_children":[2,4,6,8,10,12,14,-1,-1,-1,-1,-1,-1,-1,-1],"split_conditions":[-1.5699768E0,2.4698917E-2,-1.3614033E-1,-2.1191046E0,1.2251411E-1,9.90273E-2,1.4124386E-1,-1.6984903E1,-6.155534E0,-9.1662645E-1,-4.3069925E0,3.225251E-1,1.208279E0,-1.434188E0,1.9787507E-2],"split_indices":[2,1,3,3,3,1,1,0,0,0,0,0,0,0,0],"split_type":[0,0,0,0,0,0,0,0,0,0,0,0,0,0,0],"sum_hessian":[9.0034E4,4.221E3,8.5813E4,7.57E2,3.464E3,3.828E4,4.7533E4,3.2E1,7.25E2,1.249E3,2.215E3,1.4916E4,2.3364E4,1.2397E4,3.5136E4],"tree_param":{"num_deleted":"0","num_feature":"4","num_nodes":"15","size_leaf_vector":"1"}},{"base_weights":[1.4280027E-1,-8.304364E1,3.1602468E0,-1.3723268E2,-6.798184E1,-3.519838E1,8.016912E0,-1.67992E1,-6.396705E0,-1.2015879E0,-4.8806586E0,-5.8683453E0,-1.3178676E0,-6.0900885E-1,7.747671E-1],"categories":[],"categories_nodes":[],"categories_segments":[],"categories_sizes":[],"default_left":[0,0,0,0,0,0,0,0,0,0,0,0,0,0,0],"id":7,"left_children":[1,3,5,7,9,11,13,-1,-1,-1,-1,-1,-1,-1,-1],"loss_changes":[2.2617318E7,2.564894E6,1.6198818E7,1.222922E6,3.214321E6,7.095803E6,1.1657651E7,0E0,0E0,0E0,0E0,0E0,0E0,0E0,0E0],"parents":[2147483647,0,0,1,1,2,2,3,3,4,4,5,5,6,6],"right_children":[2,4,6,8,10,12,14,-1,-1,-1,-1,-1,-1,-1,-1],"split_conditions":[-1.749106E0,-8.8579375E-1,-6.4610803E-1,-2.1191046E0,1.858695E-1,-4.392574E0,-5.906127E-1,-1.67992E1,-6.396705E0,-1.2015879E0,-4.8806586E0,-5.8683453E0,-1.3178676E0,-6.0900885E-1,7.747671E-1],"split_indices":[2,0,0,3,3,0,2,0,0,0,0,0,0,0,0],"split_type":[0,0,0,0,0,0,0,0,0,0,0,0,0,0,0],"sum_hessian":[9.0103E4,3.153E3,8.695E4,6.84E2,2.469E3,9.771E3,7.7179E4,2.9E1,6.55E2,9.95E2,1.474E3,9.48E2,8.823E3,2.0855E4,5.6324E4],"tree_param":{"num_deleted":"0","num_feature":"4","num_nodes":"15","size_leaf_vector":"1"}},{"base_weights":[1.0498065E-1,-5.518443E1,4.259142E0,-8.994076E1,-3.3123756E1,8.4482155E0,-4.294797E1,-7.3257327E0,-4.02861E0,1.4779356E-1,-2.2285802E0,5.211331E-1,-1.9727554E0,-3.6617131E0,-1.4246463E0],"categories":[],"categories_nodes":[],"categories_segments":[],"categories_sizes":[],"default_left":[0,0,0,0,0,0,0,0,0,0,0,0,0,0,0],"id":8,"left_children":[1,3,5,7,9,11,13,-1,-1,-1,-1,-1,-1,-1,-1],"loss_changes":[2.0692432E7,4.824456E6,1.657136E7,1.28353E6,1.5915565E6,7.2801445E6,2.988007E6,0E0,0E0,0E0,0E0,0E0,0E0,0E0,0E0],"parents":[2147483647,0,0,1,1,2,2,3,3,4,4,5,5,6,6],"right_children":[2,4,6,8,10,12,14,-1,-1,-1,-1,-1,-1,-1,-1],"split_conditions":[-7.6967704E-1,-1.1587449E0,7.4720216E-1,-7.6151195E0,-2.2465004E-1,9.4711125E-1,-2.9600661E-2,-7.3257327E0,-4.02861E0,1.4779356E-1,-2.2285802E0,5.211331E-1,-1.9727554E0,-3.6617131E0,-1.4246463E0],"split_indices":[0,0,3,0,3,0,1,0,0,0,0,0,0,0,0],"split_type":[0,0,0,0,0,0,0,0,0,0,0,0,0,0,0],"sum_hessian":[9.009E4,6.295E3,8.3795E4,2.443E3,3.852E3,7.6966E4,6.829E3,3.45E2,2.098E3,9.28E2,2.924E3,7.392E4,3.046E3,2.205E3,4.624E3],"tree_param":{"num_deleted":"0","num_feature":"4","num_nodes":"15","size_leaf_vector":"1"}},{"base_weights":[1.6124462E-1,-6.9461266E1,3.244973E0,-1.2370302E2,-5.7077156E1,-3.19538E1,7.6942096E0,-1.1499683E1,-5.8501945E0,-1.8702635E0,-4.766179E0,-5.388917E0,-1.1920162E0,-5.541567E-1,7.113202E-1],"categories":[],"categories_nodes":[],"categories_segments":[],"categories_sizes":[],"default_left":[0,0,0,0,0,0,0,0,0,0,0,0,0,0,0],"id":9,"left_children":[1,3,5,7,9,11,13,-1,-1,-1,-1,-1,-1,-1,-1],"loss_changes":[1.9331744E7,2.558278E6,1.3503427E7,4.77902E5,2.337074E6,5.950098E6,9.389326E6,0E0,0E0,0E0,0E0,0E0,0E0,0E0,0E0],"parents":[2147483647,0,0,1,1,2,2,3,3,4,4,5,5,6,6],"right_children":[2,4,6,8,10,12,14,-1,-1,-1,-1,-1,-1,-1,-1],"split_conditions":[-1.6245748E0,-8.8579375E-1,-6.4610803E-1,-7.6151195E0,5.137573E-1,-4.392574E0,-6.014365E-1,-1.1499683E1,-5.8501945E0,-1.8702635E0,-4.766179E0,-5.388917E0,-1.1920162E0,-5.541567E-1,7.113202E-1],"split_indices":[2,0,0,0,0,0,2,0,0,0,0,0,0,0,0],"split_type":[0,0,0,0,0,0,0,0,0,0,0,0,0,0,0],"sum_hessian":[9.004E4,3.818E3,8.6222E4,7.08E2,3.11E3,9.675E3,7.6547E4,4E1,6.68E2,2.055E3,1.055E3,9.34E2,8.741E3,1.9756E4,5.6791E4],"tree_param":{"num_deleted":"0","num_feature":"4","num_nodes":"15","size_leaf_vector":"1"}},{"base_weights":[7.0255965E-2,-6.2532677E1,3.1694908E0,-1.1680268E2,-5.087769E1,-3.0680567E1,7.4941764E0,-1.4221628E1,-5.4949074E0,-1.0126313E0,-3.6430542E0,-5.1370625E0,-1.1429342E0,5.17985E-1,-1.7547354E0],"categories":[],"categories_nodes":[],"categories_segments":[],"categories_sizes":[],"default_left":[0,0,0,0,0,0,0,0,0,0,0,0,0,0,0],"id":10,"left_children":[1,3,5,7,9,11,13,-1,-1,-1,-1,-1,-1,-1,-1],"loss_changes":[1.7443862E7,2.676541E6,1.2540947E7,8.356E5,2.350152E6,5.467866E6,9.27072E6,0E0,0E0,0E0,0E0,0E0,0E0,0E0,0E0],"parents":[2147483647,0,0,1,1,2,2,3,3,4,4,5,5,6,6],"right_children":[2,4,6,8,10,12,14,-1,-1,-1,-1,-1,-1,-1,-1],"split_conditions":[-1.5699768E0,-8.8579375E-1,-6.4610803E-1,-2.1191046E0,1.4280297E-1,-4.392574E0,7.8390867E-1,-1.4221628E1,-5.4949074E0,-1.0126313E0,-3.6430542E0,-5.1370625E0,-1.1429342E0,5.17985E-1,-1.7547354E0],"split_indices":[2,0,0,3,3,0,3,0,0,0,0,0,0,0,0],"split_type":[0,0,0,0,0,0,0,0,0,0,0,0,0,0,0],"sum_hessian":[8.9905E4,4.24E3,8.5665E4,7.48E2,3.492E3,9.704E3,7.5961E4,2.8E1,7.2E2,1.46E3,2.032E3,9.49E2,8.755E3,7.1173E4,4.788E3],"tree_param":{"num_deleted":"0","num_feature":"4","num_nodes":"15","size_leaf_vector":"1"}},{"base_weights":[3.730632E-2,-4.7649174E1,3.8547256E0,-1.1230968E2,-3.8228916E1,-2.695226E1,8.30467E0,-1.4009203E1,-5.192474E0,-1.3236717E0,-3.6738536E0,1.2045833E-1,-2.236379E0,5.604791E-1,-1.6794475E0],"categories":[],"categories_nodes":[],"categories_segments":[],"categories_sizes":[],"default_left":[0,0,0,0,0,0,0,0,0,0,0,0,0,0,0],"id":11,"left_children":[1,3,5,7,9,11,13,-1,-1,-1,-1,-1,-1,-1,-1],"loss_changes":[1.6349855E7,4.050593E6,1.1400301E7,1.172398E6,2.4063E6,5.4780655E6,8.843262E6,0E0,0E0,0E0,0E0,0E0,0E0,0E0,0E0],"parents":[2147483647,0,0,1,1,2,2,3,3,4,4,5,5,6,6],"right_children":[2,4,6,8,10,12,14,-1,-1,-1,-1,-1,-1,-1,-1],"split_conditions":[-1.360087E0,-7.6967704E-1,-5.4506874E-1,-2.1191046E0,6.9180995E-1,-1.5369664E-1,7.8390867E-1,-1.4009203E1,-5.192474E0,-1.3236717E0,-3.6738536E0,1.2045833E-1,-2.236379E0,5.604791E-1,-1.6794475E0],"split_indices":[2,0,0,3,3,3,3,0,0,0,0,0,0,0,0],"split_type":[0,0,0,0,0,0,0,0,0,0,0,0,0,0,0],"sum_hessian":[8.9813E4,6.656E3,8.3157E4,8.45E2,5.811E3,1.0495E4,7.2662E4,3.9E1,8.06E2,4.359E3,1.452E3,3.958E3,6.537E3,6.7951E4,4.711E3],"tree_param":{"num_deleted":"0","num_feature":"4","num_nodes":"15","size_leaf_vector":"1"}},{"base_weights":[-9.143218E-2,-6.7322365E1,2.3494806E0,-1.0972902E2,-5.5997105E1,-7.018648E1,4.1017203E0,-1.1540379E1,-5.0701747E0,-1.8486115E0,-4.7208276E0,-4.748957E0,-2.4097636E0,-6.3026875E-1,4.946799E-1],"categories":[],"categories_nodes":[],"categories_segments":[],"categories_sizes":[],"default_left":[0,0,0,0,0,0,0,0,0,0,0,0,0,0,0],"id":12,"left_children":[1,3,5,7,9,11,13,-1,-1,-1,-1,-1,-1,-1,-1],"loss_changes":[1.4801765E7,1.51148E6,1.1062716E7,6.469105E5,1.820885E6,1.114746E6,8.223736E6,0E0,0E0,0E0,0E0,0E0,0E0,0E0,0E0],"parents":[2147483647,0,0,1,1,2,2,3,3,4,4,5,5,6,6],"right_children":[2,4,6,8,10,12,14,-1,-1,-1,-1,-1,-1,-1,-1],"split_conditions":[-1.749106E0,-8.8579375E-1,-1.1587449E0,-7.6151195E0,-1.7654476E0,-4.392574E0,-6.014365E-1,-1.1540379E1,-5.0701747E0,-1.8486115E0,-4.7208276E0,-4.748957E0,-2.4097636E0,-6.3026875E-1,4.946799E-1],"split_indices":[2,0,0,0,2,0,2,0,0,0,0,0,0,0,0],"split_type":[0,0,0,0,0,0,0,0,0,0,0,0,0,0,0],"sum_hessian":[9.0195E4,3.159E3,8.7036E4,6.64E2,2.495E3,2.052E3,8.4984E4,4.1E1,6.23E2,1.67E3,8.25E2,9.63E2,1.089E3,2.1877E4,6.3107E4],"tree_param":{"num_deleted":"0","num_feature":"4","num_nodes":"15","size_leaf_vector":"1"}},{"base_weights":[-1.068517E-1,-6.412683E1,2.2561731E0,-1.0513514E2,-5.3201546E1,-2.6646593E1,6.348784E0,-1.0515627E1,-4.907823E0,-1.7498134E0,-4.452904E0,-4.5025687E0,-1.0204725E0,-4.9871355E-1,6.2243843E-1],"categories":[],"categories_nodes":[],"categories_segments":[],"categories_sizes":[],"default_left":[0,0,0,0,0,0,0,0,0,0,0,0,0,0,0],"id":13,"left_children":[1,3,5,7,9,11,13,-1,-1,-1,-1,-1,-1,-1,-1],"loss_changes":[1.3616481E7,1.429871E6,1.026802E7,4.733075E5,1.6497065E6,4.2561195E6,7.571258E6,0E0,0E0,0E0,0E0,0E0,0E0,0E0,0E0],"parents":[2147483647,0,0,1,1,2,2,3,3,4,4,5,5,6,6],"right_children":[2,4,6,8,10,12,14,-1,-1,-1,-1,-1,-1,-1,-1],"split_conditions":[-1.749106E0,-9.165564E-1,-5.4506874E-1,-2.4201605E0,-1.7654476E0,-4.392574E0,-5.906127E-1,-1.0515627E1,-4.907823E0,-1.7498134E0,-4.452904E0,-4.5025687E0,-1.0204725E0,-4.9871355E-1,6.2243843E-1],"split_indices":[2,0,0,1,2,0,2,0,0,0,0,0,0,0,0],"split_type":[0,0,0,0,0,0,0,0,0,0,0,0,0,0,0],"sum_hessian":[9.0006E4,3.203E3,8.6803E4,6.72E2,2.531E3,1.0766E4,7.6037E4,4E1,6.32E2,1.68E3,8.51E2,9.63E2,9.803E3,2.0685E4,5.5352E4],"tree_param":{"num_deleted":"0","num_feature":"4","num_nodes":"15","size_leaf_vector":"1"}},{"base_weights":[1.4715031E-2,-3.763978E1,3.7606814E0,-6.957389E1,-2.3856024E1,7.34314E0,-3.4603046E1,-5.945595E0,-3.0672576E0,-4.4273725E0,-8.7942785E-1,4.645238E-1,-1.9607912E0,-2.9159207E0,-1.8052118E-1],"categories":[],"categories_nodes":[],"categories_segments":[],"categories_sizes":[],"default_left":[0,0,0,0,0,0,0,0,0,0,0,0,0,0,0],"id":14,"left_children":[1,3,5,7,9,11,13,-1,-1,-1,-1,-1,-1,-1,-1],"loss_changes":[1.2737881E7,3.594975E6,1.1288597E7,9.92639E5,2.3131538E6,6.811277E6,5.155818E6,0E0,0E0,0E0,0E0,0E0,0E0,0E0,0E0],"parents":[2147483647,0,0,1,1,2,2,3,3,4,4,5,5,6,6],"right_children":[2,4,6,8,10,12,14,-1,-1,-1,-1,-1,-1,-1,-1],"split_conditions":[-7.3851174E-1,-1.1587449E0,7.354908E-1,-7.6151195E0,-1.239493E0,9.4711125E-1,-5.906127E-1,-5.945595E0,-3.0672576E0,-4.4273725E0,-8.7942785E-1,4.645238E-1,-1.9607912E0,-2.9159207E0,-1.8052118E-1],"split_indices":[0,0,3,0,2,0,2,0,0,0,0,0,0,0,0],"split_type":[0,0,0,0,0,0,0,0,0,0,0,0,0,0,0],"sum_hessian":[9.0304E4,8.17E3,8.2134E4,2.462E3,5.708E3,7.512E4,7.014E3,3.5E2,2.112E3,5.03E2,5.205E3,7.2105E4,3.015E3,3.973E3,3.041E3],"tree_param":{"num_deleted":"0","num_feature":"4","num_nodes":"15","size_leaf_vector":"1"}},{"base_weights":[-2.5880897E-2,-3.8760216E1,3.4645896E0,-9.323938E1,-3.1561132E1,-2.2934525E1,7.2798057E0,-9.225024E0,-4.2872605E0,-2.427133E0,-1.0500035E0,-9.11858E-1,-4.98516E0,4.643092E-1,-1.9793996E0],"categories":[],"categories_nodes":[],"categories_segments":[],"categories_sizes":[],"default_left":[0,0,0,0,0,0,0,0,0,0,0,0,0,0,0],"id":15,"left_children":[1,3,5,7,9,11,13,-1,-1,-1,-1,-1,-1,-1,-1],"loss_changes":[1.2170125E7,2.915406E6,8.31688E6,5.77801E5,1.1779745E6,3.758255E6,6.784765E6,0E0,0E0,0E0,0E0,0E0,0E0,0E0,0E0],"parents":[2147483647,0,0,1,1,2,2,3,3,4,4,5,5,6,6],"right_children":[2,4,6,8,10,12,14,-1,-1,-1,-1,-1,-1,-1,-1],"split_conditions":[-1.3201314E0,-7.6967704E-1,-5.4506874E-1,-7.6151195E0,-1.749106E0,1.5965468E-1,9.4711125E-1,-9.225024E0,-4.2872605E0,-2.427133E0,-1.0500035E0,-9.11858E-1,-4.98516E0,4.643092E-1,-1.9793996E0],"split_indices":[2,0,0,0,2,1,0,0,0,0,0,0,0,0,0],"split_type":[0,0,0,0,0,0,0,0,0,0,0,0,0,0,0],"sum_hessian":[9.0013E4,7.44E3,8.2573E4,8.67E2,6.573E3,1.0426E4,7.2147E4,6.4E1,8.03E2,2.519E3,4.054E3,9.826E3,6E2,6.9186E4,2.961E3],"tree_param":{"num_deleted":"0","num_feature":"4","num_nodes":"15","size_leaf_vector":"1"}},{"base_weights":[1.0490607E-1,-1.8202196E1,6.950297E0,-1.1318247E1,-5.5548058E1,-2.0242939E1,1.0806013E1,-3.6894517E0,-3.2691094E-1,-3.5701332E0,-2.5037029E0,4.8503003E-1,-1.6915292E0,6.299006E-1,-1.8585557E0],"categories":[],"categories_nodes":[],"categories_segments":[],"categories_sizes":[],"default_left":[0,0,0,0,0,0,0,0,0,0,0,0,0,0,0],"id":16,"left_children":[1,3,5,7,9,11,13,-1,-1,-1,-1,-1,-1,-1,-1],"loss_changes":[1.1278736E7,6.2964545E6,6.868482E6,6.1757045E6,3.27249E5,3.310154E6,4.933019E6,0E0,0E0,0E0,0E0,0E0,0E0,0E0,0E0],"parents":[2147483647,0,0,1,1,2,2,3,3,4,4,5,5,6,6],"right_children":[2,4,6,8,10,12,14,-1,-1,-1,-1,-1,-1,-1,-1],"split_conditions":[-6.1917555E-1,7.4720216E-1,-6.4610803E-1,-7.6967704E-1,-1.749106E0,-2.2465004E-1,9.4711125E-1,-3.6894517E0,-3.2691094E-1,-3.5701332E0,-2.5037029E0,4.8503003E-1,-1.6915292E0,6.299006E-1,-1.8585557E0],"split_indices":[2,3,0,0,2,3,0,0,0,0,0,0,0,0,0],"split_type":[0,0,0,0,0,0,0,0,0,0,0,0,0,0,0],"sum_hessian":[8.9998E4,2.4493E4,6.5505E4,2.0682E4,3.811E3,8.134E3,5.7371E4,1.469E3,1.9213E4,9.75E2,2.836E3,2.539E3,5.595E3,5.5306E4,2.065E3],"tree_param":{"num_deleted":"0","num_feature":"4","num_nodes":"15","size_leaf_vector":"1"}},{"base_weights":[-7.5373417E-3,1.3915368E1,-8.3972845E0,-1.1147059E2,1.4735497E1,-3.908083E1,-3.1390638E0,-1.121954E1,-3.7144687E0,1.2980835E0,4.20957E-1,-3.3101661E0,-1.5316982E0,-9.98763E-1,3.0807662E-1],"categories":[],"categories_nodes":[],"categories_segments":[],"categories_sizes":[],"default_left":[0,0,0,0,0,0,0,0,0,0,0,0,0,0,0],"id":17,"left_children":[1,3,5,7,9,11,13,-1,-1,-1,-1,-1,-1,-1,-1],"loss_changes":[1.05117E7,3.481181E6,9.059645E6,9.069725E5,2.3835805E6,1.880019E6,7.5067325E6,0E0,0E0,0E0,0E0,0E0,0E0,0E0,0E0],"parents":[2147483647,0,0,1,1,2,2,3,3,4,4,5,5,6,6],"right_children":[2,4,6,8,10,12,14,-1,-1,-1,-1,-1,-1,-1,-1],"split_conditions":[-2.020154E-1,-7.6151195E0,-5.4506874E-1,-7.813871E-1,-5.9819734E-1,-1.1587449E0,-5.906127E-1,-1.121954E1,-3.7144687E0,1.2980835E0,4.20957E-1,-3.3101661E0,-1.5316982E0,-9.98763E-1,3.0807662E-1],"split_indices":[3,0,0,2,3,0,2,0,0,0,0,0,0,0,0],"split_type":[0,0,0,0,0,0,0,0,0,0,0,0,0,0,0],"sum_hessian":[8.9988E4,3.3836E4,5.6152E4,2.19E2,3.3617E4,8.214E3,4.7938E4,5.3E1,1.66E2,1.2103E4,2.1514E4,1.949E3,6.265E3,1.7058E4,3.088E4],"tree_param":{"num_deleted":"0","num_feature":"4","num_nodes":"15","size_leaf_vector":"1"}},{"base_weights":[3.1572916E-2,1.1713608E1,-9.086991E0,-1.00489456E2,1.2366037E1,-3.8948006E1,-4.0015354E0,-5.8129973E0,-2.02521E0,-2.3953016E0,6.7579985E-1,-1.6427968E0,-4.23779E0,1.580265E-1,-1.2912608E0],"categories":[],"categories_nodes":[],"categories_segments":[],"categories_sizes":[],"default_left":[0,0,0,0,0,0,0,0,0,0,0,0,0,0,0],"id":18,"left_children":[1,3,5,7,9,11,13,-1,-1,-1,-1,-1,-1,-1,-1],"loss_changes":[9.578796E6,2.886961E6,7.668916E6,2.1096275E5,2.717128E6,2.048047E6,6.745168E6,0E0,0E0,0E0,0E0,0E0,0E0,0E0,0E0],"parents":[2147483647,0,0,1,1,2,2,3,3,4,4,5,5,6,6],"right_children":[2,4,6,8,10,12,14,-1,-1,-1,-1,-1,-1,-1,-1],"split_conditions":[-1.3106395E-1,-7.6151195E0,-5.4506874E-1,-2.1191046E0,-4.996519E0,1.1783261E-1,5.844828E-1,-5.8129973E0,-2.02521E0,-2.3953016E0,6.7579985E-1,-1.6427968E0,-4.23779E0,1.580265E-1,-1.2912608E0],"split_indices":[3,0,0,3,1,1,1,0,0,0,0,0,0,0,0],"split_type":[0,0,0,0,0,0,0,0,0,0,0,0,0,0,0],"sum_hessian":[8.992E4,3.9419E4,5.0501E4,2.27E2,3.9192E4,7.348E3,4.3153E4,1.79E2,4.8E1,7.33E2,3.8459E4,6.487E3,8.61E2,3.2491E4,1.0662E4],"tree_param":{"num_deleted":"0","num_feature":"4","num_nodes":"15","size_leaf_vector":"1"}},{"base_weights":[-6.739905E-2,-3.1928602E1,3.2411842E0,-8.012602E1,-2.5242819E1,-5.3210667E1,4.614002E0,-8.279733E0,-3.714599E0,-4.1990313E-1,-1.7470297E0,-3.7250726E0,-1.6889927E0,3.048196E-1,-1.7201637E0],"categories":[],"categories_nodes":[],"categories_segments":[],"categories_sizes":[],"default_left":[0,0,0,0,0,0,0,0,0,0,0,0,0,0,0],"id":19,"left_children":[1,3,5,7,9,11,13,-1,-1,-1,-1,-1,-1,-1,-1],"loss_changes":[9.478747E6,2.723774E6,6.31316E6,5.012605E5,1.213442E6,7.97563E5,4.5998965E6,0E0,0E0,0E0,0E0,0E0,0E0,0E0,0E0],"parents":[2147483647,0,0,1,1,2,2,3,3,4,4,5,5,6,6],"right_children":[2,4,6,8,10,12,14,-1,-1,-1,-1,-1,-1,-1,-1],"split_conditions":[-1.2587848E0,1.3444236E-2,-1.1587449E0,-7.6151195E0,4.5358598E-1,-4.392574E0,9.4711125E-1,-8.279733E0,-3.714599E0,-4.1990313E-1,-1.7470297E0,-3.7250726E0,-1.6889927E0,3.048196E-1,-1.7201637E0],"split_indices":[2,1,0,0,1,0,0,0,0,0,0,0,0,0,0],"split_type":[0,0,0,0,0,0,0,0,0,0,0,0,0,0,0],"sum_hessian":[8.9916E4,8.458E3,8.1458E4,1.029E3,7.429E3,1.933E3,7.9525E4,6.4E1,9.65E2,2.715E3,4.714E3,9.21E2,1.012E3,7.6615E4,2.91E3],"tree_param":{"num_deleted":"0","num_feature":"4","num_nodes":"15","size_leaf_vector":"1"}},{"base_weights":[-9.2386425E-2,-1.5769493E1,5.949779E0,-5.0777325E1,-7.7148495E0,1.6308384E1,8.215794E-1,-1.4876679E0,-3.1956208E0,5.436378E-1,-8.4447336E-1,1.3337436E0,4.39667E-1,2.2720869E-1,-9.438672E-1],"categories":[],"categories_nodes":[],"categories_segments":[],"categories_sizes":[],"default_left":[0,0,0,0,0,0,0,0,0,0,0,0,0,0,0],"id":20,"left_children":[1,3,5,7,9,11,13,-1,-1,-1,-1,-1,-1,-1,-1],"loss_changes":[8.527026E6,7.0611175E6,3.451628E6,1.291583E6,3.47226E6,1.6759575E6,3.1872008E6,0E0,0E0,0E0,0E0,0E0,0E0,0E0,0E0],"parents":[2147483647,0,0,1,1,2,2,3,3,4,4,5,5,6,6],"right_children":[2,4,6,8,10,12,14,-1,-1,-1,-1,-1,-1,-1,-1],"split_conditions":[-6.091447E-1,1.3444236E-2,-3.0975333E-1,-1.8910913E-1,-8.902722E-2,6.2788963E-1,5.844828E-1,-1.4876679E0,-3.1956208E0,5.436378E-1,-8.4447336E-1,1.3337436E0,4.39667E-1,2.2720869E-1,-9.438672E-1],"split_indices":[2,1,3,1,3,2,1,0,0,0,0,0,0,0,0],"split_type":[0,0,0,0,0,0,0,0,0,0,0,0,0,0,0],"sum_hessian":[9.0018E4,2.5042E4,6.4976E4,4.683E3,2.0359E4,2.1515E4,4.3461E4,1.802E3,2.881E3,6.728E3,1.3631E4,9.041E3,1.2474E4,3.6554E4,6.907E3],"tree_param":{"num_deleted":"0","num_feature":"4","num_nodes":"15","size_leaf_vector":"1"}},{"base_weights":[8.990512E-2,-2.7742538E1,3.394485E0,-7.464603E1,-2.2510233E1,1.5373268E1,-2.312718E0,-1.0135364E1,-3.3837972E0,-7.568594E-1,-2.5852246E0,1.139691E0,3.978047E-1,-1.3669083E0,9.253722E-2],"categories":[],"categories_nodes":[],"categories_segments":[],"categories_sizes":[],"default_left":[0,0,0,0,0,0,0,0,0,0,0,0,0,0,0],"id":21,"left_children":[1,3,5,7,9,11,13,-1,-1,-1,-1,-1,-1,-1,-1],"loss_changes":[8.2848825E6,2.3444615E6,5.504678E6,8.42256E5,1.850796E6,1.429907E6,5.682296E6,0E0,0E0,0E0,0E0,0E0,0E0,0E0,0E0],"parents":[2147483647,0,0,1,1,2,2,3,3,4,4,5,5,6,6],"right_children":[2,4,6,8,10,12,14,-1,-1,-1,-1,-1,-1,-1,-1],"split_conditions":[-1.1996292E0,-8.0162615E-1,-2.9341334E-1,-2.1191046E0,6.8081117E-1,6.2788963E-1,-5.4506874E-1,-1.0135364E1,-3.3837972E0,-7.568594E-1,-2.5852246E0,1.139691E0,3.978047E-1,-1.3669083E0,9.253722E-2],"split_indices":[2,0,3,3,3,2,0,0,0,0,0,0,0,0,0],"split_type":[0,0,0,0,0,0,0,0,0,0,0,0,0,0,0],"sum_hessian":[9.0076E4,9.559E3,8.0517E4,9.58E2,8.601E3,2.5982E4,5.4535E4,4.8E1,9.1E2,6.868E3,1.733E3,1.2987E4,1.2995E4,7.778E3,4.6757E4],"tree_param":{"num_deleted":"0","num_feature":"4","num_nodes":"15","size_leaf_vector":"1"}},{"base_weights":[-1.0150315E-1,-2.2351095E1,3.5537517E0,-4.645922E1,-1.4388719E1,-4.898071E1,4.880302E0,-1.8592675E0,-3.5645401E0,-1.6620228E0,-4.4314596E-1,-3.4370275E0,-1.5889343E0,3.139008E-1,-1.5828956E0],"categories":[],"categories_nodes":[],"categories_segments":[],"categories_sizes":[],"default_left":[0,0,0,0,0,0,0,0,0,0,0,0,0,0,0],"id":22,"left_children":[1,3,5,7,9,11,13,-1,-1,-1,-1,-1,-1,-1,-1],"loss_changes":[7.292838E6,2.4281695E6,5.3676575E6,7.206635E5,9.9067925E5,6.42613E5,3.8367255E6,0E0,0E0,0E0,0E0,0E0,0E0,0E0,0E0],"parents":[2147483647,0,0,1,1,2,2,3,3,4,4,5,5,6,6],"right_children":[2,4,6,8,10,12,14,-1,-1,-1,-1,-1,-1,-1,-1],"split_conditions":[-1.0353398E0,-1.749106E0,-1.1587449E0,-1.7654476E0,-2.976661E-1,-4.392574E0,9.4711125E-1,-1.8592675E0,-3.5645401E0,-1.6620228E0,-4.4314596E-1,-3.4370275E0,-1.5889343E0,3.139008E-1,-1.5828956E0],"split_indices":[2,2,0,2,0,0,0,0,0,0,0,0,0,0,0],"split_type":[0,0,0,0,0,0,0,0,0,0,0,0,0,0,0],"sum_hessian":[8.967E4,1.2652E4,7.7018E4,3.14E3,9.512E3,1.896E3,7.5122E4,2.288E3,8.52E2,2.155E3,7.357E3,8.81E2,1.015E3,7.2355E4,2.767E3],"tree_param":{"num_deleted":"0","num_feature":"4","num_nodes":"15","size_leaf_vector":"1"}},{"base_weights":[3.2377888E-2,1.1337638E1,-6.764196E0,-8.886035E1,1.1995064E1,-3.2086952E1,-2.437382E0,-9.0810375E0,-2.803901E0,1.2356561E0,3.685641E-1,-1.747123E0,1.6269044E0,8.197741E-2,-1.6363726E0],"categories":[],"categories_nodes":[],"categories_segments":[],"categories_sizes":[],"default_left":[0,0,0,0,0,0,0,0,0,0,0,0,0,0,0],"id":23,"left_children":[1,3,5,7,9,11,13,-1,-1,-1,-1,-1,-1,-1,-1],"loss_changes":[6.903117E6,2.2230785E6,6.147605E6,6.587896E5,1.970564E6,1.512129E6,5.9179675E6,0E0,0E0,0E0,0E0,0E0,0E0,0E0,0E0],"parents":[2147483647,0,0,1,1,2,2,3,3,4,4,5,5,6,6],"right_children":[2,4,6,8,10,12,14,-1,-1,-1,-1,-1,-1,-1,-1],"split_conditions":[-2.020154E-1,-7.6151195E0,-5.4506874E-1,-4.501478E-1,-7.115911E-1,1.3088889E0,7.8390867E-1,-9.0810375E0,-2.803901E0,1.2356561E0,3.685641E-1,-1.747123E0,1.6269044E0,8.197741E-2,-1.6363726E0],"split_indices":[3,0,0,2,3,2,3,0,0,0,0,0,0,0,0],"split_type":[0,0,0,0,0,0,0,0,0,0,0,0,0,0,0],"sum_hessian":[8.9839E4,3.3731E4,5.6108E4,2.19E2,3.3512E4,8.187E3,4.7921E4,5.6E1,1.63E2,8.934E3,2.4578E4,7.841E3,3.46E2,4.2237E4,5.684E3],"tree_param":{"num_deleted":"0","num_feature":"4","num_nodes":"15","size_leaf_vector":"1"}},{"base_weights":[4.086811E-3,-2.1135916E1,3.4846842E0,-4.3814873E1,-1.3447638E1,-4.3367764E1,4.667333E0,-1.2065005E0,-2.8623774E0,-1.5926465E0,-4.0074643E-1,-3.092156E0,-1.3947079E0,3.3109552E-1,-1.2669362E0],"categories":[],"categories_nodes":[],"categories_segments":[],"categories_sizes":[],"default_left":[0,0,0,0,0,0,0,0,0,0,0,0,0,0,0],"id":24,"left_children":[1,3,5,7,9,11,13,-1,-1,-1,-1,-1,-1,-1,-1],"loss_changes":[6.6267455E6,2.2193835E6,4.285054E6,8.508375E5,9.5065125E5,5.42582E5,4.423895E6,0E0,0E0,0E0,0E0,0E0,0E0,0E0,0E0],"parents":[2147483647,0,0,1,1,2,2,3,3,4,4,5,5,6,6],"right_children":[2,4,6,8,10,12,14,-1,-1,-1,-1,-1,-1,-1,-1],"split_conditions":[-1.0353398E0,-1.749106E0,-1.1587449E0,1.9319876E-1,-2.976661E-1,-4.392574E0,8.105597E-1,-1.2065005E0,-2.8623774E0,-1.5926465E0,-4.0074643E-1,-3.092156E0,-1.3947079E0,3.3109552E-1,-1.2669362E0],"split_indices":[2,2,0,3,0,0,3,0,0,0,0,0,0,0,0],"split_type":[0,0,0,0,0,0,0,0,0,0,0,0,0,0,0],"sum_hessian":[9.006E4,1.2731E4,7.7329E4,3.222E3,9.509E3,1.903E3,7.5426E4,1.308E3,1.914E3,2.166E3,7.343E3,8.66E2,1.037E3,7.0814E4,4.612E3],"tree_param":{"num_deleted":"0","num_feature":"4","num_nodes":"15","size_leaf_vector":"1"}},{"base_weights":[-9.354378E-2,-1.3105672E1,5.018709E0,-4.5150475E1,-5.555893E0,-1.2039147E1,9.0954895E0,-1.2581242E0,-2.877914E0,-1.0521675E0,8.052745E-2,-4.1541243E-1,-4.4130435E0,5.3683394E-1,-1.5419978E0],"categories":[],"categories_nodes":[],"categories_segments":[],"categories_sizes":[],"default_left":[0,0,0,0,0,0,0,0,0,0,0,0,0,0,0],"id":25,"left_children":[1,3,5,7,9,11,13,-1,-1,-1,-1,-1,-1,-1,-1],"loss_changes":[5.981528E6,6.1358445E6,4.4894065E6,1.197905E6,2.2784378E6,3.540586E6,3.415309E6,0E0,0E0,0E0,0E0,0E0,0E0,0E0,0E0],"parents":[2147483647,0,0,1,1,2,2,3,3,4,4,5,5,6,6],"right_children":[2,4,6,8,10,12,14,-1,-1,-1,-1,-1,-1,-1,-1],"split_conditions":[-6.014365E-1,1.3444236E-2,-3.6099797E-1,-1.8910913E-1,-1.3201314E0,2.7717668E-1,9.4711125E-1,-1.2581242E0,-2.877914E0,-1.0521675E0,8.052745E-2,-4.1541243E-1,-4.4130435E0,5.3683394E-1,-1.5419978E0],"split_indices":[2,1,0,1,2,1,0,0,0,0,0,0,0,0,0],"split_type":[0,0,0,0,0,0,0,0,0,0,0,0,0,0,0],"sum_hessian":[8.9917E4,2.5362E4,6.4555E4,4.835E3,2.0527E4,1.2452E4,5.2103E4,1.853E3,2.982E3,6.493E3,1.4034E4,1.1872E4,5.8E2,5.0047E4,2.056E3],"tree_param":{"num_deleted":"0","num_feature":"4","num_nodes":"15","size_leaf_vector":"1"}},{"base_weights":[1.1942972E-2,-1.289637E1,4.885483E0,-4.2694332E1,-6.1339903E0,-4.2138577E1,6.1240516E0,-1.2095821E0,-2.7250602E0,-1.679037E0,-1.114931E-1,-1.7594681E0,-4.3466887E0,3.6524108E-1,-1.4213861E0],"categories":[],"categories_nodes":[],"categories_segments":[],"categories_sizes":[],"default_left":[0,0,0,0,0,0,0,0,0,0,0,0,0,0,0],"id":26,"left_children":[1,3,5,7,9,11,13,-1,-1,-1,-1,-1,-1,-1,-1],"loss_changes":[5.6490545E6,4.958976E6,3.796853E6,9.930985E5,2.1494635E6,5.1771925E5,2.5914298E6,0E0,0E0,0E0,0E0,0E0,0E0,0E0,0E0],"parents":[2147483647,0,0,1,1,2,2,3,3,4,4,5,5,6,6],"right_children":[2,4,6,8,10,12,14,-1,-1,-1,-1,-1,-1,-1,-1],"split_conditions":[-6.1917555E-1,1.3444236E-2,-1.1587449E0,-1.8910913E-1,-1.749106E0,5.394927E-1,9.4711125E-1,-1.2095821E0,-2.7250602E0,-1.679037E0,-1.114931E-1,-1.7594681E0,-4.3466887E0,3.6524108E-1,-1.4213861E0],"split_indices":[2,1,0,1,2,1,0,0,0,0,0,0,0,0,0],"split_type":[0,0,0,0,0,0,0,0,0,0,0,0,0,0,0],"sum_hessian":[8.9795E4,2.461E4,6.5185E4,4.551E3,2.0059E4,1.672E3,6.3513E4,1.774E3,2.777E3,2.497E3,1.7562E4,1.449E3,2.23E2,6.1415E4,2.098E3],"tree_param":{"num_deleted":"0","num_feature":"4","num_nodes":"15","size_leaf_vector":"1"}},{"base_weights":[-7.596465E-2,1.2876916E1,-5.048898E0,-2.690728E1,1.4958109E1,-1.6727106E1,5.962058E-1,-2.8182645E0,-8.9169693E-1,1.1310741E0,3.4169397E-1,-2.211429E0,-5.153572E-1,1.9528262E-1,-8.65907E-1],"categories":[],"categories_nodes":[],"categories_segments":[],"categories_sizes":[],"default_left":[0,0,0,0,0,0,0,0,0,0,0,0,0,0,0],"id":27,"left_children":[1,3,5,7,9,11,13,-1,-1,-1,-1,-1,-1,-1,-1],"loss_changes":[5.799433E6,2.0684618E6,4.288875E6,3.3095212E5,1.4776215E6,3.742578E6,2.600257E6,0E0,0E0,0E0,0E0,0E0,0E0,0E0,0E0],"parents":[2147483647,0,0,1,1,2,2,3,3,4,4,5,5,6,6],"right_children":[2,4,6,8,10,12,14,-1,-1,-1,-1,-1,-1,-1,-1],"split_conditions":[-3.266654E-1,-4.968152E0,-5.906127E-1,-8.2158774E-1,6.789994E-1,1.3444236E-2,5.844828E-1,-2.8182645E0,-8.9169693E-1,1.1310741E0,3.4169397E-1,-2.211429E0,-5.153572E-1,1.9528262E-1,-8.65907E-1],"split_indices":[3,1,2,2,2,1,1,0,0,0,0,0,0,0,0],"split_type":[0,0,0,0,0,0,0,0,0,0,0,0,0,0,0],"sum_hessian":[9.0032E4,2.4976E4,6.5056E4,1.241E3,2.3735E4,2.1199E4,4.3857E4,2.91E2,9.5E2,1.2213E4,1.1522E4,4.011E3,1.7188E4,3.7019E4,6.838E3],"tree_param":{"num_deleted":"0","num_feature":"4","num_nodes":"15","size_leaf_vector":"1"}},{"base_weights":[1.3791543E-2,-2.2664976E1,2.3850393E0,-5.9055485E1,-1.7753345E1,-3.998391E1,3.4246087E0,-6.409424E0,-2.7322745E0,-1.21224836E-1,-1.3299307E0,-2.746003E0,-1.3224953E0,2.31878E-1,-1.4290454E0],"categories":[],"categories_nodes":[],"categories_segments":[],"categories_sizes":[],"default_left":[0,0,0,0,0,0,0,0,0,0,0,0,0,0,0],"id":28,"left_children":[1,3,5,7,9,11,13,-1,-1,-1,-1,-1,-1,-1,-1],"loss_changes":[4.8413785E6,1.5221385E6,3.590059E6,3.01816E5,1.01819675E6,3.93128E5,3.088506E6,0E0,0E0,0E0,0E0,0E0,0E0,0E0,0E0],"parents":[2147483647,0,0,1,1,2,2,3,3,4,4,5,5,6,6],"right_children":[2,4,6,8,10,12,14,-1,-1,-1,-1,-1,-1,-1,-1],"split_conditions":[-1.2587848E0,1.3444236E-2,-1.1587449E0,-7.6151195E0,4.5122302E-1,-4.392574E0,9.4711125E-1,-6.409424E0,-2.7322745E0,-1.21224836E-1,-1.3299307E0,-2.746003E0,-1.3224953E0,2.31878E-1,-1.4290454E0],"split_indices":[2,1,0,0,1,0,0,0,0,0,0,0,0,0,0],"split_type":[0,0,0,0,0,0,0,0,0,0,0,0,0,0,0],"sum_hessian":[9.0025E4,8.521E3,8.1504E4,1.012E3,7.509E3,1.951E3,7.9553E4,5.9E1,9.53E2,2.748E3,4.761E3,9.26E2,1.025E3,7.6649E4,2.904E3],"tree_param":{"num_deleted":"0","num_feature":"4","num_nodes":"15","size_leaf_vector":"1"}},{"base_weights":[7.0560575E-2,1.1899531E1,-4.5576653E0,-8.052129E1,1.2702623E1,-2.4985308E1,-1.0921676E0,-8.267212E0,-2.3631465E0,1.112732E0,3.8620913E-1,-1.4027839E0,1.7495869E0,1.0615982E-1,-1.2929968E0],"categories":[],"categories_nodes":[],"categories_segments":[],"categories_sizes":[],"default_left":[0,0,0,0,0,0,0,0,0,0,0,0,0,0,0],"id":29,"left_children":[1,3,5,7,9,11,13,-1,-1,-1,-1,-1,-1,-1,-1],"loss_changes":[4.9232475E6,1.8781022E6,4.5757495E6,6.071579E5,1.1921508E6,1.7274025E6,4.4010585E6,0E0,0E0,0E0,0E0,0E0,0E0,0E0,0E0],"parents":[2147483647,0,0,1,1,2,2,3,3,4,4,5,5,6,6],"right_children":[2,4,6,8,10,12,14,-1,-1,-1,-1,-1,-1,-1,-1],"split_conditions":[-3.2105651E-1,-7.6151195E0,-5.4506874E-1,-4.501478E-1,-7.2558385E-1,1.3138356E0,7.5899005E-1,-8.267212E0,-2.3631465E0,1.112732E0,3.8620913E-1,-1.4027839E0,1.7495869E0,1.0615982E-1,-1.2929968E0],"split_indices":[3,0,0,2,3,2,3,0,0,0,0,0,0,0,0],"split_type":[0,0,0,0,0,0,0,0,0,0,0,0,0,0,0],"sum_hessian":[8.9925E4,2.5289E4,6.4636E4,2.17E2,2.5072E4,9.374E3,5.5262E4,6E1,1.57E2,8.589E3,1.6483E4,8.918E3,4.56E2,4.8913E4,6.349E3],"tree_param":{"num_deleted":"0","num_feature":"4","num_nodes":"15","size_leaf_vector":"1"}},{"base_weights":[-8.75487E-2,1.0884765E1,-4.824491E0,-7.217078E1,1.1547329E1,-2.4506657E1,-1.484611E0,-7.703631E0,-2.1177604E0,1.0493329E0,3.5426593E-1,-1.3687994E0,1.6924374E0,7.256424E-2,-1.3086666E0],"categories":[],"categories_nodes":[],"categories_segments":[],"categories_sizes":[],"default_left":[0,0,0,0,0,0,0,0,0,0,0,0,0,0,0],"id":30,"left_children":[1,3,5,7,9,11,13,-1,-1,-1,-1,-1,-1,-1,-1],"loss_changes":[4.679589E6,1.4948258E6,4.1338395E6,5.1847388E5,1.134307E6,1.5284905E6,3.8970438E6,0E0,0E0,0E0,0E0,0E0,0E0,0E0,0E0],"parents":[2147483647,0,0,1,1,2,2,3,3,4,4,5,5,6,6],"right_children":[2,4,6,8,10,12,14,-1,-1,-1,-1,-1,-1,-1,-1],"split_conditions":[-2.9341334E-1,-7.6151195E0,-5.4506874E-1,-4.501478E-1,-7.2558385E-1,1.3138356E0,7.8390867E-1,-7.703631E0,-2.1177604E0,1.0493329E0,3.5426593E-1,-1.3687994E0,1.6924374E0,7.256424E-2,-1.3086666E0],"split_indices":[3,0,0,2,3,2,3,0,0,0,0,0,0,0,0],"split_type":[0,0,0,0,0,0,0,0,0,0,0,0,0,0,0],"sum_hessian":[9.0033E4,2.7148E4,6.2885E4,2.14E2,2.6934E4,9.122E3,5.3763E4,5.6E1,1.58E2,8.644E3,1.829E4,8.695E3,4.27E2,4.805E4,5.713E3],"tree_param":{"num_deleted":"0","num_feature":"4","num_nodes":"15","size_leaf_vector":"1"}},{"base_weights":[1.9817924E-2,-1.687513E1,2.7836478E0,-3.512758E1,-1.070096E1,1.616769E1,9.8061025E-2,-8.405472E-1,-2.3825805E0,-1.8465147E0,-4.146731E-1,-9.530681E-1,9.297523E-1,1.3095884E-1,-6.7968225E-1],"categories":[],"categories_nodes":[],"categories_segments":[],"categories_sizes":[],"default_left":[0,0,0,0,0,0,0,0,0,0,0,0,0,0,0],"id":31,"left_children":[1,3,5,7,9,11,13,-1,-1,-1,-1,-1,-1,-1,-1],"loss_changes":[4.198838E6,1.4242938E6,2.7777135E6,7.3211875E5,5.963025E5,1.10476E6,2.2218095E6,0E0,0E0,0E0,0E0,0E0,0E0,0E0,0E0],"parents":[2147483647,0,0,1,1,2,2,3,3,4,4,5,5,6,6],"right_children":[2,4,6,8,10,12,14,-1,-1,-1,-1,-1,-1,-1,-1],"split_conditions":[-1.0353398E0,-1.749106E0,-5.550531E-1,1.9319876E-1,1.3444236E-2,-4.968152E0,5.844828E-1,-8.405472E-1,-2.3825805E0,-1.8465147E0,-4.146731E-1,-9.530681E-1,9.297523E-1,1.3095884E-1,-6.7968225E-1],"split_indices":[2,2,3,3,1,1,1,0,0,0,0,0,0,0,0],"split_type":[0,0,0,0,0,0,0,0,0,0,0,0,0,0,0],"sum_hessian":[8.9919E4,1.2641E4,7.7278E4,3.194E3,9.447E3,1.2914E4,6.4364E4,1.298E3,1.896E3,7.93E2,8.654E3,8.32E2,1.2082E4,5.4356E4,1.0008E4],"tree_param":{"num_deleted":"0","num_feature":"4","num_nodes":"15","size_leaf_vector":"1"}},{"base_weights":[-8.186752E-2,7.4340262E0,-5.9618864E0,-2.817168E1,8.775823E0,-1.6519524E1,-1.2118736E-1,-2.5630214E0,-9.619219E-1,7.479127E-1,1.1090437E-1,-2.1216967E0,-5.2756095E-1,2.1257018E-1,-9.845938E-1],"categories":[],"categories_nodes":[],"categories_segments":[],"categories_sizes":[],"default_left":[0,0,0,0,0,0,0,0,0,0,0,0,0,0,0],"id":32,"left_children":[1,3,5,7,9,11,13,-1,-1,-1,-1,-1,-1,-1,-1],"loss_changes":[3.9804728E6,1.8890542E6,3.116124E6,2.9519238E5,1.5446435E6,2.783365E6,2.7843408E6,0E0,0E0,0E0,0E0,0E0,0E0,0E0,0E0],"parents":[2147483647,0,0,1,1,2,2,3,3,4,4,5,5,6,6],"right_children":[2,4,6,8,10,12,14,-1,-1,-1,-1,-1,-1,-1,-1],"split_conditions":[-1.3106395E-1,-4.968152E0,-5.906127E-1,-8.2158774E-1,4.3866017E-1,-6.693703E-3,5.844828E-1,-2.5630214E0,-9.619219E-1,7.479127E-1,1.1090437E-1,-2.1216967E0,-5.2756095E-1,2.1257018E-1,-9.845938E-1],"split_indices":[3,1,2,2,2,1,1,0,0,0,0,0,0,0,0],"split_type":[0,0,0,0,0,0,0,0,0,0,0,0,0,0,0],"sum_hessian":[9.0067E4,3.9534E4,5.0533E4,1.435E3,3.8099E4,1.7998E4,3.2535E4,3.99E2,1.036E3,1.961E4,1.8489E4,3.368E3,1.463E4,2.6594E4,5.941E3],"tree_param":{"num_deleted":"0","num_feature":"4","num_nodes":"15","size_leaf_vector":"1"}},{"base_weights":[-4.485633E-2,-1.6168976E1,2.6139395E0,-4.340745E1,-1.2529127E1,1.4609014E1,-2.215994E-2,-1.4148873E0,-3.7514832E0,-3.8058263E-1,-1.7148188E0,-9.213319E-1,8.4467334E-1,7.061944E-2,-1.165332E0],"categories":[],"categories_nodes":[],"categories_segments":[],"categories_sizes":[],"default_left":[0,0,0,0,0,0,0,0,0,0,0,0,0,0,0],"id":33,"left_children":[1,3,5,7,9,11,13,-1,-1,-1,-1,-1,-1,-1,-1],"loss_changes":[3.8677992E6,1.2656175E6,2.4489552E6,7.1695875E5,1.2057532E6,1.0533972E6,2.1209742E6,0E0,0E0,0E0,0E0,0E0,0E0,0E0,0E0],"parents":[2147483647,0,0,1,1,2,2,3,3,4,4,5,5,6,6],"right_children":[2,4,6,8,10,12,14,-1,-1,-1,-1,-1,-1,-1,-1],"split_conditions":[-1.0353398E0,1.3444236E-2,-5.276559E-1,-1.8910913E-1,6.605937E-1,-4.968152E0,7.510877E-1,-1.4148873E0,-3.7514832E0,-3.8058263E-1,-1.7148188E0,-9.213319E-1,8.4467334E-1,7.061944E-2,-1.165332E0],"split_indices":[2,1,3,1,3,1,1,0,0,0,0,0,0,0,0],"split_type":[0,0,0,0,0,0,0,0,0,0,0,0,0,0,0],"sum_hessian":[9.0218E4,1.277E4,7.7448E4,1.504E3,1.1266E4,1.3953E4,6.3495E4,1.019E3,4.85E2,9.191E3,2.075E3,9.02E2,1.3051E4,5.9811E4,3.684E3],"tree_param":{"num_deleted":"0","num_feature":"4","num_nodes":"15","size_leaf_vector":"1"}},{"base_weights":[-1.4377164E-3,-1.639667E1,2.4345953E0,-1.306405E1,-5.76692E1,-7.137118E0,6.33242E0,-2.445525E-1,-1.6333418E0,-3.7255063E0,3.3780017E-1,-1.5940837E0,-1.4357062E-1,5.887187E-1,2.9087735E-3],"categories":[],"categories_nodes":[],"categories_segments":[],"categories_sizes":[],"default_left":[0,0,0,0,0,0,0,0,0,0,0,0,0,0,0],"id":34,"left_children":[1,3,5,7,9,11,13,-1,-1,-1,-1,-1,-1,-1,-1],"loss_changes":[3.5922242E6,1.5995835E6,2.92159E6,1.7248561E6,9.433575E5,2.391841E6,1.9000178E6,0E0,0E0,0E0,0E0,0E0,0E0,0E0,0E0],"parents":[2147483647,0,0,1,1,2,2,3,3,4,4,5,5,6,6],"right_children":[2,4,6,8,10,12,14,-1,-1,-1,-1,-1,-1,-1,-1],"split_conditions":[-5.4506874E-1,1.3328925E-1,-6.014365E-1,3.2740414E-1,6.2788963E-1,1.1783261E-1,4.3866017E-1,-2.445525E-1,-1.6333418E0,-3.7255063E0,3.3780017E-1,-1.5940837E0,-1.4357062E-1,5.887187E-1,2.9087735E-3],"split_indices":[0,1,2,2,2,1,2,0,0,0,0,0,0,0,0],"split_type":[0,0,0,0,0,0,0,0,0,0,0,0,0,0,0],"sum_hessian":[8.994E4,1.1634E4,7.8306E4,1.0766E4,8.68E2,2.266E4,5.5646E4,7.599E3,3.167E3,6.88E2,1.8E2,3.331E3,1.9329E4,2.9799E4,2.5847E4],"tree_param":{"num_deleted":"0","num_feature":"4","num_nodes":"15","size_leaf_vector":"1"}},{"base_weights":[4.3738518E-2,1.1106933E1,-3.2686622E0,-7.588169E1,1.1988754E1,-1.9330433E1,-6.3829684E-1,-7.949891E0,-2.4976244E0,9.111748E-1,2.3476808E-1,-1.1057578E0,1.6970619E0,7.757599E-2,-1.2059726E0],"categories":[],"categories_nodes":[],"categories_segments":[],"categories_sizes":[],"default_left":[0,0,0,0,0,0,0,0,0,0,0,0,0,0,0],"id":35,"left_children":[1,3,5,7,9,11,13,-1,-1,-1,-1,-1,-1,-1,-1],"loss_changes":[3.2941952E6,1.5897645E6,2.9227248E6,4.4030475E5,9.3236975E5,1.4449058E6,3.0567188E6,0E0,0E0,0E0,0E0,0E0,0E0,0E0,0E0],"parents":[2147483647,0,0,1,1,2,2,3,3,4,4,5,5,6,6],"right_children":[2,4,6,8,10,12,14,-1,-1,-1,-1,-1,-1,-1,-1],"split_conditions":[-3.9850023E-1,-7.6151195E0,-5.4506874E-1,-9.79307E-1,7.353471E-1,1.3138356E0,8.105597E-1,-7.949891E0,-2.4976244E0,9.111748E-1,2.3476808E-1,-1.1057578E0,1.6970619E0,7.757599E-2,-1.2059726E0],"split_indices":[3,0,0,2,2,2,3,0,0,0,0,0,0,0,0],"split_type":[0,0,0,0,0,0,0,0,0,0,0,0,0,0,0],"sum_hessian":[8.9891E4,2.0712E4,6.9179E4,2.07E2,2.0505E4,9.734E3,5.9445E4,4.8E1,1.59E2,1.1054E4,9.451E3,9.251E3,4.83E2,5.4375E4,5.07E3],"tree_param":{"num_deleted":"0","num_feature":"4","num_nodes":"15","size_leaf_vector":"1"}},{"base_weights":[-3.8739383E-2,-2.806993E1,1.229089E0,-1.514932E2,-2.697378E1,1.3326069E1,-1.2572142E0,-8.397655E0,-4.759206E0,-5.063832E-1,-1.837148E0,-9.86347E-1,7.7876896E-1,-1.454263E-1,6.622245E-1],"categories":[],"categories_nodes":[],"categories_segments":[],"categories_sizes":[],"default_left":[0,0,0,0,0,0,0,0,0,0,0,0,0,0,0],"id":36,"left_children":[1,3,5,7,9,11,13,-1,-1,-1,-1,-1,-1,-1,-1],"loss_changes":[3.19234E6,5.2176975E5,2.5848148E6,1.5499875E4,6.3388625E5,1.0896312E6,1.7071836E6,0E0,0E0,0E0,0E0,0E0,0E0,0E0,0E0],"parents":[2147483647,0,0,1,1,2,2,3,3,4,4,5,5,6,6],"right_children":[2,4,6,8,10,12,14,-1,-1,-1,-1,-1,-1,-1,-1],"split_conditions":[-1.6245748E0,-2.1191046E0,-5.276559E-1,-2.1753743E0,9.192685E-2,-4.968152E0,1.4403207E0,-8.397655E0,-4.759206E0,-5.063832E-1,-1.837148E0,-9.86347E-1,7.7876896E-1,-1.454263E-1,6.622245E-1],"split_indices":[2,3,3,2,3,1,2,0,0,0,0,0,0,0,0],"split_type":[0,0,0,0,0,0,0,0,0,0,0,0,0,0,0],"sum_hessian":[8.9825E4,3.886E3,8.5939E4,3.3E1,3.853E3,1.4651E4,7.1288E4,2.4E1,9E0,1.415E3,2.438E3,9.33E2,1.3718E4,6.4001E4,7.287E3],"tree_param":{"num_deleted":"0","num_feature":"4","num_nodes":"15","size_leaf_vector":"1"}},{"base_weights":[-1.83123E-2,-1.4139786E1,2.3170412E0,-3.820558E1,-1.0962844E1,-3.3065014E1,3.1989834E0,-1.203402E0,-3.4375112E0,-2.5360605E-2,-9.2280704E-1,-2.4289114E0,-9.6566105E-1,2.1104324E-1,-1.1658208E0],"categories":[],"categories_nodes":[],"categories_segments":[],"categories_sizes":[],"default_left":[0,0,0,0,0,0,0,0,0,0,0,0,0,0,0],"id":37,"left_children":[1,3,5,7,9,11,13,-1,-1,-1,-1,-1,-1,-1,-1],"loss_changes":[2.9581512E6,9.7277975E5,2.4019465E6,6.39166E5,8.8108075E5,3.9841725E5,2.0349488E6,0E0,0E0,0E0,0E0,0E0,0E0,0E0,0E0],"parents":[2147483647,0,0,1,1,2,2,3,3,4,4,5,5,6,6],"right_children":[2,4,6,8,10,12,14,-1,-1,-1,-1,-1,-1,-1,-1],"split_conditions":[-1.0353398E0,1.3444236E-2,-1.1587449E0,-1.8910913E-1,4.580542E-1,-4.392574E0,9.4711125E-1,-1.203402E0,-3.4375112E0,-2.5360605E-2,-9.2280704E-1,-2.4289114E0,-9.6566105E-1,2.1104324E-1,-1.1658208E0],"split_indices":[2,1,0,1,1,0,0,0,0,0,0,0,0,0,0],"split_type":[0,0,0,0,0,0,0,0,0,0,0,0,0,0,0],"sum_hessian":[8.9697E4,1.2728E4,7.6969E4,1.483E3,1.1245E4,1.871E3,7.5098E4,1.015E3,4.68E2,4.695E3,6.55E3,8.78E2,9.93E2,7.2312E4,2.786E3],"tree_param":{"num_deleted":"0","num_feature":"4","num_nodes":"15","size_leaf_vector":"1"}},{"base_weights":[-1.4053856E-1,-1.1996833E1,2.5395932E0,2.024021E0,-2.1377146E1,5.066346E0,-1.7429272E1,-3.2245007E0,2.1903813E-1,-1.2800394E0,6.445655E-1,3.1449428E-1,-1.070127E0,-1.5528263E0,-1.1212964E-2],"categories":[],"categories_nodes":[],"categories_segments":[],"categories_sizes":[],"default_left":[0,0,0,0,0,0,0,0,0,0,0,0,0,0,0],"id":38,"left_children":[1,3,5,7,9,11,13,-1,-1,-1,-1,-1,-1,-1,-1],"loss_changes":[2.8635648E6,2.1852498E6,3.7086815E6,1.04443075E6,1.4411955E6,2.1131728E6,1.9356675E6,0E0,0E0,0E0,0E0,0E0,0E0,0E0,0E0],"parents":[2147483647,0,0,1,1,2,2,3,3,4,4,5,5,6,6],"right_children":[2,4,6,8,10,12,14,-1,-1,-1,-1,-1,-1,-1,-1],"split_conditions":[-3.6099797E-1,-1.5369664E-1,6.9180995E-1,-7.6151195E0,1.1983905E0,9.4711125E-1,-5.906127E-1,-3.2245007E0,2.1903813E-1,-1.2800394E0,6.445655E-1,3.1449428E-1,-1.070127E0,-1.5528263E0,-1.1212964E-2],"split_indices":[0,3,3,0,2,0,2,0,0,0,0,0,0,0,0],"split_type":[0,0,0,0,0,0,0,0,0,0,0,0,0,0,0],"sum_hessian":[9.0114E4,1.6614E4,7.35E4,6.66E3,9.954E3,6.5245E4,8.255E3,2.27E2,6.433E3,8.862E3,1.092E3,6.2363E4,2.882E3,4.606E3,3.649E3],"tree_param":{"num_deleted":"0","num_feature":"4","num_nodes":"15","size_leaf_vector":"1"}},{"base_weights":[-1.0380106E-3,1.0183381E1,-2.7836668E0,-2.1968864E1,1.2181948E1,-2.6032347E-2,-1.4780954E1,-1.736287E0,-5.9308326E-1,-3.0855968E0,6.483035E-1,-2.5232348E-1,5.074873E-1,-4.996185E0,-3.0563498E-1],"categories":[],"categories_nodes":[],"categories_segments":[],"categories_sizes":[],"default_left":[0,0,0,0,0,0,0,0,0,0,0,0,0,0,0],"id":39,"left_children":[1,3,5,7,9,11,13,-1,-1,-1,-1,-1,-1,-1,-1],"loss_changes":[2.5491902E6,1.2406468E6,2.3373592E6,1.4528144E5,1.0538298E6,2.934786E6,9.744446E6,0E0,0E0,0E0,0E0,0E0,0E0,0E0,0E0],"parents":[2147483647,0,0,1,1,2,2,3,3,4,4,5,5,6,6],"right_children":[2,4,6,8,10,12,14,-1,-1,-1,-1,-1,-1,-1,-1],"split_conditions":[-4.2642602E-1,-4.968152E0,5.844828E-1,-4.996519E0,-7.6151195E0,3.712964E-1,7.038929E-2,-1.736287E0,-5.9308326E-1,-3.0855968E0,6.483035E-1,-2.5232348E-1,5.074873E-1,-4.996185E0,-3.0563498E-1],"split_indices":[3,1,1,1,0,1,0,0,0,0,0,0,0,0,0],"split_type":[0,0,0,0,0,0,0,0,0,0,0,0,0,0,0],"sum_hessian":[8.995E4,1.9302E4,7.0648E4,1.129E3,1.8173E4,5.7445E4,1.3203E4,4.98E2,6.31E2,1.9E2,1.7983E4,3.8467E4,1.8978E4,1.219E3,1.1984E4],"tree_param":{"num_deleted":"0","num_feature":"4","num_nodes":"15","size_leaf_vector":"1"}},{"base_weights":[5.1970664E-2,-1.3103446E1,2.228031E0,-3.6152863E1,-1.005832E1,-8.36234E0,4.6078973E0,-9.2904156E-1,-2.9621732E0,-1.1158622E-2,-8.57138E-1,-2.6275948E-1,-3.5849407E0,2.9130188E-1,-1.0966007E0],"categories":[],"categories_nodes":[],"categories_segments":[],"categories_sizes":[],"default_left":[0,0,0,0,0,0,0,0,0,0,0,0,0,0,0],"id":40,"left_children":[1,3,5,7,9,11,13,-1,-1,-1,-1,-1,-1,-1,-1],"loss_changes":[2.5741948E6,8.9544575E5,1.9447279E6,6.030514E5,7.85597E5,2.7858522E6,2.0369391E6,0E0,0E0,0E0,0E0,0E0,0E0,0E0,0E0],"parents":[2147483647,0,0,1,1,2,2,3,3,4,4,5,5,6,6],"right_children":[2,4,6,8,10,12,14,-1,-1,-1,-1,-1,-1,-1,-1],"split_conditions":[-1.0353398E0,1.3444236E-2,-3.6099797E-1,-4.1185743E-1,4.5358598E-1,2.7717668E-1,9.4711125E-1,-9.2904156E-1,-2.9621732E0,-1.1158622E-2,-8.57138E-1,-2.6275948E-1,-3.5849407E0,2.9130188E-1,-1.0966007E0],"split_indices":[2,1,0,1,1,1,0,0,0,0,0,0,0,0,0],"split_type":[0,0,0,0,0,0,0,0,0,0,0,0,0,0,0],"sum_hessian":[8.992E4,1.2762E4,7.7158E4,1.488E3,1.1274E4,1.4157E4,6.3001E4,8.46E2,6.42E2,4.721E3,6.553E3,1.3496E4,6.61E2,6.0237E4,2.764E3],"tree_param":{"num_deleted":"0","num_feature":"4","num_nodes":"15","size_leaf_vector":"1"}},{"base_weights":[-7.176914E-2,5.2945023E0,-4.8116364E0,1.02325325E1,-2.9704252E-1,-1.50332575E1,1.3962178E0,-5.8603346E-2,7.2037786E-1,-3.711345E-1,4.9100667E-1,-9.4402695E-1,5.339064E-1,4.0068832E-1,-1.0146779E0],"categories":[],"categories_nodes":[],"categories_segments":[],"categories_sizes":[],"default_left":[0,0,0,0,0,0,0,0,0,0,0,0,0,0,0],"id":41,"left_children":[1,3,5,7,9,11,13,-1,-1,-1,-1,-1,-1,-1,-1],"loss_changes":[2.298039E6,1.1700018E6,3.0441808E6,1.0714395E6,1.4327455E6,1.7933065E6,4.2843375E6,0E0,0E0,0E0,0E0,0E0,0E0,0E0,0E0],"parents":[2147483647,0,0,1,1,2,2,3,3,4,4,5,5,6,6],"right_children":[2,4,6,8,10,12,14,-1,-1,-1,-1,-1,-1,-1,-1],"split_conditions":[-9.4567895E-2,4.3866017E-1,-3.5050638E-2,-8.2158774E-1,1.3692129E0,1.1983905E0,7.137107E-1,-5.8603346E-2,7.2037786E-1,-3.711345E-1,4.9100667E-1,-9.4402695E-1,5.339064E-1,4.0068832E-1,-1.0146779E0],"split_indices":[3,2,0,2,2,2,3,0,0,0,0,0,0,0,0],"split_type":[0,0,0,0,0,0,0,0,0,0,0,0,0,0,0],"sum_hessian":[9.0346E4,4.2373E4,4.7973E4,2.2501E4,1.9872E4,1.8126E4,2.9847E4,6.03E3,1.6471E4,1.166E4,8.212E3,1.5767E4,2.359E3,2.287E4,6.977E3],"tree_param":{"num_deleted":"0","num_feature":"4","num_nodes":"15","size_leaf_vector":"1"}},{"base_weights":[-7.424374E-2,7.814138E0,-3.1603117E0,-2.270888E1,9.420559E0,-2.8322443E-1,-1.4252086E1,-2.1571033E0,-7.537181E-1,8.069134E-1,1.1610074E-1,-2.841569E-1,5.1433486E-1,-1.7123264E0,-5.7889456E-1],"categories":[],"categories_nodes":[],"categories_segments":[],"categories_sizes":[],"default_left":[0,0,0,0,0,0,0,0,0,0,0,0,0,0,0],"id":42,"left_children":[1,3,5,7,9,11,13,-1,-1,-1,-1,-1,-1,-1,-1],"loss_changes":[2.186342E6,1.2385364E6,2.060074E6,1.9636875E5,1.1440898E6,2.9258072E6,7.10523E5,0E0,0E0,0E0,0E0,0E0,0E0,0E0,0E0],"parents":[2147483647,0,0,1,1,2,2,3,3,4,4,5,5,6,6],"right_children":[2,4,6,8,10,12,14,-1,-1,-1,-1,-1,-1,-1,-1],"split_conditions":[-3.2105651E-1,-4.968152E0,5.743872E-1,-5.456196E-1,6.789994E-1,3.712964E-1,-1.6245748E0,-2.1571033E0,-7.537181E-1,8.069134E-1,1.1610074E-1,-2.841569E-1,5.1433486E-1,-1.7123264E0,-5.7889456E-1],"split_indices":[3,1,1,2,2,1,2,0,0,0,0,0,0,0,0],"split_type":[0,0,0,0,0,0,0,0,0,0,0,0,0,0,0],"sum_hessian":[8.9808E4,2.5254E4,6.4554E4,1.262E3,2.3992E4,5.1259E4,1.3295E4,3.42E2,9.2E2,1.2326E4,1.1666E4,3.3927E4,1.7332E4,1.567E3,1.1728E4],"tree_param":{"num_deleted":"0","num_feature":"4","num_nodes":"15","size_leaf_vector":"1"}},{"base_weights":[-1.2772112E-1,-2.9306969E1,7.014094E-1,-6.518343E1,-2.3223824E1,1.2462864E1,-1.3456124E0,-5.130668E0,-2.2044854E0,7.506462E-1,-1.3989289E0,-8.3726543E-1,7.2559184E-1,1.5386816E-3,-8.851681E-1],"categories":[],"categories_nodes":[],"categories_segments":[],"categories_sizes":[],"default_left":[0,0,0,0,0,0,0,0,0,0,0,0,0,0,0],"id":43,"left_children":[1,3,5,7,9,11,13,-1,-1,-1,-1,-1,-1,-1,-1],"loss_changes":[2.177672E6,5.412445E5,2.1072415E6,2.7969438E5,3.8730512E5,7.767545E5,1.678464E6,0E0,0E0,0E0,0E0,0E0,0E0,0E0,0E0],"parents":[2147483647,0,0,1,1,2,2,3,3,4,4,5,5,6,6],"right_children":[2,4,6,8,10,12,14,-1,-1,-1,-1,-1,-1,-1,-1],"split_conditions":[-1.1587449E0,-7.6151195E0,-5.655686E-1,-2.4201605E0,-3.4483054E-1,-4.968152E0,8.105597E-1,-5.130668E0,-2.2044854E0,7.506462E-1,-1.3989289E0,-8.3726543E-1,7.2559184E-1,1.5386816E-3,-8.851681E-1],"split_indices":[0,0,3,1,3,1,3,0,0,0,0,0,0,0,0],"split_type":[0,0,0,0,0,0,0,0,0,0,0,0,0,0,0],"sum_hessian":[9.0009E4,2.486E3,8.7523E4,3.59E2,2.127E3,1.2974E4,7.4549E4,1.28E2,2.31E2,2.35E2,1.892E3,8.5E2,1.2124E4,6.8764E4,5.785E3],"tree_param":{"num_deleted":"0","num_feature":"4","num_nodes":"15","size_leaf_vector":"1"}},{"base_weights":[-2.7995355E-2,-1.4003597E1,1.6345224E0,-3.7546143E1,-1.0867378E1,-4.1940933E1,2.1318612E0,-1.115521E0,-2.6290383E0,5.2697755E-2,-9.0987504E-1,-3.9774919E0,-9.76954E-1,2.7750382E-1,-2.0040415E-1],"categories":[],"categories_nodes":[],"categories_segments":[],"categories_sizes":[],"default_left":[0,0,0,0,0,0,0,0,0,0,0,0,0,0,0],"id":44,"left_children":[1,3,5,7,9,11,13,-1,-1,-1,-1,-1,-1,-1,-1],"loss_changes":[2.0941666E6,7.070701E5,1.7457241E6,2.5674462E5,7.390344E5,7.642765E5,1.6714996E6,0E0,0E0,0E0,0E0,0E0,0E0,0E0,0E0],"parents":[2147483647,0,0,1,1,2,2,3,3,4,4,5,5,6,6],"right_children":[2,4,6,8,10,12,14,-1,-1,-1,-1,-1,-1,-1,-1],"split_conditions":[-1.1996292E0,1.3444236E-2,-4.392574E0,-4.1185743E-1,4.5358598E-1,-2.2742828E-2,4.3866017E-1,-1.115521E0,-2.6290383E0,5.2697755E-2,-9.0987504E-1,-3.9774919E0,-9.76954E-1,2.7750382E-1,-2.0040415E-1],"split_indices":[2,1,0,1,1,2,2,0,0,0,0,0,0,0,0],"split_type":[0,0,0,0,0,0,0,0,0,0,0,0,0,0,0],"sum_hessian":[9.0129E4,9.581E3,8.0548E4,1.125E3,8.456E3,9.08E2,7.964E4,5.6E2,5.65E2,3.22E3,5.236E3,3.38E2,5.7E2,5.1159E4,2.8481E4],"tree_param":{"num_deleted":"0","num_feature":"4","num_nodes":"15","size_leaf_vector":"1"}},{"base_weights":[-1.8815504E-2,-1.1688797E1,1.898195E0,-3.1206993E1,-9.066235E0,5.452416E0,-4.0878396E0,-9.3890375E-1,-2.9271083E0,1.4432564E-1,-7.6660913E-1,3.6216176E-1,-1.1333662E0,-1.1973448E0,2.0940523E-1],"categories":[],"categories_nodes":[],"categories_segments":[],"categories_sizes":[],"default_left":[0,0,0,0,0,0,0,0,0,0,0,0,0,0,0],"id":45,"left_children":[1,3,5,7,9,11,13,-1,-1,-1,-1,-1,-1,-1,-1],"loss_changes":[2.0111742E6,6.489776E5,1.6428249E6,5.0919225E5,8.3759944E5,2.4399265E6,4.728029E6,0E0,0E0,0E0,0E0,0E0,0E0,0E0,0E0],"parents":[2147483647,0,0,1,1,2,2,3,3,4,4,5,5,6,6],"right_children":[2,4,6,8,10,12,14,-1,-1,-1,-1,-1,-1,-1,-1],"split_conditions":[-1.0353398E0,1.3444236E-2,4.3866017E-1,-1.4319292E-1,-4.635821E-2,8.3910406E-1,1.1015409E0,-9.3890375E-1,-2.9271083E0,1.4432564E-1,-7.6660913E-1,3.6216176E-1,-1.1333662E0,-1.1973448E0,2.0940523E-1],"split_indices":[2,1,2,1,3,3,2,0,0,0,0,0,0,0,0],"split_type":[0,0,0,0,0,0,0,0,0,0,0,0,0,0,0],"sum_hessian":[8.9897E4,1.2683E4,7.7214E4,1.501E3,1.1182E4,4.8448E4,2.8766E4,1.033E3,4.68E2,3.846E3,7.336E3,4.5548E4,2.9E3,8.461E3,2.0305E4],"tree_param":{"num_deleted":"0","num_feature":"4","num_nodes":"15","size_leaf_vector":"1"}},{"base_weights":[6.983149E-2,-7.123734E0,2.780714E0,-2.6744844E1,-2.7031322E0,7.915876E0,-3.6041238E0,-5.47848E-1,-1.8358923E0,3.573263E-1,-4.30636E-1,4.9879286E-1,-9.10422E-1,-1.077872E0,2.0593317E-1],"categories":[],"categories_nodes":[],"categories_segments":[],"categories_sizes":[],"default_left":[0,0,0,0,0,0,0,0,0,0,0,0,0,0,0],"id":46,"left_children":[1,3,5,7,9,11,13,-1,-1,-1,-1,-1,-1,-1,-1],"loss_changes":[1.7542044E6,2.1354792E6,2.1421462E6,7.12381E5,1.1697396E6,1.9488972E6,4.0381228E6,0E0,0E0,0E0,0E0,0E0,0E0,0E0,0E0],"parents":[2147483647,0,0,1,1,2,2,3,3,4,4,5,5,6,6],"right_children":[2,4,6,8,10,12,14,-1,-1,-1,-1,-1,-1,-1,-1],"split_conditions":[-6.1917555E-1,1.3444236E-2,4.1186726E-1,-1.8910913E-1,-4.635821E-2,7.3807937E-1,1.1015409E0,-5.47848E-1,-1.8358923E0,3.573263E-1,-4.30636E-1,4.9879286E-1,-9.10422E-1,-1.077872E0,2.0593317E-1],"split_indices":[2,1,2,1,3,1,2,0,0,0,0,0,0,0,0],"split_type":[0,0,0,0,0,0,0,0,0,0,0,0,0,0,0],"sum_hessian":[8.9953E4,2.462E4,6.5333E4,4.526E3,2.0094E4,3.621E4,2.9123E4,1.753E3,2.773E3,7.535E3,1.2559E4,3.3564E4,2.646E3,8.759E3,2.0364E4],"tree_param":{"num_deleted":"0","num_feature":"4","num_nodes":"15","size_leaf_vector":"1"}},{"base_weights":[-1.780321E-2,9.351268E0,-2.088874E0,-1.7855936E1,1.1197361E1,3.0872E-1,-1.2225476E1,4.9069092E-1,-1.0393437E0,-2.5632946E0,6.031452E-1,-1.8103509E-1,4.376503E-1,-4.520353E0,-2.2114015E-1],"categories":[],"categories_nodes":[],"categories_segments":[],"categories_sizes":[],"default_left":[0,0,0,0,0,0,0,0,0,0,0,0,0,0,0],"id":47,"left_children":[1,3,5,7,9,11,13,-1,-1,-1,-1,-1,-1,-1,-1],"loss_changes":[1.748592E6,8.1960325E5,1.7936245E6,8.430403E4,8.266136E5,1.9804498E6,8.611318E6,0E0,0E0,0E0,0E0,0E0,0E0,0E0,0E0],"parents":[2147483647,0,0,1,1,2,2,3,3,4,4,5,5,6,6],"right_children":[2,4,6,8,10,12,14,-1,-1,-1,-1,-1,-1,-1,-1],"split_conditions":[-4.9237743E-1,-4.968152E0,5.743872E-1,-1.3846714E0,-7.6151195E0,3.712964E-1,7.42553E-2,4.9069092E-1,-1.0393437E0,-2.5632946E0,6.031452E-1,-1.8103509E-1,4.376503E-1,-4.520353E0,-2.2114015E-1],"split_indices":[3,1,1,3,0,1,0,0,0,0,0,0,0,0,0],"split_type":[0,0,0,0,0,0,0,0,0,0,0,0,0,0,0],"sum_hessian":[9.0113E4,1.6313E4,7.38E4,1.036E3,1.5277E4,5.9684E4,1.4116E4,9.9E1,9.37E2,2.08E2,1.5069E4,4.0731E4,1.8953E4,1.28E3,1.2836E4],"tree_param":{"num_deleted":"0","num_feature":"4","num_nodes":"15","size_leaf_vector":"1"}},{"base_weights":[-5.292765E-2,-1.02362795E1,1.77351E0,-3.0358873E1,-7.505942E0,-2.5890165E1,2.4764764E0,-8.5573095E-1,-2.978585E0,2.9355684E-2,-6.90557E-1,-1.6420199E0,5.846178E-2,2.910814E-1,-1.5274587E-1],"categories":[],"categories_nodes":[],"categories_segments":[],"categories_sizes":[],"default_left":[0,0,0,0,0,0,0,0,0,0,0,0,0,0,0],"id":48,"left_children":[1,3,5,7,9,11,13,-1,-1,-1,-1,-1,-1,-1,-1],"loss_changes":[1.6719619E6,7.5087325E5,1.4823428E6,6.30784E5,6.143394E5,3.55304E5,1.3754642E6,0E0,0E0,0E0,0E0,0E0,0E0,0E0,0E0],"parents":[2147483647,0,0,1,1,2,2,3,3,4,4,5,5,6,6],"right_children":[2,4,6,8,10,12,14,-1,-1,-1,-1,-1,-1,-1,-1],"split_conditions":[-9.79307E-1,1.3444236E-2,-1.1587449E0,-1.4319292E-1,4.602155E-1,1.0010735E0,4.3866017E-1,-8.5573095E-1,-2.978585E0,2.9355684E-2,-6.90557E-1,-1.6420199E0,5.846178E-2,2.910814E-1,-1.5274587E-1],"split_indices":[2,1,0,1,1,2,2,0,0,0,0,0,0,0,0],"split_type":[0,0,0,0,0,0,0,0,0,0,0,0,0,0,0],"sum_hessian":[8.9892E4,1.367E4,7.6222E4,1.632E3,1.2038E4,1.888E3,7.4334E4,1.124E3,5.08E2,5.272E3,6.766E3,1.502E3,3.86E2,4.6321E4,2.8013E4],"tree_param":{"num_deleted":"0","num_feature":"4","num_nodes":"15","size_leaf_vector":"1"}},{"base_weights":[8.171352E-4,5.9468E0,-2.9692495E0,-2.049278E1,7.1820126E0,-1.0620092E1,2.1039667E0,-6.920589E-1,-1.7704452E0,-2.5000331E0,3.8031167E-1,-2.6141807E-1,-4.059606E0,2.8495643E-1,-1.1621546E0],"categories":[],"categories_nodes":[],"categories_segments":[],"categories_sizes":[],"default_left":[0,0,0,0,0,0,0,0,0,0,0,0,0,0,0],"id":49,"left_children":[1,3,5,7,9,11,13,-1,-1,-1,-1,-1,-1,-1,-1],"loss_changes":[1.5889558E6,9.789865E5,2.3290025E6,1.3225625E5,6.9500525E5,9.102777E6,3.287984E6,0E0,0E0,0E0,0E0,0E0,0E0,0E0,0E0],"parents":[2147483647,0,0,1,1,2,2,3,3,4,4,5,5,6,6],"right_children":[2,4,6,8,10,12,14,-1,-1,-1,-1,-1,-1,-1,-1],"split_conditions":[-2.5358045E-1,-4.968152E0,-3.5050638E-2,-4.2384312E-1,-7.6151195E0,4.034364E-1,8.105597E-1,-6.920589E-1,-1.7704452E0,-2.5000331E0,3.8031167E-1,-2.6141807E-1,-4.059606E0,2.8495643E-1,-1.1621546E0],"split_indices":[3,1,0,0,0,1,3,0,0,0,0,0,0,0,0],"split_type":[0,0,0,0,0,0,0,0,0,0,0,0,0,0,0],"sum_hessian":[8.9973E4,2.9971E4,6.0002E4,1.337E3,2.8634E4,2.3923E4,3.6079E4,9.26E2,4.11E2,2.1E2,2.8424E4,2.2226E4,1.697E3,3.1598E4,4.481E3],"tree_param":{"num_deleted":"0","num_feature":"4","num_nodes":"15","size_leaf_vector":"1"}}]},"name":"gbtree"},"learner_model_param":{"base_score":"5.0740552E2","boost_from_average":"1","num_class":"0","num_feature":"4","num_target":"1"},"objective":{"name":"reg:squarederror","reg_loss_param":{"scale_pos_weight":"1"}}},"version":[2,1,2]}