{"learner":{"attributes":{"best_iteration":"47","best_score":"41.92094200474941","scikit_learn":"{\"_estimator_type\": \"regressor\"}"},"feature_names":[],"feature_types":[],"gradient_booster":{"model":{"gbtree_model_param":{"num_parallel_tree":"1","num_trees":"50"},"iteration_indptr":[0,1,2,3,4,5,6,7,8,9,10,11,12,13,14,15,16,17,18,19,20,21,22,23,24,25,26,27,28,29,30,31,32,33,34,35,36,37,38,39,40,41,42,43,44,45,46,47,48,49,50],"tree_info":[0,0,0,0,0,0,0,0,0,0,0,0,0,0,0,0,0,0,0,0,0,0,0,0,0,0,0,0,0,0,0,0,0,0,0,0,0,0,0,0,0,0,0,0,0,0,0,0,0,0],"trees":[{"base_weights":[1.2971619E-1,-4.5851474E2,1.1088106E1,-4.9097363E2,-1.7158408E2,3.1036354E1,-6.2362152E1,-2.4856043E1,-2.0675705E1,-1.033216E1,-5.890589E0,2.4489634E0,6.4560884E-1,-7.9940605E0,-2.3560598E0],"categories":[],"categories_nodes":[],"categories_segments":[],"categories_sizes":[],"default_left":[0,0,0,0,0,0,0,0,0,0,0,0,0,0,0],"id":0,"left_children":[1,3,5,7,9,11,13,-1,-1,-1,-1,-1,-1,-1,-1],"loss_changes":[3.6550115E8,1.5720608E7,1.0406805E8,5.2E5,3.03649E5,1.816376E7,2.2539368E7,0E0,0E0,0E0,0E0,0E0,0E0,0E0,0E0],"parents":[2147483647,0,0,1,1,2,2,3,3,4,4,5,5,6,6],"right_children":[2,4,6,8,10,12,14,-1,-1,-1,-1,-1,-1,-1,-1],"split_conditions":[-1.7104627E0,-1.5411022E-1,3.6707902E-1,-3.9115307E0,1.09582834E-1,2.2373039E-1,-1.0987744E0,-2.4856043E1,-2.0675705E1,-1.033216E1,-5.890589E0,2.4489634E0,6.4560884E-1,-7.9940605E0,-2.3560598E0],"split_indices":[2,3,3,2,0,3,2,0,0,0,0,0,0,0,0],"split_type":[0,0,0,0,0,0,0,0,0,0,0,0,0,0,0],"sum_hessian":[7.272E4,1.696E3,7.1024E4,1.523E3,1.73E2,5.5855E4,1.5169E4,1.406E3,1.17E2,1.03E2,7E1,2.8067E4,2.7788E4,2.049E3,1.312E4],"tree_param":{"num_deleted":"0","num_feature":"4","num_nodes":"15","size_leaf_vector":"1"}},{"base_weights":[-2.7820513E-1,-4.5699875E2,1.0114941E1,-4.6621704E2,-2.139103E2,3.028587E1,-5.821383E1,-2.3595028E1,-1.9770193E1,-1.1000494E1,-6.0656295E0,1.116953E0,4.24198E0,-7.6579423E0,-2.123937E0],"categories":[],"categories_nodes":[],"categories_segments":[],"categories_sizes":[],"default_left":[0,0,0,0,0,0,0,0,0,0,0,0,0,0,0],"id":1,"left_children":[1,3,5,7,9,11,13,-1,-1,-1,-1,-1,-1,-1,-1],"loss_changes":[3.4539818E8,3.528128E6,9.805907E7,4.40768E5,7.729E3,2.3812232E7,2.4219668E7,0E0,0E0,0E0,0E0,0E0,0E0,0E0,0E0],"parents":[2147483647,0,0,1,1,2,2,3,3,4,4,5,5,6,6],"right_children":[2,4,6,8,10,12,14,-1,-1,-1,-1,-1,-1,-1,-1],"split_conditions":[-1.3396852E0,-1.7104627E0,3.6115542E-1,-3.9115307E0,6.4009947E-1,8.435605E-1,-1.0987744E0,-2.3595028E1,-1.9770193E1,-1.1000494E1,-6.0656295E0,1.116953E0,4.24198E0,-7.6579423E0,-2.123937E0],"split_indices":[1,2,3,2,2,1,2,0,0,0,0,0,0,0,0],"split_type":[0,0,0,0,0,0,0,0,0,0,0,0,0,0,0],"sum_hessian":[7.2763E4,1.618E3,7.1145E4,1.558E3,6E1,5.493E4,1.6215E4,1.437E3,1.21E2,5.5E1,5E0,4.7947E4,6.983E3,2.304E3,1.3911E4],"tree_param":{"num_deleted":"0","num_feature":"4","num_nodes":"15","size_leaf_vector":"1"}},{"base_weights":[2.6710907E-2,-4.1572525E2,9.9707985E0,-4.4365305E2,-1.5736969E2,2.8968983E1,-5.2716206E1,-2.242188E1,-1.8890549E1,-9.632803E0,-5.158114E0,2.1537702E0,5.0513107E-1,-7.252079E0,-1.9569429E0],"categories":[],"categories_nodes":[],"categories_segments":[],"categories_sizes":[],"default_left":[0,0,0,0,0,0,0,0,0,0,0,0,0,0,0],"id":2,"left_children":[1,3,5,7,9,11,13,-1,-1,-1,-1,-1,-1,-1,-1],"loss_changes":[3.0016477E8,1.2167296E7,8.444865E7,3.12512E5,2.9953E5,1.4481928E7,2.066758E7,0E0,0E0,0E0,0E0,0E0,0E0,0E0,0E0],"parents":[2147483647,0,0,1,1,2,2,3,3,4,4,5,5,6,6],"right_children":[2,4,6,8,10,12,14,-1,-1,-1,-1,-1,-1,-1,-1],"split_conditions":[-1.7104627E0,-1.5411022E-1,3.5724655E-1,-3.9115307E0,1.09582834E-1,2.3594111E-1,-1.0987744E0,-2.242188E1,-1.8890549E1,-9.632803E0,-5.158114E0,2.1537702E0,5.0513107E-1,-7.252079E0,-1.9569429E0],"split_indices":[2,3,3,2,0,3,2,0,0,0,0,0,0,0,0],"split_type":[0,0,0,0,0,0,0,0,0,0,0,0,0,0,0],"sum_hessian":[7.2602E4,1.695E3,7.0907E4,1.529E3,1.66E2,5.4416E4,1.6491E4,1.42E3,1.09E2,9.9E1,6.7E1,3.1135E4,2.3281E4,2.113E3,1.4378E4],"tree_param":{"num_deleted":"0","num_feature":"4","num_nodes":"15","size_leaf_vector":"1"}},{"base_weights":[-1.648486E-1,-4.1455127E2,9.050333E0,-4.175149E2,-8.704348E0,2.65875E1,-5.4845444E1,-1.7016891E1,-2.1050554E1,9.5998126E-1,3.9368305E0,-3.3858776E0,-4.5869914E-1],"categories":[],"categories_nodes":[],"categories_segments":[],"categories_sizes":[],"default_left":[0,0,0,0,0,0,0,0,0,0,0,0,0],"id":3,"left_children":[1,3,5,7,-1,9,11,-1,-1,-1,-1,-1,-1],"loss_changes":[2.7804704E8,1.056064E6,7.981717E7,2.78656E5,0E0,2.153128E7,9.017576E6,0E0,0E0,0E0,0E0,0E0,0E0],"parents":[2147483647,0,0,1,1,2,2,3,3,5,5,6,6],"right_children":[2,4,6,8,-1,10,12,-1,-1,-1,-1,-1,-1],"split_conditions":[-1.3396852E0,-1.5411022E-1,3.6707902E-1,-4.185445E0,-8.704348E0,8.435605E-1,6.0306436E-1,-1.7016891E1,-2.1050554E1,9.5998126E-1,3.9368305E0,-3.3858776E0,-4.5869914E-1],"split_indices":[1,3,3,0,0,1,1,0,0,0,0,0,0],"split_type":[0,0,0,0,0,0,0,0,0,0,0,0,0],"sum_hessian":[7.2811E4,1.583E3,7.1228E4,1.563E3,2E1,5.5889E4,1.5339E4,7.2E1,1.491E3,4.8955E4,6.934E3,1.1966E4,3.373E3],"tree_param":{"num_deleted":"0","num_feature":"4","num_nodes":"13","size_leaf_vector":"1"}},{"base_weights":[-2.0113088E-1,-3.9340616E2,8.540434E0,-4.004218E2,-1.869519E2,2.4587856E1,-5.417703E1,-2.0273376E1,-1.6733967E1,-1.0060519E1,-6.8229594E0,8.8254815E-1,3.7341874E0,-6.570391E0,-2.0077598E0],"categories":[],"categories_nodes":[],"categories_segments":[],"categories_sizes":[],"default_left":[0,0,0,0,0,0,0,0,0,0,0,0,0,0,0],"id":4,"left_children":[1,3,5,7,9,11,13,-1,-1,-1,-1,-1,-1,-1,-1],"loss_changes":[2.506632E8,2.222288E6,7.180173E7,3.72736E5,1.1386625E4,1.973932E7,1.5734908E7,0E0,0E0,0E0,0E0,0E0,0E0,0E0,0E0],"parents":[2147483647,0,0,1,1,2,2,3,3,4,4,5,5,6,6],"right_children":[2,4,6,8,10,12,14,-1,-1,-1,-1,-1,-1,-1,-1],"split_conditions":[-1.3396852E0,-1.6951993E0,3.7292516E-1,-3.9115307E0,-7.397944E-2,8.435605E-1,-8.022869E-1,-2.0273376E1,-1.6733967E1,-1.0060519E1,-6.8229594E0,8.8254815E-1,3.7341874E0,-6.570391E0,-2.0077598E0],"split_indices":[1,2,3,2,2,1,2,0,0,0,0,0,0,0,0],"split_type":[0,0,0,0,0,0,0,0,0,0,0,0,0,0,0],"sum_hessian":[7.2924E4,1.585E3,7.1339E4,1.532E3,5.3E1,5.6805E4,1.4534E4,1.418E3,1.14E2,3.9E1,1.4E1,4.9897E4,6.908E3,2.232E3,1.2302E4],"tree_param":{"num_deleted":"0","num_feature":"4","num_nodes":"15","size_leaf_vector":"1"}},{"base_weights":[-4.63934E-2,-3.7347717E2,8.2394495E0,-3.805109E2,-1.7935771E2,2.570138E1,-4.5048237E1,-1.924392E1,-1.6190182E1,-9.262397E0,-5.5403237E0,-1.061319E0,1.6864293E0,-6.566936E0,-1.5909792E0],"categories":[],"categories_nodes":[],"categories_segments":[],"categories_sizes":[],"default_left":[0,0,0,0,0,0,0,0,0,0,0,0,0,0,0],"id":5,"left_children":[1,3,5,7,9,11,13,-1,-1,-1,-1,-1,-1,-1,-1],"loss_changes":[2.2465051E8,2.083536E6,6.6093116E7,2.51744E5,2.45925E3,2.0153352E7,2.0007564E7,0E0,0E0,0E0,0E0,0E0,0E0,0E0,0E0],"parents":[2147483647,0,0,1,1,2,2,3,3,4,4,5,5,6,6],"right_children":[2,4,6,8,10,12,14,-1,-1,-1,-1,-1,-1,-1,-1],"split_conditions":[-1.3396852E0,-1.6186365E0,3.519171E-1,-3.9115307E0,6.371518E-1,-2.4501756E-1,-1.0987744E0,-1.924392E1,-1.6190182E1,-9.262397E0,-5.5403237E0,-1.061319E0,1.6864293E0,-6.566936E0,-1.5909792E0],"split_indices":[1,2,3,2,2,1,2,0,0,0,0,0,0,0,0],"split_type":[0,0,0,0,0,0,0,0,0,0,0,0,0,0,0],"sum_hessian":[7.2602E4,1.575E3,7.1027E4,1.519E3,5.6E1,5.3497E4,1.753E4,1.405E3,1.14E2,5E1,6E0,7.814E3,4.5683E4,2.329E3,1.5201E4],"tree_param":{"num_deleted":"0","num_feature":"4","num_nodes":"15","size_leaf_vector":"1"}},{"base_weights":[-1.5051846E-1,-3.55982E2,7.8446846E0,-3.6129044E2,-1.6879213E2,2.1195429E1,-5.4734154E1,-1.8296036E1,-1.5293617E1,-8.788672E0,-4.6468906E0,7.396388E-1,3.4530303E0,-5.852848E0,-2.1196563E0],"categories":[],"categories_nodes":[],"categories_segments":[],"categories_sizes":[],"default_left":[0,0,0,0,0,0,0,0,0,0,0,0,0,0,0],"id":6,"left_children":[1,3,5,7,9,11,13,-1,-1,-1,-1,-1,-1,-1,-1],"loss_changes":[2.0713755E8,1.52888E6,5.949443E7,2.87008E5,7.997E3,1.7985042E7,9.62526E6,0E0,0E0,0E0,0E0,0E0,0E0,0E0,0E0],"parents":[2147483647,0,0,1,1,2,2,3,3,4,4,5,5,6,6],"right_children":[2,4,6,8,10,12,14,-1,-1,-1,-1,-1,-1,-1,-1],"split_conditions":[-1.3396852E0,-1.6186365E0,3.8579372E-1,-3.9115307E0,6.4009947E-1,8.435605E-1,-8.022869E-1,-1.8296036E1,-1.5293617E1,-8.788672E0,-4.6468906E0,7.396388E-1,3.4530303E0,-5.852848E0,-2.1196563E0],"split_indices":[1,2,3,2,2,1,2,0,0,0,0,0,0,0,0],"split_type":[0,0,0,0,0,0,0,0,0,0,0,0,0,0,0],"sum_hessian":[7.2807E4,1.599E3,7.1208E4,1.554E3,4.5E1,5.8688E4,1.252E4,1.429E3,1.25E2,4E1,5E0,5.1765E4,6.923E3,2.068E3,1.0452E4],"tree_param":{"num_deleted":"0","num_feature":"4","num_nodes":"15","size_leaf_vector":"1"}},{"base_weights":[1.6825566E-2,-3.2297736E2,7.6455746E0,-3.433334E2,-1.2458683E2,2.3569563E1,-3.8641747E1,-1.737521E1,-1.4534595E1,-7.7441225E0,-3.9428232E0,1.7665728E0,3.1516442E-1,-5.7820597E0,-1.3721149E0],"categories":[],"categories_nodes":[],"categories_segments":[],"categories_sizes":[],"default_left":[0,0,0,0,0,0,0,0,0,0,0,0,0,0,0],"id":7,"left_children":[1,3,5,7,9,11,13,-1,-1,-1,-1,-1,-1,-1,-1],"loss_changes":[1.795128E8,6.745824E6,5.2460284E7,2.3352E5,2.06661E5,1.0754088E7,1.5707132E7,0E0,0E0,0E0,0E0,0E0,0E0,0E0,0E0],"parents":[2147483647,0,0,1,1,2,2,3,3,4,4,5,5,6,6],"right_children":[2,4,6,8,10,12,14,-1,-1,-1,-1,-1,-1,-1,-1],"split_conditions":[-1.7104627E0,-1.5411022E-1,3.457785E-1,-3.9115307E0,1.09582834E-1,2.3702201E-1,-8.022869E-1,-1.737521E1,-1.4534595E1,-7.7441225E0,-3.9428232E0,1.7665728E0,3.1516442E-1,-5.7820597E0,-1.3721149E0],"split_indices":[2,3,3,2,0,3,2,0,0,0,0,0,0,0,0],"split_type":[0,0,0,0,0,0,0,0,0,0,0,0,0,0,0],"sum_hessian":[7.2851E4,1.68E3,7.1171E4,1.523E3,1.57E2,5.2954E4,1.8217E4,1.406E3,1.17E2,9.3E1,6.4E1,3.1497E4,2.1457E4,2.312E3,1.5905E4],"tree_param":{"num_deleted":"0","num_feature":"4","num_nodes":"15","size_leaf_vector":"1"}},{"base_weights":[1.6931939E-1,-3.2071545E2,7.2675834E0,-3.230601E2,-6.101398E0,1.9554976E1,-5.011715E1,-1.2538154E1,-1.6314629E1,-1.0234913E0,1.3319819E0,-3.0953195E0,-2.782958E-1],"categories":[],"categories_nodes":[],"categories_segments":[],"categories_sizes":[],"default_left":[0,0,0,0,0,0,0,0,0,0,0,0,0],"id":8,"left_children":[1,3,5,7,-1,9,11,-1,-1,-1,-1,-1,-1],"loss_changes":[1.6597099E8,6.95184E5,5.0268176E7,2.82208E5,0E0,1.665075E7,6.603306E6,0E0,0E0,0E0,0E0,0E0,0E0],"parents":[2147483647,0,0,1,1,2,2,3,3,5,5,6,6],"right_children":[2,4,6,8,-1,10,12,-1,-1,-1,-1,-1,-1],"split_conditions":[-1.3396852E0,5.4575927E-3,3.8579372E-1,-4.185445E0,-6.101398E0,-2.4501756E-1,6.0306436E-1,-1.2538154E1,-1.6314629E1,-1.0234913E0,1.3319819E0,-3.0953195E0,-2.782958E-1],"split_indices":[1,3,3,0,0,1,1,0,0,0,0,0,0],"split_type":[0,0,0,0,0,0,0,0,0,0,0,0,0],"sum_hessian":[7.2865E4,1.576E3,7.1289E4,1.557E3,1.9E1,5.8717E4,1.2572E4,7E1,1.487E3,8.83E3,4.9887E4,9.941E3,2.631E3],"tree_param":{"num_deleted":"0","num_feature":"4","num_nodes":"13","size_leaf_vector":"1"}},{"base_weights":[-2.8184545E-1,-3.0508673E2,6.5444784E0,-3.1047128E2,-1.4867204E2,-9.561858E1,1.1328631E1,-1.2617655E1,-1.5651204E1,-8.024909E0,-5.1283517E0,-7.335636E0,-3.550024E0,2.6342326E-1,3.2130013E0],"categories":[],"categories_nodes":[],"categories_segments":[],"categories_sizes":[],"default_left":[0,0,0,0,0,0,0,0,0,0,0,0,0,0,0],"id":9,"left_children":[1,3,5,7,9,11,13,-1,-1,-1,-1,-1,-1,-1,-1],"loss_changes":[1.5150379E8,1.297136E6,3.481034E7,1.49584E5,1.3500375E4,3.997042E6,2.1823128E7,0E0,0E0,0E0,0E0,0E0,0E0,0E0,0E0],"parents":[2147483647,0,0,1,1,2,2,3,3,4,4,5,5,6,6],"right_children":[2,4,6,8,10,12,14,-1,-1,-1,-1,-1,-1,-1,-1],"split_conditions":[-1.3396852E0,-1.6186365E0,-4.4344968E-1,-4.185445E0,-7.397944E-2,-2.117407E-1,8.435605E-1,-1.2617655E1,-1.5651204E1,-8.024909E0,-5.1283517E0,-7.335636E0,-3.550024E0,2.6342326E-1,3.2130013E0],"split_indices":[1,2,2,0,2,1,1,0,0,0,0,0,0,0,0],"split_type":[0,0,0,0,0,0,0,0,0,0,0,0,0,0,0],"sum_hessian":[7.2812E4,1.594E3,7.1218E4,1.54E3,5.4E1,3.185E3,6.8033E4,6.9E1,1.471E3,4.1E1,1.3E1,1.034E3,2.151E3,6.1045E4,6.988E3],"tree_param":{"num_deleted":"0","num_feature":"4","num_nodes":"15","size_leaf_vector":"1"}},{"base_weights":[1.07874125E-1,-1.8587558E2,9.957364E0,-2.939692E2,-1.0812929E2,1.8502707E1,-3.921584E1,-1.4942334E1,-1.2044441E1,-7.711431E0,-5.009838E0,1.7151358E0,2.47767E-1,-7.0314616E-1,-2.7374907E0],"categories":[],"categories_nodes":[],"categories_segments":[],"categories_sizes":[],"default_left":[0,0,0,0,0,0,0,0,0,0,0,0,0,0,0],"id":10,"left_children":[1,3,5,7,9,11,13,-1,-1,-1,-1,-1,-1,-1,-1],"loss_changes":[1.3333979E8,3.0734784E7,2.9048854E7,3.2432E5,7.63794E5,1.2606212E7,3.998291E6,0E0,0E0,0E0,0E0,0E0,0E0,0E0,0E0],"parents":[2147483647,0,0,1,1,2,2,3,3,4,4,5,5,6,6],"right_children":[2,4,6,8,10,12,14,-1,-1,-1,-1,-1,-1,-1,-1],"split_conditions":[-1.2690324E0,-1.5411022E-1,3.889919E-1,-3.9115307E0,3.8753825E-1,2.2064658E-1,1.2014572E-1,-1.4942334E1,-1.2044441E1,-7.711431E0,-5.009838E0,1.7151358E0,2.47767E-1,-7.0314616E-1,-2.7374907E0],"split_indices":[2,3,3,2,3,3,2,0,0,0,0,0,0,0,0],"split_type":[0,0,0,0,0,0,0,0,0,0,0,0,0,0,0],"sum_hessian":[7.2788E4,3.66E3,6.9128E4,1.53E3,2.13E3,5.8894E4,1.0234E4,1.397E3,1.33E2,3.1E2,1.82E3,2.7186E4,3.1708E4,3.908E3,6.326E3],"tree_param":{"num_deleted":"0","num_feature":"4","num_nodes":"15","size_leaf_vector":"1"}},{"base_weights":[-2.8900868E-1,-1.7718788E2,8.99259E0,-2.793123E2,-1.0224439E2,2.469328E1,-1.5973872E1,-1.4188008E1,-1.1205658E1,-7.283764E0,-4.68912E0,8.886733E-1,2.623393E0,-2.758813E-1,-2.455176E0],"categories":[],"categories_nodes":[],"categories_segments":[],"categories_sizes":[],"default_left":[0,0,0,0,0,0,0,0,0,0,0,0,0,0,0],"id":11,"left_children":[1,3,5,7,9,11,13,-1,-1,-1,-1,-1,-1,-1,-1],"loss_changes":[1.1925805E8,2.7684936E7,2.7052846E7,3.12496E5,7.54412E5,8.142166E6,9.229866E6,0E0,0E0,0E0,0E0,0E0,0E0,0E0,0E0],"parents":[2147483647,0,0,1,1,2,2,3,3,4,4,5,5,6,6],"right_children":[2,4,6,8,10,12,14,-1,-1,-1,-1,-1,-1,-1,-1],"split_conditions":[-1.2690324E0,-1.5411022E-1,2.816805E-1,-3.9115307E0,3.889919E-1,4.5319444E-1,4.149788E-1,-1.4188008E1,-1.1205658E1,-7.283764E0,-4.68912E0,8.886733E-1,2.623393E0,-2.758813E-1,-2.455176E0],"split_indices":[2,3,3,2,3,0,3,0,0,0,0,0,0,0,0],"split_type":[0,0,0,0,0,0,0,0,0,0,0,0,0,0,0],"sum_hessian":[7.2632E4,3.62E3,6.9012E4,1.531E3,2.089E3,4.2368E4,2.6644E4,1.413E3,1.18E2,3.38E2,1.751E3,3.3919E4,8.449E3,2.0253E4,6.391E3],"tree_param":{"num_deleted":"0","num_feature":"4","num_nodes":"15","size_leaf_vector":"1"}},{"base_weights":[-1.0462644E-2,-2.6194183E2,5.7293015E0,-2.661102E2,-1.4266078E2,-8.260524E1,9.836206E0,-1.3477671E1,-1.1098392E1,-7.2050424E0,-1.6199389E0,-6.5414863E0,-3.0273228E0,2.174022E-1,2.8831725E0],"categories":[],"categories_nodes":[],"categories_segments":[],"categories_sizes":[],"default_left":[0,0,0,0,0,0,0,0,0,0,0,0,0,0,0],"id":12,"left_children":[1,3,5,7,9,11,13,-1,-1,-1,-1,-1,-1,-1,-1],"loss_changes":[1.0972443E8,7.40128E5,2.590994E7,1.69776E5,4.04675E3,3.367414E6,1.7913206E7,0E0,0E0,0E0,0E0,0E0,0E0,0E0,0E0],"parents":[2147483647,0,0,1,1,2,2,3,3,4,4,5,5,6,6],"right_children":[2,4,6,8,10,12,14,-1,-1,-1,-1,-1,-1,-1,-1],"split_conditions":[-1.3396852E0,-1.6951993E0,-4.4344968E-1,-3.9115307E0,6.4009947E-1,-2.117407E-1,8.435605E-1,-1.3477671E1,-1.1098392E1,-7.2050424E0,-1.6199389E0,-6.5414863E0,-3.0273228E0,2.174022E-1,2.8831725E0],"split_indices":[1,2,2,2,2,1,1,0,0,0,0,0,0,0,0],"split_type":[0,0,0,0,0,0,0,0,0,0,0,0,0,0,0],"sum_hessian":[7.2981E4,1.564E3,7.1417E4,1.51E3,5.4E1,3.172E3,6.8245E4,1.396E3,1.14E2,5.3E1,1E0,9.94E2,2.178E3,6.1221E4,7.024E3],"tree_param":{"num_deleted":"0","num_feature":"4","num_nodes":"15","size_leaf_vector":"1"}},{"base_weights":[2.9609123E-2,-2.4876648E2,5.5499544E0,-2.5607178E2,-1.8274352E2,-7.826734E1,9.519408E0,-1.0735827E1,-1.2874285E1,-1.0318988E1,-6.4613757E0,-6.167602E0,-2.8753386E0,2.1264847E-1,2.7515323E0],"categories":[],"categories_nodes":[],"categories_segments":[],"categories_sizes":[],"default_left":[0,0,0,0,0,0,0,0,0,0,0,0,0,0,0],"id":13,"left_children":[1,3,5,7,9,11,13,-1,-1,-1,-1,-1,-1,-1,-1],"loss_changes":[1.0003451E8,7.15704E5,2.3707578E7,2.7752E4,1.769485E5,3.00863E6,1.6306058E7,0E0,0E0,0E0,0E0,0E0,0E0,0E0,0E0],"parents":[2147483647,0,0,1,1,2,2,3,3,4,4,5,5,6,6],"right_children":[2,4,6,8,10,12,14,-1,-1,-1,-1,-1,-1,-1,-1],"split_conditions":[-1.3396852E0,-3.9115307E0,-4.4344968E-1,-4.185445E0,-1.6186365E0,-2.117407E-1,8.435605E-1,-1.0735827E1,-1.2874285E1,-1.0318988E1,-6.4613757E0,-6.167602E0,-2.8753386E0,2.1264847E-1,2.7515323E0],"split_indices":[1,2,2,0,2,1,1,0,0,0,0,0,0,0,0],"split_type":[0,0,0,0,0,0,0,0,0,0,0,0,0,0,0],"sum_hessian":[7.2833E4,1.58E3,7.1253E4,1.42E3,1.6E2,3.221E3,6.8032E4,5.2E1,1.368E3,1.09E2,5.1E1,1.014E3,2.207E3,6.0977E4,7.055E3],"tree_param":{"num_deleted":"0","num_feature":"4","num_nodes":"15","size_leaf_vector":"1"}},{"base_weights":[-2.289433E-1,-1.5268706E2,7.822674E0,-2.3949599E2,-8.936971E1,1.5012531E1,-3.9418636E1,-1.216512E1,-9.771329E0,-6.2006974E0,-4.0699344E0,1.4677702E0,1.4071858E-1,-7.2791153E-1,-2.7164426E0],"categories":[],"categories_nodes":[],"categories_segments":[],"categories_sizes":[],"default_left":[0,0,0,0,0,0,0,0,0,0,0,0,0,0,0],"id":14,"left_children":[1,3,5,7,9,11,13,-1,-1,-1,-1,-1,-1,-1,-1],"loss_changes":[8.97352E7,2.0134264E7,2.3584762E7,2.11744E5,5.75876E5,1.05435E7,3.399024E6,0E0,0E0,0E0,0E0,0E0,0E0,0E0,0E0],"parents":[2147483647,0,0,1,1,2,2,3,3,4,4,5,5,6,6],"right_children":[2,4,6,8,10,12,14,-1,-1,-1,-1,-1,-1,-1,-1],"split_conditions":[-1.2690324E0,-1.5411022E-1,3.956987E-1,-3.9115307E0,3.9412218E-1,2.2165565E-1,1.1287778E-1,-1.216512E1,-9.771329E0,-6.2006974E0,-4.0699344E0,1.4677702E0,1.4071858E-1,-7.2791153E-1,-2.7164426E0],"split_indices":[2,3,3,2,3,3,2,0,0,0,0,0,0,0,0],"split_type":[0,0,0,0,0,0,0,0,0,0,0,0,0,0,0],"sum_hessian":[7.31E4,3.666E3,6.9434E4,1.545E3,2.121E3,6.0263E4,9.171E3,1.418E3,1.27E2,3.94E2,1.727E3,2.7696E4,3.2567E4,3.439E3,5.732E3],"tree_param":{"num_deleted":"0","num_feature":"4","num_nodes":"15","size_leaf_vector":"1"}},{"base_weights":[5.010003E-2,-2.2540004E2,5.0546207E0,-2.2825256E2,-1.2737928E2,-7.951237E1,8.333246E0,-8.851198E0,-1.151436E1,-6.673229E0,-4.050894E0,-5.9229674E0,-2.9131725E0,1.7437388E-1,2.4687822E0],"categories":[],"categories_nodes":[],"categories_segments":[],"categories_sizes":[],"default_left":[0,0,0,0,0,0,0,0,0,0,0,0,0,0,0],"id":15,"left_children":[1,3,5,7,9,11,13,-1,-1,-1,-1,-1,-1,-1,-1],"loss_changes":[8.219445E7,4.13232E5,1.976067E7,1.19296E5,2.4253125E3,2.194444E6,1.3644914E7,0E0,0E0,0E0,0E0,0E0,0E0,0E0,0E0],"parents":[2147483647,0,0,1,1,2,2,3,3,4,4,5,5,6,6],"right_children":[2,4,6,8,10,12,14,-1,-1,-1,-1,-1,-1,-1,-1],"split_conditions":[-1.3396852E0,-1.6951993E0,-8.022869E-1,-4.185445E0,6.338793E-1,-2.4501756E-1,8.435605E-1,-8.851198E0,-1.151436E1,-6.673229E0,-4.050894E0,-5.9229674E0,-2.9131725E0,1.7437388E-1,2.4687822E0],"split_indices":[1,2,2,0,2,1,1,0,0,0,0,0,0,0,0],"split_type":[0,0,0,0,0,0,0,0,0,0,0,0,0,0,0],"sum_hessian":[7.2848E4,1.581E3,7.1267E4,1.535E3,4.6E1,2.659E3,6.8608E4,6.2E1,1.473E3,3.9E1,7E0,9.37E2,1.722E3,6.1364E4,7.244E3],"tree_param":{"num_deleted":"0","num_feature":"4","num_nodes":"15","size_leaf_vector":"1"}},{"base_weights":[4.2374525E-2,-1.3769847E2,7.3389544E0,-2.159666E2,-8.167065E1,1.4070743E1,-3.801332E1,-1.0974895E1,-8.728728E0,-5.9194083E0,-3.7616975E0,1.3199309E0,5.375693E-2,-7.069861E-1,-2.6220593E0],"categories":[],"categories_nodes":[],"categories_segments":[],"categories_sizes":[],"default_left":[0,0,0,0,0,0,0,0,0,0,0,0,0,0,0],"id":16,"left_children":[1,3,5,7,9,11,13,-1,-1,-1,-1,-1,-1,-1,-1],"loss_changes":[7.319786E7,1.6049672E7,2.111735E7,1.84992E5,4.96131E5,9.648986E6,3.078589E6,0E0,0E0,0E0,0E0,0E0,0E0,0E0,0E0],"parents":[2147483647,0,0,1,1,2,2,3,3,4,4,5,5,6,6],"right_children":[2,4,6,8,10,12,14,-1,-1,-1,-1,-1,-1,-1,-1],"split_conditions":[-1.2690324E0,-1.5411022E-1,3.974671E-1,-3.9115307E0,3.8579372E-1,2.3477033E-1,1.1287778E-1,-1.0974895E1,-8.728728E0,-5.9194083E0,-3.7616975E0,1.3199309E0,5.375693E-2,-7.069861E-1,-2.6220593E0],"split_indices":[2,3,3,2,3,3,2,0,0,0,0,0,0,0,0],"split_type":[0,0,0,0,0,0,0,0,0,0,0,0,0,0,0],"sum_hessian":[7.2829E4,3.663E3,6.9166E4,1.527E3,2.136E3,6.0227E4,8.939E3,1.403E3,1.24E2,3.16E2,1.82E3,3.0907E4,2.932E4,3.368E3,5.571E3],"tree_param":{"num_deleted":"0","num_feature":"4","num_nodes":"15","size_leaf_vector":"1"}},{"base_weights":[-1.453279E-1,-1.2512789E2,6.9302535E0,-2.0499196E2,-7.5193954E1,1.9061892E1,-1.5061096E1,-1.0439995E1,-8.264631E0,-4.409019E0,-3.2839031E0,2.134211E0,5.022856E-1,-2.9865634E-1,-2.2261162E0],"categories":[],"categories_nodes":[],"categories_segments":[],"categories_sizes":[],"default_left":[0,0,0,0,0,0,0,0,0,0,0,0,0,0,0],"id":17,"left_children":[1,3,5,7,9,11,13,-1,-1,-1,-1,-1,-1,-1,-1],"loss_changes":[6.433636E7,1.55295E7,1.8369922E7,1.92052E5,2.9078E5,9.450693E6,6.5540705E6,0E0,0E0,0E0,0E0,0E0,0E0,0E0,0E0],"parents":[2147483647,0,0,1,1,2,2,3,3,4,4,5,5,6,6],"right_children":[2,4,6,8,10,12,14,-1,-1,-1,-1,-1,-1,-1,-1],"split_conditions":[-1.0987744E0,4.476416E-2,2.9104373E-1,-3.9115307E0,4.2504492E-1,2.4293125E-1,4.1881076E-1,-1.0439995E1,-8.264631E0,-4.409019E0,-3.2839031E0,2.134211E0,5.022856E-1,-2.9865634E-1,-2.2261162E0],"split_indices":[2,3,3,2,3,0,3,0,0,0,0,0,0,0,0],"split_type":[0,0,0,0,0,0,0,0,0,0,0,0,0,0,0],"sum_hessian":[7.275E4,3.897E3,6.8853E4,1.498E3,2.399E3,4.4374E4,2.4479E4,1.363E3,1.35E2,1.011E3,1.388E3,1.2257E4,3.2117E4,1.8709E4,5.77E3],"tree_param":{"num_deleted":"0","num_feature":"4","num_nodes":"15","size_leaf_vector":"1"}},{"base_weights":[1.2763396E-1,-1.9333752E2,4.3228836E0,-1.9440875E2,-9.7119545E1,1.5669333E1,-2.590456E1,-7.3785944E0,-9.824595E0,-3.103048E0,-5.425941E0,-1.354743E0,1.1456292E0,-1.7558702E0,1.3742879E-1],"categories":[],"categories_nodes":[],"categories_segments":[],"categories_sizes":[],"default_left":[0,0,0,0,0,0,0,0,0,0,0,0,0,0,0],"id":18,"left_children":[1,3,5,7,9,11,13,-1,-1,-1,-1,-1,-1,-1,-1],"loss_changes":[5.904318E7,1.40232E5,2.4420852E7,1.1986E5,8.413594E2,1.6036463E7,5.129961E6,0E0,0E0,0E0,0E0,0E0,0E0,0E0,0E0],"parents":[2147483647,0,0,1,1,2,2,3,3,4,4,5,5,6,6],"right_children":[2,4,6,8,10,12,14,-1,-1,-1,-1,-1,-1,-1,-1],"split_conditions":[-1.3396852E0,-1.5411022E-1,3.3790654E-1,-4.185445E0,5.2106774E-1,-2.4501756E-1,6.0306436E-1,-7.3785944E0,-9.824595E0,-3.103048E0,-5.425941E0,-1.354743E0,1.1456292E0,-1.7558702E0,1.3742879E-1],"split_indices":[1,3,3,0,3,1,1,0,0,0,0,0,0,0,0],"split_type":[0,0,0,0,0,0,0,0,0,0,0,0,0,0,0],"sum_hessian":[7.2744E4,1.543E3,7.1201E4,1.525E3,1.8E1,5.1769E4,1.9432E4,6.8E1,1.457E3,6E0,1.2E1,7.498E3,4.4271E4,1.4704E4,4.728E3],"tree_param":{"num_deleted":"0","num_feature":"4","num_nodes":"15","size_leaf_vector":"1"}},{"base_weights":[-3.5219975E-2,-1.1862942E2,6.2889786E0,-1.8459477E2,-7.078987E1,1.7969433E0,4.4389023E1,-9.427669E0,-7.234421E0,-5.655151E0,-2.5881999E0,7.4215215E-1,-8.85519E-1,1.6277498E0,2.8586845E0],"categories":[],"categories_nodes":[],"categories_segments":[],"categories_sizes":[],"default_left":[0,0,0,0,0,0,0,0,0,0,0,0,0,0,0],"id":19,"left_children":[1,3,5,7,9,11,13,-1,-1,-1,-1,-1,-1,-1,-1],"loss_changes":[5.4576972E7,1.16127E7,1.1823417E7,2.17228E5,1.714511E6,1.5727769E7,1.100458E6,0E0,0E0,0E0,0E0,0E0,0E0,0E0,0E0],"parents":[2147483647,0,0,1,1,2,2,3,3,4,4,5,5,6,6],"right_children":[2,4,6,8,10,12,14,-1,-1,-1,-1,-1,-1,-1,-1],"split_conditions":[-1.2690324E0,-1.0173565E0,8.435605E-1,-3.9115307E0,-2.4501756E-1,3.1364447E-1,2.7458342E-2,-9.427669E0,-7.234421E0,-5.655151E0,-2.5881999E0,7.4215215E-1,-8.85519E-1,1.6277498E0,2.8586845E0],"split_indices":[2,1,1,2,1,0,2,0,0,0,0,0,0,0,0],"split_type":[0,0,0,0,0,0,0,0,0,0,0,0,0,0,0],"sum_hessian":[7.2766E4,3.683E3,6.9083E4,1.547E3,2.136E3,6.1798E4,7.285E3,1.404E3,1.43E2,6.61E2,1.475E3,3.7032E4,2.4766E4,3.785E3,3.5E3],"tree_param":{"num_deleted":"0","num_feature":"4","num_nodes":"15","size_leaf_vector":"1"}},{"base_weights":[1.9250484E-1,-1.090577E2,6.39059E0,-1.7482462E2,-6.5381424E1,2.2923197E1,-7.494262E0,-8.94888E0,-6.7772155E0,-5.002739E0,-2.3435183E0,-1.7614262E0,1.4768034E0,-7.241669E-2,-2.0437617E0],"categories":[],"categories_nodes":[],"categories_segments":[],"categories_sizes":[],"default_left":[0,0,0,0,0,0,0,0,0,0,0,0,0,0,0],"id":20,"left_children":[1,3,5,7,9,11,13,-1,-1,-1,-1,-1,-1,-1,-1],"loss_changes":[4.922756E7,1.1199736E7,1.5792488E7,2.297E5,1.501696E6,1.2077443E7,7.546553E6,0E0,0E0,0E0,0E0,0E0,0E0,0E0,0E0],"parents":[2147483647,0,0,1,1,2,2,3,3,4,4,5,5,6,6],"right_children":[2,4,6,8,10,12,14,-1,-1,-1,-1,-1,-1,-1,-1],"split_conditions":[-1.0987744E0,-1.0173565E0,2.3702201E-1,-3.9115307E0,-2.4501756E-1,-2.4501756E-1,4.1881076E-1,-8.94888E0,-6.7772155E0,-5.002739E0,-2.3435183E0,-1.7614262E0,1.4768034E0,-7.241669E-2,-2.0437617E0],"split_indices":[2,1,3,2,1,1,3,0,0,0,0,0,0,0,0],"split_type":[0,0,0,0,0,0,0,0,0,0,0,0,0,0,0],"sum_hessian":[7.2697E4,3.902E3,6.8795E4,1.556E3,2.346E3,3.1403E4,3.7392E4,1.404E3,1.52E2,8.15E2,1.531E3,3.206E3,2.8197E4,3.1659E4,5.733E3],"tree_param":{"num_deleted":"0","num_feature":"4","num_nodes":"15","size_leaf_vector":"1"}},{"base_weights":[-1.3667026E-2,-1.0835843E2,5.7612915E0,-1.6754004E2,-6.500588E1,2.160194E1,-7.365776E0,-8.507571E0,-6.785544E0,-4.847102E0,-2.9886315E0,1.938447E0,3.215163E-1,-9.17128E-2,-2.0030987E0],"categories":[],"categories_nodes":[],"categories_segments":[],"categories_sizes":[],"default_left":[0,0,0,0,0,0,0,0,0,0,0,0,0,0,0],"id":21,"left_children":[1,3,5,7,9,11,13,-1,-1,-1,-1,-1,-1,-1,-1],"loss_changes":[4.5549988E7,9.441028E6,1.4372229E7,1.06292E5,3.49843E5,8.157335E6,6.835694E6,0E0,0E0,0E0,0E0,0E0,0E0,0E0,0E0],"parents":[2147483647,0,0,1,1,2,2,3,3,4,4,5,5,6,6],"right_children":[2,4,6,8,10,12,14,-1,-1,-1,-1,-1,-1,-1,-1],"split_conditions":[-1.2690324E0,-1.5411022E-1,2.3702201E-1,-3.9115307E0,3.8579372E-1,3.1364447E-1,4.230441E-1,-8.507571E0,-6.785544E0,-4.847102E0,-2.9886315E0,1.938447E0,3.215163E-1,-9.17128E-2,-2.0030987E0],"split_indices":[2,3,3,2,3,0,3,0,0,0,0,0,0,0,0],"split_type":[0,0,0,0,0,0,0,0,0,0,0,0,0,0,0],"sum_hessian":[7.2798E4,3.683E3,6.9115E4,1.556E3,2.127E3,3.132E4,3.7795E4,1.434E3,1.22E2,2.97E2,1.83E3,1.4693E4,1.6627E4,3.2327E4,5.468E3],"tree_param":{"num_deleted":"0","num_feature":"4","num_nodes":"15","size_leaf_vector":"1"}},{"base_weights":[1.1981656E-1,-9.4586395E1,5.923675E0,-1.5737378E2,-5.7327103E1,1.8141191E0,4.0944023E1,-8.087582E0,-6.126191E0,-4.5801797E0,-2.0009372E0,7.053237E-1,-8.44473E-1,1.4850736E0,2.6542318E0],"categories":[],"categories_nodes":[],"categories_segments":[],"categories_sizes":[],"default_left":[0,0,0,0,0,0,0,0,0,0,0,0,0,0,0],"id":22,"left_children":[1,3,5,7,9,11,13,-1,-1,-1,-1,-1,-1,-1,-1],"loss_changes":[3.9836716E7,9.781408E6,9.828086E6,2.17856E5,1.555434E6,1.405217E7,9.77333E5,0E0,0E0,0E0,0E0,0E0,0E0,0E0,0E0],"parents":[2147483647,0,0,1,1,2,2,3,3,4,4,5,5,6,6],"right_children":[2,4,6,8,10,12,14,-1,-1,-1,-1,-1,-1,-1,-1],"split_conditions":[-8.022869E-1,-1.0173565E0,8.435605E-1,-3.9115307E0,-2.4501756E-1,3.1962237E-1,2.7458342E-2,-8.087582E0,-6.126191E0,-4.5801797E0,-2.0009372E0,7.053237E-1,-8.44473E-1,1.4850736E0,2.6542318E0],"split_indices":[2,1,1,2,1,0,2,0,0,0,0,0,0,0,0],"split_type":[0,0,0,0,0,0,0,0,0,0,0,0,0,0,0],"sum_hessian":[7.2473E4,4.184E3,6.8289E4,1.557E3,2.627E3,6.1118E4,7.171E3,1.38E3,1.77E2,8.8E2,1.747E3,3.688E4,2.4238E4,3.725E3,3.446E3],"tree_param":{"num_deleted":"0","num_feature":"4","num_nodes":"15","size_leaf_vector":"1"}},{"base_weights":[-1.1838553E-1,-9.084905E1,5.468325E0,-1.5022725E2,-5.616086E1,1.0597442E1,-2.9774096E1,-5.360455E0,-7.6062427E0,-1.4371132E0,-2.965446E0,1.4306277E0,1.0514498E-1,-2.6235586E-1,-2.2055538E0],"categories":[],"categories_nodes":[],"categories_segments":[],"categories_sizes":[],"default_left":[0,0,0,0,0,0,0,0,0,0,0,0,0,0,0],"id":23,"left_children":[1,3,5,7,9,11,13,-1,-1,-1,-1,-1,-1,-1,-1],"loss_changes":[3.681716E7,8.669148E6,1.2368263E7,1.1044E5,2.27972E5,9.140274E6,3.056594E6,0E0,0E0,0E0,0E0,0E0,0E0,0E0,0E0],"parents":[2147483647,0,0,1,1,2,2,3,3,4,4,5,5,6,6],"right_children":[2,4,6,8,10,12,14,-1,-1,-1,-1,-1,-1,-1,-1],"split_conditions":[-8.022869E-1,4.476416E-2,3.974671E-1,-4.185445E0,-5.2444553E-1,2.4446157E-1,1.2014572E-1,-5.360455E0,-7.6062427E0,-1.4371132E0,-2.965446E0,1.4306277E0,1.0514498E-1,-2.6235586E-1,-2.2055538E0],"split_indices":[2,3,3,0,0,0,2,0,0,0,0,0,0,0,0],"split_type":[0,0,0,0,0,0,0,0,0,0,0,0,0,0,0],"sum_hessian":[7.2632E4,4.212E3,6.842E4,1.552E3,2.66E3,5.9728E4,8.692E3,6.8E1,1.484E3,2.75E2,2.385E3,1.9138E4,4.059E4,3.207E3,5.485E3],"tree_param":{"num_deleted":"0","num_feature":"4","num_nodes":"15","size_leaf_vector":"1"}},{"base_weights":[2.1654138E-1,-9.2333244E1,5.0602393E0,-1.4224248E2,-5.5520065E1,1.7455727E1,-9.466126E0,-4.6900516E0,-7.2123246E0,-4.1701384E0,-2.5444286E0,1.9452308E0,4.7018796E-1,-1.4936513E-1,-1.640061E0],"categories":[],"categories_nodes":[],"categories_segments":[],"categories_sizes":[],"default_left":[0,0,0,0,0,0,0,0,0,0,0,0,0,0,0],"id":24,"left_children":[1,3,5,7,9,11,13,-1,-1,-1,-1,-1,-1,-1,-1],"loss_changes":[3.2692858E7,6.656034E6,1.2478779E7,1.35848E5,2.655125E5,6.457789E6,4.824027E6,0E0,0E0,0E0,0E0,0E0,0E0,0E0,0E0],"parents":[2147483647,0,0,1,1,2,2,3,3,4,4,5,5,6,6],"right_children":[2,4,6,8,10,12,14,-1,-1,-1,-1,-1,-1,-1,-1],"split_conditions":[-1.2690324E0,-1.9250045E0,2.5934502E-1,-4.185445E0,3.8579372E-1,2.4559078E-1,4.112777E-1,-4.6900516E0,-7.2123246E0,-4.1701384E0,-2.5444286E0,1.9452308E0,4.7018796E-1,-1.4936513E-1,-1.640061E0],"split_indices":[2,0,3,0,3,0,3,0,0,0,0,0,0,0,0],"split_type":[0,0,0,0,0,0,0,0,0,0,0,0,0,0,0],"sum_hessian":[7.2927E4,3.626E3,6.9301E4,1.538E3,2.088E3,3.7393E4,3.1908E4,6.3E1,1.475E3,2.95E2,1.793E3,1.0205E4,2.7188E4,2.4975E4,6.933E3],"tree_param":{"num_deleted":"0","num_feature":"4","num_nodes":"15","size_leaf_vector":"1"}},{"base_weights":[-5.673704E-2,-8.464917E1,4.6999664E0,-1.356776E2,-5.1720978E1,7.2169906E-1,3.8558537E1,-4.467244E0,-6.8778E0,-4.1269393E0,-1.7146358E0,6.1678964E-1,-8.2511044E-1,-9.917988E-1,2.0368273E0],"categories":[],"categories_nodes":[],"categories_segments":[],"categories_sizes":[],"default_left":[0,0,0,0,0,0,0,0,0,0,0,0,0,0,0],"id":25,"left_children":[1,3,5,7,9,11,13,-1,-1,-1,-1,-1,-1,-1,-1],"loss_changes":[2.9265584E7,6.498984E6,9.275169E6,1.19802E5,1.26203E6,1.2326673E7,9.21621E5,0E0,0E0,0E0,0E0,0E0,0E0,0E0,0E0],"parents":[2147483647,0,0,1,1,2,2,3,3,4,4,5,5,6,6],"right_children":[2,4,6,8,10,12,14,-1,-1,-1,-1,-1,-1,-1,-1],"split_conditions":[-1.0987744E0,-1.0173565E0,8.435605E-1,-4.185445E0,-2.4501756E-1,3.1364447E-1,-1.672509E-1,-4.467244E0,-6.8778E0,-4.1269393E0,-1.7146358E0,6.1678964E-1,-8.2511044E-1,-9.917988E-1,2.0368273E0],"split_indices":[2,1,1,0,1,0,2,0,0,0,0,0,0,0,0],"split_type":[0,0,0,0,0,0,0,0,0,0,0,0,0,0,0],"sum_hessian":[7.2729E4,3.871E3,6.8858E4,1.517E3,2.354E3,6.1619E4,7.239E3,6.1E1,1.456E3,8.49E2,1.505E3,3.6803E4,2.4816E4,2.6E2,6.979E3],"tree_param":{"num_deleted":"0","num_feature":"4","num_nodes":"15","size_leaf_vector":"1"}},{"base_weights":[-1.1887933E-2,-7.3100685E1,5.11008E0,-1.2857095E2,-4.505265E1,-6.1987977E0,1.6755482E1,-6.6133614E0,-5.0006256E0,-3.8434713E0,-1.5480317E0,2.4365103E-1,-1.2877095E0,2.786146E-1,1.4933796E0],"categories":[],"categories_nodes":[],"categories_segments":[],"categories_sizes":[],"default_left":[0,0,0,0,0,0,0,0,0,0,0,0,0,0,0],"id":26,"left_children":[1,3,5,7,9,11,13,-1,-1,-1,-1,-1,-1,-1,-1],"loss_changes":[2.7175436E7,7.390614E6,8.934126E6,1.55222E5,1.413986E6,7.4518805E6,4.900673E6,0E0,0E0,0E0,0E0,0E0,0E0,0E0,0E0],"parents":[2147483647,0,0,1,1,2,2,3,3,4,4,5,5,6,6],"right_children":[2,4,6,8,10,12,14,-1,-1,-1,-1,-1,-1,-1,-1],"split_conditions":[-4.4344968E-1,-1.0173565E0,1.6988203E-1,-3.9115307E0,-2.117407E-1,3.1364447E-1,1.5119126E-1,-6.6133614E0,-5.0006256E0,-3.8434713E0,-1.5480317E0,2.4365103E-1,-1.2877095E0,2.786146E-1,1.4933796E0],"split_indices":[2,1,1,2,1,0,2,0,0,0,0,0,0,0,0],"split_type":[0,0,0,0,0,0,0,0,0,0,0,0,0,0,0],"sum_hessian":[7.259E4,4.753E3,6.7837E4,1.595E3,3.158E3,3.4416E4,3.3421E4,1.409E3,1.86E2,9.68E2,2.19E3,2.1975E4,1.2441E4,1.8038E4,1.5383E4],"tree_param":{"num_deleted":"0","num_feature":"4","num_nodes":"15","size_leaf_vector":"1"}},{"base_weights":[6.340891E-2,-7.949823E1,4.278047E0,-1.0939314E2,-3.3462086E1,1.9400734E1,-6.583868E0,-6.2485676E0,-4.089098E0,-4.4080016E-1,-2.1448245E0,-1.9032605E0,1.2825948E0,-4.8177296E-1,1.8093747E0],"categories":[],"categories_nodes":[],"categories_segments":[],"categories_sizes":[],"default_left":[0,0,0,0,0,0,0,0,0,0,0,0,0,0,0],"id":27,"left_children":[1,3,5,7,9,11,13,-1,-1,-1,-1,-1,-1,-1,-1],"loss_changes":[2.4421944E7,5.038892E6,1.1361592E7,9.45084E5,3.3537712E5,1.0387361E7,5.254457E6,0E0,0E0,0E0,0E0,0E0,0E0,0E0,0E0],"parents":[2147483647,0,0,1,1,2,2,3,3,4,4,5,5,6,6],"right_children":[2,4,6,8,10,12,14,-1,-1,-1,-1,-1,-1,-1,-1],"split_conditions":[-1.2690324E0,-2.4501756E-1,2.270315E-1,-3.9115307E0,2.2760649E-1,-2.4501756E-1,7.9476184E-1,-6.2485676E0,-4.089098E0,-4.4080016E-1,-2.1448245E0,-1.9032605E0,1.2825948E0,-4.8177296E-1,1.8093747E0],"split_indices":[2,1,3,2,1,1,1,0,0,0,0,0,0,0,0],"split_type":[0,0,0,0,0,0,0,0,0,0,0,0,0,0,0],"sum_hessian":[7.2829E4,3.663E3,6.9166E4,2.22E3,1.443E3,2.8912E4,4.0254E4,1.417E3,8.03E2,4E2,1.043E3,2.836E3,2.6076E4,3.7574E4,2.68E3],"tree_param":{"num_deleted":"0","num_feature":"4","num_nodes":"15","size_leaf_vector":"1"}},{"base_weights":[2.9986972E-1,-6.538221E1,4.8812165E0,-1.1595306E2,-4.0449356E1,1.2485524E0,3.6435375E1,-5.9504957E0,-4.504815E0,-3.4249485E0,-1.4021744E0,5.956117E-1,-7.1304506E-1,1.3455629E0,2.2896726E0],"categories":[],"categories_nodes":[],"categories_segments":[],"categories_sizes":[],"default_left":[0,0,0,0,0,0,0,0,0,0,0,0,0,0,0],"id":28,"left_children":[1,3,5,7,9,11,13,-1,-1,-1,-1,-1,-1,-1,-1],"loss_changes":[2.1935322E7,5.988234E6,7.810887E6,1.13272E5,1.106385E6,1.0106856E7,6.25771E5,0E0,0E0,0E0,0E0,0E0,0E0,0E0,0E0],"parents":[2147483647,0,0,1,1,2,2,3,3,4,4,5,5,6,6],"right_children":[2,4,6,8,10,12,14,-1,-1,-1,-1,-1,-1,-1,-1],"split_conditions":[-4.4344968E-1,-1.0173565E0,8.435605E-1,-3.9115307E0,-2.117407E-1,3.1123772E-1,2.7458342E-2,-5.9504957E0,-4.504815E0,-3.4249485E0,-1.4021744E0,5.956117E-1,-7.1304506E-1,1.3455629E0,2.2896726E0],"split_indices":[2,1,1,2,1,0,2,0,0,0,0,0,0,0,0],"split_type":[0,0,0,0,0,0,0,0,0,0,0,0,0,0,0],"sum_hessian":[7.2894E4,4.752E3,6.8142E4,1.568E3,3.184E3,6.1108E4,7.034E3,1.399E3,1.69E2,9.75E2,2.209E3,3.6211E4,2.4897E4,3.488E3,3.546E3],"tree_param":{"num_deleted":"0","num_feature":"4","num_nodes":"15","size_leaf_vector":"1"}},{"base_weights":[-1.3844661E-1,-6.2150883E1,4.2519684E0,-1.1112806E2,-3.9089916E1,2.0564293E1,-4.2178936E0,-5.6519723E0,-4.5135646E0,-7.636698E-1,-2.1308613E0,1.7943264E0,4.1012302E-1,3.856036E-2,-1.3736428E0],"categories":[],"categories_nodes":[],"categories_segments":[],"categories_sizes":[],"default_left":[0,0,0,0,0,0,0,0,0,0,0,0,0,0,0],"id":29,"left_children":[1,3,5,7,9,11,13,-1,-1,-1,-1,-1,-1,-1,-1],"loss_changes":[1.9777806E7,5.420442E6,9.373075E6,5.1048E4,2.737985E5,4.391382E6,5.1809565E6,0E0,0E0,0E0,0E0,0E0,0E0,0E0,0E0],"parents":[2147483647,0,0,1,1,2,2,3,3,4,4,5,5,6,6],"right_children":[2,4,6,8,10,12,14,-1,-1,-1,-1,-1,-1,-1,-1],"split_conditions":[-4.4344968E-1,5.4575927E-3,2.0674677E-1,-3.9115307E0,-5.2444553E-1,3.1962237E-1,4.0080363E-1,-5.6519723E0,-4.5135646E0,-7.636698E-1,-2.1308613E0,1.7943264E0,4.1012302E-1,3.856036E-2,-1.3736428E0],"split_indices":[2,3,3,2,0,0,3,0,0,0,0,0,0,0,0],"split_type":[0,0,0,0,0,0,0,0,0,0,0,0,0,0,0],"sum_hessian":[7.2641E4,4.802E3,6.7839E4,1.536E3,3.266E3,2.3185E4,4.4654E4,1.403E3,1.33E2,4.22E2,2.844E3,1.0352E4,1.2833E4,3.6767E4,7.887E3],"tree_param":{"num_deleted":"0","num_feature":"4","num_nodes":"15","size_leaf_vector":"1"}},{"base_weights":[-2.1871317E-2,-5.937378E1,4.16908E0,-1.0572188E2,-3.7480396E1,1.6196253E1,-6.1490436E0,-3.2499638E0,-5.3621078E0,-7.244036E-1,-2.0458007E0,1.4951942E0,2.0752478E-1,-1.0297634E-1,-1.6239407E0],"categories":[],"categories_nodes":[],"categories_segments":[],"categories_sizes":[],"default_left":[0,0,0,0,0,0,0,0,0,0,0,0,0,0,0],"id":30,"left_children":[1,3,5,7,9,11,13,-1,-1,-1,-1,-1,-1,-1,-1],"loss_changes":[1.8121528E7,4.871736E6,8.444712E6,8.8414E4,2.57313E5,5.188234E6,3.9437798E6,0E0,0E0,0E0,0E0,0E0,0E0,0E0,0E0],"parents":[2147483647,0,0,1,1,2,2,3,3,4,4,5,5,6,6],"right_children":[2,4,6,8,10,12,14,-1,-1,-1,-1,-1,-1,-1,-1],"split_conditions":[-4.4344968E-1,4.476416E-2,2.3702201E-1,-4.185445E0,-5.2444553E-1,3.1364447E-1,4.230441E-1,-3.2499638E0,-5.3621078E0,-7.244036E-1,-2.0458007E0,1.4951942E0,2.0752478E-1,-1.0297634E-1,-1.6239407E0],"split_indices":[2,3,3,0,0,0,3,0,0,0,0,0,0,0,0],"split_type":[0,0,0,0,0,0,0,0,0,0,0,0,0,0,0],"sum_hessian":[7.2851E4,4.804E3,6.8047E4,1.54E3,3.264E3,3.1421E4,3.6626E4,5.7E1,1.483E3,4.25E2,2.839E3,1.4696E4,1.6725E4,3.1703E4,4.923E3],"tree_param":{"num_deleted":"0","num_feature":"4","num_nodes":"15","size_leaf_vector":"1"}},{"base_weights":[-1.1971171E-2,-6.541033E1,3.4611268E0,-9.094315E1,-2.6345018E1,8.01116E0,-2.4104301E1,-5.121265E0,-3.5021894E0,-1.620481E-1,-1.7472914E0,-1.3329509E-1,1.0159035E0,-7.7418715E-2,-1.8926697E0],"categories":[],"categories_nodes":[],"categories_segments":[],"categories_sizes":[],"default_left":[0,0,0,0,0,0,0,0,0,0,0,0,0,0,0],"id":31,"left_children":[1,3,5,7,9,11,13,-1,-1,-1,-1,-1,-1,-1,-1],"loss_changes":[1.6529976E7,3.658226E6,8.667716E6,5.253E5,2.8841512E5,7.7942765E6,3.036357E6,0E0,0E0,0E0,0E0,0E0,0E0,0E0,0E0],"parents":[2147483647,0,0,1,1,2,2,3,3,4,4,5,5,6,6],"right_children":[2,4,6,8,10,12,14,-1,-1,-1,-1,-1,-1,-1,-1],"split_conditions":[-1.2690324E0,-2.4501756E-1,3.9240262E-1,-3.9115307E0,2.2760649E-1,1.766337E-1,1.1287778E-1,-5.121265E0,-3.5021894E0,-1.620481E-1,-1.7472914E0,-1.3329509E-1,1.0159035E0,-7.7418715E-2,-1.8926697E0],"split_indices":[2,1,3,2,1,1,2,0,0,0,0,0,0,0,0],"split_type":[0,0,0,0,0,0,0,0,0,0,0,0,0,0,0],"sum_hessian":[7.2774E4,3.669E3,6.9105E4,2.218E3,1.451E3,5.9315E4,9.79E3,1.429E3,7.89E2,3.94E2,1.057E3,3.1761E4,2.7554E4,3.708E3,6.082E3],"tree_param":{"num_deleted":"0","num_feature":"4","num_nodes":"15","size_leaf_vector":"1"}},{"base_weights":[8.215602E-2,-5.429545E1,3.893637E0,-8.195852E1,-2.1554926E1,1.6752207E1,-4.557051E0,-4.820268E0,-2.6057556E0,1.3412546E-1,-1.6812906E0,-1.8593506E0,1.1168153E0,-3.6191243E-1,2.004446E0],"categories":[],"categories_nodes":[],"categories_segments":[],"categories_sizes":[],"default_left":[0,0,0,0,0,0,0,0,0,0,0,0,0,0,0],"id":32,"left_children":[1,3,5,7,9,11,13,-1,-1,-1,-1,-1,-1,-1,-1],"loss_changes":[1.5121631E7,4.326579E6,7.408882E6,1.111622E6,6.408156E5,8.145026E6,4.925295E6,0E0,0E0,0E0,0E0,0E0,0E0,0E0,0E0],"parents":[2147483647,0,0,1,1,2,2,3,3,4,4,5,5,6,6],"right_children":[2,4,6,8,10,12,14,-1,-1,-1,-1,-1,-1,-1,-1],"split_conditions":[-4.4344968E-1,-2.117407E-1,2.1958233E-1,3.649818E-1,2.2760649E-1,-2.4501756E-1,8.435605E-1,-4.820268E0,-2.6057556E0,1.3412546E-1,-1.6812906E0,-1.8593506E0,1.1168153E0,-3.6191243E-1,2.004446E0],"split_indices":[2,1,3,3,1,1,1,0,0,0,0,0,0,0,0],"split_type":[0,0,0,0,0,0,0,0,0,0,0,0,0,0,0],"sum_hessian":[7.2958E4,4.778E3,6.818E4,2.589E3,2.189E3,2.7038E4,4.1142E4,1.743E3,8.46E2,7.28E2,1.461E3,2.536E3,2.4502E4,3.8812E4,2.33E3],"tree_param":{"num_deleted":"0","num_feature":"4","num_nodes":"15","size_leaf_vector":"1"}},{"base_weights":[8.544741E-2,-5.301624E1,3.593546E0,-7.83058E1,-2.091472E1,1.7937738E1,-3.995503E0,-4.5402393E0,-2.6001637E0,-1.8618971E-2,-1.5643156E0,-1.9040565E0,1.1682101E0,-3.3574435E-1,1.7647142E0],"categories":[],"categories_nodes":[],"categories_segments":[],"categories_sizes":[],"default_left":[0,0,0,0,0,0,0,0,0,0,0,0,0,0,0],"id":33,"left_children":[1,3,5,7,9,11,13,-1,-1,-1,-1,-1,-1,-1,-1],"loss_changes":[1.3593471E7,3.669462E6,7.4513475E6,8.26685E5,4.2482025E5,7.200455E6,4.7832145E6,0E0,0E0,0E0,0E0,0E0,0E0,0E0,0E0],"parents":[2147483647,0,0,1,1,2,2,3,3,4,4,5,5,6,6],"right_children":[2,4,6,8,10,12,14,-1,-1,-1,-1,-1,-1,-1,-1],"split_conditions":[-6.474187E-1,-2.117407E-1,2.0779017E-1,3.6707902E-1,2.2760649E-1,-2.4501756E-1,8.047923E-1,-4.5402393E0,-2.6001637E0,-1.8618971E-2,-1.5643156E0,-1.9040565E0,1.1682101E0,-3.3574435E-1,1.7647142E0],"split_indices":[2,1,3,3,1,1,1,0,0,0,0,0,0,0,0],"split_type":[0,0,0,0,0,0,0,0,0,0,0,0,0,0,0],"sum_hessian":[7.2969E4,4.521E3,6.8448E4,2.528E3,1.993E3,2.3683E4,4.4765E4,1.712E3,8.16E2,6.69E2,1.324E3,2.091E3,2.1592E4,4.1868E4,2.897E3],"tree_param":{"num_deleted":"0","num_feature":"4","num_nodes":"15","size_leaf_vector":"1"}},{"base_weights":[-9.995215E-2,-4.8843365E1,3.3117285E0,-7.366473E1,-1.9819517E1,-5.7403812E0,1.3057358E1,-4.3792486E0,-2.8258684E0,5.2681464E-1,-1.4595568E0,4.9351344E-1,-9.1143864E-1,1.3895519E-1,1.2531315E0],"categories":[],"categories_nodes":[],"categories_segments":[],"categories_sizes":[],"default_left":[0,0,0,0,0,0,0,0,0,0,0,0,0,0,0],"id":34,"left_children":[1,3,5,7,9,11,13,-1,-1,-1,-1,-1,-1,-1,-1],"loss_changes":[1.210858E7,3.42985E6,6.0033445E6,6.07767E5,6.253186E5,6.878279E6,4.0435245E6,0E0,0E0,0E0,0E0,0E0,0E0,0E0,0E0],"parents":[2147483647,0,0,1,1,2,2,3,3,4,4,5,5,6,6],"right_children":[2,4,6,8,10,12,14,-1,-1,-1,-1,-1,-1,-1,-1],"split_conditions":[-4.4344968E-1,-2.4501756E-1,1.7458177E-1,-3.9115307E0,1.6813311E-1,2.4855809E-1,1.5119126E-1,-4.3792486E0,-2.8258684E0,5.2681464E-1,-1.4595568E0,4.9351344E-1,-9.1143864E-1,1.3895519E-1,1.2531315E0],"split_indices":[2,1,1,2,0,0,2,0,0,0,0,0,0,0,0],"split_type":[0,0,0,0,0,0,0,0,0,0,0,0,0,0,0],"sum_hessian":[7.2811E4,4.762E3,6.8049E4,2.566E3,2.196E3,3.528E4,3.2769E4,1.414E3,1.152E3,5.18E2,1.678E3,1.568E4,1.96E4,1.7655E4,1.5114E4],"tree_param":{"num_deleted":"0","num_feature":"4","num_nodes":"15","size_leaf_vector":"1"}},{"base_weights":[-5.680074E-4,-4.64523E1,3.2966979E0,-8.23844E1,-2.917251E1,7.6238995E0,-1.9265615E1,-2.878494E0,-4.1684823E0,-3.3560345E-1,-1.6202338E0,-2.7472922E-1,9.0154266E-1,3.007601E-1,-1.6036192E0],"categories":[],"categories_nodes":[],"categories_segments":[],"categories_sizes":[],"default_left":[0,0,0,0,0,0,0,0,0,0,0,0,0,0,0],"id":35,"left_children":[1,3,5,7,9,11,13,-1,-1,-1,-1,-1,-1,-1,-1],"loss_changes":[1.114098E7,2.990941E6,6.6310945E6,3.3448E4,2.3622325E5,7.780435E6,3.5389535E6,0E0,0E0,0E0,0E0,0E0,0E0,0E0,0E0],"parents":[2147483647,0,0,1,1,2,2,3,3,4,4,5,5,6,6],"right_children":[2,4,6,8,10,12,14,-1,-1,-1,-1,-1,-1,-1,-1],"split_conditions":[-4.4344968E-1,4.476416E-2,3.8051635E-1,-4.185445E0,-5.2444553E-1,1.2390065E-1,1.1287778E-1,-2.878494E0,-4.1684823E0,-3.3560345E-1,-1.6202338E0,-2.7472922E-1,9.0154266E-1,3.007601E-1,-1.6036192E0],"split_indices":[2,3,3,0,0,2,2,0,0,0,0,0,0,0,0],"split_type":[0,0,0,0,0,0,0,0,0,0,0,0,0,0,0],"sum_hessian":[7.2737E4,4.82E3,6.7917E4,1.564E3,3.256E3,5.6988E4,1.0929E4,6.2E1,1.502E3,4.1E2,2.846E3,2.521E4,3.1778E4,3.675E3,7.254E3],"tree_param":{"num_deleted":"0","num_feature":"4","num_nodes":"15","size_leaf_vector":"1"}},{"base_weights":[-1.2753363E-1,-4.437269E1,2.9942877E0,-6.747077E1,-1.7257877E1,1.3836171E1,-5.6647434E0,-3.9620728E0,-2.1710608E0,1.7362641E-1,-1.3855242E0,-1.7172852E0,9.5543605E-1,-4.046157E-1,1.7467743E0],"categories":[],"categories_nodes":[],"categories_segments":[],"categories_sizes":[],"default_left":[0,0,0,0,0,0,0,0,0,0,0,0,0,0,0],"id":36,"left_children":[1,3,5,7,9,11,13,-1,-1,-1,-1,-1,-1,-1,-1],"loss_changes":[1.0026111E7,2.995047E6,6.3654385E6,7.27742E5,4.772428E5,7.649076E6,3.715694E6,0E0,0E0,0E0,0E0,0E0,0E0,0E0,0E0],"parents":[2147483647,0,0,1,1,2,2,3,3,4,4,5,5,6,6],"right_children":[2,4,6,8,10,12,14,-1,-1,-1,-1,-1,-1,-1,-1],"split_conditions":[-4.4344968E-1,-2.117407E-1,2.3252115E-1,3.6707902E-1,2.2760649E-1,-2.4501756E-1,8.047923E-1,-3.9620728E0,-2.1710608E0,1.7362641E-1,-1.3855242E0,-1.7172852E0,9.5543605E-1,-4.046157E-1,1.7467743E0],"split_indices":[2,1,3,3,1,1,1,0,0,0,0,0,0,0,0],"split_type":[0,0,0,0,0,0,0,0,0,0,0,0,0,0,0],"sum_hessian":[7.2585E4,4.783E3,6.7802E4,2.582E3,2.201E3,3.0106E4,3.7696E4,1.732E3,8.5E2,7.38E2,1.463E3,2.969E3,2.7137E4,3.557E4,2.126E3],"tree_param":{"num_deleted":"0","num_feature":"4","num_nodes":"15","size_leaf_vector":"1"}},{"base_weights":[-7.732889E-2,-4.2093563E1,2.8999503E0,-6.3802887E1,-1.6729004E1,-5.802754E0,1.1839046E1,-3.6650827E0,-2.3845627E0,5.6551886E-1,-1.265809E0,-3.8476062E-1,3.951978E0,7.7771895E-2,1.1968867E0],"categories":[],"categories_nodes":[],"categories_segments":[],"categories_sizes":[],"default_left":[0,0,0,0,0,0,0,0,0,0,0,0,0,0,0],"id":37,"left_children":[1,3,5,7,9,11,13,-1,-1,-1,-1,-1,-1,-1,-1],"loss_changes":[9.074199E6,2.642031E6,5.2697775E6,3.92256E5,5.336133E5,5.511682E6,4.157517E6,0E0,0E0,0E0,0E0,0E0,0E0,0E0,0E0],"parents":[2147483647,0,0,1,1,2,2,3,3,4,4,5,5,6,6],"right_children":[2,4,6,8,10,12,14,-1,-1,-1,-1,-1,-1,-1,-1],"split_conditions":[-4.4344968E-1,-2.117407E-1,1.6988203E-1,-1.7104627E0,1.8683974E-1,9.069168E-1,1.5119126E-1,-3.6650827E0,-2.3845627E0,5.6551886E-1,-1.265809E0,-3.8476062E-1,3.951978E0,7.7771895E-2,1.1968867E0],"split_indices":[2,1,1,2,0,2,2,0,0,0,0,0,0,0,0],"split_type":[0,0,0,0,0,0,0,0,0,0,0,0,0,0,0],"sum_hessian":[7.2537E4,4.799E3,6.7738E4,2.585E3,2.214E3,3.4323E4,3.3415E4,1.624E3,9.61E2,5.19E2,1.695E3,3.3575E4,7.48E2,1.8063E4,1.5352E4],"tree_param":{"num_deleted":"0","num_feature":"4","num_nodes":"15","size_leaf_vector":"1"}},{"base_weights":[1.384574E-1,-3.96148E1,2.9522674E0,-6.991082E1,-2.5392475E1,6.5374207E0,-2.0877758E1,-2.1848247E0,-3.5472684E0,-2.6355228E-1,-1.4209698E0,1.145133E0,-5.233348E-2,-2.6570928E0,-4.9620184E-1],"categories":[],"categories_nodes":[],"categories_segments":[],"categories_sizes":[],"default_left":[0,0,0,0,0,0,0,0,0,0,0,0,0,0,0],"id":38,"left_children":[1,3,5,7,9,11,13,-1,-1,-1,-1,-1,-1,-1,-1],"loss_changes":[8.1495365E6,2.073332E6,5.813084E6,3.85995E4,1.995575E5,7.340586E6,3.1441258E6,0E0,0E0,0E0,0E0,0E0,0E0,0E0,0E0],"parents":[2147483647,0,0,1,1,2,2,3,3,4,4,5,5,6,6],"right_children":[2,4,6,8,10,12,14,-1,-1,-1,-1,-1,-1,-1,-1],"split_conditions":[-4.4344968E-1,4.476416E-2,3.9412218E-1,-4.185445E0,-5.2444553E-1,2.4293125E-1,3.2093565E-3,-2.1848247E0,-3.5472684E0,-2.6355228E-1,-1.4209698E0,1.145133E0,-5.233348E-2,-2.6570928E0,-4.9620184E-1],"split_indices":[2,3,3,0,0,0,0,0,0,0,0,0,0,0,0],"split_type":[0,0,0,0,0,0,0,0,0,0,0,0,0,0,0],"sum_hessian":[7.2854E4,4.815E3,6.8039E4,1.537E3,3.278E3,5.9142E4,8.897E3,6E1,1.477E3,4.29E2,2.849E3,1.8728E4,4.0414E4,2.254E3,6.643E3],"tree_param":{"num_deleted":"0","num_feature":"4","num_nodes":"15","size_leaf_vector":"1"}},{"base_weights":[1.0218828E-1,-6.76554E1,1.5992358E0,-2.5950382E0,-6.824619E1,9.37082E0,-1.1349287E1,-3.4006627E0,-4.288461E0,-1.4905843E0,7.454659E-1,-3.4536698E-1,-1.8580679E0],"categories":[],"categories_nodes":[],"categories_segments":[],"categories_sizes":[],"default_left":[0,0,0,0,0,0,0,0,0,0,0,0,0],"id":39,"left_children":[1,3,5,-1,7,9,11,-1,-1,-1,-1,-1,-1],"loss_changes":[7.376652E6,1.1078E4,7.159969E6,0E0,3.225E2,9.649673E6,3.05956E6,0E0,0E0,0E0,0E0,0E0,0E0],"parents":[2147483647,0,0,1,1,2,2,4,4,5,5,6,6],"right_children":[2,4,6,-1,8,10,12,-1,-1,-1,-1,-1,-1],"split_conditions":[-1.3396852E0,-4.185445E0,2.9104373E-1,-2.5950382E0,5.2106774E-1,-3.0618364E-1,4.7367463E-1,-3.4006627E0,-4.288461E0,-1.4905843E0,7.454659E-1,-3.4536698E-1,-1.8580679E0],"split_indices":[1,0,3,0,3,1,0,0,0,0,0,0,0],"split_type":[0,0,0,0,0,0,0,0,0,0,0,0,0],"sum_hessian":[7.272E4,1.571E3,7.1149E4,6E1,1.511E3,4.4463E4,2.6686E4,1.496E3,1.5E1,5.506E3,3.8957E4,2.2769E4,3.917E3],"tree_param":{"num_deleted":"0","num_feature":"4","num_nodes":"13","size_leaf_vector":"1"}},{"base_weights":[-3.7490852E-2,-3.5907803E1,2.4852788E0,-5.5528458E1,-1.3180826E1,-3.956035E-1,2.827199E1,-3.2438915E0,-2.2118695E0,6.008087E-1,-1.0633352E0,4.5493633E-1,-7.1265143E-1,1.049507E0,1.8238677E0],"categories":[],"categories_nodes":[],"categories_segments":[],"categories_sizes":[],"default_left":[0,0,0,0,0,0,0,0,0,0,0,0,0,0,0],"id":40,"left_children":[1,3,5,7,9,11,13,-1,-1,-1,-1,-1,-1,-1,-1],"loss_changes":[6.5828825E6,2.1307495E6,5.04903E6,2.67892E5,4.5174397E5,8.043608E6,4.073225E5,0E0,0E0,0E0,0E0,0E0,0E0,0E0,0E0],"parents":[2147483647,0,0,1,1,2,2,3,3,4,4,5,5,6,6],"right_children":[2,4,6,8,10,12,14,-1,-1,-1,-1,-1,-1,-1,-1],"split_conditions":[-4.4344968E-1,-2.4501756E-1,9.7209567E-1,-3.9115307E0,1.8683974E-1,3.1123772E-1,3.2612532E-2,-3.2438915E0,-2.2118695E0,6.008087E-1,-1.0633352E0,4.5493633E-1,-7.1265143E-1,1.049507E0,1.8238677E0],"split_indices":[2,1,1,2,0,0,2,0,0,0,0,0,0,0,0],"split_type":[0,0,0,0,0,0,0,0,0,0,0,0,0,0,0],"sum_hessian":[7.2743E4,4.779E3,6.7964E4,2.564E3,2.215E3,6.1135E4,6.829E3,1.4E3,1.164E3,5.38E2,1.677E3,3.6279E4,2.4856E4,3.62E3,3.209E3],"tree_param":{"num_deleted":"0","num_feature":"4","num_nodes":"15","size_leaf_vector":"1"}},{"base_weights":[-8.3414875E-2,-3.5501053E1,2.252455E0,-6.011307E1,-2.2369804E1,1.534964E1,-3.9304361E0,-1.7411861E0,-3.0642629E0,-1.5565704E-1,-1.2421428E0,1.3787518E0,2.8920233E-1,3.8792682E-1,-5.6522495E-1],"categories":[],"categories_nodes":[],"categories_segments":[],"categories_sizes":[],"default_left":[0,0,0,0,0,0,0,0,0,0,0,0,0,0,0],"id":41,"left_children":[1,3,5,7,9,11,13,-1,-1,-1,-1,-1,-1,-1,-1],"loss_changes":[6.0478845E6,1.4604195E6,5.5535645E6,4.4486E4,1.404545E5,2.5717685E6,4.0157502E6,0E0,0E0,0E0,0E0,0E0,0E0,0E0,0E0],"parents":[2147483647,0,0,1,1,2,2,3,3,4,4,5,5,6,6],"right_children":[2,4,6,8,10,12,14,-1,-1,-1,-1,-1,-1,-1,-1],"split_conditions":[-6.474187E-1,4.476416E-2,2.0181397E-1,-4.185445E0,-5.2444553E-1,3.1962237E-1,2.4000533E-1,-1.7411861E0,-3.0642629E0,-1.5565704E-1,-1.2421428E0,1.3787518E0,2.8920233E-1,3.8792682E-1,-5.6522495E-1],"split_indices":[2,3,3,0,0,0,0,0,0,0,0,0,0,0,0],"split_type":[0,0,0,0,0,0,0,0,0,0,0,0,0,0,0],"sum_hessian":[7.3101E4,4.522E3,6.8579E4,1.572E3,2.95E3,2.1992E4,4.6587E4,7.1E1,1.501E3,3.36E2,2.614E3,9.653E3,1.2339E4,1.8021E4,2.8566E4],"tree_param":{"num_deleted":"0","num_feature":"4","num_nodes":"15","size_leaf_vector":"1"}},{"base_weights":[-5.0352804E-2,-8.650035E0,9.550299E0,-1.0375105E1,7.386316E1,2.0743397E1,-1.1016182E1,-1.3593752E0,-1.8733273E-1,4.060228E0,1.6844946E0,4.713238E-1,1.7418432E0,-1.2712423E0,1.8938889E-1],"categories":[],"categories_nodes":[],"categories_segments":[],"categories_sizes":[],"default_left":[0,0,0,0,0,0,0,0,0,0,0,0,0,0,0],"id":42,"left_children":[1,3,5,7,9,11,13,-1,-1,-1,-1,-1,-1,-1,-1],"loss_changes":[5.9988295E6,5.456265E6,7.903316E6,4.1836922E6,2.28771E5,3.545552E6,2.581092E6,0E0,0E0,0E0,0E0,0E0,0E0,0E0,0E0],"parents":[2147483647,0,0,1,1,2,2,3,3,4,4,5,5,6,6],"right_children":[2,4,6,8,10,12,14,-1,-1,-1,-1,-1,-1,-1,-1],"split_conditions":[1.7458177E-1,9.069168E-1,3.0696476E-1,-2.4501756E-1,-2.4501756E-1,1.4195712E-1,6.0306436E-1,-1.3593752E0,-1.8733273E-1,4.060228E0,1.6844946E0,4.713238E-1,1.7418432E0,-1.2712423E0,1.8938889E-1],"split_indices":[1,2,3,1,1,2,1,0,0,0,0,0,0,0,0],"split_type":[0,0,0,0,0,0,0,0,0,0,0,0,0,0,0],"sum_hessian":[7.2656E4,3.8326E4,3.433E4,3.7542E4,7.84E2,2.2231E4,1.2099E4,1.0615E4,2.6927E4,6.62E2,1.22E2,1.2331E4,9.9E3,6.131E3,5.968E3],"tree_param":{"num_deleted":"0","num_feature":"4","num_nodes":"15","size_leaf_vector":"1"}},{"base_weights":[8.661698E-3,-8.320886E0,8.935975E0,-1.0406224E1,5.8446423E1,1.891764E1,-1.0782835E1,-9.018149E-2,-1.4753326E0,3.3840446E0,-3.8727233E0,1.4593647E0,5.8575666E-1,-1.2066718E0,1.6820017E-1],"categories":[],"categories_nodes":[],"categories_segments":[],"categories_sizes":[],"default_left":[0,0,0,0,0,0,0,0,0,0,0,0,0,0,0],"id":43,"left_children":[1,3,5,7,9,11,13,-1,-1,-1,-1,-1,-1,-1,-1],"loss_changes":[5.4097245E6,5.240616E6,6.9117705E6,5.996721E6,1.4359102E6,1.7241265E6,2.229113E6,0E0,0E0,0E0,0E0,0E0,0E0,0E0,0E0],"parents":[2147483647,0,0,1,1,2,2,3,3,4,4,5,5,6,6],"right_children":[2,4,6,8,10,12,14,-1,-1,-1,-1,-1,-1,-1,-1],"split_conditions":[1.6988203E-1,5.040827E-1,3.142052E-1,3.1962237E-1,-1.2022847E-2,3.1962237E-1,6.0306436E-1,-9.018149E-2,-1.4753326E0,3.3840446E0,-3.8727233E0,1.4593647E0,5.8575666E-1,-1.2066718E0,1.6820017E-1],"split_indices":[1,0,3,0,1,0,1,0,0,0,0,0,0,0,0],"split_type":[0,0,0,0,0,0,0,0,0,0,0,0,0,0,0],"sum_hessian":[7.2748E4,3.7634E4,3.5114E4,3.6495E4,1.139E3,2.3313E4,1.1801E4,2.5163E4,1.1332E4,1.067E3,7.2E1,9.609E3,1.3704E4,6.071E3,5.73E3],"tree_param":{"num_deleted":"0","num_feature":"4","num_nodes":"15","size_leaf_vector":"1"}},{"base_weights":[1.2276922E-1,-3.756134E1,1.9830701E0,-4.6254436E1,9.493445E0,1.2501233E1,-3.5512788E0,-2.4475703E0,2.7937381E0,-6.703163E-1,1.7018427E0,5.2023023E-1,3.5433114E0,-5.5228233E-1,9.410664E-1],"categories":[],"categories_nodes":[],"categories_segments":[],"categories_sizes":[],"default_left":[0,0,0,0,0,0,0,0,0,0,0,0,0,0,0],"id":44,"left_children":[1,3,5,7,9,11,13,-1,-1,-1,-1,-1,-1,-1,-1],"loss_changes":[5.114352E6,1.404309E6,4.047003E6,8.006815E5,3.0171094E5,2.9323348E6,7.63818E6,0E0,0E0,0E0,0E0,0E0,0E0,0E0,0E0],"parents":[2147483647,0,0,1,1,2,2,3,3,4,4,5,5,6,6],"right_children":[2,4,6,8,10,12,14,-1,-1,-1,-1,-1,-1,-1,-1],"split_conditions":[-1.0766951E-1,1.6391213E-1,2.4855809E-1,7.575496E-1,9.946838E-2,8.8050526E-1,7.248907E-1,-2.4475703E0,2.7937381E0,-6.703163E-1,1.7018427E0,5.2023023E-1,3.5433114E0,-5.5228233E-1,9.410664E-1],"split_indices":[0,1,0,2,2,2,1,0,0,0,0,0,0,0,0],"split_type":[0,0,0,0,0,0,0,0,0,0,0,0,0,0,0],"sum_hessian":[7.2952E4,3.431E3,6.9521E4,2.896E3,5.35E2,2.3968E4,4.5553E4,2.822E3,7.4E1,2.77E2,2.58E2,2.3138E4,8.3E2,3.4123E4,1.143E4],"tree_param":{"num_deleted":"0","num_feature":"4","num_nodes":"15","size_leaf_vector":"1"}},{"base_weights":[1.16655916E-1,-8.979216E0,7.917627E0,-1.3785317E1,1.9648323E1,1.662895E1,-2.6221113E1,-2.1366386E0,-5.041188E-1,8.8064425E-2,1.1269008E0,-7.1812934E-1,1.330569E0,3.2918675E0,-1.6256841E0],"categories":[],"categories_nodes":[],"categories_segments":[],"categories_sizes":[],"default_left":[0,0,0,0,0,0,0,0,0,0,0,0,0,0,0],"id":45,"left_children":[1,3,5,7,9,11,13,-1,-1,-1,-1,-1,-1,-1,-1],"loss_changes":[5.1646495E6,4.623739E6,1.1652912E7,3.0838695E6,2.4966275E5,9.658013E6,4.616716E6,0E0,0E0,0E0,0E0,0E0,0E0,0E0,0E0],"parents":[2147483647,0,0,1,1,2,2,3,3,4,4,5,5,6,6],"right_children":[2,4,6,8,10,12,14,-1,-1,-1,-1,-1,-1,-1,-1],"split_conditions":[1.2014572E-1,9.7209567E-1,3.711023E-1,-2.4501756E-1,-9.897968E-2,-2.4501756E-1,-3.0618364E-1,-2.1366386E0,-5.041188E-1,8.8064425E-2,1.1269008E0,-7.1812934E-1,1.330569E0,3.2918675E0,-1.6256841E0],"split_indices":[2,1,3,1,2,1,1,0,0,0,0,0,0,0,0],"split_type":[0,0,0,0,0,0,0,0,0,0,0,0,0,0,0],"sum_hessian":[7.2784E4,3.3603E4,3.9181E4,2.8773E4,4.83E3,3.1216E4,7.965E3,3.262E3,2.5511E4,6.72E2,4.158E3,7.605E3,2.3611E4,5.09E2,7.456E3],"tree_param":{"num_deleted":"0","num_feature":"4","num_nodes":"15","size_leaf_vector":"1"}},{"base_weights":[6.2253818E-2,-8.322966E0,7.366471E0,-1.2814686E1,1.8518997E1,1.5819277E1,-2.5436928E1,-2.0783186E0,-4.625074E-1,7.890164E-2,1.0664266E0,-6.597287E-1,1.2577535E0,-1.9185736E0,1.0667664E0],"categories":[],"categories_nodes":[],"categories_segments":[],"categories_sizes":[],"default_left":[0,0,0,0,0,0,0,0,0,0,0,0,0,0,0],"id":46,"left_children":[1,3,5,7,9,11,13,-1,-1,-1,-1,-1,-1,-1,-1],"loss_changes":[4.457101E6,4.0849122E6,1.0784682E7,2.9740755E6,2.3113912E5,8.376906E6,4.8218885E6,0E0,0E0,0E0,0E0,0E0,0E0,0E0,0E0],"parents":[2147483647,0,0,1,1,2,2,3,3,4,4,5,5,6,6],"right_children":[2,4,6,8,10,12,14,-1,-1,-1,-1,-1,-1,-1,-1],"split_conditions":[1.2390065E-1,9.7209567E-1,3.711023E-1,-2.4501756E-1,-9.897968E-2,-2.4501756E-1,6.0306436E-1,-2.0783186E0,-4.625074E-1,7.890164E-2,1.0664266E0,-6.597287E-1,1.2577535E0,-1.9185736E0,1.0667664E0],"split_indices":[2,1,3,1,2,1,1,0,0,0,0,0,0,0,0],"split_type":[0,0,0,0,0,0,0,0,0,0,0,0,0,0,0],"sum_hessian":[7.277E4,3.3878E4,3.8892E4,2.9022E4,4.856E3,3.0924E4,7.968E3,3.2E3,2.5822E4,6.91E2,4.165E3,7.528E3,2.3396E4,6.242E3,1.726E3],"tree_param":{"num_deleted":"0","num_feature":"4","num_nodes":"15","size_leaf_vector":"1"}},{"base_weights":[1.5381603E-1,-1.7096193E1,3.3423104E0,-3.2809443E0,-5.863324E1,1.154063E1,-1.2729408E1,-2.3579223E0,3.9209723E-1,4.576171E0,-3.1510992E0,2.5043042E0,3.3524117E-1,-2.10273E0,-3.8452032E-1],"categories":[],"categories_nodes":[],"categories_segments":[],"categories_sizes":[],"default_left":[0,0,0,0,0,0,0,0,0,0,0,0,0,0,0],"id":47,"left_children":[1,3,5,7,9,11,13,-1,-1,-1,-1,-1,-1,-1,-1],"loss_changes":[4.0090095E6,6.524988E6,8.105825E6,4.1653465E6,1.876005E6,7.593155E6,3.0704738E6,0E0,0E0,0E0,0E0,0E0,0E0,0E0,0E0],"parents":[2147483647,0,0,1,1,2,2,3,3,4,4,5,5,6,6],"right_children":[2,4,6,8,10,12,14,-1,-1,-1,-1,-1,-1,-1,-1],"split_conditions":[-2.4501756E-1,2.6675102E-1,3.0521995E-1,1.14328E-1,-1.0173565E0,1.951185E-2,3.2093565E-3,-2.3579223E0,3.9209723E-1,4.576171E0,-3.1510992E0,2.5043042E0,3.3524117E-1,-2.10273E0,-3.8452032E-1],"split_indices":[1,0,3,3,1,1,0,0,0,0,0,0,0,0,0],"split_type":[0,0,0,0,0,0,0,0,0,0,0,0,0,0,0],"sum_hessian":[7.2887E4,1.137E4,6.1517E4,8.533E3,2.837E3,4.0737E4,2.078E4,1.725E3,6.808E3,8E1,2.757E3,4.54E3,3.6197E4,3.046E3,1.7734E4],"tree_param":{"num_deleted":"0","num_feature":"4","num_nodes":"15","size_leaf_vector":"1"}},{"base_weights":[-3.2055702E-2,-8.130103E0,7.1421304E0,-1.2281972E1,1.7467083E1,-5.6217723E0,1.8674147E1,1.1924019E-2,-1.5739007E0,7.789931E-2,1.006299E0,-4.4589922E-1,3.3594327E0,1.6436049E0,-5.722049E-2],"categories":[],"categories_nodes":[],"categories_segments":[],"categories_sizes":[],"default_left":[0,0,0,0,0,0,0,0,0,0,0,0,0,0,0],"id":48,"left_children":[1,3,5,7,9,11,13,-1,-1,-1,-1,-1,-1,-1,-1],"loss_changes":[4.2257365E6,3.631458E6,5.677067E6,7.066099E6,2.0169825E5,4.394247E6,5.7014195E6,0E0,0E0,0E0,0E0,0E0,0E0,0E0,0E0],"parents":[2147483647,0,0,1,1,2,2,3,3,4,4,5,5,6,6],"right_children":[2,4,6,8,10,12,14,-1,-1,-1,-1,-1,-1,-1,-1],"split_conditions":[1.283763E-1,9.7209567E-1,1.16345115E-1,2.9108804E-1,-8.868188E-2,9.069168E-1,3.6688253E-1,1.1924019E-2,-1.5739007E0,7.789931E-2,1.006299E0,-4.4589922E-1,3.3594327E0,1.6436049E0,-5.722049E-2],"split_indices":[2,1,1,0,2,2,0,0,0,0,0,0,0,0,0],"split_type":[0,0,0,0,0,0,0,0,0,0,0,0,0,0,0],"sum_hessian":[7.2734E4,3.4167E4,3.8567E4,2.9399E4,4.768E3,1.8306E4,2.0261E4,1.7794E4,1.1605E4,6.83E2,4.085E3,1.7514E4,7.92E2,1.1804E4,8.457E3],"tree_param":{"num_deleted":"0","num_feature":"4","num_nodes":"15","size_leaf_vector":"1"}},{"base_weights":[-9.3416736E-2,-7.150852E0,7.4789734E0,-9.026352E0,5.2191307E1,1.6116377E1,-8.741126E0,-4.5708567E-2,-1.3176957E0,3.0788324E0,-3.6389282E0,1.3022898E0,4.550601E-1,-9.95454E-1,1.4023487E-1],"categories":[],"categories_nodes":[],"categories_segments":[],"categories_sizes":[],"default_left":[0,0,0,0,0,0,0,0,0,0,0,0,0,0,0],"id":49,"left_children":[1,3,5,7,9,11,13,-1,-1,-1,-1,-1,-1,-1,-1],"loss_changes":[3.8852618E6,4.1885418E6,4.9135725E6,5.127479E6,1.3568162E6,1.593851E6,1.571489E6,0E0,0E0,0E0,0E0,0E0,0E0,0E0,0E0],"parents":[2147483647,0,0,1,1,2,2,3,3,4,4,5,5,6,6],"right_children":[2,4,6,8,10,12,14,-1,-1,-1,-1,-1,-1,-1,-1],"split_conditions":[1.6988203E-1,5.040827E-1,3.0696476E-1,3.1123772E-1,-1.2022847E-2,3.1962237E-1,6.0306436E-1,-4.5708567E-2,-1.3176957E0,3.0788324E0,-3.6389282E0,1.3022898E0,4.550601E-1,-9.95454E-1,1.4023487E-1],"split_indices":[1,0,3,0,1,0,1,0,0,0,0,0,0,0,0],"split_type":[0,0,0,0,0,0,0,0,0,0,0,0,0,0,0],"sum_hessian":[7.2699E4,3.7629E4,3.507E4,3.6477E4,1.152E3,2.2884E4,1.2186E4,2.4846E4,1.1631E4,1.072E3,8E1,9.473E3,1.3411E4,6.194E3,5.992E3],"tree_param":{"num_deleted":"0","num_feature":"4","num_nodes":"15","size_leaf_vector":"1"}}]},"name":"gbtree"},"learner_model_param":{"base_score":"5.0385355E2","boost_from_average":"1","num_class":"0","num_feature":"4","num_target":"1"},"objective":{"name":"reg:squarederror","reg_loss_param":{"scale_pos_weight":"1"}}},"version":[2,1,2]}