{"learner":{"attributes":{"best_iteration":"17","best_score":"1.2913258080080752","scikit_learn":"{\"_estimator_type\": \"regressor\"}"},"feature_names":[],"feature_types":[],"gradient_booster":{"model":{"gbtree_model_param":{"num_parallel_tree":"1","num_trees":"48"},"iteration_indptr":[0,1,2,3,4,5,6,7,8,9,10,11,12,13,14,15,16,17,18,19,20,21,22,23,24,25,26,27,28,29,30,31,32,33,34,35,36,37,38,39,40,41,42,43,44,45,46,47,48],"tree_info":[0,0,0,0,0,0,0,0,0,0,0,0,0,0,0,0,0,0,0,0,0,0,0,0,0,0,0,0,0,0,0,0,0,0,0,0,0,0,0,0,0,0,0,0,0,0,0,0],"trees":[{"base_weights":[1.1183443E-3,9.4808847E-1,-3.879327E-1,-1.0051049E-2,1.4929847E0,4.8233524E-2,-7.4465334E-1,1.05802E-2,-5.228407E-4,2.2862294E-1,4.4325303E-2,9.951266E-2,-9.281899E-4,2.1475289E-4,-4.5203615E-2],"categories":[],"categories_nodes":[],"categories_segments":[],"categories_sizes":[],"default_left":[0,0,0,0,0,0,0,0,0,0,0,0,0,0,0],"id":0,"left_children":[1,3,5,7,9,11,13,-1,-1,-1,-1,-1,-1,-1,-1],"loss_changes":[1.0316175E4,4.257257E3,3.0880906E3,2.4805024E-1,9.703368E3,1.158649E3,1.3036655E3,0E0,0E0,0E0,0E0,0E0,0E0,0E0,0E0],"parents":[2147483647,0,0,1,1,2,2,3,3,4,4,5,5,6,6],"right_children":[2,4,6,8,10,12,14,-1,-1,-1,-1,-1,-1,-1,-1],"split_conditions":[7.306828E-2,-3.1828682E0,4.5649335E-1,-3.067212E0,3.9887133E-1,-2.6628187E-1,2.8411436E-1,1.05802E-2,-5.228407E-4,2.2862294E-1,4.4325303E-2,9.951266E-2,-9.281899E-4,2.1475289E-4,-4.5203615E-2],"split_indices":[5,7,0,0,6,2,7,0,0,0,0,0,0,0,0],"split_type":[0,0,0,0,0,0,0,0,0,0,0,0,0,0,0],"sum_hessian":[2.7999E4,8.153E3,1.9846E4,2.956E3,5.197E3,8.929E3,1.0917E4,4E0,2.952E3,8.54E2,4.343E3,2.96E2,8.633E3,1.916E3,9.001E3],"tree_param":{"num_deleted":"0","num_feature":"9","num_nodes":"15","size_leaf_vector":"1"}},{"base_weights":[1.085804E-3,4.4180232E-1,-6.281063E-1,2.7949718E-1,1.869764E0,1.976176E-1,-7.6944417E-1,-3.710861E-3,3.1160224E-2,2.512224E-1,3.5863277E-2,1.8647699E-2,-4.359141E-2,-3.5718523E-2,-8.290774E-2],"categories":[],"categories_nodes":[],"categories_segments":[],"categories_sizes":[],"default_left":[0,0,0,0,0,0,0,0,0,0,0,0,0,0,0],"id":1,"left_children":[1,3,5,7,9,11,13,-1,-1,-1,-1,-1,-1,-1,-1],"loss_changes":[7.739572E3,3.8034617E3,1.341979E3,1.792105E3,6.0857344E3,3.1548416E2,4.7906738E2,0E0,0E0,0E0,0E0,0E0,0E0,0E0,0E0],"parents":[2147483647,0,0,1,1,2,2,3,3,4,4,5,5,6,6],"right_children":[2,4,6,8,10,12,14,-1,-1,-1,-1,-1,-1,-1,-1],"split_conditions":[4.543175E-1,4.6771088E-1,2.7605903E-1,1.22041434E-1,1.9186951E-1,1.4234695E0,5.2569914E-1,-3.710861E-3,3.1160224E-2,2.512224E-1,3.5863277E-2,1.8647699E-2,-4.359141E-2,-3.5718523E-2,-8.290774E-2],"split_indices":[0,4,7,4,0,8,8,0,0,0,0,0,0,0,0],"split_type":[0,0,0,0,0,0,0,0,0,0,0,0,0,0,0],"sum_hessian":[2.7909E4,1.6413E4,1.1496E4,1.4739E4,1.674E3,1.68E3,9.816E3,7.264E3,7.475E3,4.47E2,1.227E3,1.444E3,2.36E2,9.245E3,5.71E2],"tree_param":{"num_deleted":"0","num_feature":"9","num_nodes":"15","size_leaf_vector":"1"}},{"base_weights":[6.410109E-3,9.189553E-1,-3.3722907E-1,-5.7189283E-3,1.4803175E0,1.1660175E-1,-6.1941236E-1,1.1035653E-2,-3.111524E-4,2.1245785E-1,4.63285E-2,-2.2797095E-2,1.9028004E-2,2.1707108E-3,-3.8413197E-2],"categories":[],"categories_nodes":[],"categories_segments":[],"categories_sizes":[],"default_left":[0,0,0,0,0,0,0,0,0,0,0,0,0,0,0],"id":2,"left_children":[1,3,5,7,9,11,13,-1,-1,-1,-1,-1,-1,-1,-1],"loss_changes":[8.757893E3,3.9659058E3,2.5982747E3,3.094721E-1,7.2845576E3,1.175788E3,1.234377E3,0E0,0E0,0E0,0E0,0E0,0E0,0E0,0E0],"parents":[2147483647,0,0,1,1,2,2,3,3,4,4,5,5,6,6],"right_children":[2,4,6,8,10,12,14,-1,-1,-1,-1,-1,-1,-1,-1],"split_conditions":[6.413862E-2,-3.1828682E0,4.2419916E-1,-3.0760524E0,2.6711428E-1,9.004286E-2,2.8547344E-1,1.1035653E-2,-3.111524E-4,2.1245785E-1,4.63285E-2,-2.2797095E-2,1.9028004E-2,2.1707108E-3,-3.8413197E-2],"split_indices":[5,7,0,5,7,4,7,0,0,0,0,0,0,0,0],"split_type":[0,0,0,0,0,0,0,0,0,0,0,0,0,0,0],"sum_hessian":[2.7926E4,7.639E3,2.0287E4,2.886E3,4.753E3,7.778E3,1.2509E4,5E0,2.881E3,7.91E2,3.962E3,2.454E3,5.324E3,2.294E3,1.0215E4],"tree_param":{"num_deleted":"0","num_feature":"9","num_nodes":"15","size_leaf_vector":"1"}},{"base_weights":[-4.795868E-3,3.936288E-1,-5.794921E-1,2.5038308E-1,1.6821928E0,7.563614E-2,-7.249703E-1,-3.4370895E-3,2.8332895E-2,2.0535384E-1,2.4776105E-2,-1.21559984E-4,4.501345E-1,-4.7514312E-2,-1.7645849E-2],"categories":[],"categories_nodes":[],"categories_segments":[],"categories_sizes":[],"default_left":[0,0,0,0,0,0,0,0,0,0,0,0,0,0,0],"id":3,"left_children":[1,3,5,7,9,11,13,-1,-1,-1,-1,-1,-1,-1,-1],"loss_changes":[6.3837896E3,3.038516E3,1.0880474E3,1.4957878E3,4.736811E3,1.447013E3,7.8258545E2,0E0,0E0,0E0,0E0,0E0,0E0,0E0,0E0],"parents":[2147483647,0,0,1,1,2,2,3,3,4,4,5,5,6,6],"right_children":[2,4,6,8,10,12,14,-1,-1,-1,-1,-1,-1,-1,-1],"split_conditions":[4.543175E-1,4.6771088E-1,2.8547344E-1,1.23520255E-1,-1.19221024E-1,3.1522942E-1,3.9929208E-1,-3.4370895E-3,2.8332895E-2,2.0535384E-1,2.4776105E-2,-1.21559984E-4,4.501345E-1,-4.7514312E-2,-1.7645849E-2],"split_indices":[0,4,7,4,6,2,2,0,0,0,0,0,0,0,0],"split_type":[0,0,0,0,0,0,0,0,0,0,0,0,0,0,0],"sum_hessian":[2.7878E4,1.6464E4,1.1414E4,1.4818E4,1.646E3,2.074E3,9.34E3,7.376E3,7.442E3,5.4E2,1.106E3,2.057E3,1.7E1,5.816E3,3.524E3],"tree_param":{"num_deleted":"0","num_feature":"9","num_nodes":"15","size_leaf_vector":"1"}},{"base_weights":[1.2579297E-3,8.344316E-1,-3.1216332E-1,-1.8970831E-3,1.3476065E0,2.602859E-1,-5.0988996E-1,1.1152284E-2,-1.237337E-4,1.9609486E-1,4.1074894E-2,1.0831924E-2,2.52274E-1,-4.5695896E-3,-3.4781512E-2],"categories":[],"categories_nodes":[],"categories_segments":[],"categories_sizes":[],"default_left":[0,0,0,0,0,0,0,0,0,0,0,0,0,0,0],"id":4,"left_children":[1,3,5,7,9,11,13,-1,-1,-1,-1,-1,-1,-1,-1],"loss_changes":[7.28805E3,3.2743735E3,2.2956196E3,3.5553667E-1,6.399702E3,1.0859222E3,1.1715901E3,0E0,0E0,0E0,0E0,0E0,0E0,0E0,0E0],"parents":[2147483647,0,0,1,1,2,2,3,3,4,4,5,5,6,6],"right_children":[2,4,6,8,10,12,14,-1,-1,-1,-1,-1,-1,-1,-1],"split_conditions":[6.413862E-2,-3.1828682E0,2.7962935E-1,-3.0760524E0,4.0261346E-1,5.005387E-1,4.2763346E-1,1.1152284E-2,-1.237337E-4,1.9609486E-1,4.1074894E-2,1.0831924E-2,2.52274E-1,-4.5695896E-3,-3.4781512E-2],"split_indices":[5,7,7,5,6,5,0,0,0,0,0,0,0,0,0],"split_type":[0,0,0,0,0,0,0,0,0,0,0,0,0,0,0],"sum_hessian":[2.7907E4,7.628E3,2.0279E4,2.901E3,4.727E3,5.206E3,1.5073E4,6E0,2.895E3,8.01E2,3.926E3,5.16E3,4.6E1,4.634E3,1.0439E4],"tree_param":{"num_deleted":"0","num_feature":"9","num_nodes":"15","size_leaf_vector":"1"}},{"base_weights":[-1.9648417E-3,6.7240477E-1,-3.585479E-1,5.015984E-1,1.9359667E0,3.8001835E-2,-6.049145E-1,-3.2381594E-4,3.77536E-2,2.8033388E-1,2.5214002E-2,1.1053475E-2,-3.6205165E-2,-2.4815645E-2,-6.0459882E-2],"categories":[],"categories_nodes":[],"categories_segments":[],"categories_sizes":[],"default_left":[0,0,0,0,0,0,0,0,0,0,0,0,0,0,0],"id":5,"left_children":[1,3,5,7,9,11,13,-1,-1,-1,-1,-1,-1,-1,-1],"loss_changes":[6.70496E3,2.0801958E3,1.7819683E3,1.0943535E3,6.029655E3,9.7533215E2,7.3752344E2,0E0,0E0,0E0,0E0,0E0,0E0,0E0,0E0],"parents":[2147483647,0,0,1,1,2,2,3,3,4,4,5,5,6,6],"right_children":[2,4,6,8,10,12,14,-1,-1,-1,-1,-1,-1,-1,-1],"split_conditions":[1.02085195E-1,4.7009844E-1,4.2419916E-1,-3.0600722E0,-6.536242E-2,4.8280555E-1,4.5996585E-1,-3.2381594E-4,3.77536E-2,2.8033388E-1,2.5214002E-2,1.1053475E-2,-3.6205165E-2,-2.4815645E-2,-6.0459882E-2],"split_indices":[5,4,0,0,5,5,5,0,0,0,0,0,0,0,0],"split_type":[0,0,0,0,0,0,0,0,0,0,0,0,0,0,0],"sum_hessian":[2.7881E4,9.643E3,1.8238E4,8.496E3,1.147E3,6.989E3,1.1249E4,2.828E3,5.668E3,3.21E2,8.26E2,5.636E3,1.353E3,9.537E3,1.712E3],"tree_param":{"num_deleted":"0","num_feature":"9","num_nodes":"15","size_leaf_vector":"1"}},{"base_weights":[1.1160976E-3,7.7101254E-1,-2.851284E-1,2.5118817E-2,1.2594826E0,1.5433874E0,-3.266052E-1,-2.4281318E-4,5.7272865E-3,1.9838963E-1,3.7535246E-2,3.3787072E-1,4.307278E-2,-1.0316788E-2,-4.8551105E-2],"categories":[],"categories_nodes":[],"categories_segments":[],"categories_sizes":[],"default_left":[0,0,0,0,0,0,0,0,0,0,0,0,0,0,0],"id":6,"left_children":[1,3,5,7,9,11,13,-1,-1,-1,-1,-1,-1,-1,-1],"loss_changes":[6.145527E3,2.7535728E3,1.5420774E3,8.0318165E0,6.2895474E3,1.5969976E3,1.5402993E3,0E0,0E0,0E0,0E0,0E0,0E0,0E0,0E0],"parents":[2147483647,0,0,1,1,2,2,3,3,4,4,5,5,6,6],"right_children":[2,4,6,8,10,12,14,-1,-1,-1,-1,-1,-1,-1,-1],"split_conditions":[6.123301E-2,-2.31959E0,-3.39829E-1,-3.0730577E0,4.0261346E-1,-2.8480167E-2,4.6383825E-1,-2.4281318E-4,5.7272865E-3,1.9838963E-1,3.7535246E-2,3.3787072E-1,4.307278E-2,-1.0316788E-2,-4.8551105E-2],"split_indices":[5,1,2,5,6,8,5,0,0,0,0,0,0,0,0],"split_type":[0,0,0,0,0,0,0,0,0,0,0,0,0,0,0],"sum_hessian":[2.7884E4,7.557E3,2.0327E4,2.991E3,4.566E3,4.5E2,1.9877E4,2.24E3,7.51E2,7.21E2,3.845E3,5.1E1,3.99E2,1.6752E4,3.125E3],"tree_param":{"num_deleted":"0","num_feature":"9","num_nodes":"15","size_leaf_vector":"1"}},{"base_weights":[1.910044E-3,5.8907187E-1,-3.4429333E-1,4.653882E-1,2.1755629E0,2.1986292E-1,-5.5114913E-1,2.3886445E-3,3.496239E-2,3.4110317E-1,5.9881326E-2,8.821826E-3,2.4658811E-1,-3.5000212E-2,-7.1691326E-3],"categories":[],"categories_nodes":[],"categories_segments":[],"categories_sizes":[],"default_left":[0,0,0,0,0,0,0,0,0,0,0,0,0,0,0],"id":7,"left_children":[1,3,5,7,9,11,13,-1,-1,-1,-1,-1,-1,-1,-1],"loss_changes":[5.6781714E3,2.0317898E3,2.050789E3,9.3872974E2,3.394469E3,9.634062E2,7.802717E2,0E0,0E0,0E0,0E0,0E0,0E0,0E0,0E0],"parents":[2147483647,0,0,1,1,2,2,3,3,4,4,5,5,6,6],"right_children":[2,4,6,8,10,12,14,-1,-1,-1,-1,-1,-1,-1,-1],"split_conditions":[1.2847942E-1,4.8030597E-1,2.786235E-1,-2.8141994E-2,-2.18451E-1,5.1118594E-1,5.300455E-1,2.3886445E-3,3.496239E-2,3.4110317E-1,5.9881326E-2,8.821826E-3,2.4658811E-1,-3.5000212E-2,-7.1691326E-3],"split_indices":[5,4,7,2,5,5,2,0,0,0,0,0,0,0,0],"split_type":[0,0,0,0,0,0,0,0,0,0,0,0,0,0,0],"sum_hessian":[2.7931E4,1.036E4,1.7571E4,9.612E3,7.48E2,4.714E3,1.2857E4,3.451E3,6.161E3,1.29E2,6.19E2,4.672E3,4.2E1,9.418E3,3.439E3],"tree_param":{"num_deleted":"0","num_feature":"9","num_nodes":"15","size_leaf_vector":"1"}},{"base_weights":[-1.5369661E-3,7.0652467E-1,-2.5873598E-1,-7.5045214E-3,1.1652858E0,9.670753E-2,-4.825117E-1,-3.4700878E-4,-8.882768E-3,1.6461325E-1,3.4789186E-2,1.2107061E-2,-3.462164E-2,1.9149433E-4,-3.1134719E-2],"categories":[],"categories_nodes":[],"categories_segments":[],"categories_sizes":[],"default_left":[0,0,0,0,0,0,0,0,0,0,0,0,0,0,0],"id":8,"left_children":[1,3,5,7,9,11,13,-1,-1,-1,-1,-1,-1,-1,-1],"loss_changes":[5.0863657E3,2.437892E3,1.6296931E3,2.5992948E-1,4.5220625E3,9.086229E2,8.5724927E2,0E0,0E0,0E0,0E0,0E0,0E0,0E0,0E0],"parents":[2147483647,0,0,1,1,2,2,3,3,4,4,5,5,6,6],"right_children":[2,4,6,8,10,12,14,-1,-1,-1,-1,-1,-1,-1,-1],"split_conditions":[5.8244847E-2,-3.1828682E0,4.2419916E-1,-2.31959E0,4.0261346E-1,5.005387E-1,2.9639354E-1,-3.4700878E-4,-8.882768E-3,1.6461325E-1,3.4789186E-2,1.2107061E-2,-3.462164E-2,1.9149433E-4,-3.1134719E-2],"split_indices":[5,7,0,1,6,5,7,0,0,0,0,0,0,0,0],"split_type":[0,0,0,0,0,0,0,0,0,0,0,0,0,0,0],"sum_hessian":[2.7928E4,7.441E3,2.0487E4,2.911E3,4.53E3,7.915E3,1.2572E4,2.903E3,8E0,8.18E2,3.712E3,6.684E3,1.231E3,2.813E3,9.759E3],"tree_param":{"num_deleted":"0","num_feature":"9","num_nodes":"15","size_leaf_vector":"1"}},{"base_weights":[2.484086E-3,5.3485835E-1,-3.1420434E-1,3.9683774E-1,1.7200311E0,1.3447493E-1,-5.2533615E-1,1.170553E-3,3.0526364E-2,2.4604557E-1,1.5809003E-2,6.644375E-2,1.5953443E-3,-3.8674254E-2,-1.1635512E-2],"categories":[],"categories_nodes":[],"categories_segments":[],"categories_sizes":[],"default_left":[0,0,0,0,0,0,0,0,0,0,0,0,0,0,0],"id":9,"left_children":[1,3,5,7,9,11,13,-1,-1,-1,-1,-1,-1,-1,-1],"loss_changes":[4.707749E3,1.7027737E3,1.6586509E3,7.4443176E2,4.877926E3,6.862298E2,8.6427124E2,0E0,0E0,0E0,0E0,0E0,0E0,0E0,0E0],"parents":[2147483647,0,0,1,1,2,2,3,3,4,4,5,5,6,6],"right_children":[2,4,6,8,10,12,14,-1,-1,-1,-1,-1,-1,-1,-1],"split_conditions":[1.2847942E-1,4.7158572E-1,2.9639354E-1,-2.8141994E-2,-5.0272357E-2,-3.39829E-1,3.9929208E-1,1.170553E-3,3.0526364E-2,2.4604557E-1,1.5809003E-2,6.644375E-2,1.5953443E-3,-3.8674254E-2,-1.1635512E-2],"split_indices":[5,4,7,2,5,2,2,0,0,0,0,0,0,0,0],"split_type":[0,0,0,0,0,0,0,0,0,0,0,0,0,0,0],"sum_hessian":[2.7921E4,1.0414E4,1.7507E4,9.329E3,1.085E3,5.602E3,1.1905E4,3.396E3,5.933E3,3.3E2,7.55E2,4.42E2,5.16E3,6.441E3,5.464E3],"tree_param":{"num_deleted":"0","num_feature":"9","num_nodes":"15","size_leaf_vector":"1"}},{"base_weights":[-4.154061E-3,3.1847098E-1,-3.912151E-1,-3.516144E-2,6.931149E-1,2.0707646E-1,-4.9253848E-1,4.58303E-3,-3.263953E-2,1.1833241E-1,2.1687768E-2,7.5383545E-3,5.814393E-1,-3.3993416E-2,-1.1773755E-2],"categories":[],"categories_nodes":[],"categories_segments":[],"categories_sizes":[],"default_left":[0,0,0,0,0,0,0,0,0,0,0,0,0,0,0],"id":10,"left_children":[1,3,5,7,9,11,13,-1,-1,-1,-1,-1,-1,-1,-1],"loss_changes":[3.4869077E3,2.0177229E3,7.696526E2,6.138235E2,3.208469E3,1.1798206E3,5.2252563E2,0E0,0E0,0E0,0E0,0E0,0E0,0E0,0E0],"parents":[2147483647,0,0,1,1,2,2,3,3,4,4,5,5,6,6],"right_children":[2,4,6,8,10,12,14,-1,-1,-1,-1,-1,-1,-1,-1],"split_conditions":[4.4018486E-1,1.3167094E-1,2.7605903E-1,3.558886E-1,2.1092723E-1,6.813113E-1,3.9929208E-1,4.58303E-3,-3.263953E-2,1.1833241E-1,2.1687768E-2,7.5383545E-3,5.814393E-1,-3.3993416E-2,-1.1773755E-2],"split_indices":[0,4,7,7,7,2,2,0,0,0,0,0,0,0,0],"split_type":[0,0,0,0,0,0,0,0,0,0,0,0,0,0,0],"sum_hessian":[2.7921E4,1.5228E4,1.2693E4,7.834E3,7.394E3,1.838E3,1.0855E4,6.5E3,1.334E3,9.91E2,6.403E3,1.83E3,8E0,6.278E3,4.577E3],"tree_param":{"num_deleted":"0","num_feature":"9","num_nodes":"15","size_leaf_vector":"1"}},{"base_weights":[-6.807644E-3,6.444095E-1,-2.2412415E-1,1.0938222E-2,1.1249734E0,9.324725E-2,-4.2477152E-1,-6.343635E-4,2.3676993E-2,1.6976696E-1,3.4998856E-2,9.48894E-3,-4.026198E-2,1.0770051E-4,-2.7232153E-2],"categories":[],"categories_nodes":[],"categories_segments":[],"categories_sizes":[],"default_left":[0,0,0,0,0,0,0,0,0,0,0,0,0,0,0],"id":11,"left_children":[1,3,5,7,9,11,13,-1,-1,-1,-1,-1,-1,-1,-1],"loss_changes":[3.9321006E3,2.116226E3,1.3267126E3,3.283967E1,3.8114517E3,7.000211E2,6.5326855E2,0E0,0E0,0E0,0E0,0E0,0E0,0E0,0E0],"parents":[2147483647,0,0,1,1,2,2,3,3,4,4,5,5,6,6],"right_children":[2,4,6,8,10,12,14,-1,-1,-1,-1,-1,-1,-1,-1],"split_conditions":[4.8320036E-2,-2.8038325E0,4.2419916E-1,-3.1828682E0,2.6711428E-1,5.5325973E-1,2.9639354E-1,-6.343635E-4,2.3676993E-2,1.6976696E-1,3.4998856E-2,9.48894E-3,-4.026198E-2,1.0770051E-4,-2.7232153E-2],"split_indices":[5,0,0,7,7,5,7,0,0,0,0,0,0,0,0],"split_type":[0,0,0,0,0,0,0,0,0,0,0,0,0,0,0],"sum_hessian":[2.7783E4,6.951E3,2.0832E4,2.999E3,3.952E3,8.069E3,1.2763E4,2.854E3,1.45E2,6.22E2,3.33E3,7.287E3,7.82E2,2.798E3,9.965E3],"tree_param":{"num_deleted":"0","num_feature":"9","num_nodes":"15","size_leaf_vector":"1"}},{"base_weights":[4.1134977E-3,6.819044E-1,-1.902131E-1,4.2541024E-1,2.352501E0,1.0726441E-1,-3.887069E-1,6.1108073E-4,5.0295945E-2,2.709628E-1,5.1055383E-2,1.1250547E-2,-2.5984813E-2,2.794268E-3,-2.447373E-2],"categories":[],"categories_nodes":[],"categories_segments":[],"categories_sizes":[],"default_left":[0,0,0,0,0,0,0,0,0,0,0,0,0,0,0],"id":12,"left_children":[1,3,5,7,9,11,13,-1,-1,-1,-1,-1,-1,-1,-1],"loss_changes":[3.6873472E3,2.6716934E3,1.2847649E3,1.2972863E3,3.3827593E3,6.429333E2,5.84718E2,0E0,0E0,0E0,0E0,0E0,0E0,0E0,0E0],"parents":[2147483647,0,0,1,1,2,2,3,3,4,4,5,5,6,6],"right_children":[2,4,6,8,10,12,14,-1,-1,-1,-1,-1,-1,-1,-1],"split_conditions":[2.2774879E-2,4.6025217E-1,4.2419916E-1,-4.139413E-2,-1.6124736E-1,4.8280555E-1,2.8886345E-1,6.1108073E-4,5.0295945E-2,2.709628E-1,5.1055383E-2,1.1250547E-2,-2.5984813E-2,2.794268E-3,-2.447373E-2],"split_indices":[5,4,0,2,5,5,7,0,0,0,0,0,0,0,0],"split_type":[0,0,0,0,0,0,0,0,0,0,0,0,0,0,0],"sum_hessian":[2.7993E4,6.237E3,2.1756E4,5.408E3,8.29E2,8.707E3,1.3049E4,3.16E3,2.248E3,2.5E2,5.79E2,7.331E3,1.376E3,2.411E3,1.0638E4],"tree_param":{"num_deleted":"0","num_feature":"9","num_nodes":"15","size_leaf_vector":"1"}},{"base_weights":[5.919177E-3,4.5155963E-1,-2.6379034E-1,3.4875542E-1,1.5538584E0,1.1030291E-1,-4.419055E-1,-6.9994613E-4,2.529209E-2,6.02179E-1,6.1358273E-2,4.104111E-3,2.3678163E-1,-1.588547E-2,-4.44158E-2],"categories":[],"categories_nodes":[],"categories_segments":[],"categories_sizes":[],"default_left":[0,0,0,0,0,0,0,0,0,0,0,0,0,0,0],"id":13,"left_children":[1,3,5,7,9,11,13,-1,-1,-1,-1,-1,-1,-1,-1],"loss_changes":[3.3571416E3,1.1926511E3,1.1594734E3,5.4903784E2,3.0612664E3,7.317946E2,6.5315283E2,0E0,0E0,0E0,0E0,0E0,0E0,0E0,0E0],"parents":[2147483647,0,0,1,1,2,2,3,3,4,4,5,5,6,6],"right_children":[2,4,6,8,10,12,14,-1,-1,-1,-1,-1,-1,-1,-1],"split_conditions":[1.3099116E-1,4.7721928E-1,2.9639354E-1,-3.1828682E0,-5.360847E-1,5.328895E-1,5.5194885E-1,-6.9994613E-4,2.529209E-2,6.02179E-1,6.1358273E-2,4.104111E-3,2.3678163E-1,-1.588547E-2,-4.44158E-2],"split_indices":[5,4,7,7,5,5,0,0,0,0,0,0,0,0,0],"split_type":[0,0,0,0,0,0,0,0,0,0,0,0,0,0,0],"sum_hessian":[2.7929E4,1.053E4,1.7399E4,9.633E3,8.97E2,5.612E3,1.1787E4,2.911E3,6.722E3,2.6E1,8.71E2,5.579E3,3.3E1,9.223E3,2.564E3],"tree_param":{"num_deleted":"0","num_feature":"9","num_nodes":"15","size_leaf_vector":"1"}},{"base_weights":[7.1068224E-4,2.882349E-1,-3.1752512E-1,-3.4042135E-2,6.615863E-1,-3.802077E-1,3.569056E-1,3.7153082E-3,-2.9343072E-2,1.207834E-1,2.212628E-2,4.6889056E-3,-2.3639157E-2,5.0420195E-1,1.3060981E-2],"categories":[],"categories_nodes":[],"categories_segments":[],"categories_sizes":[],"default_left":[0,0,0,0,0,0,0,0,0,0,0,0,0,0,0],"id":14,"left_children":[1,3,5,7,9,11,13,-1,-1,-1,-1,-1,-1,-1,-1],"loss_changes":[2.5675925E3,1.7738804E3,5.6319946E2,4.7406E2,2.6230754E3,5.348412E2,1.0508715E3,0E0,0E0,0E0,0E0,0E0,0E0,0E0,0E0],"parents":[2147483647,0,0,1,1,2,2,3,3,4,4,5,5,6,6],"right_children":[2,4,6,8,10,12,14,-1,-1,-1,-1,-1,-1,-1,-1],"split_conditions":[4.376827E-1,1.3167094E-1,6.813113E-1,3.567748E-1,-1.19221024E-1,2.8078225E-1,2.8078225E-1,3.7153082E-3,-2.9343072E-2,1.207834E-1,2.212628E-2,4.6889056E-3,-2.3639157E-2,5.0420195E-1,1.3060981E-2],"split_indices":[0,4,2,7,6,7,7,0,0,0,0,0,0,0,0],"split_type":[0,0,0,0,0,0,0,0,0,0,0,0,0,0,0],"sum_hessian":[2.8059E4,1.4741E4,1.3318E4,7.912E3,6.829E3,1.2186E4,1.132E3,6.616E3,1.296E3,7.57E2,6.072E3,1.991E3,1.0195E4,1E1,1.122E3],"tree_param":{"num_deleted":"0","num_feature":"9","num_nodes":"15","size_leaf_vector":"1"}},{"base_weights":[-2.575384E-3,5.9037524E-1,-1.7329307E-1,3.503856E-1,2.043619E0,1.02922946E-1,-3.387245E-1,7.675874E-4,4.2726208E-2,6.172346E-1,8.464745E-2,9.648613E-3,-3.508485E-2,-1.2966401E-2,-4.350924E-2],"categories":[],"categories_nodes":[],"categories_segments":[],"categories_sizes":[],"default_left":[0,0,0,0,0,0,0,0,0,0,0,0,0,0,0],"id":15,"left_children":[1,3,5,7,9,11,13,-1,-1,-1,-1,-1,-1,-1,-1],"loss_changes":[2.8314854E3,2.179862E3,9.925038E2,9.065737E2,3.1781733E3,5.895822E2,5.72853E2,0E0,0E0,0E0,0E0,0E0,0E0,0E0,0E0],"parents":[2147483647,0,0,1,1,2,2,3,3,4,4,5,5,6,6],"right_children":[2,4,6,8,10,12,14,-1,-1,-1,-1,-1,-1,-1,-1],"split_conditions":[2.2774879E-2,4.5654994E-1,4.1478935E-1,-2.0117776E-1,-5.360847E-1,5.47459E-1,4.5996585E-1,7.675874E-4,4.2726208E-2,6.172346E-1,8.464745E-2,9.648613E-3,-3.508485E-2,-1.2966401E-2,-4.350924E-2],"split_indices":[5,4,0,6,5,5,5,0,0,0,0,0,0,0,0],"split_type":[0,0,0,0,0,0,0,0,0,0,0,0,0,0,0],"sum_hessian":[2.797E4,6.252E3,2.1718E4,5.367E3,8.85E2,8.135E3,1.3583E4,3.225E3,2.142E3,2.8E1,8.57E2,7.317E3,8.18E2,1.1819E4,1.764E3],"tree_param":{"num_deleted":"0","num_feature":"9","num_nodes":"15","size_leaf_vector":"1"}},{"base_weights":[-1.7691561E-3,5.32315E-1,-1.7682643E-1,4.605821E-3,9.581849E-1,1.2030603E0,-2.0804368E-1,8.547535E-2,-2.4050302E-4,1.5290262E-1,2.6649445E-2,2.975287E-1,2.830637E-2,-6.0861143E-3,-3.539132E-2],"categories":[],"categories_nodes":[],"categories_segments":[],"categories_sizes":[],"default_left":[0,0,0,0,0,0,0,0,0,0,0,0,0,0,0],"id":16,"left_children":[1,3,5,7,9,11,13,-1,-1,-1,-1,-1,-1,-1,-1],"loss_changes":[2.6144688E3,1.5512483E3,9.0737976E2,4.9686596E1,3.408718E3,1.4050924E3,8.8838245E2,0E0,0E0,0E0,0E0,0E0,0E0,0E0,0E0],"parents":[2147483647,0,0,1,1,2,2,3,3,4,4,5,5,6,6],"right_children":[2,4,6,8,10,12,14,-1,-1,-1,-1,-1,-1,-1,-1],"split_conditions":[4.577737E-2,-2.8038325E0,-3.39829E-1,-3.0760524E0,4.0261346E-1,-2.8480167E-2,4.680354E-1,8.547535E-2,-2.4050302E-4,1.5290262E-1,2.6649445E-2,2.975287E-1,2.830637E-2,-6.0861143E-3,-3.539132E-2],"split_indices":[5,0,2,5,6,8,5,0,0,0,0,0,0,0,0],"split_type":[0,0,0,0,0,0,0,0,0,0,0,0,0,0,0],"sum_hessian":[2.7962E4,6.902E3,2.106E4,3.083E3,3.819E3,4.65E2,2.0595E4,1.6E1,3.067E3,6.42E2,3.177E3,5.4E1,4.11E2,1.7563E4,3.032E3],"tree_param":{"num_deleted":"0","num_feature":"9","num_nodes":"15","size_leaf_vector":"1"}},{"base_weights":[2.032349E-3,5.573018E-1,-1.5837887E-1,3.4216395E-1,1.9975451E0,1.218541E0,-1.8855375E-1,1.4471116E-4,4.118531E-2,2.2860229E-1,4.11992E-2,4.1486148E-2,2.776465E-1,-5.344406E-3,-3.332654E-2],"categories":[],"categories_nodes":[],"categories_segments":[],"categories_sizes":[],"default_left":[0,0,0,0,0,0,0,0,0,0,0,0,0,0,0],"id":17,"left_children":[1,3,5,7,9,11,13,-1,-1,-1,-1,-1,-1,-1,-1],"loss_changes":[2.4837073E3,1.9356506E3,8.9898486E2,8.8849896E2,2.4490159E3,7.7672845E2,8.2624634E2,0E0,0E0,0E0,0E0,0E0,0E0,0E0,0E0],"parents":[2147483647,0,0,1,1,2,2,3,3,4,4,5,5,6,6],"right_children":[2,4,6,8,10,12,14,-1,-1,-1,-1,-1,-1,-1,-1],"split_conditions":[2.2774879E-2,4.6217853E-1,-3.39829E-1,-4.139413E-2,-1.6124736E-1,4.5996585E-1,4.6383825E-1,1.4471116E-4,4.118531E-2,2.2860229E-1,4.11992E-2,4.1486148E-2,2.776465E-1,-5.344406E-3,-3.332654E-2],"split_indices":[5,4,2,2,5,5,5,0,0,0,0,0,0,0,0],"split_type":[0,0,0,0,0,0,0,0,0,0,0,0,0,0,0],"sum_hessian":[2.7882E4,6.249E3,2.1633E4,5.438E3,8.11E2,4.63E2,2.117E4,3.191E3,2.247E3,2.53E2,5.58E2,4.26E2,3.7E1,1.8082E4,3.088E3],"tree_param":{"num_deleted":"0","num_feature":"9","num_nodes":"15","size_leaf_vector":"1"}},{"base_weights":[-4.4234693E-3,3.567297E-1,-2.2148407E-1,2.7331775E-1,1.0493088E0,7.923852E-2,-3.842158E-1,-7.0164324E-4,2.1972435E-2,1.7463766E-1,6.6738175E-3,2.7092774E-3,1.6632238E-1,-3.0707061E-2,-8.507832E-3],"categories":[],"categories_nodes":[],"categories_segments":[],"categories_sizes":[],"default_left":[0,0,0,0,0,0,0,0,0,0,0,0,0,0,0],"id":18,"left_children":[1,3,5,7,9,11,13,-1,-1,-1,-1,-1,-1,-1,-1],"loss_changes":[2.1962207E3,6.0714136E2,8.564114E2,4.4821143E2,2.5278687E3,4.9939105E2,5.586832E2,0E0,0E0,0E0,0E0,0E0,0E0,0E0,0E0],"parents":[2147483647,0,0,1,1,2,2,3,3,4,4,5,5,6,6],"right_children":[2,4,6,8,10,12,14,-1,-1,-1,-1,-1,-1,-1,-1],"split_conditions":[1.3099116E-1,4.7158572E-1,3.0323604E-1,-2.3146793E-2,-6.536242E-2,5.328895E-1,3.6375186E-1,-7.0164324E-4,2.1972435E-2,1.7463766E-1,6.6738175E-3,2.7092774E-3,1.6632238E-1,-3.0707061E-2,-8.507832E-3],"split_indices":[5,4,7,2,5,5,2,0,0,0,0,0,0,0,0],"split_type":[0,0,0,0,0,0,0,0,0,0,0,0,0,0,0],"sum_hessian":[2.8014E4,1.0516E4,1.7498E4,9.387E3,1.129E3,6.144E3,1.1354E4,3.439E3,5.948E3,3.07E2,8.22E2,6.098E3,4.6E1,5.473E3,5.881E3],"tree_param":{"num_deleted":"0","num_feature":"9","num_nodes":"15","size_leaf_vector":"1"}},{"base_weights":[1.9110546E-3,2.6094416E-1,-2.4594888E-1,1.7682189E-1,1.6554633E0,1.5315784E0,-2.7138215E-1,-1.4826623E-3,2.3643332E-2,4.3434285E-2,2.003397E-1,5.4706305E-2,5.389909E-1,-1.4066534E-2,1.616517E-1],"categories":[],"categories_nodes":[],"categories_segments":[],"categories_sizes":[],"default_left":[0,0,0,0,0,0,0,0,0,0,0,0,0,0,0],"id":19,"left_children":[1,3,5,7,9,11,13,-1,-1,-1,-1,-1,-1,-1,-1],"loss_changes":[1.7982892E3,1.6062034E3,6.4735706E2,7.896825E2,1.4371619E3,8.042421E2,4.9261072E2,0E0,0E0,0E0,0E0,0E0,0E0,0E0,0E0],"parents":[2147483647,0,0,1,1,2,2,3,3,4,4,5,5,6,6],"right_children":[2,4,6,8,10,12,14,-1,-1,-1,-1,-1,-1,-1,-1],"split_conditions":[4.1478935E-1,4.6842757E-1,1.4138943E-2,1.2654522E-1,2.1757025E-1,6.562383E-1,8.055846E-1,-1.4826623E-3,2.3643332E-2,4.3434285E-2,2.003397E-1,5.4706305E-2,5.389909E-1,-1.4066534E-2,1.616517E-1],"split_indices":[0,4,6,4,2,2,2,0,0,0,0,0,0,0,0],"split_type":[0,0,0,0,0,0,0,0,0,0,0,0,0,0,0],"sum_hessian":[2.8007E4,1.3695E4,1.4312E4,1.2917E4,7.78E2,2.01E2,1.4111E4,7.61E3,5.307E3,5.84E2,1.94E2,1.93E2,8E0,1.4072E4,3.9E1],"tree_param":{"num_deleted":"0","num_feature":"9","num_nodes":"15","size_leaf_vector":"1"}},{"base_weights":[5.3980935E-4,4.9828932E-1,-1.3856587E-1,-1.5972044E-2,9.650474E-1,9.703887E-2,-2.8092197E-1,-7.122835E-4,-1.7060032E-2,1.2090703E-1,2.5861656E-2,8.580844E-3,-3.1497333E-2,2.5667113E-1,-1.4403552E-2],"categories":[],"categories_nodes":[],"categories_segments":[],"categories_sizes":[],"default_left":[0,0,0,0,0,0,0,0,0,0,0,0,0,0,0],"id":20,"left_children":[1,3,5,7,9,11,13,-1,-1,-1,-1,-1,-1,-1,-1],"loss_changes":[1.9361879E3,1.4662483E3,7.3305743E2,1.5917776E0,2.0820483E3,4.463777E2,5.28345E2,0E0,0E0,0E0,0E0,0E0,0E0,0E0,0E0],"parents":[2147483647,0,0,1,1,2,2,3,3,4,4,5,5,6,6],"right_children":[2,4,6,8,10,12,14,-1,-1,-1,-1,-1,-1,-1,-1],"split_conditions":[1.7542817E-2,-3.1828682E0,4.1478935E-1,-2.8038325E0,4.3496165E-1,5.5973214E-1,-8.7867033E-1,-7.122835E-4,-1.7060032E-2,1.2090703E-1,2.5861656E-2,8.580844E-3,-3.1497333E-2,2.5667113E-1,-1.4403552E-2],"split_indices":[5,7,0,0,6,5,2,0,0,0,0,0,0,0,0],"split_type":[0,0,0,0,0,0,0,0,0,0,0,0,0,0,0],"sum_hessian":[2.7961E4,6.107E3,2.1854E4,2.906E3,3.201E3,8.231E3,1.3623E4,2.892E3,1.4E1,7.53E2,2.448E3,7.466E3,7.65E2,1.7E1,1.3606E4],"tree_param":{"num_deleted":"0","num_feature":"9","num_nodes":"15","size_leaf_vector":"1"}},{"base_weights":[9.816448E-4,2.2926277E-1,-1.759546E-1,8.647395E-2,1.0841705E0,-5.882184E-1,2.196244E-2,1.5598146E-3,4.7394764E-2,2.4875121E-1,2.4506494E-2,-2.7757648E-2,-7.3932886E-2,8.60324E-3,-1.3770011E-2],"categories":[],"categories_nodes":[],"categories_segments":[],"categories_sizes":[],"default_left":[0,0,0,0,0,0,0,0,0,0,0,0,0,0,0],"id":21,"left_children":[1,3,5,7,9,11,13,-1,-1,-1,-1,-1,-1,-1,-1],"loss_changes":[1.1279701E3,1.4883259E3,1.2837068E3,4.9747385E2,4.030277E3,1.4922217E2,4.7450537E2,0E0,0E0,0E0,0E0,0E0,0E0,0E0,0E0],"parents":[2147483647,0,0,1,1,2,2,3,3,4,4,5,5,6,6],"right_children":[2,4,6,8,10,12,14,-1,-1,-1,-1,-1,-1,-1,-1],"split_conditions":[3.1312487E-1,2.6158738E-1,3.9929208E-1,4.723385E-1,2.4484327E-1,4.4373938E-1,1.6350129E-1,1.5598146E-3,4.7394764E-2,2.4875121E-1,2.4506494E-2,-2.7757648E-2,-7.3932886E-2,8.60324E-3,-1.3770011E-2],"split_indices":[7,2,2,4,7,7,1,0,0,0,0,0,0,0,0],"split_type":[0,0,0,0,0,0,0,0,0,0,0,0,0,0,0],"sum_hessian":[2.7924E4,1.2193E4,1.5731E4,1.0449E4,1.744E3,5.102E3,1.0629E4,9.82E3,6.29E2,2.3E2,1.514E3,4.921E3,1.81E2,7.064E3,3.565E3],"tree_param":{"num_deleted":"0","num_feature":"9","num_nodes":"15","size_leaf_vector":"1"}},{"base_weights":[-3.2434291E-3,2.984969E-1,-1.9181255E-1,1.13385335E-1,5.3594404E-1,3.6217984E-2,-3.7247035E-1,1.560376E-1,5.014583E-3,1.6796604E-2,1.1317726E-1,6.6293194E-3,-3.0734852E-2,4.305729E-2,-2.1921E-2],"categories":[],"categories_nodes":[],"categories_segments":[],"categories_sizes":[],"default_left":[0,0,0,0,0,0,0,0,0,0,0,0,0,0,0],"id":22,"left_children":[1,3,5,7,9,11,13,-1,-1,-1,-1,-1,-1,-1,-1],"loss_changes":[1.5827466E3,4.7009644E2,7.052727E2,2.3614166E2,1.6181844E3,4.7475607E2,7.77453E2,0E0,0E0,0E0,0E0,0E0,0E0,0E0,0E0],"parents":[2147483647,0,0,1,1,2,2,3,3,4,4,5,5,6,6],"right_children":[2,4,6,8,10,12,14,-1,-1,-1,-1,-1,-1,-1,-1],"split_conditions":[1.4075923E-1,-1.614832E-1,3.7408242E-1,-3.0760524E0,4.6150318E-1,5.679635E-1,1.4138943E-2,1.560376E-1,5.014583E-3,1.6796604E-2,1.1317726E-1,6.6293194E-3,-3.0734852E-2,4.305729E-2,-2.1921E-2],"split_indices":[5,8,4,5,4,5,6,0,0,0,0,0,0,0,0],"split_type":[0,0,0,0,0,0,0,0,0,0,0,0,0,0,0],"sum_hessian":[2.7815E4,1.0697E4,1.7118E4,6.012E3,4.685E3,7.567E3,9.551E3,2.5E1,5.987E3,4.2E3,4.85E2,6.592E3,9.75E2,4.84E2,9.067E3],"tree_param":{"num_deleted":"0","num_feature":"9","num_nodes":"15","size_leaf_vector":"1"}},{"base_weights":[2.252956E-5,2.8727522E-1,-1.8222907E-1,1.1127644E-1,5.1116896E-1,9.514301E-2,-3.1391504E-1,1.4197782E-1,4.9752505E-3,7.93622E-2,1.3649336E-2,3.2426682E-3,1.419076E-1,-2.4427379E-2,-6.5705176E-3],"categories":[],"categories_nodes":[],"categories_segments":[],"categories_sizes":[],"default_left":[0,0,0,0,0,0,0,0,0,0,0,0,0,0,0],"id":23,"left_children":[1,3,5,7,9,11,13,-1,-1,-1,-1,-1,-1,-1,-1],"loss_changes":[1.4615287E3,4.2691315E2,6.2391595E2,1.9433415E2,1.2216849E3,4.5640872E2,3.690066E2,0E0,0E0,0E0,0E0,0E0,0E0,0E0,0E0],"parents":[2147483647,0,0,1,1,2,2,3,3,4,4,5,5,6,6],"right_children":[2,4,6,8,10,12,14,-1,-1,-1,-1,-1,-1,-1,-1],"split_conditions":[1.4333352E-1,-1.614832E-1,2.9639354E-1,-3.0760524E0,-2.8480167E-2,5.162246E-1,3.6375186E-1,1.4197782E-1,4.9752505E-3,7.93622E-2,1.3649336E-2,3.2426682E-3,1.419076E-1,-2.4427379E-2,-6.5705176E-3],"split_indices":[5,8,7,5,8,5,2,0,0,0,0,0,0,0,0],"split_type":[0,0,0,0,0,0,0,0,0,0,0,0,0,0,0],"sum_hessian":[2.7915E4,1.0836E4,1.7079E4,6.068E3,4.768E3,5.498E3,1.1581E4,2.5E1,6.043E3,8.63E2,3.905E3,5.439E3,5.9E1,5.917E3,5.664E3],"tree_param":{"num_deleted":"0","num_feature":"9","num_nodes":"15","size_leaf_vector":"1"}},{"base_weights":[-2.065716E-3,4.091474E-1,-1.1992233E-1,2.0272444E-1,1.2823155E0,9.4150203E-1,-1.4359021E-1,-2.0883859E-3,3.077792E-2,1.9358037E-1,2.4411345E-2,2.5450352E-1,1.8867277E-2,-3.8850245E-3,-2.6247278E-2],"categories":[],"categories_nodes":[],"categories_segments":[],"categories_sizes":[],"default_left":[0,0,0,0,0,0,0,0,0,0,0,0,0,0,0],"id":24,"left_children":[1,3,5,7,9,11,13,-1,-1,-1,-1,-1,-1,-1,-1],"loss_changes":[1.3634631E3,1.1291678E3,5.4939075E2,5.1182184E2,2.4609138E3,1.1139233E3,5.373991E2,0E0,0E0,0E0,0E0,0E0,0E0,0E0,0E0],"parents":[2147483647,0,0,1,1,2,2,3,3,4,4,5,5,6,6],"right_children":[2,4,6,8,10,12,14,-1,-1,-1,-1,-1,-1,-1,-1],"split_conditions":[2.2774879E-2,4.4089153E-1,-3.39829E-1,1.3792045E-1,-1.6124736E-1,-2.8480167E-2,4.6383825E-1,-2.0883859E-3,3.077792E-2,1.9358037E-1,2.4411345E-2,2.5450352E-1,1.8867277E-2,-3.8850245E-3,-2.6247278E-2],"split_indices":[5,4,2,2,5,8,5,0,0,0,0,0,0,0,0],"split_type":[0,0,0,0,0,0,0,0,0,0,0,0,0,0,0],"sum_hessian":[2.8132E4,6.266E3,2.1866E4,5.069E3,1.197E3,4.76E2,2.139E4,3.184E3,1.885E3,2.8E2,9.17E2,5.6E1,4.2E2,1.824E4,3.15E3],"tree_param":{"num_deleted":"0","num_feature":"9","num_nodes":"15","size_leaf_vector":"1"}},{"base_weights":[-1.04530685E-4,1.9106568E-1,-2.1310593E-1,-3.5645366E-2,4.304066E-1,-1.6971137E-1,-8.0946755E-1,2.5269815E-3,-2.2850728E-2,8.42572E-2,1.449779E-2,1.9235361E-2,-1.172804E-2,-4.350667E-2,1.1845233E-1],"categories":[],"categories_nodes":[],"categories_segments":[],"categories_sizes":[],"default_left":[0,0,0,0,0,0,0,0,0,0,0,0,0,0,0],"id":25,"left_children":[1,3,5,7,9,11,13,-1,-1,-1,-1,-1,-1,-1,-1],"loss_changes":[1.1364434E3,7.98129E2,3.4139136E2,2.7439255E2,1.2602312E3,4.4255774E2,1.7449194E2,0E0,0E0,0E0,0E0,0E0,0E0,0E0,0E0],"parents":[2147483647,0,0,1,1,2,2,3,3,4,4,5,5,6,6],"right_children":[2,4,6,8,10,12,14,-1,-1,-1,-1,-1,-1,-1,-1],"split_conditions":[4.376827E-1,1.2654522E-1,1.4234695E0,3.558886E-1,1.6279751E-1,2.6711428E-1,4.9243194E-1,2.5269815E-3,-2.2850728E-2,8.42572E-2,1.449779E-2,1.9235361E-2,-1.172804E-2,-4.350667E-2,1.1845233E-1],"split_indices":[0,4,8,7,0,7,4,0,0,0,0,0,0,0,0],"split_type":[0,0,0,0,0,0,0,0,0,0,0,0,0,0,0],"sum_hessian":[2.7907E4,1.4707E4,1.32E4,7.553E3,7.154E3,1.2306E4,8.94E2,6.271E3,1.282E3,7.19E2,6.435E3,1.288E3,1.1018E4,8.78E2,1.6E1],"tree_param":{"num_deleted":"0","num_feature":"9","num_nodes":"15","size_leaf_vector":"1"}},{"base_weights":[-5.839063E-4,4.3085888E-1,-1.0431313E-1,1.8664779E-1,1.6860777E0,-3.8454518E-2,-4.7567722E-1,-9.0716913E-4,3.2574017E-2,5.326112E-1,6.890364E-2,4.743366E-3,-7.3133516E-3,1.4694402E-2,-3.336448E-2],"categories":[],"categories_nodes":[],"categories_segments":[],"categories_sizes":[],"default_left":[0,0,0,0,0,0,0,0,0,0,0,0,0,0,0],"id":26,"left_children":[1,3,5,7,9,11,13,-1,-1,-1,-1,-1,-1,-1,-1],"loss_changes":[1.2450022E3,1.6523528E3,5.484636E2,4.2987427E2,2.4088186E3,2.7385355E2,4.983471E2,0E0,0E0,0E0,0E0,0E0,0E0,0E0,0E0],"parents":[2147483647,0,0,1,1,2,2,3,3,4,4,5,5,6,6],"right_children":[2,4,6,8,10,12,14,-1,-1,-1,-1,-1,-1,-1,-1],"split_conditions":[-1.2230687E-2,4.3885282E-1,5.552712E-1,-2.6079237E-1,-5.360847E-1,4.031588E-1,3.7408242E-1,-9.0716913E-4,3.2574017E-2,5.326112E-1,6.890364E-2,4.743366E-3,-7.3133516E-3,1.4694402E-2,-3.336448E-2],"split_indices":[5,4,0,6,5,0,4,0,0,0,0,0,0,0,0],"split_type":[0,0,0,0,0,0,0,0,0,0,0,0,0,0,0],"sum_hessian":[2.7818E4,5.391E3,2.2427E4,4.514E3,8.77E2,1.905E4,3.377E3,3.134E3,1.38E3,2.8E1,8.49E2,8.517E3,1.0533E4,6.73E2,2.704E3],"tree_param":{"num_deleted":"0","num_feature":"9","num_nodes":"15","size_leaf_vector":"1"}},{"base_weights":[-9.2149974E-4,2.5342044E-1,-1.6053528E-1,-1.1756477E-2,3.828387E-1,6.2202163E-2,-2.8020313E-1,-9.399809E-3,1.9622508E-3,-1.8089258E-3,2.6766017E-2,2.1634677E-1,2.5388878E-3,-2.278995E-2,-5.5297716E-3],"categories":[],"categories_nodes":[],"categories_segments":[],"categories_sizes":[],"default_left":[0,0,0,0,0,0,0,0,0,0,0,0,0,0,0],"id":27,"left_children":[1,3,5,7,9,11,13,-1,-1,-1,-1,-1,-1,-1,-1],"loss_changes":[1.1345813E3,3.6986035E2,4.5775055E2,3.1796556E1,4.627782E2,2.9177228E2,3.3259216E2,0E0,0E0,0E0,0E0,0E0,0E0,0E0,0E0],"parents":[2147483647,0,0,1,1,2,2,3,3,4,4,5,5,6,6],"right_children":[2,4,6,8,10,12,14,-1,-1,-1,-1,-1,-1,-1,-1],"split_conditions":[1.4075923E-1,-6.602446E-1,3.0323604E-1,-1.7131852E0,-3.1828682E0,-1.8472784E0,3.6375186E-1,-9.399809E-3,1.9622508E-3,-1.8089258E-3,2.6766017E-2,2.1634677E-1,2.5388878E-3,-2.278995E-2,-5.5297716E-3],"split_indices":[5,8,7,8,7,2,2,0,0,0,0,0,0,0,0],"split_type":[0,0,0,0,0,0,0,0,0,0,0,0,0,0,0],"sum_hessian":[2.7946E4,1.0775E4,1.7171E4,3.534E3,7.241E3,6.001E3,1.117E4,7.93E2,2.741E3,1.932E3,5.309E3,1.5E1,5.986E3,5.487E3,5.683E3],"tree_param":{"num_deleted":"0","num_feature":"9","num_nodes":"15","size_leaf_vector":"1"}},{"base_weights":[6.213214E-4,3.9086002E-1,-9.245461E-2,1.8359862E-1,1.6665738E0,9.683346E-2,-2.0652542E-1,-1.7271292E-3,3.1595644E-2,4.619103E-1,6.8585776E-2,-9.858421E-3,1.0746989E-2,1.9335404E-1,-1.0572093E-2],"categories":[],"categories_nodes":[],"categories_segments":[],"categories_sizes":[],"default_left":[0,0,0,0,0,0,0,0,0,0,0,0,0,0,0],"id":28,"left_children":[1,3,5,7,9,11,13,-1,-1,-1,-1,-1,-1,-1,-1],"loss_changes":[1.0150795E3,1.4225432E3,4.872383E2,4.529739E2,1.6651511E3,2.946729E2,2.8244116E2,0E0,0E0,0E0,0E0,0E0,0E0,0E0,0E0],"parents":[2147483647,0,0,1,1,2,2,3,3,4,4,5,5,6,6],"right_children":[2,4,6,8,10,12,14,-1,-1,-1,-1,-1,-1,-1,-1],"split_conditions":[-1.2230687E-2,4.471034E-1,4.031588E-1,-4.139413E-2,-5.360847E-1,9.004286E-2,-8.7867033E-1,-1.7271292E-3,3.1595644E-2,4.619103E-1,6.8585776E-2,-9.858421E-3,1.0746989E-2,1.9335404E-1,-1.0572093E-2],"split_indices":[5,4,0,2,5,4,2,0,0,0,0,0,0,0,0],"split_type":[0,0,0,0,0,0,0,0,0,0,0,0,0,0,0],"sum_hessian":[2.7944E4,5.381E3,2.2563E4,4.63E3,7.51E2,8.484E3,1.4079E4,3.115E3,1.515E3,2.7E1,7.24E2,2.431E3,6.053E3,1.6E1,1.4063E4],"tree_param":{"num_deleted":"0","num_feature":"9","num_nodes":"15","size_leaf_vector":"1"}},{"base_weights":[6.654042E-3,3.5117716E-1,-9.282899E-2,-2.2025999E-2,7.013036E-1,8.691692E-1,-1.1524278E-1,-1.6645348E-3,1.4174883E-2,1.0408874E-1,1.6802436E-2,2.3931442E-1,1.614407E-2,-2.879796E-3,-2.3253703E-2],"categories":[],"categories_nodes":[],"categories_segments":[],"categories_sizes":[],"default_left":[0,0,0,0,0,0,0,0,0,0,0,0,0,0,0],"id":29,"left_children":[1,3,5,7,9,11,13,-1,-1,-1,-1,-1,-1,-1,-1],"loss_changes":[9.525385E2,8.13755E2,4.649883E2,1.0360936E1,1.6191298E3,1.048622E3,4.2491345E2,0E0,0E0,0E0,0E0,0E0,0E0,0E0,0E0],"parents":[2147483647,0,0,1,1,2,2,3,3,4,4,5,5,6,6],"right_children":[2,4,6,8,10,12,14,-1,-1,-1,-1,-1,-1,-1,-1],"split_conditions":[2.2774879E-2,-2.3493319E0,-3.39829E-1,-3.1828682E0,4.3496165E-1,-2.8480167E-2,4.680354E-1,-1.6645348E-3,1.4174883E-2,1.0408874E-1,1.6802436E-2,2.3931442E-1,1.614407E-2,-2.879796E-3,-2.3253703E-2],"split_indices":[5,7,2,7,6,8,5,0,0,0,0,0,0,0,0],"split_type":[0,0,0,0,0,0,0,0,0,0,0,0,0,0,0],"sum_hessian":[2.7789E4,6.226E3,2.1563E4,3.014E3,3.212E3,4.9E2,2.1073E4,2.908E3,1.06E2,6.71E2,2.541E3,5.9E1,4.31E2,1.8093E4,2.98E3],"tree_param":{"num_deleted":"0","num_feature":"9","num_nodes":"15","size_leaf_vector":"1"}},{"base_weights":[8.790265E-4,3.521306E-1,-8.3132215E-2,1.6985416E-1,1.6185129E0,8.192637E-1,-1.0296946E-1,-1.6158626E-3,3.0293962E-2,3.854625E-1,6.767494E-2,2.2348146E-1,1.6063835E-2,-2.4553617E-3,-2.2297887E-2],"categories":[],"categories_nodes":[],"categories_segments":[],"categories_sizes":[],"default_left":[0,0,0,0,0,0,0,0,0,0,0,0,0,0,0],"id":30,"left_children":[1,3,5,7,9,11,13,-1,-1,-1,-1,-1,-1,-1,-1],"loss_changes":[8.2282837E2,1.2418821E3,4.0280432E2,4.1491943E2,1.081426E3,8.779169E2,4.0669165E2,0E0,0E0,0E0,0E0,0E0,0E0,0E0,0E0],"parents":[2147483647,0,0,1,1,2,2,3,3,4,4,5,5,6,6],"right_children":[2,4,6,8,10,12,14,-1,-1,-1,-1,-1,-1,-1,-1],"split_conditions":[-1.8098606E-2,4.5218438E-1,-3.39829E-1,-4.139413E-2,-5.360847E-1,-2.8480167E-2,4.680354E-1,-1.6158626E-3,3.0293962E-2,3.854625E-1,6.767494E-2,2.2348146E-1,1.6063835E-2,-2.4553617E-3,-2.2297887E-2],"split_indices":[5,4,2,2,5,8,5,0,0,0,0,0,0,0,0],"split_type":[0,0,0,0,0,0,0,0,0,0,0,0,0,0,0],"sum_hessian":[2.7881E4,5.381E3,2.25E4,4.705E3,6.76E2,4.83E2,2.2017E4,3.215E3,1.49E3,2.7E1,6.49E2,5.7E1,4.26E2,1.903E4,2.987E3],"tree_param":{"num_deleted":"0","num_feature":"9","num_nodes":"15","size_leaf_vector":"1"}},{"base_weights":[2.6405691E-3,1.7481144E-1,-1.615189E-1,2.7451E-1,-9.4777316E-2,5.06593E0,-1.7435573E-1,1.534508E-3,2.338743E-2,2.0909636E-1,-6.497451E-3,1.22425355E-1,6.1721027E-1,-6.9290893E-3,-3.535926E-2],"categories":[],"categories_nodes":[],"categories_segments":[],"categories_sizes":[],"default_left":[0,0,0,0,0,0,0,0,0,0,0,0,0,0,0],"id":31,"left_children":[1,3,5,7,9,11,13,-1,-1,-1,-1,-1,-1,-1,-1],"loss_changes":[7.8855237E2,3.6606332E2,9.587717E2,4.6835718E2,5.532288E2,6.350571E2,2.7140445E2,0E0,0E0,0E0,0E0,0E0,0E0,0E0,0E0],"parents":[2147483647,0,0,1,1,2,2,3,3,4,4,5,5,6,6],"right_children":[2,4,6,8,10,12,14,-1,-1,-1,-1,-1,-1,-1,-1],"split_conditions":[4.1478935E-1,3.5025674E-1,-3.004692E-1,1.6487803E-1,-8.7867033E-1,-4.3857285E-1,1.4234695E0,1.534508E-3,2.338743E-2,2.0909636E-1,-6.497451E-3,1.22425355E-1,6.1721027E-1,-6.9290893E-3,-3.535926E-2],"split_indices":[0,5,5,2,2,8,8,0,0,0,0,0,0,0,0],"split_type":[0,0,0,0,0,0,0,0,0,0,0,0,0,0,0],"sum_hessian":[2.7898E4,1.3617E4,1.4281E4,9.941E3,3.676E3,3.4E1,1.4247E4,4.396E3,5.545E3,2.9E1,3.647E3,2.6E1,8E0,1.3352E4,8.95E2],"tree_param":{"num_deleted":"0","num_feature":"9","num_nodes":"15","size_leaf_vector":"1"}},{"base_weights":[2.2278032E-3,1.6387223E-1,-1.5056029E-1,-1.8107945E-2,4.0848213E-1,-1.5974496E-1,2.9972696E0,2.3635952E-3,-2.1145066E-2,6.863924E-2,1.3601488E-2,5.6325562E-2,-8.907282E-3,3.9588705E-1,7.0618056E-2],"categories":[],"categories_nodes":[],"categories_segments":[],"categories_sizes":[],"default_left":[0,0,0,0,0,0,0,0,0,0,0,0,0,0,0],"id":32,"left_children":[1,3,5,7,9,11,13,-1,-1,-1,-1,-1,-1,-1,-1],"loss_changes":[6.932557E2,6.072194E2,4.1739227E2,2.0706934E2,7.6513403E2,3.4066425E2,3.1542114E2,0E0,0E0,0E0,0E0,0E0,0E0,0E0,0E0],"parents":[2147483647,0,0,1,1,2,2,3,3,4,4,5,5,6,6],"right_children":[2,4,6,8,10,12,14,-1,-1,-1,-1,-1,-1,-1,-1],"split_conditions":[4.031588E-1,1.296657E-1,8.055846E-1,3.6243355E-1,1.7385487E-1,1.4138943E-2,2.311613E-1,2.3635952E-3,-2.1145066E-2,6.863924E-2,1.3601488E-2,5.6325562E-2,-8.907282E-3,3.9588705E-1,7.0618056E-2],"split_indices":[0,4,2,7,0,6,3,0,0,0,0,0,0,0,0],"split_type":[0,0,0,0,0,0,0,0,0,0,0,0,0,0,0],"sum_hessian":[2.8068E4,1.3639E4,1.4429E4,7.821E3,5.818E3,1.4388E4,4.1E1,6.734E3,1.087E3,7.2E2,5.098E3,2.02E2,1.4186E4,9E0,3.2E1],"tree_param":{"num_deleted":"0","num_feature":"9","num_nodes":"15","size_leaf_vector":"1"}},{"base_weights":[7.9631386E-4,1.8948162E-1,-1.3039704E-1,-3.0819856E-2,3.0073008E-1,6.567284E-2,-2.988595E-1,-8.9236425E-4,-4.472504E-2,9.893247E-3,7.238182E-2,1.0624024E-2,-1.6391147E-2,3.6134694E-2,-1.7207133E-2],"categories":[],"categories_nodes":[],"categories_segments":[],"categories_sizes":[],"default_left":[0,0,0,0,0,0,0,0,0,0,0,0,0,0,0],"id":33,"left_children":[1,3,5,7,9,11,13,-1,-1,-1,-1,-1,-1,-1,-1],"loss_changes":[6.943875E2,2.8200308E2,5.4656415E2,4.315208E1,9.014805E2,4.418114E2,4.1191748E2,0E0,0E0,0E0,0E0,0E0,0E0,0E0,0E0],"parents":[2147483647,0,0,1,1,2,2,3,3,4,4,5,5,6,6],"right_children":[2,4,6,8,10,12,14,-1,-1,-1,-1,-1,-1,-1,-1],"split_conditions":[1.5810804E-1,-6.602446E-1,3.760779E-1,5.104671E-1,4.6771088E-1,3.529484E-1,1.4961694E-1,-8.9236425E-4,-4.472504E-2,9.893247E-3,7.238182E-2,1.0624024E-2,-1.6391147E-2,3.6134694E-2,-1.7207133E-2],"split_indices":[5,8,4,4,4,7,7,0,0,0,0,0,0,0,0],"split_type":[0,0,0,0,0,0,0,0,0,0,0,0,0,0,0],"sum_hessian":[2.8049E4,1.1504E4,1.6545E4,3.86E3,7.644E3,7.646E3,8.899E3,3.804E3,5.6E1,7.016E3,6.28E2,5.569E3,2.077E3,3.77E2,8.522E3],"tree_param":{"num_deleted":"0","num_feature":"9","num_nodes":"15","size_leaf_vector":"1"}},{"base_weights":[1.6346058E-3,1.57602E-1,-1.3098331E-1,9.724524E-2,1.240528E0,2.3159038E-1,-1.9379847E-1,-1.0083192E-3,1.5901765E-2,2.6218299E-2,1.6556701E-1,8.353822E-3,4.872322E-1,-3.1581481E-3,-1.8940005E-2],"categories":[],"categories_nodes":[],"categories_segments":[],"categories_sizes":[],"default_left":[0,0,0,0,0,0,0,0,0,0,0,0,0,0,0],"id":34,"left_children":[1,3,5,7,9,11,13,-1,-1,-1,-1,-1,-1,-1,-1],"loss_changes":[5.781844E2,8.393845E2,3.4410495E2,3.154971E2,1.003379E3,1.3666001E3,3.111404E2,0E0,0E0,0E0,0E0,0E0,0E0,0E0,0E0],"parents":[2147483647,0,0,1,1,2,2,3,3,4,4,5,5,6,6],"right_children":[2,4,6,8,10,12,14,-1,-1,-1,-1,-1,-1,-1,-1],"split_conditions":[3.5680836E-1,4.5833313E-1,2.7605903E-1,5.278243E-1,2.268816E-1,6.813113E-1,-1.2823243E-1,-1.0083192E-3,1.5901765E-2,2.6218299E-2,1.6556701E-1,8.353822E-3,4.872322E-1,-3.1581481E-3,-1.8940005E-2],"split_indices":[0,4,7,2,2,2,8,0,0,0,0,0,0,0,0],"split_type":[0,0,0,0,0,0,0,0,0,0,0,0,0,0,0],"sum_hessian":[2.7951E4,1.2845E4,1.5106E4,1.2168E4,6.77E2,2.23E3,1.2876E4,7.944E3,4.224E3,5.04E2,1.73E2,2.216E3,1.4E1,7.548E3,5.328E3],"tree_param":{"num_deleted":"0","num_feature":"9","num_nodes":"15","size_leaf_vector":"1"}},{"base_weights":[-6.430879E-4,1.8170594E-1,-1.181213E-1,-2.1212019E-2,2.8638032E-1,8.964603E-2,-2.1230619E-1,1.1388969E-1,-1.9618967E-3,1.6154613E-1,7.5679584E-3,2.7802495E-2,2.9385483E-4,3.2140806E-2,-1.1928246E-2],"categories":[],"categories_nodes":[],"categories_segments":[],"categories_sizes":[],"default_left":[0,0,0,0,0,0,0,0,0,0,0,0,0,0,0],"id":35,"left_children":[1,3,5,7,9,11,13,-1,-1,-1,-1,-1,-1,-1,-1],"loss_changes":[5.993394E2,2.328689E2,3.3300964E2,1.5448442E2,2.8744385E3,2.0732492E2,2.630318E2,0E0,0E0,0E0,0E0,0E0,0E0,0E0,0E0],"parents":[2147483647,0,0,1,1,2,2,3,3,4,4,5,5,6,6],"right_children":[2,4,6,8,10,12,14,-1,-1,-1,-1,-1,-1,-1,-1],"split_conditions":[1.4333352E-1,-2.3146793E-2,2.539052E-1,-3.0760524E0,-1.6124736E-1,2.8264877E-1,-3.39829E-1,1.1388969E-1,-1.9618967E-3,1.6154613E-1,7.5679584E-3,2.7802495E-2,2.9385483E-4,3.2140806E-2,-1.1928246E-2],"split_indices":[5,2,0,5,5,5,2,0,0,0,0,0,0,0,0],"split_type":[0,0,0,0,0,0,0,0,0,0,0,0,0,0,0],"sum_hessian":[2.7976E4,1.0961E4,1.7015E4,3.73E3,7.231E3,5.307E3,1.1708E4,2.8E1,3.702E3,3.16E2,6.915E3,8.07E2,4.5E3,3.48E2,1.136E4],"tree_param":{"num_deleted":"0","num_feature":"9","num_nodes":"15","size_leaf_vector":"1"}},{"base_weights":[4.4769566E-3,2.970084E-1,-6.516665E-2,1.3400479E-1,1.4151566E0,-1.5846273E-2,-3.5920253E-1,5.41678E-3,2.0473313E-1,4.2990634E-1,5.5241883E-2,3.3761043E-2,-1.6581676E-3,1.7133033E-2,-2.6691038E-2],"categories":[],"categories_nodes":[],"categories_segments":[],"categories_sizes":[],"default_left":[0,0,0,0,0,0,0,0,0,0,0,0,0,0,0],"id":36,"left_children":[1,3,5,7,9,11,13,-1,-1,-1,-1,-1,-1,-1,-1],"loss_changes":[5.6639E2,9.740291E2,3.2558383E2,4.736156E2,1.5052583E3,2.3008867E2,3.9545187E2,0E0,0E0,0E0,0E0,0E0,0E0,0E0,0E0],"parents":[2147483647,0,0,1,1,2,2,3,3,4,4,5,5,6,6],"right_children":[2,4,6,8,10,12,14,-1,-1,-1,-1,-1,-1,-1,-1],"split_conditions":[-1.8098606E-2,4.5218438E-1,5.567235E-1,4.6632332E-1,-5.360847E-1,-3.39829E-1,3.7408242E-1,5.41678E-3,2.0473313E-1,4.2990634E-1,5.5241883E-2,3.3761043E-2,-1.6581676E-3,1.7133033E-2,-2.6691038E-2],"split_indices":[5,4,0,0,5,2,4,0,0,0,0,0,0,0,0],"split_type":[0,0,0,0,0,0,0,0,0,0,0,0,0,0,0],"sum_hessian":[2.7798E4,5.345E3,2.2453E4,4.666E3,6.79E2,1.9229E4,3.224E3,4.637E3,2.9E1,2.7E1,6.52E2,4.69E2,1.876E4,6.42E2,2.582E3],"tree_param":{"num_deleted":"0","num_feature":"9","num_nodes":"15","size_leaf_vector":"1"}},{"base_weights":[2.3104507E-3,1.5930338E-1,-1.0911596E-1,3.0575328E-2,3.219694E-1,8.469542E-2,-2.0046605E-1,1.4018698E-1,9.65679E-4,5.549837E-2,7.480291E-3,8.208259E-3,-1.9335298E-2,1.1781969E-1,-1.0522551E-2],"categories":[],"categories_nodes":[],"categories_segments":[],"categories_sizes":[],"default_left":[0,0,0,0,0,0,0,0,0,0,0,0,0,0,0],"id":37,"left_children":[1,3,5,7,9,11,13,-1,-1,-1,-1,-1,-1,-1,-1],"loss_changes":[4.8594736E2,2.4143134E2,2.876766E2,2.0075786E2,6.9158594E2,1.950317E2,2.8221066E2,0E0,0E0,0E0,0E0,0E0,0E0,0E0,0E0],"parents":[2147483647,0,0,1,1,2,2,3,3,4,4,5,5,6,6],"right_children":[2,4,6,8,10,12,14,-1,-1,-1,-1,-1,-1,-1,-1],"split_conditions":[1.6069487E-1,-1.614832E-1,2.3935314E-1,-3.0760524E0,-2.8480167E-2,5.5325973E-1,-1.3723333E0,1.4018698E-1,9.65679E-4,5.549837E-2,7.480291E-3,8.208259E-3,-1.9335298E-2,1.1781969E-1,-1.0522551E-2],"split_indices":[5,8,0,5,8,5,2,0,0,0,0,0,0,0,0],"split_type":[0,0,0,0,0,0,0,0,0,0,0,0,0,0,0],"sum_hessian":[2.7777E4,1.1531E4,1.6246E4,6.438E3,5.093E3,5.204E3,1.1042E4,2.5E1,6.413E3,9.13E2,4.18E3,4.454E3,7.5E2,4.2E1,1.1E4],"tree_param":{"num_deleted":"0","num_feature":"9","num_nodes":"15","size_leaf_vector":"1"}},{"base_weights":[-5.683149E-4,4.509453E-2,-3.4758598E-1,1.4966789E-1,-6.1170094E-2,2.9876962E-1,-5.0586826E-1,4.228967E-3,3.3191666E-2,-1.5991539E-2,-1.8755761E-4,-6.4942636E-2,2.008844E-2,-4.8037354E-2,-1.7654095E-2],"categories":[],"categories_nodes":[],"categories_segments":[],"categories_sizes":[],"default_left":[0,0,0,0,0,0,0,0,0,0,0,0,0,0,0],"id":38,"left_children":[1,3,5,7,9,11,13,-1,-1,-1,-1,-1,-1,-1,-1],"loss_changes":[4.4368118E2,2.7496222E2,3.3328223E2,4.1722702E2,1.8223045E2,1.0591112E2,1.8133948E2,0E0,0E0,0E0,0E0,0E0,0E0,0E0,0E0],"parents":[2147483647,0,0,1,1,2,2,3,3,4,4,5,5,6,6],"right_children":[2,4,6,8,10,12,14,-1,-1,-1,-1,-1,-1,-1,-1],"split_conditions":[5.567235E-1,3.22914E-1,3.7517977E-1,4.5833313E-1,3.3105806E-1,-3.5904713E-2,2.8683913E-1,4.228967E-3,3.3191666E-2,-1.5991539E-2,-1.8755761E-4,-6.4942636E-2,2.008844E-2,-4.8037354E-2,-1.7654095E-2],"split_indices":[0,7,4,4,6,1,6,0,0,0,0,0,0,0,0],"split_type":[0,0,0,0,0,0,0,0,0,0,0,0,0,0,0],"sum_hessian":[2.7996E4,2.4741E4,3.255E3,1.247E4,1.2271E4,6.4E2,2.615E3,1.107E4,1.4E3,2.228E3,1.0043E4,3.8E1,6.02E2,6.56E2,1.959E3],"tree_param":{"num_deleted":"0","num_feature":"9","num_nodes":"15","size_leaf_vector":"1"}},{"base_weights":[2.1329857E-3,1.2778804E-1,-1.0241061E-1,1.2108331E-1,7.81264E0,-3.7129098E-1,3.4218354E-3,1.7643803E-3,2.9458305E-2,5.512442E-1,2.1939018E-1,-1.6739955E-2,-5.9916176E-2,5.7377205E-3,-9.644349E-3],"categories":[],"categories_nodes":[],"categories_segments":[],"categories_sizes":[],"default_left":[0,0,0,0,0,0,0,0,0,0,0,0,0,0,0],"id":39,"left_children":[1,3,5,7,9,11,13,-1,-1,-1,-1,-1,-1,-1,-1],"loss_changes":[3.6595718E2,6.5015283E2,4.3274408E2,5.076131E2,7.109924E1,1.2906848E2,2.3850226E2,0E0,0E0,0E0,0E0,0E0,0E0,0E0,0E0],"parents":[2147483647,0,0,1,1,2,2,3,3,4,4,5,5,6,6],"right_children":[2,4,6,8,10,12,14,-1,-1,-1,-1,-1,-1,-1,-1],"split_conditions":[3.1642628E-1,7.278279E-1,3.6375186E-1,2.6158738E-1,8.600393E-1,4.4373938E-1,1.7329787E-1,1.7643803E-3,2.9458305E-2,5.512442E-1,2.1939018E-1,-1.6739955E-2,-5.9916176E-2,5.7377205E-3,-9.644349E-3],"split_indices":[7,2,2,2,2,7,1,0,0,0,0,0,0,0,0],"split_type":[0,0,0,0,0,0,0,0,0,0,0,0,0,0,0],"sum_hessian":[2.7856E4,1.2651E4,1.5205E4,1.2641E4,1E1,4.294E3,1.0911E4,1.0684E4,1.957E3,4E0,6E0,4.114E3,1.8E2,6.963E3,3.948E3],"tree_param":{"num_deleted":"0","num_feature":"9","num_nodes":"15","size_leaf_vector":"1"}},{"base_weights":[-3.971813E-3,2.4103047E-1,-6.282493E-2,-3.894752E-2,6.927143E-1,-1.710809E-2,-3.234713E-1,-6.614108E-4,-9.814919E-2,1.3613255E-1,1.3543871E-2,3.028727E-2,-1.6165437E-3,-8.8001285E-3,-4.9863067E-2],"categories":[],"categories_nodes":[],"categories_segments":[],"categories_sizes":[],"default_left":[0,0,0,0,0,0,0,0,0,0,0,0,0,0,0],"id":40,"left_children":[1,3,5,7,9,11,13,-1,-1,-1,-1,-1,-1,-1,-1],"loss_changes":[4.0268088E2,6.841227E2,2.682952E2,1.6505588E2,1.7715082E3,1.81629E2,3.3356668E2,0E0,0E0,0E0,0E0,0E0,0E0,0E0,0E0],"parents":[2147483647,0,0,1,1,2,2,3,3,4,4,5,5,6,6],"right_children":[2,4,6,8,10,12,14,-1,-1,-1,-1,-1,-1,-1,-1],"split_conditions":[-1.8098606E-2,-2.8141994E-2,5.552712E-1,-2.7525783E-1,4.7431552E-1,-3.39829E-1,4.2458135E-1,-6.614108E-4,-9.814919E-2,1.3613255E-1,1.3543871E-2,3.028727E-2,-1.6165437E-3,-8.8001285E-3,-4.9863067E-2],"split_indices":[5,2,0,3,6,2,5,0,0,0,0,0,0,0,0],"split_type":[0,0,0,0,0,0,0,0,0,0,0,0,0,0,0],"sum_hessian":[2.7926E4,5.408E3,2.2518E4,3.339E3,2.069E3,1.9159E4,3.359E3,3.296E3,4.3E1,3.55E2,1.714E3,4.56E2,1.8703E4,2.757E3,6.02E2],"tree_param":{"num_deleted":"0","num_feature":"9","num_nodes":"15","size_leaf_vector":"1"}},{"base_weights":[8.928337E-4,2.5632915E-1,-5.644705E-2,1.0832959E-1,1.4078951E0,7.9705974E-4,-2.4840297E-1,4.153869E-3,2.0954223E-1,3.8806447E-1,5.314972E-2,1.0946236E-2,-3.4415422E-3,1.7831184E-1,-1.3694408E-2],"categories":[],"categories_nodes":[],"categories_segments":[],"categories_sizes":[],"default_left":[0,0,0,0,0,0,0,0,0,0,0,0,0,0,0],"id":41,"left_children":[1,3,5,7,9,11,13,-1,-1,-1,-1,-1,-1,-1,-1],"loss_changes":[4.1121097E2,8.769054E2,2.5195477E2,4.6953247E2,1.2749636E3,2.6826126E2,5.126885E2,0E0,0E0,0E0,0E0,0E0,0E0,0E0,0E0],"parents":[2147483647,0,0,1,1,2,2,3,3,4,4,5,5,6,6],"right_children":[2,4,6,8,10,12,14,-1,-1,-1,-1,-1,-1,-1,-1],"split_conditions":[-2.9158343E-2,4.5060778E-1,4.0290704E-1,4.4070068E-1,-5.360847E-1,3.1218615E-1,-8.7867033E-1,4.153869E-3,2.0954223E-1,3.8806447E-1,5.314972E-2,1.0946236E-2,-3.4415422E-3,1.7831184E-1,-1.3694408E-2],"split_indices":[5,4,5,0,5,0,2,0,0,0,0,0,0,0,0],"split_type":[0,0,0,0,0,0,0,0,0,0,0,0,0,0,0],"sum_hessian":[2.8072E4,5.146E3,2.2926E4,4.561E3,5.85E2,1.766E4,5.266E3,4.534E3,2.7E1,2.9E1,5.56E2,4.273E3,1.3387E4,3.4E1,5.232E3],"tree_param":{"num_deleted":"0","num_feature":"9","num_nodes":"15","size_leaf_vector":"1"}},{"base_weights":[1.0911238E-3,1.3892624E-1,-9.4873555E-2,-4.7305495E-2,2.3285413E-1,6.867095E-2,-2.3555043E-1,-1.5456338E-3,-5.154392E-2,8.00697E-3,5.3867854E-2,1.049891E-2,-1.2663997E-2,-6.384595E-3,-2.680009E-2],"categories":[],"categories_nodes":[],"categories_segments":[],"categories_sizes":[],"default_left":[0,0,0,0,0,0,0,0,0,0,0,0,0,0,0],"id":42,"left_children":[1,3,5,7,9,11,13,-1,-1,-1,-1,-1,-1,-1,-1],"loss_changes":[3.7010425E2,2.0092924E2,3.7953214E2,6.1953682E1,4.6855225E2,3.47077E2,2.8724387E2,0E0,0E0,0E0,0E0,0E0,0E0,0E0,0E0],"parents":[2147483647,0,0,1,1,2,2,3,3,4,4,5,5,6,6],"right_children":[2,4,6,8,10,12,14,-1,-1,-1,-1,-1,-1,-1,-1],"split_conditions":[1.5810804E-1,-6.602446E-1,3.760779E-1,5.104671E-1,4.6771088E-1,3.4699416E-1,5.5194885E-1,-1.5456338E-3,-5.154392E-2,8.00697E-3,5.3867854E-2,1.049891E-2,-1.2663997E-2,-6.384595E-3,-2.680009E-2],"split_indices":[5,8,4,4,4,7,0,0,0,0,0,0,0,0,0],"split_type":[0,0,0,0,0,0,0,0,0,0,0,0,0,0,0],"sum_hessian":[2.7978E4,1.1484E4,1.6494E4,3.85E3,7.634E3,7.627E3,8.867E3,3.788E3,6.2E1,7.03E3,6.04E2,5.301E3,2.326E3,6.526E3,2.341E3],"tree_param":{"num_deleted":"0","num_feature":"9","num_nodes":"15","size_leaf_vector":"1"}},{"base_weights":[9.863598E-4,2.3380743E-1,-5.060572E-2,9.824148E-2,1.2808294E0,-1.16756875E-2,-2.845221E-1,3.6681246E-3,1.9562374E-1,3.6100525E-1,4.7747545E-2,2.7868465E-2,-1.3234612E-3,1.619867E-2,-2.1831676E-2],"categories":[],"categories_nodes":[],"categories_segments":[],"categories_sizes":[],"default_left":[0,0,0,0,0,0,0,0,0,0,0,0,0,0,0],"id":43,"left_children":[1,3,5,7,9,11,13,-1,-1,-1,-1,-1,-1,-1,-1],"loss_changes":[3.3512122E2,7.180973E2,2.0792929E2,4.2463046E2,1.1148674E3,1.6478976E2,3.017104E2,0E0,0E0,0E0,0E0,0E0,0E0,0E0,0E0],"parents":[2147483647,0,0,1,1,2,2,3,3,4,4,5,5,6,6],"right_children":[2,4,6,8,10,12,14,-1,-1,-1,-1,-1,-1,-1,-1],"split_conditions":[-2.9158343E-2,4.5321682E-1,5.567235E-1,4.4070068E-1,-5.360847E-1,-3.39829E-1,3.7517977E-1,3.6681246E-3,1.9562374E-1,3.6100525E-1,4.7747545E-2,2.7868465E-2,-1.3234612E-3,1.619867E-2,-2.1831676E-2],"split_indices":[5,4,0,0,5,2,4,0,0,0,0,0,0,0,0],"split_type":[0,0,0,0,0,0,0,0,0,0,0,0,0,0,0],"sum_hessian":[2.7896E4,5.06E3,2.2836E4,4.481E3,5.79E2,1.9579E4,3.257E3,4.453E3,2.8E1,2.9E1,5.5E2,4.95E2,1.9084E4,6.51E2,2.606E3],"tree_param":{"num_deleted":"0","num_feature":"9","num_nodes":"15","size_leaf_vector":"1"}},{"base_weights":[-2.962233E-3,5.9734944E-2,-1.8347755E-1,2.021813E-1,-3.0345168E-2,1.7765342E-1,-2.0271039E-1,-2.929312E-4,2.3642087E-2,1.8466315E-1,-2.177747E-3,2.4534022E-2,-1.45152835E-2],"categories":[],"categories_nodes":[],"categories_segments":[],"categories_sizes":[],"default_left":[0,0,0,0,0,0,0,0,0,0,0,0,0],"id":44,"left_children":[1,3,5,7,9,-1,11,-1,-1,-1,-1,-1,-1],"loss_changes":[3.1697836E2,2.667406E2,5.1924615E2,4.534992E2,6.2615607E2,0E0,4.3646246E2,0E0,0E0,0E0,0E0,0E0,0E0],"parents":[2147483647,0,0,1,1,2,2,3,3,4,4,6,6],"right_children":[2,4,6,8,10,-1,12,-1,-1,-1,-1,-1,-1],"split_conditions":[3.565448E-1,3.1218615E-1,-8.7867033E-1,2.0354511E-1,-3.004692E-1,1.7765342E-1,-1.2587582E0,-2.929312E-4,2.3642087E-2,1.8466315E-1,-2.177747E-3,2.4534022E-2,-1.45152835E-2],"split_indices":[5,0,2,2,5,0,8,0,0,0,0,0,0],"split_type":[0,0,0,0,0,0,0,0,0,0,0,0,0],"sum_hessian":[2.8004E4,2.0785E4,7.219E3,8.052E3,1.2733E4,3.6E1,7.183E3,4.553E3,3.499E3,4.4E1,1.2689E4,8.05E2,6.378E3],"tree_param":{"num_deleted":"0","num_feature":"9","num_nodes":"13","size_leaf_vector":"1"}},{"base_weights":[3.1300794E-4,1.019421E-1,-8.527727E-2,9.479009E-2,6.6132135E0,-3.2021207E-1,7.757816E-3,2.9481287E-4,1.9911675E-2,4.6891528E-1,2.0119534E-1,-3.1836975E-2,-1.1563189E-2,5.1894537E-3,-8.031302E-3],"categories":[],"categories_nodes":[],"categories_segments":[],"categories_sizes":[],"default_left":[0,0,0,0,0,0,0,0,0,0,0,0,0,0,0],"id":45,"left_children":[1,3,5,7,9,11,13,-1,-1,-1,-1,-1,-1,-1,-1],"loss_changes":[2.4328891E2,5.941758E2,3.3186945E2,3.4452628E2,6.1157715E1,1.2102771E2,1.7587712E2,0E0,0E0,0E0,0E0,0E0,0E0,0E0,0E0],"parents":[2147483647,0,0,1,1,2,2,3,3,4,4,5,5,6,6],"right_children":[2,4,6,8,10,12,14,-1,-1,-1,-1,-1,-1,-1,-1],"split_conditions":[3.1700572E-1,7.278279E-1,3.6375186E-1,1.9795589E-1,8.724534E-1,1.5023175E-2,1.7329787E-1,2.9481287E-4,1.9911675E-2,4.6891528E-1,2.0119534E-1,-3.1836975E-2,-1.1563189E-2,5.1894537E-3,-8.031302E-3],"split_indices":[7,2,2,2,2,1,1,0,0,0,0,0,0,0,0],"split_type":[0,0,0,0,0,0,0,0,0,0,0,0,0,0,0],"sum_hessian":[2.7967E4,1.2786E4,1.5181E4,1.2773E4,1.3E1,4.306E3,1.0875E4,9.88E3,2.893E3,5E0,8E0,9.43E2,3.363E3,6.926E3,3.949E3],"tree_param":{"num_deleted":"0","num_feature":"9","num_nodes":"15","size_leaf_vector":"1"}},{"base_weights":[-1.735673E-5,5.978661E-2,-1.6843434E-1,1.9261274E-1,-2.3268426E-2,2.4423099E0,-1.8709362E-1,5.063119E-4,2.171548E-2,1.7962109E-1,-1.8358392E-3,-6.21652E-2,1.6759102E-1,-1.7471723E-3,-2.676529E-2],"categories":[],"categories_nodes":[],"categories_segments":[],"categories_sizes":[],"default_left":[0,0,0,0,0,0,0,0,0,0,0,0,0,0,0],"id":46,"left_children":[1,3,5,7,9,11,13,-1,-1,-1,-1,-1,-1,-1,-1],"loss_changes":[2.8146295E2,2.275098E2,3.5696838E2,3.4989142E2,6.167317E2,1.7868759E2,3.8519873E2,0E0,0E0,0E0,0E0,0E0,0E0,0E0,0E0],"parents":[2147483647,0,0,1,1,2,2,3,3,4,4,5,5,6,6],"right_children":[2,4,6,8,10,12,14,-1,-1,-1,-1,-1,-1,-1,-1],"split_conditions":[3.5347474E-1,3.1218615E-1,9.722375E-2,1.3167094E-1,-3.004692E-1,-1.1233406E0,3.8960332E-1,5.063119E-4,2.171548E-2,1.7962109E-1,-1.8358392E-3,-6.21652E-2,1.6759102E-1,-1.7471723E-3,-2.676529E-2],"split_indices":[5,0,7,4,5,0,4,0,0,0,0,0,0,0,0],"split_type":[0,0,0,0,0,0,0,0,0,0,0,0,0,0,0],"sum_hessian":[2.7942E4,2.062E4,7.322E3,7.933E3,1.2687E4,5.1E1,7.271E3,4.521E3,3.412E3,4.6E1,1.2641E4,1E1,4.1E1,5.061E3,2.21E3],"tree_param":{"num_deleted":"0","num_feature":"9","num_nodes":"15","size_leaf_vector":"1"}},{"base_weights":[4.6224677E-4,4.6287205E-2,-1.9700128E-1,1.5704457E-1,-3.2744E-2,1.5865801E-1,-2.2325714E-1,5.2704928E-3,4.367744E-2,1.8116564E-1,-2.2291373E-3,2.435493E-2,-1.6812412E-2],"categories":[],"categories_nodes":[],"categories_segments":[],"categories_sizes":[],"default_left":[0,0,0,0,0,0,0,0,0,0,0,0,0],"id":47,"left_children":[1,3,5,7,9,-1,11,-1,-1,-1,-1,-1,-1],"loss_changes":[2.5457181E2,1.9990765E2,4.6930347E2,3.5164673E2,5.7663776E2,0E0,4.2225644E2,0E0,0E0,0E0,0E0,0E0,0E0],"parents":[2147483647,0,0,1,1,2,2,3,3,4,4,6,6],"right_children":[2,4,6,8,10,-1,12,-1,-1,-1,-1,-1,-1],"split_conditions":[4.0290704E-1,3.186452E-1,-8.7867033E-1,4.5766076E-1,-3.004692E-1,1.5865801E-1,-1.2587582E0,5.2704928E-3,4.367744E-2,1.8116564E-1,-2.2291373E-3,2.435493E-2,-1.6812412E-2],"split_indices":[5,0,2,4,5,0,8,0,0,0,0,0,0],"split_type":[0,0,0,0,0,0,0,0,0,0,0,0,0],"sum_hessian":[2.8133E4,2.2835E4,5.298E3,9.509E3,1.3326E4,4E1,5.258E3,8.871E3,6.38E2,4.2E1,1.3284E4,7.21E2,4.537E3],"tree_param":{"num_deleted":"0","num_feature":"9","num_nodes":"13","size_leaf_vector":"1"}}]},"name":"gbtree"},"learner_model_param":{"base_score":"5.0710495E1","boost_from_average":"1","num_class":"0","num_feature":"9","num_target":"1"},"objective":{"name":"reg:squarederror","reg_loss_param":{"scale_pos_weight":"1"}}},"version":[2,1,2]}