{"learner":{"attributes":{"best_iteration":"5","best_score":"22.420181974753618","scikit_learn":"{\"_estimator_type\": \"regressor\"}"},"feature_names":[],"feature_types":[],"gradient_booster":{"model":{"gbtree_model_param":{"num_parallel_tree":"1","num_trees":"36"},"iteration_indptr":[0,1,2,3,4,5,6,7,8,9,10,11,12,13,14,15,16,17,18,19,20,21,22,23,24,25,26,27,28,29,30,31,32,33,34,35,36],"tree_info":[0,0,0,0,0,0,0,0,0,0,0,0,0,0,0,0,0,0,0,0,0,0,0,0,0,0,0,0,0,0,0,0,0,0,0,0],"trees":[{"base_weights":[-1.3723905E-1,-7.354044E2,3.5071804E1,-2.4382246E1,-1.02376184E3,6.1234695E1,1.7461746E1,-7.79825E1,-2.4369411E1,-1.4934641E1,3.2448347E0,-2.9190877E-1,1.3919885E0],"categories":[],"categories_nodes":[],"categories_segments":[],"categories_sizes":[],"default_left":[0,0,0,0,0,0,0,0,0,0,0,0,0],"id":0,"left_children":[1,3,5,-1,7,9,11,-1,-1,-1,-1,-1,-1],"loss_changes":[2.462601E9,3.1006464E8,4.182308E7,0E0,5.7641165E8,4.815467E7,1.312038E7,0E0,0E0,0E0,0E0,0E0,0E0],"parents":[2147483647,0,0,1,1,2,2,4,4,5,5,6,6],"right_children":[2,4,6,-1,8,10,12,-1,-1,-1,-1,-1,-1],"split_conditions":[-4.005651E0,-4.769803E0,7.1088545E-2,-2.4382246E1,-4.769325E0,-1.8104999E0,5.011357E-2,-7.79825E1,-2.4369411E1,-1.4934641E1,3.2448347E0,-2.9190877E-1,1.3919885E0],"split_indices":[2,0,2,0,0,0,0,0,0,0,0,0,0],"split_type":[0,0,0,0,0,0,0,0,0,0,0,0,0],"sum_hessian":[9.5123E4,4.346E3,9.0777E4,2.339E3,2.007E3,3.6519E4,5.4258E4,1.003E3,1.004E3,3.67E2,3.6152E4,1.672E4,3.7538E4],"tree_param":{"num_deleted":"0","num_feature":"4","num_nodes":"13","size_leaf_vector":"1"}},{"base_weights":[-3.4734663E-1,-6.770845E2,3.471819E1,-9.5474335E2,-4.574543E2,6.154324E1,1.673598E1,-4.9948864E1,-2.3040953E1,-2.329759E1,-9.26703E0,3.562224E0,2.3003492E0,1.1817055E0,-3.3415443E-1],"categories":[],"categories_nodes":[],"categories_segments":[],"categories_sizes":[],"default_left":[0,0,0,0,0,0,0,0,0,0,0,0,0,0,0],"id":1,"left_children":[1,3,5,7,9,11,13,-1,-1,-1,-1,-1,-1,-1,-1],"loss_changes":[2.2587067E9,2.8550886E8,4.3650896E7,4.476531E7,5.971776E6,5.470432E6,8.752495E6,0E0,0E0,0E0,0E0,0E0,0E0,0E0,0E0],"parents":[2147483647,0,0,1,1,2,2,3,3,4,4,5,5,6,6],"right_children":[2,4,6,8,10,12,14,-1,-1,-1,-1,-1,-1,-1,-1],"split_conditions":[-1.4530038E0,-4.472569E0,7.1088545E-2,-4.4450364E0,3.8322192E-1,3.9038363E-1,6.1085254E-1,-4.9948864E1,-2.3040953E1,-2.329759E1,-9.26703E0,3.562224E0,2.3003492E0,1.1817055E0,-3.3415443E-1],"split_indices":[1,2,2,1,3,1,2,0,0,0,0,0,0,0,0],"split_type":[0,0,0,0,0,0,0,0,0,0,0,0,0,0,0],"sum_hessian":[9.5181E4,4.688E3,9.0493E4,2.069E3,2.619E3,3.6316E4,5.4177E4,1.898E3,1.71E2,2.539E3,8E1,2.2354E4,1.3962E4,4.185E4,1.2327E4],"tree_param":{"num_deleted":"0","num_feature":"4","num_nodes":"15","size_leaf_vector":"1"}},{"base_weights":[-3.5151252E-1,-6.6890607E2,3.1716871E1,-4.3302417E2,-9.498676E2,5.5330135E1,1.5951815E1,-2.0896284E1,-2.1996128E1,-7.214164E1,-2.1496044E1,-1.3381658E1,2.9281857E0,-3.017359E-1,1.2983364E0],"categories":[],"categories_nodes":[],"categories_segments":[],"categories_sizes":[],"default_left":[0,0,0,0,0,0,0,0,0,0,0,0,0,0,0],"id":2,"left_children":[1,3,5,7,9,11,13,-1,-1,-1,-1,-1,-1,-1,-1],"loss_changes":[2.0370921E9,2.8781312E8,3.375121E7,6.2496E4,5.0790963E8,3.792263E7,1.1972062E7,0E0,0E0,0E0,0E0,0E0,0E0,0E0,0E0],"parents":[2147483647,0,0,1,1,2,2,3,3,4,4,5,5,6,6],"right_children":[2,4,6,8,10,12,14,-1,-1,-1,-1,-1,-1,-1,-1],"split_conditions":[-4.005651E0,-4.769803E0,7.1088545E-2,-4.472569E0,-4.769325E0,-1.8104999E0,5.4776378E-2,-2.0896284E1,-2.1996128E1,-7.214164E1,-2.1496044E1,-1.3381658E1,2.9281857E0,-3.017359E-1,1.2983364E0],"split_indices":[2,0,2,2,0,0,0,0,0,0,0,0,0,0,0],"split_type":[0,0,0,0,0,0,0,0,0,0,0,0,0,0,0],"sum_hessian":[9.5014E4,4.348E3,9.0666E4,2.365E3,1.983E3,3.6297E4,5.4369E4,7.61E2,1.604E3,1.017E3,9.66E2,3.59E2,3.5938E4,1.7015E4,3.7354E4],"tree_param":{"num_deleted":"0","num_feature":"4","num_nodes":"15","size_leaf_vector":"1"}},{"base_weights":[-1.8212928E-1,-6.1360315E2,3.1317503E1,-4.065492E2,-8.496956E2,1.2008951E1,4.3941414E1,-2.0453098E1,-7.156484E0,-6.844069E1,-1.9840052E1,-1.11738555E-1,1.2258643E0,3.2555542E0,1.4946771E0],"categories":[],"categories_nodes":[],"categories_segments":[],"categories_sizes":[],"default_left":[0,0,0,0,0,0,0,0,0,0,0,0,0,0,0],"id":3,"left_children":[1,3,5,7,9,11,13,-1,-1,-1,-1,-1,-1,-1,-1],"loss_changes":[1.8423459E9,2.273065E8,2.2105104E7,1.584896E6,5.1081178E8,6.387994E6,1.6305944E7,0E0,0E0,0E0,0E0,0E0,0E0,0E0,0E0],"parents":[2147483647,0,0,1,1,2,2,3,3,4,4,5,5,6,6],"right_children":[2,4,6,8,10,12,14,-1,-1,-1,-1,-1,-1,-1,-1],"split_conditions":[-1.4530038E0,-4.769803E0,6.0816303E-2,4.909311E-1,-4.769325E0,9.760311E-4,2.183837E-1,-2.0453098E1,-7.156484E0,-6.844069E1,-1.9840052E1,-1.11738555E-1,1.2258643E0,3.2555542E0,1.4946771E0],"split_indices":[1,0,1,3,0,0,1,0,0,0,0,0,0,0,0],"split_type":[0,0,0,0,0,0,0,0,0,0,0,0,0,0,0],"sum_hessian":[9.5345E4,4.656E3,9.0689E4,2.482E3,2.174E3,3.5853E4,5.4836E4,2.458E3,2.4E1,1.012E3,1.162E3,1.6764E4,1.9089E4,2.1872E4,3.2964E4],"tree_param":{"num_deleted":"0","num_feature":"4","num_nodes":"15","size_leaf_vector":"1"}},{"base_weights":[7.613258E-2,-5.801939E2,2.9641958E1,-8.1915735E2,-3.9195572E2,5.355502E1,1.3788593E1,-4.2981155E1,-1.9845442E1,-1.9939037E1,-8.051646E0,6.478049E0,2.5815237E0,1.0163504E0,-4.138712E-1],"categories":[],"categories_nodes":[],"categories_segments":[],"categories_sizes":[],"default_left":[0,0,0,0,0,0,0,0,0,0,0,0,0,0,0],"id":4,"left_children":[1,3,5,7,9,11,13,-1,-1,-1,-1,-1,-1,-1,-1],"loss_changes":[1.6366465E9,2.077207E8,3.441115E7,3.446413E7,4.01616E6,5.286632E6,7.875662E6,0E0,0E0,0E0,0E0,0E0,0E0,0E0,0E0],"parents":[2147483647,0,0,1,1,2,2,3,3,4,4,5,5,6,6],"right_children":[2,4,6,8,10,12,14,-1,-1,-1,-1,-1,-1,-1,-1],"split_conditions":[-1.4530038E0,-4.472569E0,7.1088545E-2,-4.4450364E0,3.5403144E-1,-1.8068426E0,6.1085254E-1,-4.2981155E1,-1.9845442E1,-1.9939037E1,-8.051646E0,6.478049E0,2.5815237E0,1.0163504E0,-4.138712E-1],"split_indices":[1,2,2,1,3,2,2,0,0,0,0,0,0,0,0],"split_type":[0,0,0,0,0,0,0,0,0,0,0,0,0,0,0],"sum_hessian":[9.5395E4,4.624E3,9.0771E4,2.036E3,2.588E3,3.6186E4,5.4585E4,1.857E3,1.79E2,2.513E3,7.5E1,8.92E2,3.5294E4,4.2108E4,1.2477E4],"tree_param":{"num_deleted":"0","num_feature":"4","num_nodes":"15","size_leaf_vector":"1"}},{"base_weights":[6.934951E-3,-5.4655273E2,2.8240484E1,-7.666848E2,-3.717409E2,5.1023884E1,1.3048651E1,-4.0159485E1,-1.8858118E1,-1.8926304E1,-7.348881E0,5.329121E0,2.4185545E0,9.7282505E-1,-3.5814232E-1],"categories":[],"categories_nodes":[],"categories_segments":[],"categories_sizes":[],"default_left":[0,0,0,0,0,0,0,0,0,0,0,0,0,0,0],"id":5,"left_children":[1,3,5,7,9,11,13,-1,-1,-1,-1,-1,-1,-1,-1],"loss_changes":[1.46775E9,1.7950118E8,3.13036E7,2.9088768E7,3.918624E6,5.327376E6,7.027863E6,0E0,0E0,0E0,0E0,0E0,0E0,0E0,0E0],"parents":[2147483647,0,0,1,1,2,2,3,3,4,4,5,5,6,6],"right_children":[2,4,6,8,10,12,14,-1,-1,-1,-1,-1,-1,-1,-1],"split_conditions":[-1.4530038E0,-4.472569E0,7.1088545E-2,-4.4450364E0,3.8322192E-1,-1.690356E0,5.8476263E-1,-4.0159485E1,-1.8858118E1,-1.8926304E1,-7.348881E0,5.329121E0,2.4185545E0,9.7282505E-1,-3.5814232E-1],"split_indices":[1,2,2,1,3,2,2,0,0,0,0,0,0,0,0],"split_type":[0,0,0,0,0,0,0,0,0,0,0,0,0,0,0],"sum_hessian":[9.5113E4,4.671E3,9.0442E4,2.066E3,2.605E3,3.618E4,5.4262E4,1.888E3,1.78E2,2.528E3,7.7E1,1.647E3,3.4533E4,4.12E4,1.3062E4],"tree_param":{"num_deleted":"0","num_feature":"4","num_nodes":"15","size_leaf_vector":"1"}},{"base_weights":[-3.0872837E-1,-5.282036E2,2.6866362E1,-7.48957E2,-3.5442538E2,4.861943E1,1.2429209E1,-3.9201717E1,-1.7915754E1,-1.801176E1,-6.592818E0,2.8850286E0,1.7096785E0,9.1990656E-1,-3.500771E-1],"categories":[],"categories_nodes":[],"categories_segments":[],"categories_sizes":[],"default_left":[0,0,0,0,0,0,0,0,0,0,0,0,0,0,0],"id":6,"left_children":[1,3,5,7,9,11,13,-1,-1,-1,-1,-1,-1,-1,-1],"loss_changes":[1.3663457E9,1.7861709E8,2.8446884E7,2.7850624E7,3.328672E6,4.731816E6,6.315044E6,0E0,0E0,0E0,0E0,0E0,0E0,0E0,0E0],"parents":[2147483647,0,0,1,1,2,2,3,3,4,4,5,5,6,6],"right_children":[2,4,6,8,10,12,14,-1,-1,-1,-1,-1,-1,-1,-1],"split_conditions":[-1.4530038E0,-4.472569E0,7.1088545E-2,-4.4450364E0,3.8322192E-1,3.9038363E-1,5.966869E-1,-3.9201717E1,-1.7915754E1,-1.801176E1,-6.592818E0,2.8850286E0,1.7096785E0,9.1990656E-1,-3.500771E-1],"split_indices":[1,2,2,1,3,1,2,0,0,0,0,0,0,0,0],"split_type":[0,0,0,0,0,0,0,0,0,0,0,0,0,0,0],"sum_hessian":[9.5243E4,4.662E3,9.0581E4,2.052E3,2.61E3,3.6134E4,5.4447E4,1.882E3,1.7E2,2.543E3,6.7E1,2.2173E4,1.3961E4,4.1652E4,1.2795E4],"tree_param":{"num_deleted":"0","num_feature":"4","num_nodes":"15","size_leaf_vector":"1"}},{"base_weights":[2.6807478E-2,-5.138573E2,2.4693653E1,-3.1752228E2,-7.488842E2,-1.0574395E1,3.1872875E1,-1.3362546E1,-1.702896E1,-5.910928E1,-1.5411577E1,-8.080113E0,-2.807398E-1,2.4033833E0,7.6716566E-1],"categories":[],"categories_nodes":[],"categories_segments":[],"categories_sizes":[],"default_left":[0,0,0,0,0,0,0,0,0,0,0,0,0,0,0],"id":7,"left_children":[1,3,5,7,9,11,13,-1,-1,-1,-1,-1,-1,-1,-1],"loss_changes":[1.2080259E9,2.011808E8,2.302508E7,2.6676E6,3.7883302E8,1.1520024E7,2.0225048E7,0E0,0E0,0E0,0E0,0E0,0E0,0E0,0E0],"parents":[2147483647,0,0,1,1,2,2,3,3,4,4,5,5,6,6],"right_children":[2,4,6,8,10,12,14,-1,-1,-1,-1,-1,-1,-1,-1],"split_conditions":[-4.005651E0,-4.769803E0,-2.6669247E-2,-4.472569E0,-4.769325E0,-1.8104999E0,1.4061247E-1,-1.3362546E1,-1.702896E1,-5.910928E1,-1.5411577E1,-8.080113E0,-2.807398E-1,2.4033833E0,7.6716566E-1],"split_indices":[2,0,0,2,0,0,2,0,0,0,0,0,0,0,0],"split_type":[0,0,0,0,0,0,0,0,0,0,0,0,0,0,0],"sum_hessian":[9.5299E4,4.364E3,9.0935E4,2.379E3,1.985E3,1.538E4,7.5555E4,7.52E2,1.627E3,1E3,9.85E2,4.88E2,1.4892E4,3.8163E4,3.7392E4],"tree_param":{"num_deleted":"0","num_feature":"4","num_nodes":"15","size_leaf_vector":"1"}},{"base_weights":[1.499844E-1,-4.7217258E2,2.4282911E1,-2.9808377E2,-6.760073E2,-7.5403047E-1,3.150494E1,-1.5001195E1,-5.46691E0,-5.6415913E1,-1.414554E1,-4.183846E-1,6.3662314E-1,1.914234E0,8.4934455E-1],"categories":[],"categories_nodes":[],"categories_segments":[],"categories_sizes":[],"default_left":[0,0,0,0,0,0,0,0,0,0,0,0,0,0,0],"id":8,"left_children":[1,3,5,7,9,11,13,-1,-1,-1,-1,-1,-1,-1,-1],"loss_changes":[1.0856754E9,1.6409562E8,1.6385168E7,8.82272E5,3.787541E8,2.0833105E6,6.921832E6,0E0,0E0,0E0,0E0,0E0,0E0,0E0,0E0],"parents":[2147483647,0,0,1,1,2,2,3,3,4,4,5,5,6,6],"right_children":[2,4,6,8,10,12,14,-1,-1,-1,-1,-1,-1,-1,-1],"split_conditions":[-1.4530038E0,-4.769803E0,-9.9088205E-3,-4.4452835E-2,-4.769325E0,-1.2831976E-1,3.4655836E-1,-1.5001195E1,-5.46691E0,-5.6415913E1,-1.414554E1,-4.183846E-1,6.3662314E-1,1.914234E0,8.4934455E-1],"split_indices":[1,0,0,3,0,1,3,0,0,0,0,0,0,0,0],"split_type":[0,0,0,0,0,0,0,0,0,0,0,0,0,0,0],"sum_hessian":[9.5245E4,4.629E3,9.0616E4,2.498E3,2.131E3,2.0287E4,7.0329E4,2.472E3,2.6E1,9.9E2,1.141E3,1.2967E4,7.32E3,4.794E4,2.2389E4],"tree_param":{"num_deleted":"0","num_feature":"4","num_nodes":"15","size_leaf_vector":"1"}},{"base_weights":[-3.0788606E-1,-4.5207028E2,2.3017958E1,-2.836791E2,-6.4258984E2,4.2762115E1,1.0100974E1,-1.1914325E1,-1.5163813E1,-5.335757E1,-1.347069E1,4.3434434E0,1.9860722E0,-4.1246542E-1,9.244216E-1],"categories":[],"categories_nodes":[],"categories_segments":[],"categories_sizes":[],"default_left":[0,0,0,0,0,0,0,0,0,0,0,0,0,0,0],"id":9,"left_children":[1,3,5,7,9,11,13,-1,-1,-1,-1,-1,-1,-1,-1],"loss_changes":[1.0040251E9,1.4989638E8,2.310598E7,2.13824E6,3.4732128E8,4.801984E6,8.430081E6,0E0,0E0,0E0,0E0,0E0,0E0,0E0,0E0],"parents":[2147483647,0,0,1,1,2,2,3,3,4,4,5,5,6,6],"right_children":[2,4,6,8,10,12,14,-1,-1,-1,-1,-1,-1,-1,-1],"split_conditions":[-1.4530038E0,-4.769803E0,6.775332E-2,-4.472569E0,-4.769325E0,-1.2939178E0,5.4776378E-2,-1.1914325E1,-1.5163813E1,-5.335757E1,-1.347069E1,4.3434434E0,1.9860722E0,-4.1246542E-1,9.244216E-1],"split_indices":[1,0,2,2,0,2,0,0,0,0,0,0,0,0,0],"split_type":[0,0,0,0,0,0,0,0,0,0,0,0,0,0,0],"sum_hessian":[9.5277E4,4.677E3,9.06E4,2.484E3,2.193E3,3.583E4,5.477E4,7.53E2,1.731E3,1.025E3,1.168E3,2.309E3,3.3521E4,1.7181E4,3.7589E4],"tree_param":{"num_deleted":"0","num_feature":"4","num_nodes":"15","size_leaf_vector":"1"}},{"base_weights":[6.035182E-2,-4.3896365E2,2.109828E1,-2.727328E2,-6.396698E2,3.8410465E1,9.482787E0,-1.131768E1,-1.4672004E1,-5.0658684E1,-1.3161618E1,-9.542542E0,2.0348659E0,-4.5569307E-1,8.478943E-1],"categories":[],"categories_nodes":[],"categories_segments":[],"categories_sizes":[],"default_left":[0,0,0,0,0,0,0,0,0,0,0,0,0,0,0],"id":10,"left_children":[1,3,5,7,9,11,13,-1,-1,-1,-1,-1,-1,-1,-1],"loss_changes":[8.782014E8,1.4489018E8,1.8245496E7,2.219232E6,2.7657626E8,1.9109056E7,7.5489115E6,0E0,0E0,0E0,0E0,0E0,0E0,0E0,0E0],"parents":[2147483647,0,0,1,1,2,2,3,3,4,4,5,5,6,6],"right_children":[2,4,6,8,10,12,14,-1,-1,-1,-1,-1,-1,-1,-1],"split_conditions":[-4.005651E0,-4.769803E0,7.1088545E-2,-4.472569E0,-4.769325E0,-1.8104999E0,2.0383967E-2,-1.131768E1,-1.4672004E1,-5.0658684E1,-1.3161618E1,-9.542542E0,2.0348659E0,-4.5569307E-1,8.478943E-1],"split_indices":[2,0,2,2,0,0,0,0,0,0,0,0,0,0,0],"split_type":[0,0,0,0,0,0,0,0,0,0,0,0,0,0,0],"sum_hessian":[9.5081E4,4.347E3,9.0734E4,2.379E3,1.968E3,3.6432E4,5.4302E4,7.38E2,1.641E3,9.87E2,9.81E2,3.59E2,3.6073E4,1.5569E4,3.8733E4],"tree_param":{"num_deleted":"0","num_feature":"4","num_nodes":"15","size_leaf_vector":"1"}},{"base_weights":[-7.323924E-2,-4.2124887E2,2.0069157E1,-2.5917758E2,-6.102161E2,-5.245271E0,2.7171745E1,-1.0776842E1,-1.3938843E1,-4.835436E1,-1.2529538E1,-7.09776E0,-9.2445664E-2,2.102946E0,6.193194E-1],"categories":[],"categories_nodes":[],"categories_segments":[],"categories_sizes":[],"default_left":[0,0,0,0,0,0,0,0,0,0,0,0,0,0,0],"id":11,"left_children":[1,3,5,7,9,11,13,-1,-1,-1,-1,-1,-1,-1,-1],"loss_changes":[8.066862E8,1.327593E8,1.6316632E7,1.939616E6,2.5682234E8,9.232179E6,1.5597948E7,0E0,0E0,0E0,0E0,0E0,0E0,0E0,0E0],"parents":[2147483647,0,0,1,1,2,2,3,3,4,4,5,5,6,6],"right_children":[2,4,6,8,10,12,14,-1,-1,-1,-1,-1,-1,-1,-1],"split_conditions":[-4.005651E0,-4.769803E0,-1.1460452E-2,-4.472569E0,-4.769325E0,-1.8104999E0,1.4537792E-1,-1.0776842E1,-1.3938843E1,-4.835436E1,-1.2529538E1,-7.09776E0,-9.2445664E-2,2.102946E0,6.193194E-1],"split_indices":[2,0,0,2,0,0,2,0,0,0,0,0,0,0,0],"split_type":[0,0,0,0,0,0,0,0,0,0,0,0,0,0,0],"sum_hessian":[9.5087E4,4.339E3,9.0748E4,2.337E3,2.002E3,1.9883E4,7.0865E4,7.28E2,1.609E3,1.004E3,9.98E2,4.81E2,1.9402E4,3.531E4,3.5555E4],"tree_param":{"num_deleted":"0","num_feature":"4","num_nodes":"15","size_leaf_vector":"1"}},{"base_weights":[1.5891474E-1,-3.8564383E2,1.9814756E1,-2.4305379E2,-5.529907E2,3.6711136E1,8.75289E0,-1.0221278E1,-1.2981377E1,-4.604381E1,-1.159291E1,2.2914464E0,1.1139597E0,-3.5793233E-1,8.1112957E-1],"categories":[],"categories_nodes":[],"categories_segments":[],"categories_sizes":[],"default_left":[0,0,0,0,0,0,0,0,0,0,0,0,0,0,0],"id":12,"left_children":[1,3,5,7,9,11,13,-1,-1,-1,-1,-1,-1,-1,-1],"loss_changes":[7.23475E8,1.1022726E8,1.6966768E7,1.546784E6,2.5107014E8,4.725196E6,6.5208275E6,0E0,0E0,0E0,0E0,0E0,0E0,0E0,0E0],"parents":[2147483647,0,0,1,1,2,2,3,3,4,4,5,5,6,6],"right_children":[2,4,6,8,10,12,14,-1,-1,-1,-1,-1,-1,-1,-1],"split_conditions":[-1.4530038E0,-4.769803E0,6.775332E-2,-4.472569E0,-4.769325E0,3.9038363E-1,7.4415706E-2,-1.0221278E1,-1.2981377E1,-4.604381E1,-1.159291E1,2.2914464E0,1.1139597E0,-3.5793233E-1,8.1112957E-1],"split_indices":[1,0,2,2,0,1,0,0,0,0,0,0,0,0,0],"split_type":[0,0,0,0,0,0,0,0,0,0,0,0,0,0,0],"sum_hessian":[9.5402E4,4.624E3,9.0778E4,2.498E3,2.126E3,3.5916E4,5.4862E4,7.54E2,1.744E3,9.9E2,1.136E3,2.2009E4,1.3907E4,1.7527E4,3.7335E4],"tree_param":{"num_deleted":"0","num_feature":"4","num_nodes":"15","size_leaf_vector":"1"}},{"base_weights":[-4.8578795E-2,-3.6552274E2,1.8742115E1,-2.311055E2,-5.2440857E2,3.461341E1,8.015815E0,-9.709693E0,-1.2337469E1,-4.3641903E1,-1.0949765E1,5.1877036E0,1.641086E0,-4.200922E-1,7.2782516E-1],"categories":[],"categories_nodes":[],"categories_segments":[],"categories_sizes":[],"default_left":[0,0,0,0,0,0,0,0,0,0,0,0,0,0,0],"id":13,"left_children":[1,3,5,7,9,11,13,-1,-1,-1,-1,-1,-1,-1,-1],"loss_changes":[6.538833E8,9.931693E7,1.5416336E7,1.409504E6,2.2679194E8,4.520632E6,5.8029815E6,0E0,0E0,0E0,0E0,0E0,0E0,0E0,0E0],"parents":[2147483647,0,0,1,1,2,2,3,3,4,4,5,5,6,6],"right_children":[2,4,6,8,10,12,14,-1,-1,-1,-1,-1,-1,-1,-1],"split_conditions":[-1.4530038E0,-4.769803E0,7.573076E-2,-4.472569E0,-4.769325E0,-1.8068426E0,2.0383967E-2,-9.709693E0,-1.2337469E1,-4.3641903E1,-1.0949765E1,5.1877036E0,1.641086E0,-4.200922E-1,7.2782516E-1],"split_indices":[1,0,2,2,0,2,0,0,0,0,0,0,0,0,0],"split_type":[0,0,0,0,0,0,0,0,0,0,0,0,0,0,0],"sum_hessian":[9.5212E4,4.655E3,9.0557E4,2.523E3,2.132E3,3.6519E4,5.4038E4,7.55E2,1.768E3,9.95E2,1.137E3,9.21E2,3.5598E4,1.5395E4,3.8643E4],"tree_param":{"num_deleted":"0","num_feature":"4","num_nodes":"15","size_leaf_vector":"1"}},{"base_weights":[4.0717956E-2,-3.601782E2,1.7268305E1,-2.2202638E2,-5.271216E2,2.9567623E1,5.6268096E0,-9.190243E0,-1.1975842E1,-4.1550533E1,-1.08394785E1,-5.6101656E0,1.5721335E0,5.9347606E-1,-5.483374E-1],"categories":[],"categories_nodes":[],"categories_segments":[],"categories_sizes":[],"default_left":[0,0,0,0,0,0,0,0,0,0,0,0,0,0,0],"id":14,"left_children":[1,3,5,7,9,11,13,-1,-1,-1,-1,-1,-1,-1,-1],"loss_changes":[5.9293626E8,1.0046291E8,1.3056068E7,1.552344E6,1.8598086E8,1.1790308E7,4.8529545E6,0E0,0E0,0E0,0E0,0E0,0E0,0E0,0E0],"parents":[2147483647,0,0,1,1,2,2,3,3,4,4,5,5,6,6],"right_children":[2,4,6,8,10,12,14,-1,-1,-1,-1,-1,-1,-1,-1],"split_conditions":[-4.005651E0,-4.769803E0,1.5045412E-1,-4.472569E0,-4.769325E0,-1.2051855E0,5.966869E-1,-9.190243E0,-1.1975842E1,-4.1550533E1,-1.08394785E1,-5.6101656E0,1.5721335E0,5.9347606E-1,-5.483374E-1],"split_indices":[2,0,2,2,0,0,2,0,0,0,0,0,0,0,0],"split_type":[0,0,0,0,0,0,0,0,0,0,0,0,0,0,0],"sum_hessian":[9.5545E4,4.36E3,9.1185E4,2.387E3,1.973E3,4.4339E4,4.6846E4,7.53E2,1.634E3,9.96E2,9.77E2,5.78E2,4.3761E4,3.404E4,1.2806E4],"tree_param":{"num_deleted":"0","num_feature":"4","num_nodes":"15","size_leaf_vector":"1"}},{"base_weights":[-8.6151704E-2,-3.3312155E2,1.6926123E1,-2.0849586E2,-4.75611E2,3.15602E1,7.175142E0,-8.78585E0,-1.112482E1,-3.9432137E1,-9.950391E0,3.6300392E0,1.4368867E0,-3.6029285E-1,6.9813985E-1],"categories":[],"categories_nodes":[],"categories_segments":[],"categories_sizes":[],"default_left":[0,0,0,0,0,0,0,0,0,0,0,0,0,0,0],"id":15,"left_children":[1,3,5,7,9,11,13,-1,-1,-1,-1,-1,-1,-1,-1],"loss_changes":[5.394076E8,8.206634E7,1.2925082E7,1.0944E6,1.866946E8,4.193472E6,5.306358E6,0E0,0E0,0E0,0E0,0E0,0E0,0E0,0E0],"parents":[2147483647,0,0,1,1,2,2,3,3,4,4,5,5,6,6],"right_children":[2,4,6,8,10,12,14,-1,-1,-1,-1,-1,-1,-1,-1],"split_conditions":[-1.4530038E0,-4.769803E0,7.1088545E-2,-4.472569E0,-4.769325E0,-1.2939178E0,7.4415706E-2,-8.78585E0,-1.112482E1,-3.9432137E1,-9.950391E0,3.6300392E0,1.4368867E0,-3.6029285E-1,6.9813985E-1],"split_indices":[1,0,2,2,0,2,0,0,0,0,0,0,0,0,0],"split_type":[0,0,0,0,0,0,0,0,0,0,0,0,0,0,0],"sum_hessian":[9.5204E4,4.626E3,9.0578E4,2.469E3,2.157E3,3.6219E4,5.4359E4,7.43E2,1.726E3,1.011E3,1.146E3,2.329E3,3.389E4,1.743E4,3.6929E4],"tree_param":{"num_deleted":"0","num_feature":"4","num_nodes":"15","size_leaf_vector":"1"}},{"base_weights":[-2.0050252E-2,-3.2592407E2,1.5529756E1,-2.0103871E2,-4.7497684E2,-5.043749E0,2.1726536E1,-8.322278E0,-1.0824056E1,-3.767616E1,-9.755125E0,-3.72077E0,-3.771862E-2,1.3555465E0,-4.164025E-1],"categories":[],"categories_nodes":[],"categories_segments":[],"categories_sizes":[],"default_left":[0,0,0,0,0,0,0,0,0,0,0,0,0,0,0],"id":16,"left_children":[1,3,5,7,9,11,13,-1,-1,-1,-1,-1,-1,-1,-1],"loss_changes":[4.8251517E8,8.06169E7,1.1585972E7,1.225176E6,1.5389786E8,6.259729E6,1.13023E7,0E0,0E0,0E0,0E0,0E0,0E0,0E0,0E0],"parents":[2147483647,0,0,1,1,2,2,3,3,4,4,5,5,6,6],"right_children":[2,4,6,8,10,12,14,-1,-1,-1,-1,-1,-1,-1,-1],"split_conditions":[-4.005651E0,-4.769803E0,-9.034786E-3,-4.472569E0,-4.769325E0,-7.6910263E-1,5.8476263E-1,-8.322278E0,-1.0824056E1,-3.767616E1,-9.755125E0,-3.72077E0,-3.771862E-2,1.3555465E0,-4.164025E-1],"split_indices":[2,0,0,2,0,0,2,0,0,0,0,0,0,0,0],"split_type":[0,0,0,0,0,0,0,0,0,0,0,0,0,0,0],"sum_hessian":[9.5211E4,4.335E3,9.0876E4,2.36E3,1.975E3,2.1036E4,6.984E4,7.32E2,1.628E3,9.89E2,9.86E2,1.224E3,1.9812E4,5.9229E4,1.0611E4],"tree_param":{"num_deleted":"0","num_feature":"4","num_nodes":"15","size_leaf_vector":"1"}},{"base_weights":[3.4352222E-1,-3.2155252E2,1.4189497E1,-1.8903018E2,-4.7338974E2,-8.678702E1,1.5988712E1,-7.8732843E0,-1.0284407E1,-3.8289997E1,-9.182162E0,-9.299387E0,-2.9204144E0,1.5055276E0,3.3913693E-1],"categories":[],"categories_nodes":[],"categories_segments":[],"categories_sizes":[],"default_left":[0,0,0,0,0,0,0,0,0,0,0,0,0,0,0],"id":17,"left_children":[1,3,5,7,9,11,13,-1,-1,-1,-1,-1,-1,-1,-1],"loss_changes":[4.242987E8,7.890874E7,1.6583714E7,1.070704E6,1.5482096E8,4.487786E6,1.1658146E7,0E0,0E0,0E0,0E0,0E0,0E0,0E0,0E0],"parents":[2147483647,0,0,1,1,2,2,3,3,4,4,5,5,6,6],"right_children":[2,4,6,8,10,12,14,-1,-1,-1,-1,-1,-1,-1,-1],"split_conditions":[-4.454843E0,-4.769803E0,-7.6910263E-1,-4.472569E0,-4.769325E0,-4.7733297E0,6.775332E-2,-7.8732843E0,-1.0284407E1,-3.8289997E1,-9.182162E0,-9.299387E0,-2.9204144E0,1.5055276E0,3.3913693E-1],"split_indices":[2,0,0,2,0,0,2,0,0,0,0,0,0,0,0],"split_type":[0,0,0,0,0,0,0,0,0,0,0,0,0,0,0],"sum_hessian":[9.5197E4,3.925E3,9.1272E4,2.097E3,1.828E3,1.597E3,8.9675E4,7.28E2,1.369E3,9.09E2,9.19E2,3.54E2,1.243E3,3.5388E4,5.4287E4],"tree_param":{"num_deleted":"0","num_feature":"4","num_nodes":"15","size_leaf_vector":"1"}},{"base_weights":[2.4946442E-1,-2.811264E2,1.4601917E1,-1.7976949E2,-3.986675E2,2.3483024E0,2.2617926E1,-9.065664E0,-1.0424963E0,-3.353536E1,-8.705175E0,8.380386E-1,-1.7679195E-1,2.0385063E0,5.299697E-1],"categories":[],"categories_nodes":[],"categories_segments":[],"categories_sizes":[],"default_left":[0,0,0,0,0,0,0,0,0,0,0,0,0,0,0],"id":18,"left_children":[1,3,5,7,9,11,13,-1,-1,-1,-1,-1,-1,-1,-1],"loss_changes":[3.8418432E8,5.493344E7,8.890788E6,6.0488E5,1.3043312E8,3.0358252E6,1.193721E7,0E0,0E0,0E0,0E0,0E0,0E0,0E0,0E0],"parents":[2147483647,0,0,1,1,2,2,3,3,4,4,5,5,6,6],"right_children":[2,4,6,8,10,12,14,-1,-1,-1,-1,-1,-1,-1,-1],"split_conditions":[-1.4530038E0,-4.769803E0,6.0816303E-2,4.909311E-1,-4.769325E0,-4.6374974E-1,2.183837E-1,-9.065664E0,-1.0424963E0,-3.353536E1,-8.705175E0,8.380386E-1,-1.7679195E-1,2.0385063E0,5.299697E-1],"split_indices":[1,0,1,3,0,1,1,0,0,0,0,0,0,0,0],"split_type":[0,0,0,0,0,0,0,0,0,0,0,0,0,0,0],"sum_hessian":[9.513E4,4.616E3,9.0514E4,2.48E3,2.136E3,3.5796E4,5.4718E4,2.456E3,2.4E1,9.65E2,1.171E3,1.0377E4,2.5419E4,2.1796E4,3.2922E4],"tree_param":{"num_deleted":"0","num_feature":"4","num_nodes":"15","size_leaf_vector":"1"}},{"base_weights":[-6.008398E-2,-2.924613E2,1.2741054E1,-1.7067305E2,-4.2926865E2,-7.72626E1,1.4344494E1,-7.070565E0,-9.317625E0,-3.478864E1,-8.242527E0,-8.642314E0,-2.527374E0,1.2557997E0,2.1183375E-1],"categories":[],"categories_nodes":[],"categories_segments":[],"categories_sizes":[],"default_left":[0,0,0,0,0,0,0,0,0,0,0,0,0,0,0],"id":19,"left_children":[1,3,5,7,9,11,13,-1,-1,-1,-1,-1,-1,-1,-1],"loss_changes":[3.559845E8,6.638947E7,1.3150556E7,9.42612E5,1.3222506E8,4.064121E6,9.746718E6,0E0,0E0,0E0,0E0,0E0,0E0,0E0,0E0],"parents":[2147483647,0,0,1,1,2,2,3,3,4,4,5,5,6,6],"right_children":[2,4,6,8,10,12,14,-1,-1,-1,-1,-1,-1,-1,-1],"split_conditions":[-4.454843E0,-4.769803E0,-7.6910263E-1,-4.472569E0,-4.769325E0,-4.7733297E0,1.5045412E-1,-7.070565E0,-9.317625E0,-3.478864E1,-8.242527E0,-8.642314E0,-2.527374E0,1.2557997E0,2.1183375E-1],"split_indices":[2,0,0,2,0,0,2,0,0,0,0,0,0,0,0],"split_type":[0,0,0,0,0,0,0,0,0,0,0,0,0,0,0],"sum_hessian":[9.5103E4,3.988E3,9.1115E4,2.111E3,1.877E3,1.594E3,8.9521E4,7.4E2,1.371E3,9.34E2,9.43E2,3.47E2,1.247E3,4.3337E4,4.6184E4],"tree_param":{"num_deleted":"0","num_feature":"4","num_nodes":"15","size_leaf_vector":"1"}},{"base_weights":[-3.8874894E-2,-2.562763E2,1.3092511E1,-3.681948E2,-1.6691954E2,2.2562174E1,2.506665E0,-1.9174623E1,-1.0264916E1,-8.547062E0,-1.6002989E0,2.2732662E-1,1.4565848E0,4.526957E-1,-6.672009E-1],"categories":[],"categories_nodes":[],"categories_segments":[],"categories_sizes":[],"default_left":[0,0,0,0,0,0,0,0,0,0,0,0,0,0,0],"id":20,"left_children":[1,3,5,7,9,11,13,-1,-1,-1,-1,-1,-1,-1,-1],"loss_changes":[3.2040186E8,4.63616E7,9.08018E6,5.054592E6,1.396008E6,5.658492E6,4.438825E6,0E0,0E0,0E0,0E0,0E0,0E0,0E0,0E0],"parents":[2147483647,0,0,1,1,2,2,3,3,4,4,5,5,6,6],"right_children":[2,4,6,8,10,12,14,-1,-1,-1,-1,-1,-1,-1,-1],"split_conditions":[-1.4530038E0,-4.472569E0,1.79006E-1,-4.4450364E0,3.5403144E-1,6.0816303E-2,3.589004E-1,-1.9174623E1,-1.0264916E1,-8.547062E0,-1.6002989E0,2.2732662E-1,1.4565848E0,4.526957E-1,-6.672009E-1],"split_indices":[1,2,2,1,3,1,3,0,0,0,0,0,0,0,0],"split_type":[0,0,0,0,0,0,0,0,0,0,0,0,0,0,0],"sum_hessian":[9.5221E4,4.641E3,9.058E4,2.059E3,2.582E3,4.781E4,4.277E4,1.881E3,1.78E2,2.507E3,7.5E1,1.2776E4,3.5034E4,3.0268E4,1.2502E4],"tree_param":{"num_deleted":"0","num_feature":"4","num_nodes":"15","size_leaf_vector":"1"}},{"base_weights":[-2.1099709E-1,-2.6462885E2,1.1486064E1,-1.5024602E2,-3.923685E2,-7.022286E1,1.2952966E1,-5.8432784E0,-8.425043E0,-3.2043896E1,-7.198429E0,-7.7195015E0,-2.2403567E0,1.6831967E0,4.0925565E-1],"categories":[],"categories_nodes":[],"categories_segments":[],"categories_sizes":[],"default_left":[0,0,0,0,0,0,0,0,0,0,0,0,0,0,0],"id":21,"left_children":[1,3,5,7,9,11,13,-1,-1,-1,-1,-1,-1,-1,-1],"loss_changes":[2.9481322E8,5.894109E7,1.094175E7,1.27942E6,1.1762621E8,3.4371265E6,8.854546E6,0E0,0E0,0E0,0E0,0E0,0E0,0E0,0E0],"parents":[2147483647,0,0,1,1,2,2,3,3,4,4,5,5,6,6],"right_children":[2,4,6,8,10,12,14,-1,-1,-1,-1,-1,-1,-1,-1],"split_conditions":[-4.454843E0,-4.769803E0,-7.6910263E-1,-4.472569E0,-4.769325E0,-4.7733297E0,-6.2424365E-2,-5.8432784E0,-8.425043E0,-3.2043896E1,-7.198429E0,-7.7195015E0,-2.2403567E0,1.6831967E0,4.0925565E-1],"split_indices":[2,0,0,2,0,0,2,0,0,0,0,0,0,0,0],"split_type":[0,0,0,0,0,0,0,0,0,0,0,0,0,0,0],"sum_hessian":[9.5317E4,4.037E3,9.128E4,2.131E3,1.906E3,1.609E3,8.9671E4,7.56E2,1.375E3,9.52E2,9.54E2,3.72E2,1.237E3,1.6779E4,7.2892E4],"tree_param":{"num_deleted":"0","num_feature":"4","num_nodes":"15","size_leaf_vector":"1"}},{"base_weights":[5.440628E-2,-2.4922806E2,1.0882292E1,-1.4341487E2,-3.6804153E2,-7.785499E0,1.7009441E1,-5.561449E0,-8.004093E0,-3.0171162E1,-6.8387733E0,-5.4145594E0,-2.0482568E-1,1.0820068E0,-4.6938586E-1],"categories":[],"categories_nodes":[],"categories_segments":[],"categories_sizes":[],"default_left":[0,0,0,0,0,0,0,0,0,0,0,0,0,0,0],"id":22,"left_children":[1,3,5,7,9,11,13,-1,-1,-1,-1,-1,-1,-1,-1],"loss_changes":[2.5625142E8,4.963184E7,1.0406916E7,1.104404E6,1.0122245E8,8.335804E6,8.373574E6,0E0,0E0,0E0,0E0,0E0,0E0,0E0,0E0],"parents":[2147483647,0,0,1,1,2,2,3,3,4,4,5,5,6,6],"right_children":[2,4,6,8,10,12,14,-1,-1,-1,-1,-1,-1,-1,-1],"split_conditions":[-4.454843E0,-4.769803E0,-6.117813E-3,-4.472569E0,-4.769325E0,-8.482169E-1,5.966869E-1,-5.561449E0,-8.004093E0,-3.0171162E1,-6.8387733E0,-5.4145594E0,-2.0482568E-1,1.0820068E0,-4.6938586E-1],"split_indices":[2,0,0,2,0,1,2,0,0,0,0,0,0,0,0],"split_type":[0,0,0,0,0,0,0,0,0,0,0,0,0,0,0],"sum_hessian":[9.4934E4,3.951E3,9.0983E4,2.091E3,1.86E3,2.2483E4,6.85E4,7.16E2,1.375E3,9.21E2,9.39E2,7.95E2,2.1688E4,5.8277E4,1.0223E4],"tree_param":{"num_deleted":"0","num_feature":"4","num_nodes":"15","size_leaf_vector":"1"}},{"base_weights":[-1.20285414E-1,-2.3962877E2,1.0415139E1,-1.3631735E2,-3.5640033E2,-6.660472E1,1.1808662E1,-5.3392844E0,-7.6042123E0,-2.889779E1,-6.4726424E0,-7.14742E0,-2.2391288E0,1.5146687E0,3.605444E-1],"categories":[],"categories_nodes":[],"categories_segments":[],"categories_sizes":[],"default_left":[0,0,0,0,0,0,0,0,0,0,0,0,0,0,0],"id":23,"left_children":[1,3,5,7,9,11,13,-1,-1,-1,-1,-1,-1,-1,-1],"loss_changes":[2.3967032E8,4.823085E7,9.765569E6,9.73184E5,9.435373E7,2.687474E6,7.594693E6,0E0,0E0,0E0,0E0,0E0,0E0,0E0,0E0],"parents":[2147483647,0,0,1,1,2,2,3,3,4,4,5,5,6,6],"right_children":[2,4,6,8,10,12,14,-1,-1,-1,-1,-1,-1,-1,-1],"split_conditions":[-4.454843E0,-4.769803E0,-7.6910263E-1,-4.472569E0,-4.769325E0,-4.7733297E0,-5.6068595E-2,-5.3392844E0,-7.6042123E0,-2.889779E1,-6.4726424E0,-7.14742E0,-2.2391288E0,1.5146687E0,3.605444E-1],"split_indices":[2,0,0,2,0,0,2,0,0,0,0,0,0,0,0],"split_type":[0,0,0,0,0,0,0,0,0,0,0,0,0,0,0],"sum_hessian":[9.498E4,4.001E3,9.0979E4,2.124E3,1.877E3,1.616E3,8.9363E4,7.42E2,1.382E3,9.49E2,9.28E2,3.58E2,1.258E3,1.7799E4,7.1564E4],"tree_param":{"num_deleted":"0","num_feature":"4","num_nodes":"15","size_leaf_vector":"1"}},{"base_weights":[1.499697E-1,-2.2524254E2,9.880154E0,-1.2901717E2,-3.3391995E2,-7.1528435E0,1.5791344E1,-4.999016E0,-7.2242026E0,-2.7458738E1,-6.2472E0,-6.587546E0,-2.6089308E-1,1.0129443E0,-4.3520784E-1],"categories":[],"categories_nodes":[],"categories_segments":[],"categories_sizes":[],"default_left":[0,0,0,0,0,0,0,0,0,0,0,0,0,0,0],"id":24,"left_children":[1,3,5,7,9,11,13,-1,-1,-1,-1,-1,-1,-1,-1],"loss_changes":[2.0906486E8,4.121181E7,9.201036E6,9.25964E5,8.323995E7,5.675641E6,7.424226E6,0E0,0E0,0E0,0E0,0E0,0E0,0E0,0E0],"parents":[2147483647,0,0,1,1,2,2,3,3,4,4,5,5,6,6],"right_children":[2,4,6,8,10,12,14,-1,-1,-1,-1,-1,-1,-1,-1],"split_conditions":[-4.454843E0,-4.769803E0,9.760311E-4,-4.472569E0,-4.769325E0,-4.7733297E0,5.8476263E-1,-4.999016E0,-7.2242026E0,-2.7458738E1,-6.2472E0,-6.587546E0,-2.6089308E-1,1.0129443E0,-4.3520784E-1],"split_indices":[2,0,0,2,0,0,2,0,0,0,0,0,0,0,0],"split_type":[0,0,0,0,0,0,0,0,0,0,0,0,0,0,0],"sum_hessian":[9.5326E4,3.944E3,9.1382E4,2.093E3,1.851E3,2.3543E4,6.7839E4,7.3E2,1.363E3,9.11E2,9.4E2,3.59E2,2.3184E4,5.7375E4,1.0464E4],"tree_param":{"num_deleted":"0","num_feature":"4","num_nodes":"15","size_leaf_vector":"1"}},{"base_weights":[3.8031933E-1,-1.9586572E2,1.0320391E1,-1.2358611E2,-2.8152252E2,1.8494963E1,1.1765932E0,-4.782108E0,-6.7699943E0,-2.3568045E1,-6.001862E0,6.859629E-2,1.213483E0,2.942244E-1,-5.975928E-1],"categories":[],"categories_nodes":[],"categories_segments":[],"categories_sizes":[],"default_left":[0,0,0,0,0,0,0,0,0,0,0,0,0,0,0],"id":25,"left_children":[1,3,5,7,9,11,13,-1,-1,-1,-1,-1,-1,-1,-1],"loss_changes":[1.8556427E8,2.8358192E7,6.767611E6,8.08704E5,6.4259856E7,4.726839E6,2.6415928E6,0E0,0E0,0E0,0E0,0E0,0E0,0E0,0E0],"parents":[2147483647,0,0,1,1,2,2,3,3,4,4,5,5,6,6],"right_children":[2,4,6,8,10,12,14,-1,-1,-1,-1,-1,-1,-1,-1],"split_conditions":[-1.4530038E0,-4.769803E0,1.79006E-1,-4.472569E0,-4.769325E0,5.011357E-2,6.3322294E-1,-4.782108E0,-6.7699943E0,-2.3568045E1,-6.001862E0,6.859629E-2,1.213483E0,2.942244E-1,-5.975928E-1],"split_indices":[1,0,2,2,0,0,2,0,0,0,0,0,0,0,0],"split_type":[0,0,0,0,0,0,0,0,0,0,0,0,0,0,0],"sum_hessian":[9.5125E4,4.585E3,9.054E4,2.488E3,2.097E3,4.7803E4,4.2737E4,7.42E2,1.746E3,9.63E2,1.134E3,1.2056E4,3.5747E4,3.1457E4,1.128E4],"tree_param":{"num_deleted":"0","num_feature":"4","num_nodes":"15","size_leaf_vector":"1"}},{"base_weights":[9.641287E-2,-1.8631319E2,9.699282E0,-1.1654034E2,-2.6823114E2,2.651717E1,5.758737E0,-4.5023437E0,-6.4027557E0,-2.2475054E1,-5.6850033E0,4.8055024E0,1.144245E0,-4.362886E-1,5.5216324E-1],"categories":[],"categories_nodes":[],"categories_segments":[],"categories_sizes":[],"default_left":[0,0,0,0,0,0,0,0,0,0,0,0,0,0,0],"id":26,"left_children":[1,3,5,7,9,11,13,-1,-1,-1,-1,-1,-1,-1,-1],"loss_changes":[1.6997758E8,2.6557904E7,5.984438E6,7.55384E5,5.9866144E7,4.330944E6,5.6002695E6,0E0,0E0,0E0,0E0,0E0,0E0,0E0,0E0],"parents":[2147483647,0,0,1,1,2,2,3,3,4,4,5,5,6,6],"right_children":[2,4,6,8,10,12,14,-1,-1,-1,-1,-1,-1,-1,-1],"split_conditions":[-1.4530038E0,-4.769803E0,-6.2424365E-2,-4.472569E0,-4.769325E0,-4.6374974E-1,3.873764E-2,-4.5023437E0,-6.4027557E0,-2.2475054E1,-5.6850033E0,4.8055024E0,1.144245E0,-4.362886E-1,5.5216324E-1],"split_indices":[1,0,2,2,0,1,0,0,0,0,0,0,0,0,0],"split_type":[0,0,0,0,0,0,0,0,0,0,0,0,0,0,0],"sum_hessian":[9.4954E4,4.651E3,9.0303E4,2.513E3,2.138E3,1.7141E4,7.3162E4,7.64E2,1.749E3,9.83E2,1.155E3,8.49E2,1.6292E4,1.9557E4,5.3605E4],"tree_param":{"num_deleted":"0","num_feature":"4","num_nodes":"15","size_leaf_vector":"1"}},{"base_weights":[-2.7866023E-2,-1.947724E2,8.520165E0,-2.5971255E2,-1.24541275E2,-1.7734199E0,1.5490193E1,-1.3455562E1,-8.153995E0,-6.602717E0,-6.095432E0,-4.0811152E0,-1.8569449E-2,1.6363658E0,2.1148522E-1],"categories":[],"categories_nodes":[],"categories_segments":[],"categories_sizes":[],"default_left":[0,0,0,0,0,0,0,0,0,0,0,0,0,0,0],"id":27,"left_children":[1,3,5,7,9,11,13,-1,-1,-1,-1,-1,-1,-1,-1],"loss_changes":[1.5863757E8,1.8242816E7,6.5497015E6,1.846096E6,2.199E4,4.126237E6,1.0565023E7,0E0,0E0,0E0,0E0,0E0,0E0,0E0,0E0],"parents":[2147483647,0,0,1,1,2,2,3,3,4,4,5,5,6,6],"right_children":[2,4,6,8,10,12,14,-1,-1,-1,-1,-1,-1,-1,-1],"split_conditions":[-4.454843E0,-4.472569E0,7.138303E-2,-4.4450364E0,-4.4722667E0,-1.4530038E0,2.183837E-1,-1.3455562E1,-8.153995E0,-6.602717E0,-6.095432E0,-4.0811152E0,-1.8569449E-2,1.6363658E0,2.1148522E-1],"split_indices":[2,2,1,1,2,1,1,0,0,0,0,0,0,0,0],"split_type":[0,0,0,0,0,0,0,0,0,0,0,0,0,0,0],"sum_hessian":[9.5294E4,4.006E3,9.1288E4,2.08E3,1.926E3,3.6857E4,5.4431E4,1.894E3,1.86E2,4.87E2,1.439E3,6.35E2,3.6222E4,2.1507E4,3.2924E4],"tree_param":{"num_deleted":"0","num_feature":"4","num_nodes":"15","size_leaf_vector":"1"}},{"base_weights":[1.0113002E-1,-1.8534727E2,8.181077E0,-1.0232302E2,-2.7974957E2,-7.182415E0,1.2729364E1,-3.7223718E0,-5.8945765E0,-2.3214132E1,-4.824873E0,-5.39262E0,-2.7035603E-1,8.227016E-1,-4.639555E-1],"categories":[],"categories_nodes":[],"categories_segments":[],"categories_sizes":[],"default_left":[0,0,0,0,0,0,0,0,0,0,0,0,0,0,0],"id":28,"left_children":[1,3,5,7,9,11,13,-1,-1,-1,-1,-1,-1,-1,-1],"loss_changes":[1.4262498E8,3.1118288E7,6.3736255E6,9.0951E5,6.281923E7,3.723012E6,5.769172E6,0E0,0E0,0E0,0E0,0E0,0E0,0E0,0E0],"parents":[2147483647,0,0,1,1,2,2,3,3,4,4,5,5,6,6],"right_children":[2,4,6,8,10,12,14,-1,-1,-1,-1,-1,-1,-1,-1],"split_conditions":[-4.454843E0,-4.769803E0,-9.9088205E-3,-4.472569E0,-4.769325E0,-4.7733297E0,6.1085254E-1,-3.7223718E0,-5.8945765E0,-2.3214132E1,-4.824873E0,-5.39262E0,-2.7035603E-1,8.227016E-1,-4.639555E-1],"split_indices":[2,0,0,2,0,0,2,0,0,0,0,0,0,0,0],"split_type":[0,0,0,0,0,0,0,0,0,0,0,0,0,0,0],"sum_hessian":[9.5182E4,3.973E3,9.1209E4,2.115E3,1.858E3,2.0834E4,7.0375E4,7.6E2,1.355E3,9.25E2,9.33E2,3.6E2,2.0474E4,6.0189E4,1.0186E4],"tree_param":{"num_deleted":"0","num_feature":"4","num_nodes":"15","size_leaf_vector":"1"}},{"base_weights":[1.7307913E-1,-1.742061E2,7.775498E0,-9.713259E1,-2.6100616E2,-4.776519E1,9.035703E0,-3.4884896E0,-5.599869E0,-2.1744787E1,-4.6077633E0,-5.2099323E0,-1.7086219E0,3.14454E0,3.8580695E-1],"categories":[],"categories_nodes":[],"categories_segments":[],"categories_sizes":[],"default_left":[0,0,0,0,0,0,0,0,0,0,0,0,0,0,0],"id":29,"left_children":[1,3,5,7,9,11,13,-1,-1,-1,-1,-1,-1,-1,-1],"loss_changes":[1.2607839E8,2.6553912E7,6.378857E6,8.48766E5,5.4806984E7,1.547473E6,6.33206E6,0E0,0E0,0E0,0E0,0E0,0E0,0E0,0E0],"parents":[2147483647,0,0,1,1,2,2,3,3,4,4,5,5,6,6],"right_children":[2,4,6,8,10,12,14,-1,-1,-1,-1,-1,-1,-1,-1],"split_conditions":[-4.454843E0,-4.769803E0,-3.190209E-1,-4.472569E0,-4.769325E0,-4.7733297E0,-1.2939178E0,-3.4884896E0,-5.599869E0,-2.1744787E1,-4.6077633E0,-5.2099323E0,-1.7086219E0,3.14454E0,3.8580695E-1],"split_indices":[2,0,0,2,0,0,2,0,0,0,0,0,0,0,0],"split_type":[0,0,0,0,0,0,0,0,0,0,0,0,0,0,0],"sum_hessian":[9.5101E4,3.972E3,9.1129E4,2.105E3,1.867E3,2.021E3,8.9108E4,7.43E2,1.362E3,9.19E2,9.48E2,3.91E2,1.63E3,2.13E3,8.6978E4],"tree_param":{"num_deleted":"0","num_feature":"4","num_nodes":"15","size_leaf_vector":"1"}},{"base_weights":[-5.6356166E-2,-1.6894698E2,7.334181E0,-9.348363E1,-2.5495576E2,-7.240224E0,1.1781174E1,-3.4286306E0,-5.3203053E0,-2.1073675E1,-4.39931E0,-4.90562E0,-2.838087E-1,7.5857973E-1,-5.2218497E-1],"categories":[],"categories_nodes":[],"categories_segments":[],"categories_sizes":[],"default_left":[0,0,0,0,0,0,0,0,0,0,0,0,0,0,0],"id":30,"left_children":[1,3,5,7,9,11,13,-1,-1,-1,-1,-1,-1,-1,-1],"loss_changes":[1.189103E8,2.5899224E7,5.915631E6,6.78038E5,5.1843984E7,3.0323148E6,5.269802E6,0E0,0E0,0E0,0E0,0E0,0E0,0E0,0E0],"parents":[2147483647,0,0,1,1,2,2,3,3,4,4,5,5,6,6],"right_children":[2,4,6,8,10,12,14,-1,-1,-1,-1,-1,-1,-1,-1],"split_conditions":[-4.454843E0,-4.769803E0,-9.034786E-3,-4.472569E0,-4.769325E0,-4.7733297E0,6.3322294E-1,-3.4286306E0,-5.3203053E0,-2.1073675E1,-4.39931E0,-4.90562E0,-2.838087E-1,7.5857973E-1,-5.2218497E-1],"split_indices":[2,0,0,2,0,0,2,0,0,0,0,0,0,0,0],"split_type":[0,0,0,0,0,0,0,0,0,0,0,0,0,0,0],"sum_hessian":[9.5264E4,3.993E3,9.1271E4,2.128E3,1.865E3,2.1338E4,6.9933E4,7.29E2,1.399E3,9.33E2,9.32E2,3.6E2,2.0978E4,6.0677E4,9.256E3],"tree_param":{"num_deleted":"0","num_feature":"4","num_nodes":"15","size_leaf_vector":"1"}},{"base_weights":[-1.4208142E-1,-1.6034924E2,6.899007E0,-2.141452E2,-1.019962E2,-2.170504E0,1.3052585E1,-1.1044207E1,-7.167877E0,-5.4728713E0,-4.9628234E0,-3.3706589E0,-4.858123E-2,1.4624436E0,1.2583995E-1],"categories":[],"categories_nodes":[],"categories_segments":[],"categories_sizes":[],"default_left":[0,0,0,0,0,0,0,0,0,0,0,0,0,0,0],"id":31,"left_children":[1,3,5,7,9,11,13,-1,-1,-1,-1,-1,-1,-1,-1],"loss_changes":[1.07365016E8,1.2556736E7,5.0883335E6,9.62432E5,2.8444E4,2.882656E6,9.26878E6,0E0,0E0,0E0,0E0,0E0,0E0,0E0,0E0],"parents":[2147483647,0,0,1,1,2,2,3,3,4,4,5,5,6,6],"right_children":[2,4,6,8,10,12,14,-1,-1,-1,-1,-1,-1,-1,-1],"split_conditions":[-4.454843E0,-4.472569E0,7.138303E-2,-4.4450364E0,-4.4722667E0,-1.4530038E0,2.183837E-1,-1.1044207E1,-7.167877E0,-5.4728713E0,-4.9628234E0,-3.3706589E0,-4.858123E-2,1.4624436E0,1.2583995E-1],"split_indices":[2,2,1,1,2,1,1,0,0,0,0,0,0,0,0],"split_type":[0,0,0,0,0,0,0,0,0,0,0,0,0,0,0],"sum_hessian":[9.5177E4,4.006E3,9.1171E4,2.083E3,1.923E3,3.6854E4,5.4317E4,1.9E3,1.83E2,5.06E2,1.417E3,6.64E2,3.619E4,2.1407E4,3.291E4],"tree_param":{"num_deleted":"0","num_feature":"4","num_nodes":"15","size_leaf_vector":"1"}},{"base_weights":[-7.719817E-2,-1.5203969E2,6.569371E0,-2.0359377E2,-9.668987E1,-2.1232266E0,1.2457246E1,-1.0486125E1,-6.785573E0,-5.208366E0,-4.699222E0,-2.5441349E0,-3.6387213E-2,1.4066446E0,1.10983506E-1],"categories":[],"categories_nodes":[],"categories_segments":[],"categories_sizes":[],"default_left":[0,0,0,0,0,0,0,0,0,0,0,0,0,0,0],"id":32,"left_children":[1,3,5,7,9,11,13,-1,-1,-1,-1,-1,-1,-1,-1],"loss_changes":[9.626588E7,1.1377208E7,4.673664E6,8.3144E5,2.919E4,2.509111E6,8.736658E6,0E0,0E0,0E0,0E0,0E0,0E0,0E0,0E0],"parents":[2147483647,0,0,1,1,2,2,3,3,4,4,5,5,6,6],"right_children":[2,4,6,8,10,12,14,-1,-1,-1,-1,-1,-1,-1,-1],"split_conditions":[-4.454843E0,-4.472569E0,7.138303E-2,-4.4450364E0,-4.4722667E0,-8.482169E-1,2.183837E-1,-1.0486125E1,-6.785573E0,-5.208366E0,-4.699222E0,-2.5441349E0,-3.6387213E-2,1.4066446E0,1.10983506E-1],"split_indices":[2,2,1,1,2,1,1,0,0,0,0,0,0,0,0],"split_type":[0,0,0,0,0,0,0,0,0,0,0,0,0,0,0],"sum_hessian":[9.5308E4,3.993E3,9.1315E4,2.066E3,1.927E3,3.6875E4,5.444E4,1.893E3,1.73E2,5.02E2,1.425E3,1.025E3,3.585E4,2.1507E4,3.2933E4],"tree_param":{"num_deleted":"0","num_feature":"4","num_nodes":"15","size_leaf_vector":"1"}},{"base_weights":[3.5780647E-3,-1.4423503E2,6.259324E0,-1.9285971E2,-9.168652E1,9.194633E0,-1.0084649E1,-9.934863E0,-6.483358E0,-4.940211E0,-4.4655595E0,-3.1499658E0,4.9072108E-1,2.6777315E-1,-9.661733E-1],"categories":[],"categories_nodes":[],"categories_segments":[],"categories_sizes":[],"default_left":[0,0,0,0,0,0,0,0,0,0,0,0,0,0,0],"id":33,"left_children":[1,3,5,7,9,11,13,-1,-1,-1,-1,-1,-1,-1,-1],"loss_changes":[8.6090344E7,1.0116032E7,4.3870815E6,7.33744E5,2.3414E4,3.4693415E6,1.9861979E6,0E0,0E0,0E0,0E0,0E0,0E0,0E0,0E0],"parents":[2147483647,0,0,1,1,2,2,3,3,4,4,5,5,6,6],"right_children":[2,4,6,8,10,12,14,-1,-1,-1,-1,-1,-1,-1,-1],"split_conditions":[-4.454843E0,-4.472569E0,5.558594E-1,-4.4450364E0,-4.4722667E0,-1.4530038E0,3.3959126E-1,-9.934863E0,-6.483358E0,-4.940211E0,-4.4655595E0,-3.1499658E0,4.9072108E-1,2.6777315E-1,-9.661733E-1],"split_indices":[2,2,2,1,2,1,3,0,0,0,0,0,0,0,0],"split_type":[0,0,0,0,0,0,0,0,0,0,0,0,0,0,0],"sum_hessian":[9.5408E4,3.965E3,9.1443E4,2.058E3,1.907E3,7.7521E4,1.3922E4,1.882E3,1.76E2,4.67E2,1.44E3,6.59E2,7.6862E4,5.212E3,8.71E3],"tree_param":{"num_deleted":"0","num_feature":"4","num_nodes":"15","size_leaf_vector":"1"}},{"base_weights":[5.7432875E-2,-1.3570146E2,6.0253973E0,-6.7953964E1,-2.1300804E2,-6.448947E0,1.0365431E1,-1.6935853E0,-4.3312597E0,-1.8253096E1,-3.0687704E0,-2.8131378E0,-2.1982057E-1,7.5410265E-1,-2.2009496E-1],"categories":[],"categories_nodes":[],"categories_segments":[],"categories_sizes":[],"default_left":[0,0,0,0,0,0,0,0,0,0,0,0,0,0,0],"id":34,"left_children":[1,3,5,7,9,11,13,-1,-1,-1,-1,-1,-1,-1,-1],"loss_changes":[7.709741E7,2.0971464E7,4.934898E6,1.35695E6,4.3115944E7,2.4053585E6,4.7102085E6,0E0,0E0,0E0,0E0,0E0,0E0,0E0,0E0],"parents":[2147483647,0,0,1,1,2,2,3,3,4,4,5,5,6,6],"right_children":[2,4,6,8,10,12,14,-1,-1,-1,-1,-1,-1,-1,-1],"split_conditions":[-4.454843E0,-4.769803E0,9.760311E-4,-4.472569E0,-4.769325E0,-6.038703E-1,5.094165E-1,-1.6935853E0,-4.3312597E0,-1.8253096E1,-3.0687704E0,-2.8131378E0,-2.1982057E-1,7.5410265E-1,-2.2009496E-1],"split_indices":[2,0,0,2,0,1,0,0,0,0,0,0,0,0,0],"split_type":[0,0,0,0,0,0,0,0,0,0,0,0,0,0,0],"sum_hessian":[9.5156E4,4.006E3,9.115E4,2.136E3,1.87E3,2.3527E4,6.7623E4,7.57E2,1.379E3,9.33E2,9.37E2,9.3E2,2.2597E4,5.1253E4,1.637E4],"tree_param":{"num_deleted":"0","num_feature":"4","num_nodes":"15","size_leaf_vector":"1"}},{"base_weights":[-8.1872255E-2,-1.3298096E2,5.5212355E0,-6.774423E1,-2.533678E2,-5.8752475E0,9.94785E0,-1.6135288E0,-4.1233177E0,-1.7738415E1,-7.694836E-1,-1.9208802E0,-1.4589934E-1,7.3538357E-1,-2.1606067E-1],"categories":[],"categories_nodes":[],"categories_segments":[],"categories_sizes":[],"default_left":[0,0,0,0,0,0,0,0,0,0,0,0,0,0,0],"id":35,"left_children":[1,3,5,7,9,11,13,-1,-1,-1,-1,-1,-1,-1,-1],"loss_changes":[7.0829416E7,3.0203616E7,4.6044325E6,1.301379E6,3.2619752E7,2.4571795E6,4.464803E6,0E0,0E0,0E0,0E0,0E0,0E0,0E0,0E0],"parents":[2147483647,0,0,1,1,2,2,3,3,4,4,5,5,6,6],"right_children":[2,4,6,8,10,12,14,-1,-1,-1,-1,-1,-1,-1,-1],"split_conditions":[-4.769056E0,-4.769803E0,5.011357E-2,-4.472569E0,-4.472569E0,-3.190209E-1,5.094165E-1,-1.6135288E0,-4.1233177E0,-1.7738415E1,-7.694836E-1,-1.9208802E0,-1.4589934E-1,7.3538357E-1,-2.1606067E-1],"split_indices":[0,0,0,2,2,0,0,0,0,0,0,0,0,0,0],"split_type":[0,0,0,0,0,0,0,0,0,0,0,0,0,0,0],"sum_hessian":[9.5116E4,3.847E3,9.1269E4,2.496E3,1.351E3,2.5533E4,6.5736E4,7.33E2,1.763E3,9.47E2,4.04E2,2.126E3,2.3407E4,4.9293E4,1.6443E4],"tree_param":{"num_deleted":"0","num_feature":"4","num_nodes":"15","size_leaf_vector":"1"}}]},"name":"gbtree"},"learner_model_param":{"base_score":"1.6884441E3","boost_from_average":"1","num_class":"0","num_feature":"4","num_target":"1"},"objective":{"name":"reg:squarederror","reg_loss_param":{"scale_pos_weight":"1"}}},"version":[2,1,2]}